tree
version=v4
num_class=1
num_tree_per_iteration=1
label_index=0
max_feature_idx=62
objective=binary sigmoid:1
feature_names=log_return_1m log_return_3m log_return_5m candle_body_pct upper_wick_pct lower_wick_pct range_pct return_15m return_30m price_momentum_3 price_momentum_5 price_momentum_10 EMA_slope_9 EMA_slope_21 EMA_9_vs_21_distance EMA_21_vs_50_distance price_vs_EMA9 price_vs_EMA21 price_vs_EMA50 higher_high lower_low dist_from_swing_high dist_from_swing_low trend_strength_score price_position_in_range RSI_14 RSI_slope Stoch_K MACD_hist momentum_consistency ATR_14 ATR_5m ATR_ratio Bollinger_width BB_position volatility_percentile true_range_expansion volatility_regime volume_zscore volume_ratio_1m_vs_20m VWAP_distance VWAP_slope OBV_delta volume_spike_flag vol_price_corr minute_of_day_sin minute_of_day_cos day_of_week_sin day_of_week_cos is_open_range is_lunch_time is_close_window minutes_since_open minutes_to_close symbol_id trend_15m price_above_15m_ema dist_prev_day_high dist_prev_day_low gap_up_flag gap_down_flag inside_day outside_day
feature_infos=[-0.0037570800692774357:0.0039953609509393749] [-0.0059186022263020277:0.006483278128318528] [-0.0075224186759442089:0.0081012788638472645] [0:1] [0:1] [0:1] [5.0402434851638815e-13:0.0063515157122166046] [-0.012288840198889374:0.014318083135412021] [-0.01713087584078312:0.020272420473397453] [-15:16.130876953125835] [-19.030930175781251:20.430925781250835] [-25.461762695312501:28.711855957032924] [-2.3346022677902272:2.6310929498779596] [-1.6158004576709224:1.8311486533972259] [-0.0036012015753135165:0.0039418183361360883] [-0.0055693789084197767:0.0073990363459803758] [-0.0045487702295174794:0.0050861935850693906] [-0.0074009394249155381:0.0079752628604216943] [-0.011048740125740279:0.012731148163994902] [0:1] [0:1] [0:0.012189317756855104] [0:0.014179903628551942] [-1:1] [0:0.99999999995575195] [15.551772860686349:84.332727312366742] [-28.080421176308203:29.340381338338467] [0:99.999999994974843] [-2.8016660813918324:3.0981111653285449] [0.20000000000000001:0.90000000000000002] [0.7357111931839172:10.392424909291572] [0.46963726804827499:12.05755777113718] [0.70018199851512553:1.7477268740175729] [0.0004279892293536128:0.033003389001982977] [-0.38763701949819679:1.393772628585862] [0.00016666666666666666:0.99716666666666665] [0:1] [0:2] [-1.5079125609733666:5.2135314298915922] [0.013774227919123:12.391445490170028] [-0.022175177152316275:0.024195005020439947] [-4.3985658980810403:5.1747531261531492] [-94803.024000000005:118497.25200001197] [0:1] [-0.85766960565894335:0.88200245142199041] [-0.75183980747897727:0.4422886902190013] [-1:-0.65934581510006907] [-0.97492791218182362:0.97492791218182362] [-0.90096886790241903:1] none [0:1] [0:1] [60:360] [15:315] none [-1:1] [0:1] [0.00035454212722834202:0.072565070673827212] [0.00031615959899500013:0.094383526504040041] [0:1] [0:1] none none
tree_sizes=6318 6476 6489 6478 6473 6478 6493 6450 6516 6495 6511 6479 6487 6460 6502 6487 6507 6514 6484 6507 6507 6468 6480 6514 6468 6492 6486 6500 6491 6534 6488 6529 6492 6485 6467 6500 6506 6496 6480 6495 6491 6500 6507 6503 6495 6491 6492 6505 6504 6475 6515 6499 6497 6488 6462 6471 6500 6504 6482 6492 6475 6504 6483 6517 6495 6476 6519 6498 6484 6485 6485 6489 6495 6503 6495 6511 6503 6469 6485 6492 6472 6490 6498 6481 6497 6480 6497 6470 6484 6514 6515 6508 6501 6502 6472 6460 6484 6495 6468 6492 6477 6506 6487 6514 6473 6478 6491 6517 6509 6508 6511 6508 6487 6490 6501 6494 6516 6507 6506 6505 6497 6528 6495 6496 6521 6503 6484 6489 6496 6498 6522 6494 6516 6495 6516 6510 6514 6502 6484 6515 6515 6501 6508 6510 6471 6494 6512 6512 6470 6501 6511 6488 6506 6497 6510 6501 6520 6525 6496 6513 6532 6505 6524 6499 6510 6497 6506 6509 6494 6487 6513 6506 6519 6500 6525 6501 6502 6521 6491 6516 6526 6542 6500 6503 6511 6509 6507 6495 6496 6504 6518 6502 6514 6487 6516 6514 6493 6475 6501 6504 6502 6512 6506 6503 6498 6506 6507 6502 6508 6496 6487 6514 6539 6531 6517 6512 6512 6507 6506 6507 6517 6536 6515 6488 6526 6525 6516 6530 6520 6531 6514 6514 6531 6475 6521 6493 6473 6511 6504 6521 6498 6500 6525 6499 6505 6494 6546 6517 6493 6550 6506 6525 6521 6519 6520 6518 6531 6492 6511 6502 6521 6489 6517 6529 6512 6507 6494 6477 6523 6515 6512 6489 6486 6505 6503 6504 6493 6492 6529 6496 6513 6496 6483 6498 6497 6516 6517 6549 6506 6519 6523 6514 6498 6479 6494 6501 6527 6513 6501 6514 6507 6488 6477 6512 6534 6525 6537 6508 6515 6515 6507 6517 6496 6527 6506 6486 6523 6533 6540 6523 6509 6467 6496 6479 6501 6515 6506 6513 6501 6488 6524 6496 6510 6500 6502 6510 6517 6506 6484 6543 6548 6526 6506 6499 6494 6512 6488 6465 6503 6497 6505 6515 6520 6513 6490 6534 6487 6472 6492 6478 6488 6512 6515 6491 6517 6508 6495 6501 6504 6498 6520 6495

Tree=0
num_leaves=57
num_cat=0
split_feature=4 0 27 4 22 58 58 33 22 20 58 14 16 0 4 27 6 27 22 41 16 58 4 15 27 0 11 58 58 40 41 58 0 31 6 35 16 35 13 58 22 28 28 10 58 60 10 11 0 6 30 6 30 58 35 38
split_gain=1535.13 1531.66 191.794 185.477 145.847 131.855 116.714 104.572 72.4221 117.753 64.4733 64.1207 54.5275 50.8968 50.4924 45.1344 44.7972 43.0714 42.0666 40.6579 39.8464 36.2363 33.5599 32.094 31.3078 25.6212 24.9204 24.8698 24.7214 25.7935 24.5496 24.467 24.1172 23.4854 22.426 22.2715 21.856 21.1386 21.0187 20.8011 20.2919 20.2437 20.1284 19.9764 19.6532 19.2962 32.8897 22.1868 18.9622 18.5806 18.6127 18.4179 18.1994 17.4443 17.3709 16.9509
threshold=0.35566082596778875 -0.00022279717813944441 68.201720864037995 0.18193419277668002 0.00043477280149956831 0.002307016984559596 0.0086517040617764013 0.0031163472465104715 0.00028694459470898331 1.0000000180025095e-35 0.0018859678530134263 -0.00079819814028596542 7.6600213381831497e-05 -0.00012019999121548607 0.50174355506896984 87.395660772502296 0.00045821339881513273 76.785636429206278 0.00082181332841567423 -0.082356042549463368 -4.2451227047356214e-05 0.0011013087350875141 0.52410840988159191 -0.00080620845764051965 87.395660772502296 -0.00042217939335387195 -0.92504882812499989 0.0018859678530134263 0.010594451334327461 0.0028010295239447066 -0.10265078356451339 0.019071569666266445 -0.00094929680926725258 1.9233255415884187 0.0011895293719135227 0.026340217576066634 -0.00079146827285450996 0.35723418581665439 -0.12498810213887736 0.025184617377817634 0.00020264040098024139 -0.20410911817828961 0.88380145080027439 0.92504882812500011 0.0051500825211405763 1.0000000180025095e-35 1.6250000000000002 -3.4000854492187496 -0.00031091635173652316 0.00029771339904982602 1.9205485395337163 0.00050611578626558195 1.5813595030868497 0.0069199651479721078 0.73375000000000012 -0.31199876391106401
decision_type=2 2 2 2 2 2 2 2 2 2 2 2 2 2 2 2 2 2 2 2 2 2 2 2 2 2 2 2 2 2 2 2 2 2 2 2 2 2 2 2 2 2 2 2 2 2 2 2 2 2 2 2 2 2 2 2
left_child=1 5 6 4 44 21 10 13 26 12 -2 -8 23 -6 40 22 24 27 30 51 -5 -1 31 32 52 -14 55 -9 48 -30 37 -4 -10 -18 -22 -32 -11 -13 -29 -31 -12 -37 49 -36 -3 -20 47 -47 -25 -24 -51 -16 -15 -54 -19 -7
right_child=2 3 15 20 7 8 11 17 9 36 14 18 25 16 19 -17 33 54 45 -21 34 -23 42 28 -26 -27 -28 38 29 39 35 -33 -34 -35 43 41 -38 -39 -40 -41 -42 -43 -44 -45 -46 46 -48 -49 -50 50 -52 -53 53 -55 -56 -57
leaf_value=-0.32820552492822086 -0.32510876460437926 -0.31757870508464597 -0.315238811624453 -0.31372847980810187 -0.3121046011591791 -0.31874515959543154 -0.31390256294939445 -0.31707732617033008 -0.317827193398591 -0.31300498396055676 -0.32198131250359674 -0.31952513826094547 -0.31536359146234438 -0.30841893963966893 -0.31584847055113685 -0.31228869583513874 -0.3053531071467035 -0.30839955234406835 -0.31562003266533273 -0.32253694822542001 -0.3106686450903271 -0.32023025004220979 -0.31271612016033828 -0.31916517480981815 -0.30585194078796885 -0.3124810702085048 -0.3213933189573131 -0.30990794379221998 -0.31488610412443457 -0.31870111322616224 -0.31419475442433176 -0.31150710796020259 -0.31348788884851414 -0.30767275751787998 -0.31584016033110829 -0.31863374701611613 -0.30953599095615753 -0.31302352622387858 -0.31170245901558108 -0.31489979190532563 -0.31700075055977439 -0.32134594232855046 -0.31320412430527034 -0.31198156564893048 -0.31330828398712912 -0.31465491595422862 -0.3141299750785681 -0.31978710538723792 -0.31504734871667028 -0.32031430696203522 -0.31693683711553061 -0.31978697144887602 -0.31498706833224466 -0.31054502845836274 -0.31076644147447025 -0.31638837806678349
leaf_weight=78.714475572109222 218.9524405002594 145.0520695745945 693.95389494299889 1150.1753851473331 276.36638206243515 472.74591627717018 540.88903722167015 63.609649181365967 178.87527820467949 731.52621099352837 86.908673763275146 80.717970073223114 804.09214952588081 322.08001005649567 147.23244830965996 519.63483980298042 1054.3198295235634 1719.1352626979351 947.78953737020493 618.75721058249474 1556.2657895684242 215.15783047676086 72.962229520082474 759.57990431785583 223.08997714519501 527.38974636793137 156.70902663469315 1669.6382223963737 622.76538944244385 537.13457000255585 72.657655477523804 241.92699757218361 462.90770772099495 1275.6200032532215 181.27220585942268 684.91625237464905 266.5244816839695 118.53578013181686 1350.2366068661213 196.2125355899334 802.78046843409538 491.19033753871918 127.39451462030411 627.86215081810951 432.80966535210609 98.902007788419724 187.83442538976669 497.46739837527275 129.48770222067833 220.38645160198212 634.34218314290047 619.85150876641273 132.60991418361664 343.27965325117111 504.98419457674026 893.71721452474594
leaf_count=312 846 531 2497 4093 971 1745 1927 232 656 2589 329 300 2896 1100 532 1829 3519 5877 3420 2346 5413 803 257 2812 746 1859 590 5774 2235 1982 259 846 1644 4336 655 2526 918 419 4733 704 2926 1847 451 2205 1535 354 670 1850 465 823 2311 2305 476 1192 1757 3243
internal_value=-0.313742 -0.3122 -0.317287 -0.310146 -0.309409 -0.316009 -0.31824 -0.30909 -0.315717 -0.315151 -0.319931 -0.317103 -0.315895 -0.307747 -0.319411 -0.314928 -0.307398 -0.310018 -0.317653 -0.320614 -0.31215 -0.322571 -0.315631 -0.316678 -0.309292 -0.314205 -0.317657 -0.310829 -0.31725 -0.31639 -0.318922 -0.314242 -0.314694 -0.306593 -0.311394 -0.319447 -0.312035 -0.315656 -0.310697 -0.317675 -0.317522 -0.319785 -0.316871 -0.31283 -0.314375 -0.316588 -0.317759 -0.31892 -0.318556 -0.317398 -0.317827 -0.319028 -0.310339 -0.311739 -0.308917 -0.317209
internal_weight=28787.9 20061.9 8725.98 13028.4 9512.83 7033.54 6215.38 8934.97 6739.67 5216.5 2494.48 3720.9 4218.44 3627.37 2275.53 2510.6 3351 5307.6 3180.01 1385.84 3515.58 293.872 1990.97 2886.96 1021.06 1331.48 1523.17 3083.48 2245.18 1356.11 1448.02 935.881 641.783 2329.94 2365.4 1248.76 998.051 199.254 3019.87 733.347 889.689 1176.11 1055.09 809.134 577.862 1731.99 784.204 596.369 889.068 927.691 854.729 767.084 797.97 475.89 2224.12 1366.46
internal_count=102468 70598 31870 45145 32779 25453 22856 30713 24338 18760 9284 13572 15253 12340 8438 9014 11369 18373 11645 5183 12366 1115 7185 10498 3514 4755 5578 10739 8198 4921 5351 3343 2300 7855 8273 4632 3507 719 10507 2686 3255 4373 3842 2860 2066 6294 2874 2204 3277 3391 3134 2837 2768 1668 7634 4988
is_linear=0
shrinkage=1


Tree=1
num_leaves=57
num_cat=0
split_feature=0 27 22 58 3 3 57 22 16 20 57 0 27 35 58 14 33 58 58 58 11 27 35 40 33 60 22 57 57 27 46 27 2 19 19 41 44 27 10 7 57 0 15 46 17 60 8 58 57 16 57 16 32 45 8 40
split_gain=1065.27 484.36 283.276 191.337 169.816 164.052 136.096 100.099 99.5945 95.1769 74.2509 68.8137 67.4864 66.2642 68.4694 66.7008 54.2505 51.5029 49.4694 43.9839 43.4476 49.6246 39.9753 39.5596 32.7962 31.9863 32.1375 31.5722 30.7377 29.9652 27.3166 27.7628 26.4615 25.7709 25.5456 25.3273 24.8767 24.6446 24.563 21.6745 21.515 21.1766 21.087 20.64 20.4732 20.207 19.9942 19.8535 19.7757 18.7522 18.701 18.6413 18.5759 18.41 17.3956 16.8042
threshold=-0.00010732392183854243 87.77414494139181 0.00043477280149956831 0.0026702692266553645 0.64699968695640575 0.64699968695640575 0.0054514454677701005 0.00021516973851340324 0.00059198848488192606 1.0000000180025095e-35 0.0011273375712335112 5.8470444855629473e-05 80.169464806595272 0.03883414239482201 0.0055803798604756602 0.00020994282308681804 0.0030805911837276621 0.0011013087350875141 0.01003019977360964 0.0013395772548392417 -5.4750976562499991 72.389385365890718 0.020021097046413507 -0.0028388850970139591 0.0043936237306904692 1.0000000180025095e-35 0.0009148952587399317 0.0029064882546663289 0.01532998774200678 60.478904110950666 -0.98802492553144905 14.285055268954453 -0.00014434305921895427 1.0000000180025095e-35 1.0000000180025095e-35 0.12181742710185973 -0.46585361819453641 11.853208465651621 0.45001220703125006 0.0017531075864098968 0.0088615827262401598 -0.0003675003681564703 -0.00095305350905224939 -0.74750654792535054 0.00071246930512268447 1.0000000180025095e-35 -0.003105559502728283 0.0075186700560152539 0.0039431496988981971 -9.7418529300978855e-05 0.014613889623433353 0.0011010614748678206 1.1191758444046722 -0.35224920962859146 0.0022907659877091651 -0.0025135743745738613
decision_type=2 2 2 2 2 2 2 2 2 2 2 2 2 2 2 2 2 2 2 2 2 2 2 2 2 2 2 2 2 2 2 2 2 2 2 2 2 2 2 2 2 2 2 2 2 2 2 2 2 2 2 2 2 2 2 2
left_child=3 2 22 17 7 6 34 36 44 12 -10 -7 18 -8 19 25 -13 -1 41 -15 45 -22 -2 -20 -24 30 -27 -14 35 54 47 -32 -28 52 49 -12 -5 -11 40 -29 -25 -9 -38 50 -3 -6 -42 -16 -18 -4 55 -31 -33 -51 -17 -21
right_child=1 8 5 4 20 11 13 9 10 37 28 16 27 14 15 29 48 -19 23 43 21 -23 24 38 -26 26 32 39 -30 51 31 33 -34 -35 -36 -37 42 -39 -40 -41 46 -43 -44 -45 -46 -47 -48 -49 -50 53 -52 -53 -54 -55 -56 -57
leaf_value=-0.010470679276462348 0.0038145440150295445 0.013248573534925522 0.0046635748632860834 0.0041521812428642994 0.0024301910054697158 0.0022745735063861676 0.007294036975926798 -0.0012265417423315476 0.016030776150811558 0.0027217341762256612 0.0087345874169170341 0.0088255726891388244 0.010597296256776183 -0.006034827034239635 0.0030966294013053141 -0.0023206786648876125 0.0094862029867610852 -0.0031769487837262985 0.0049059872645184112 0.0039314429419913333 -0.0016240158781642671 0.0024539333082868263 -0.0022994865122742299 0.0018869334101437338 0.0018119602317916512 0.00047093594889123953 0.0015911900720490732 0.0064909337090267114 0.0050814180762016447 0.0031914849802642167 -0.00077602144902349656 0.0043406702634425391 0.0050432028858359897 0.00055108932399386185 0.0028513638260452491 0.0062606774443731408 0.0015695019021418283 0.0061098028520560049 0.0029561123636035881 0.0024425551105330314 0.0034438853282605054 0.0010150164798850296 -0.0035859103264447609 0.0044847468320387595 0.0090062989889278106 -0.0010448487609103624 -0.0014490332388165659 0.0075059717256422704 0.00542507252004488 0.0058446060800922389 -0.00017578322796627638 1.7945162770420018e-05 0.0073992318109931104 0.0088111052349968896 0.0012640709343632939 0.00047361994038082225
leaf_weight=121.04953038692474 170.71008007228374 401.28769892454147 347.01735886931419 55.370554223656654 588.08474376797676 382.21770530939102 368.73724542558193 772.11133651435375 91.968758895993233 332.6884910017252 1017.0809582471848 996.17979748547077 78.787242650985718 79.394148871302605 147.36905759572983 215.98731069266796 142.41291020810604 498.51919361948967 455.76721934974194 296.17213748395443 2754.5057104378939 337.90820313990116 858.8232310116291 800.2636703401804 252.65327677130699 407.35703101754189 359.14031937718391 209.87032541632652 768.01213435828686 1130.310186073184 108.13044269382954 1478.1498589217663 657.170783624053 160.7647480070591 198.65823832154274 922.91210736334324 95.57512603700161 759.43659372627735 891.63377791643143 402.84116341173649 96.201972365379333 963.1250913888216 435.02848356962204 188.39641124010086 275.18809586763382 236.49662683904171 505.31460337340832 525.82378283143044 1607.9849003851414 448.65919777750969 698.6269291639328 227.78316889703274 251.71522231400013 588.77075010538101 361.24305889010429 278.64429000020027
leaf_count=477 604 1317 1220 195 2104 1367 1270 2838 293 1187 3464 3390 263 303 524 800 481 1859 1600 1047 10151 1208 3181 2875 908 1478 1292 727 2690 4019 396 5211 2304 583 708 3204 344 2641 3177 1440 341 3482 1627 663 934 868 1860 1809 5620 1563 2547 829 866 2005 1303 1011
internal_value=0.00314931 0.00472362 0.00387685 0.000741478 0.00105718 0.00433613 0.00367049 0.00201745 0.00810376 0.00239162 0.00722627 0.00635008 0.00181411 0.00312525 0.00291594 0.00340235 0.00691028 -0.00469929 0.00135581 0.00100608 -0.000623686 -0.00117405 -0.000654388 0.00219891 -0.00135961 0.00413444 0.00288409 0.00474444 0.0068882 0.0018441 0.00479172 0.004169 0.00384186 0.00445358 0.00638058 0.00758342 -0.00196667 0.00510073 0.00164814 0.00388475 0.000806017 1.67257e-05 -0.00264925 0.00141441 0.0116287 0.00143313 -0.000637017 0.00658097 0.0057906 0.00687074 0.000938964 0.00266193 0.00481271 0.00757417 -8.85654e-05 0.00228016
internal_weight=28802 17411.5 13935 11390.6 10771 12652.8 9524.02 6854.02 3476.45 6268.04 2799.97 3128.8 5175.92 7940.92 7572.18 6030.94 2746.58 619.569 4484.42 1541.23 3917 3092.41 1282.19 2749.18 1111.48 4095.62 1423.67 691.499 2708.01 1935.32 2671.95 1998.76 1016.31 1890.63 1583.11 1939.99 585.974 1092.13 2293.41 612.711 1401.78 1735.24 530.604 1461.84 676.476 824.581 601.517 673.193 1750.4 1384.45 1273.44 1358.09 1729.87 1037.43 577.23 574.816
internal_count=102468 61204 49302 41264 38928 44609 33751 24597 11902 22431 9651 10858 18603 28255 26985 21414 9491 2336 16173 5571 14331 11359 4693 9853 4089 14463 5074 2430 9358 6951 9389 7056 3596 6660 5496 6668 2166 3828 8253 2167 5076 6320 1971 5268 2251 2972 2201 2333 6101 4788 4605 4848 6077 3568 2103 2058
is_linear=0
shrinkage=0.0101238


Tree=2
num_leaves=57
num_cat=0
split_feature=4 0 5 21 27 5 4 22 16 58 5 57 33 6 58 11 21 21 22 57 57 58 36 24 11 5 60 58 57 31 57 6 3 1 5 41 57 57 4 58 4 33 58 58 58 41 57 58 22 17 0 14 0 13 58 41
split_gain=1494.99 1472.13 480.869 285.789 185.27 142.225 119.485 120.029 98.6767 93.2508 82.1468 69.4214 61.0885 53.8097 49.7687 53.2031 47.5079 47.3002 45.6939 45.4194 39.7787 38.8521 34.1408 32.8304 32.3496 31.3091 30.1027 29.6776 28.99 28.6573 28.5514 28.4632 31.8363 27.9826 27.6011 25.8154 32.0299 25.7284 23.9104 23.3691 22.888 21.9957 25.3233 21.7699 21.6745 25.9487 23.6515 21.1774 21.0487 21.0152 26.0918 20.8368 20.5889 20.3859 19.8275 19.5674
threshold=0.35566082596778875 -0.00022279717813944441 0.19726625829935077 0.00032827903552828122 68.201720864037995 0.23552185297012332 0.24200039356946948 0.00042749395729484982 0.00061605662670328088 0.0018859678530134263 0.49908350408077246 0.0055866441689431676 0.0046751560453466273 0.00029771339904982602 0.0013395772548392417 -5.4750976562499991 0.00041214229786308223 0.00091404655607720345 0.00084894231134593188 0.0033366850111633544 0.0011273375712335112 0.002307016984559596 1.0000000180025095e-35 0.740944192939614 -1.4250488281249998 0.34611140191555029 1.0000000180025095e-35 0.0081152785569429415 0.0029064882546663289 2.9745666884796345 0.016869971528649334 0.00040417724812868988 0.21431997418403628 -0.00092200213111937035 0.16671147197484973 -0.099954280237625412 0.0073336493223905572 0.0087921964004635828 0.50174355506896984 0.0052226490806788215 0.75000402331352245 0.0025787977879757787 0.0018859678530134263 0.0031147978734225039 0.0071159219369292268 -0.0027977670750942703 0.011950702872127296 0.0087776435539126414 0.0046825837229626842 0.0012813840243768128 0.00019304081070004034 0.00045708191721604175 -0.00012377670645946634 -0.19326081452863944 0.0086517040617764013 0.13254496215336078
decision_type=2 2 2 2 2 2 2 2 2 2 2 2 2 2 2 2 2 2 2 2 2 2 2 2 2 2 2 2 2 2 2 2 2 2 2 2 2 2 2 2 2 2 2 2 2 2 2 2 2 2 2 2 2 2 2 2
left_child=1 2 14 8 5 9 7 34 -3 -2 21 52 13 -11 -1 -16 -6 31 33 -18 -10 -4 -23 39 41 29 -24 38 -12 54 55 -13 -33 -15 -5 -29 -37 -8 -7 -17 -35 -19 -43 -30 -26 46 -46 -14 -32 50 -34 -49 -9 -20 -21 -22
right_child=4 3 10 6 16 27 37 11 20 12 28 17 47 18 15 23 19 24 53 25 30 22 26 -25 44 -27 -28 35 43 -31 48 32 49 40 -36 36 -38 -39 -40 -41 -42 42 -44 -45 45 -47 -48 51 -50 -51 -52 -53 -54 -55 -56 -57
leaf_value=-0.010232298949345848 -0.009931287765485762 0.011325205773383239 -0.0037169406005944294 -0.001020465956690176 0.0047516571336226549 0.0008494935178985861 0.0050804015725270189 0.0043177681462249927 0.015456477597694739 0.0015496841813066925 0.012756071261834088 0.0049996581320163698 -0.0019764579360770649 -0.0017229245193822139 0.00073361897001614185 -0.0049579408934480543 0.0054401241773012008 0.0094210509848025939 0.0014885721500787984 -0.0030148538728555128 0.0090191190704114275 0.0020215893609136807 0.0066187245874192412 0.00095656049427943278 0.0021580795858547317 0.003475366247668958 0.0014589513781011775 0.0046710750547644137 -0.00063727062212590147 0.0021149398318956749 0.0062691691542155949 0.01077404369004659 0.0052072337404359204 -0.0040766494471735854 0.003510174994997557 0.0034342801244361776 -0.00037588645215386348 0.0026317947847015132 -0.0030692040732362355 -0.0022274961517975349 -0.0071427476133547035 -0.00028923924062421782 0.0061227177023140044 0.0056472255900005038 0.0099036801422567513 0.0036112492969994116 0.0050302993397617103 0.0016487273157878217 0.0011126388087941222 0.0047570065574505443 0.0089824263389377528 -0.002010982490212383 0.0092612939036681111 -0.0022786906986077059 4.7086623714944265e-05 0.0065097811227780881
leaf_weight=63.725297078490257 152.6280229985714 1339.0761706978083 95.319446042180061 210.14169554412365 487.57513372600079 396.94610273838043 690.77280166745186 112.05030342936516 65.475451156497002 257.69518798589706 53.982860460877419 456.18323162198067 436.93084987998009 323.4641387462616 761.11808715760708 386.77804534137249 227.26631115376949 221.10154621303082 168.35210794210434 308.23894621431828 1006.3440336585045 1818.6027648150921 355.27638304233551 279.99908603727818 382.08659285306931 330.61099112033844 177.24939171969891 271.56720887124538 58.386953726410866 464.80874291062355 349.25947898626328 362.29538524150848 300.20284992456436 799.54283025860786 380.28728178143501 369.12892089784145 564.69643938541412 1289.8387971669436 257.77704787254333 1955.8994953483343 395.26372517645359 64.930162146687508 1704.7785878628492 1028.6747346520424 165.0103220641613 662.32798659801483 339.1897284835577 640.2452218234539 109.38644461333752 319.80149304866791 735.76859031617641 205.35752029716969 1162.9599504172802 976.10884721577168 694.40428872406483 622.76054845750332
leaf_count=252 599 4460 358 771 1711 1437 2418 394 208 928 176 1597 1615 1194 2757 1461 793 747 606 1147 3413 6524 1230 1012 1367 1172 638 954 214 1665 1210 1212 1049 3000 1349 1310 2062 4601 961 7242 1516 237 5921 3589 555 2344 1187 2302 394 1121 2497 759 3939 3613 2526 2154
internal_value=0.00311637 0.00463601 0.000901667 0.0066473 -0.000381646 -0.00131921 0.00573376 0.00631384 0.00913216 -0.00231891 0.00349324 0.00668417 -0.00202702 -0.00283428 -0.00179668 -0.0016178 0.00193477 0.0061906 -0.0032614 0.00124313 0.00773725 0.00243571 0.00269506 -0.00230033 0.00544285 0.00069432 0.004941 0.00102156 0.00573302 5.47407e-05 0.00744622 0.00738729 0.00799925 -0.00441128 0.00190434 0.0019602 0.00114403 0.00350012 -0.00070892 -0.00269122 -0.00512534 0.00631018 0.00588726 0.00530783 0.00430535 0.00499224 0.00673479 -0.000183603 0.00507326 0.00720814 0.00792917 0.000751083 0.00885183 -0.00171905 -0.000908076 0.00809063
internal_weight=28815.7 20087 7035.01 13052 8728.61 6215.7 9559.73 7579.12 3492.3 4355.59 3587.49 6988.69 4202.96 2920.43 3447.52 3383.79 2512.9 5713.68 2662.73 2025.33 2153.23 2446.45 2351.13 2622.68 3539.42 1798.06 532.526 1860.12 1141.04 1467.45 2087.75 2174.25 1718.07 1518.27 590.429 1205.39 933.825 1980.61 654.723 2342.68 1194.81 1990.81 1769.71 1087.06 1548.61 1166.53 504.2 1282.53 458.646 1355.77 1035.97 845.603 1275.01 1144.46 1002.64 1629.1
internal_count=102468 70598 25453 45145 31870 22856 33306 26287 11839 16132 12729 24167 15533 10857 12724 12472 9014 19834 9929 7303 7379 8750 8392 9715 12358 6510 1868 6724 3979 5338 7171 7476 5879 5710 2120 4326 3372 7019 2398 8703 4516 6905 6158 3803 5453 4086 1742 4676 1604 4667 3546 3061 4333 4219 3673 5567
is_linear=0
shrinkage=0.0101238


Tree=3
num_leaves=57
num_cat=0
split_feature=4 0 3 58 4 22 33 58 22 58 18 4 3 4 6 4 4 6 36 11 58 0 4 3 1 0 40 22 3 30 58 33 58 9 6 3 58 1 58 30 22 44 6 12 58 33 24 38 3 40 42 3 9 1 38 30
split_gain=1463.6 1440.22 319.209 180.68 177.027 135.839 97.5468 81.1371 80.2101 75.6675 68.83 61.6035 53.8375 108.211 51.7616 46.0615 43.5393 40.7049 36.1514 35.7068 34.323 34.0305 32.4444 32.3888 31.7746 31.5272 31.0503 30.9537 30.6198 30.5548 28.8146 26.1554 28.0934 25.9841 28.7332 25.1391 24.3585 23.0301 22.6432 22.4188 23.7075 22.0096 21.9524 21.5105 21.4278 21.1468 18.609 18.4369 17.378 17.2897 16.4368 20.8318 16.2231 16.0332 15.9158 15.7991
threshold=0.35566082596778875 -0.00022279717813944441 0.53254359960556041 0.0086517040617764013 0.18193419277668002 0.00042749395729484982 0.0031163472465104715 0.0011013087350875141 0.0009148952587399317 0.0018859678530134263 -0.0028920096266524817 0.50174355506896984 0.80021157860755932 0.19563198834657672 0.00045821339881513273 0.16277980804443362 0.46161068975925451 0.00032480675145052379 1.0000000180025095e-35 -5.4750976562499991 0.0042896373197436341 -0.00012377670645946634 0.61294007301330578 0.20692268013954165 0.00043293401540722703 -0.00010732392183854243 -0.0035550877464070266 0.00035309072502930154 0.33333770930767065 1.4146380431669068 0.0032186218304559593 0.0029698658753512372 0.0024417433887720112 2.8249511718750004 0.00036660277692135429 0.75713238120079052 0.0051500825211405763 -0.00043827957415487612 0.0069199651479721078 2.2955041446043905 0.0016953782840315732 0.17674475438371981 0.00042996695265173917 -0.53955976905349401 0.0056628535967320212 0.0067244180646351273 0.70370370366026525 0.40928129515030581 0.30113656818866735 0.0044728304841346002 -2568.4999999999995 0.9444997012615205 -0.15008544921874997 -0.00097939628176391103 0.40928129515030581 3.2716846616833579
decision_type=2 2 2 2 2 2 2 2 2 2 2 2 2 2 2 2 2 2 2 2 2 2 2 2 2 2 2 2 2 2 2 2 2 2 2 2 2 2 2 2 2 2 2 2 2 2 2 2 2 2 2 2 2 2 2 2
left_child=1 2 15 9 5 35 14 -4 10 -2 -5 23 13 18 29 30 -10 41 -9 -14 55 -16 28 -11 26 -25 -13 -6 -19 -7 -1 -29 -33 34 49 44 -21 -22 -31 40 -23 -12 -37 -24 -3 -39 50 -15 -17 -18 51 54 -40 -30 -38 -8
right_child=3 4 7 8 27 6 20 12 16 11 17 24 19 47 21 48 33 22 -20 36 37 39 43 25 -26 -27 -28 31 53 38 -32 32 -34 -35 -36 42 46 45 52 -41 -42 -43 -44 -45 -46 -47 -48 -49 -50 -51 -52 -53 -54 -55 -56 -57
leaf_value=-0.00091632280857160996 -0.0078675233105140688 0.00027849986957630672 -0.011620601905288261 0.0042628845865565436 -0.00041262812198741524 0.0097432056976719597 0.0044977159375717756 0.0011743790422040963 0.0031697908252346025 0.00250732951981022 0.0052117360512121602 -0.0020614149033155462 0.00082780456147445603 -0.0032053591095873926 0.0050709083962974426 0.0041533611548294118 0.0058740387845273188 0.00094119738444132389 0.0045081488714612218 -0.0049837360104119559 0.0052207911434285692 0.011629408278809011 0.0019521711485919783 -0.0034855213417280448 -0.00049362983077106109 0.00046356165947503006 -0.0051606413904743487 0.0060811322851474781 0.000447537841926977 0.0030760265803956998 0.005832051883063038 -0.0024467705418600529 0.0043320323494459431 0.003118835880874405 -6.7149918795529964e-05 0.0017262498592684633 -0.0048098444657847612 0.0076603913980442207 0.0039743043924504329 0.0084041944111679992 0.0084647858866699517 -0.0023587816218702267 -0.0052257854841910329 -0.0044611157796899756 0.0056867272143634566 0.0058303212279432436 0.0010118892382562483 0.00028474128824713181 0.001354419283716677 -0.0009038669946425038 -0.002805993136362438 0.0028937491980940261 0.0080043100104339928 -0.0038197024026277956 0.0016410999499829406 -0.0013570133716766717
leaf_weight=66.975742787122726 226.06553220748901 109.0258933454752 60.131855845451355 224.85412980616093 120.02074950933456 312.61234407126904 344.04016673564911 1294.8060989826918 1218.199849486351 344.33492648601532 122.12043216824532 613.41785584390163 502.31393748521805 637.40024851262569 172.90586556494236 372.30127730965614 134.71109986305237 457.37759466469288 446.00804591178894 271.46547482907772 774.96707789599895 1145.7096640020609 55.247811257839203 342.40230460464954 387.55932161211967 506.31031842529774 752.4068765193224 1125.0158984810114 119.74394059181213 234.02532055974007 1128.9677887260914 60.401042118668556 2217.9026887118816 408.89133287966251 1788.8763959258795 146.92169430851936 99.446665436029434 3180.1994256228209 163.9333738386631 767.62611451745033 437.5814530402422 51.994545638561249 60.091531112790108 578.75701116025448 239.6846699565649 978.23095482587814 217.52301609516144 202.97560855746269 594.61117334663868 50.79695051908493 954.21955443918705 128.97475135326385 422.43469390273094 343.95709148049355 57.813932597637177 51.469608411192894
leaf_count=246 875 396 241 792 438 1051 1208 4674 4328 1230 427 2270 1818 2377 604 1312 468 1654 1569 1027 2706 3798 198 1280 1417 1837 2847 3903 435 830 3929 224 7801 1453 6512 528 376 10893 577 2611 1486 193 228 2179 835 3398 786 738 2142 186 3550 460 1441 1289 208 189
internal_value=0.00308374 0.00458644 0.000892493 -0.000377865 0.00657429 0.0072928 0.00759341 -0.000544934 0.000722832 -0.0023028 -0.000926558 -0.00185887 -0.000390505 0.000604566 0.00888419 0.00412276 0.0016178 -0.00161529 0.0020426 -0.00153973 0.00669754 0.00971414 -0.00213666 -8.23903e-05 -0.00306269 -0.00114455 -0.00378567 0.00461831 -0.000911948 0.00698896 0.00545111 0.00479619 0.00414563 0.00081781 0.000332285 0.00239945 -0.00222792 0.00693037 0.00586862 0.0100402 0.0107944 0.00294736 -0.000392891 -0.0038876 0.00403315 0.00724001 -0.00169425 -0.00236684 0.00245341 0.00405144 -0.00217169 -4.12209e-05 0.00693557 -0.00272712 -0.00246829 0.00372584
internal_weight=28828.8 20100.7 7035.94 8728.03 13064.8 9541.46 8985.74 4873.08 5555.53 3172.5 1954.05 2946.43 4812.95 2581.19 3656.83 2162.86 3601.48 1729.2 1740.81 2231.76 5328.91 2523.82 1555.08 1193.05 1753.38 848.713 1365.82 3523.34 921.079 1133.01 1195.94 3403.32 2278.3 2383.28 1974.38 555.724 1729.44 4933.4 820.393 2350.92 1583.29 174.115 207.013 634.005 348.711 4158.43 1457.98 840.376 966.912 185.508 1240.45 286.235 586.368 463.701 157.261 395.51
internal_count=102468 70598 25453 31870 45145 32779 30792 17824 20114 11756 7167 10881 17583 9358 12398 7629 12947 6375 6243 8225 18394 8499 5755 4347 6534 3117 5117 12366 3378 3899 4175 11928 8025 8619 7166 1987 6407 16997 2848 7895 5284 620 756 2377 1231 14291 5380 3115 3454 654 4594 1044 2018 1724 584 1397
is_linear=0
shrinkage=0.0101238


Tree=4
num_leaves=57
num_cat=0
split_feature=4 0 5 21 58 4 16 5 5 5 58 57 2 21 9 6 6 33 58 11 3 57 58 58 12 0 36 24 16 15 6 5 60 33 57 3 57 21 60 58 4 57 57 21 0 41 57 5 58 58 35 35 6 25 38 41
split_gain=1432.77 1408.99 462.576 276.411 177.157 114.9 95.6057 93.3996 84.1219 78.837 71.8933 71.7312 71.2158 60.6325 52.9419 51.4398 49.933 48.8239 48.2721 51.4289 43.0977 39.104 37.7684 33.1515 34.8097 33.0635 32.9187 31.8749 31.0453 30.6849 37.4342 29.686 29.4478 29.4475 28.4783 28.2607 27.827 27.427 27.3238 25.9628 25.6052 25.2441 24.8756 24.3784 23.8983 22.7597 35.0006 24.4833 22.656 20.9434 20.5688 20.5566 20.4483 19.5226 19.2417 19.0675
threshold=0.35566082596778875 -0.00022279717813944441 0.19726625829935077 0.00032827903552828122 0.0086517040617764013 0.24200039356946948 0.00061605662670328088 0.23810723423957827 0.36746418476104742 0.49908350408077246 0.0018859678530134263 0.0025643717963248496 0.00044401560444384819 0.00091404655607720345 1.3249511718750002 0.00038927693094592547 0.00029771339904982602 0.0027186417190058891 0.0013395772548392417 -5.4750976562499991 0.21431997418403628 0.0011273375712335112 0.002307016984559596 0.0025527335237711672 -0.15357574209574518 5.8470444855629473e-05 1.0000000180025095e-35 0.740944192939614 -1.7860275971815429e-05 -0.0005775113655465408 0.00025406539498362696 0.25807721912860876 1.0000000180025095e-35 0.0016347256869056743 0.0029064882546663289 0.44736419618129736 0.016869971528649334 0.00044927615688303757 1.0000000180025095e-35 0.0076584578491747388 0.62497246265411388 0.0049176756292581567 0.015421092975884678 0.00039475553064053439 4.0470735257258646e-05 -0.10816324211737081 0.0084207067266106623 0.42424167692661291 0.0052226490806788215 0.0031147978734225039 0.45741666666666675 0.54591666666666672 0.00050611578626558195 57.154644468056183 0.43010025237008381 0.13254496215336078
decision_type=2 2 2 2 2 2 2 2 2 2 2 2 2 2 2 2 2 2 2 2 2 2 2 2 2 2 2 2 2 2 2 2 2 2 2 2 2 2 2 2 2 2 2 2 2 2 2 2 2 2 2 2 2 2 2 2
left_child=1 2 18 6 8 11 -3 12 10 22 -2 -5 16 15 29 39 -6 40 -1 -20 -17 -8 -4 50 -25 35 -24 48 31 -12 -31 44 -28 -33 -11 -22 55 -9 51 -13 -18 -7 53 -16 -26 -39 47 -47 -21 -36 -15 -19 -35 -27 -50 -23
right_child=4 3 9 5 7 41 21 37 -10 34 14 13 -14 23 43 20 17 38 19 27 25 36 26 24 28 42 32 -29 -30 30 -32 33 -34 52 49 -37 -38 45 -40 -41 -42 -43 -44 -45 -46 46 -48 -49 54 -51 -52 -53 -54 -55 -56 -57
leaf_value=-0.010085354832169127 -0.0087962072553594839 0.011097370893721254 -0.003681054102284385 0.01100187426467999 0.0036772622142936277 0.006266005721903359 0.015204953845991942 0.0064281863838685756 0.0016767206873808018 0.012561927509962706 -0.0016251774892137615 0.0015317867920722791 0.0017129831182857076 0.0035434790635863415 0.0063720958743093735 0.010665687482175073 -0.0018321548428536724 -0.00094263337341733819 0.00072253457735787054 -0.0048793337450141411 0.0070316164483008731 0.0088325615030085888 0.0019810608039381628 0.0062298328528278164 -0.0034995052992706313 0.0098958011156411278 0.0065034607000202145 0.00094827588190358363 0.0053720503984038097 0.0019685851132983188 -0.0047162304107155337 0.010093011071714965 0.0014049593369081575 -0.0001987489790138642 -0.00063597095302317722 0.0010969450805203202 0.0049453343659475657 0.0047265307233966677 -0.0021909991890645924 0.0059971571270407385 -0.0057801091641171464 0.0029371717419392433 0.0054503841295729461 -0.00039313182572363857 0.0032466927368390523 0.001797851681843749 -8.4393224755204157e-05 0.0059560637877843813 -0.0026891553220403128 0.0055267649770703612 -0.0027506308097123709 0.0020409885603941461 0.0043988000978111017 0.0066465403712025828 -0.00017460288639938149 0.0063618898921823548
leaf_weight=63.513930663466454 194.89496067166328 1342.8388876020908 95.255003929138184 305.36615933477879 192.84606789052486 273.01873531937599 65.68289914727211 171.89250011742115 465.24980726838112 54.12912605702877 768.87857834994793 213.00540548563004 1326.2143440544605 143.05507454276085 55.142395585775375 472.58876070380211 340.78260253369808 490.50923857092857 761.24722048640251 386.24540646374226 158.7693834900856 1008.7474444508553 1819.6985901743174 2421.4694168418646 117.13750351965427 591.02660541236401 355.84770965576172 280.03476059436798 1162.8534254431725 89.204331561923027 1139.4557059258223 63.59714475274086 177.39695647358894 144.74534447491169 58.385555371642113 169.3565931469202 459.45553892850876 293.75281012058258 665.2573579698801 379.03269958496094 344.69630482792854 1709.9859061539173 395.93498626351357 458.49595269560814 88.579823985695839 430.81465765833855 634.14029286801815 219.65355512499809 1564.3057470470667 1030.3989104479551 76.506333127617836 445.54101280868053 304.17391023039818 386.2884538769722 390.37249653041363 623.99702027440071
leaf_count=252 761 4460 358 1015 682 944 208 594 1673 176 2837 764 4762 506 190 1576 1259 1799 2757 1461 545 3413 6524 8381 437 1983 1230 1012 4050 320 4300 212 638 526 214 609 1604 1030 2462 1313 1311 6075 1376 1675 313 1546 2309 763 5817 3589 284 1597 1067 1330 1425 2154
internal_value=0.00305135 0.00453726 0.00088329 0.00650199 -0.000374095 0.00560421 0.00894248 0.000715598 -0.00228069 0.00342282 -0.00296355 0.00617233 -0.000175408 0.00596001 -0.00248855 0.00715601 -0.00118731 -0.00160714 -0.00176491 -0.00158893 0.00788353 0.00757114 0.00238687 0.0052189 0.00541476 0.00707171 0.00264232 -0.00226041 0.00434706 -0.00323177 -0.0042228 0.00265305 0.00484601 0.00394301 0.00561492 0.00405224 0.00728344 0.00264629 -0.000633046 0.00442591 -0.00385434 0.00341515 0.00776988 0.00040626 -0.000583818 0.00220885 0.00161147 0.00324869 -0.00264587 0.00519441 0.00133369 0.000481947 0.00293539 0.00866582 -0.00218929 0.00791835
internal_weight=28841.5 20114 7036.83 13077.2 8727.42 9576.49 3500.72 5556.1 3171.32 3591.11 2706.07 7593.49 3805.85 7288.12 2511.18 2766 2479.63 2286.79 3445.72 3382.21 2173.96 2157.88 2448.2 4522.12 4302.56 1701.38 2352.94 2620.96 1881.09 1997.54 1228.66 718.234 533.245 512.516 1142.91 328.126 2092.2 1750.25 1601.31 592.038 685.479 1983 1373.25 513.638 205.717 1578.36 1284.61 650.468 2340.92 1088.78 219.561 936.05 448.919 977.315 1954.68 1632.74
internal_count=102468 70598 25453 45145 31870 33306 11839 20114 11756 12729 10083 26287 13872 25272 9322 9496 9110 8428 12724 12472 7419 7379 8750 15776 14986 5843 8392 9715 6605 7457 4620 2555 1868 1805 3979 1154 7171 6242 5858 2077 2570 7019 4689 1865 750 5648 4618 2309 8703 3803 790 3396 1593 3313 7242 5567
is_linear=0
shrinkage=0.0101238


Tree=5
num_leaves=57
num_cat=0
split_feature=21 5 5 16 3 12 21 5 3 58 16 57 58 58 27 41 58 6 42 57 3 3 57 3 57 12 55 57 12 27 58 21 59 45 6 30 16 6 33 2 3 5 16 12 6 21 5 26 58 58 6 44 58 21 57 41
split_gain=1404.11 1065.81 261.436 252.059 187.354 152.222 120.139 113.497 107.962 83.0866 81.9762 68.6355 63.1996 60.4907 53.3936 48.7702 48.7247 43.7513 43.198 42.6272 39.5028 37.0441 35.8879 35.529 34.5118 33.6298 32.3401 31.8774 31.6756 32.6836 31.3312 30.5136 28.7961 28.4624 36.0783 34.1439 28.4194 28.1717 27.6875 25.2668 25.5234 25.1379 24.8927 25.9285 23.6343 23.024 25.252 22.0966 21.7901 21.1877 21.1615 21.0902 20.6927 19.9673 19.9127 19.3658
threshold=0.00046755453768684531 0.24137495458126071 0.58335170149803173 5.2256351837408995e-05 0.63883897662162792 -0.3516423739850324 0.00028658334672909078 0.23332723230123523 0.2291534170508385 0.0024417433887720112 0.00061605662670328088 0.0024304501712322239 0.0085172369144856947 0.0013395772548392417 24.01773447726794 -0.11674921637086298 0.0062867933884263047 0.00020593716180883351 4813.5000000000009 0.0046599479392170915 0.71183848381042492 0.34896242618560797 0.0011273375712335112 0.50016349554061901 0.0036485993769019846 0.22019634455932649 1.0000000180025095e-35 0.0086667961440980452 -0.11456207652181545 24.01773447726794 0.014061407651752235 0.0019997665133831455 1.0000000180025095e-35 0.27773318492399585 0.00037371608777903026 1.4932819505536574 0.0005344220471159213 0.0005401217204052956 0.0013272757930521946 -0.0021809859899803992 0.67569202184677135 0.48571196198463445 5.2256351837408995e-05 -0.027349324364649871 0.00035598590329755103 0.00089491376809480749 0.5265987515449525 5.6095545368007089 0.0026702692266553645 0.0011013087350875141 0.00041820413025561726 -0.072707025205596146 0.0018859678530134263 0.0029051487198528811 0.017117636278271679 0.13254496215336078
decision_type=2 2 2 2 2 2 2 2 2 2 2 2 2 2 2 2 2 2 2 2 2 2 2 2 2 2 2 2 2 2 2 2 2 2 2 2 2 2 2 2 2 2 2 2 2 2 2 2 2 2 2 2 2 2 2 2
left_child=6 3 8 5 18 9 10 21 16 49 -1 -10 17 -13 37 -14 -3 -7 30 -4 -16 -8 -12 52 -6 -26 31 38 29 -25 44 -15 -29 34 -21 -36 -27 53 -17 -39 -41 47 -23 -44 -5 46 -28 -18 -33 -2 -40 -47 -19 -11 55 -24
right_child=1 2 19 4 24 12 7 -9 11 14 22 13 15 26 20 27 41 23 -20 33 -22 42 54 28 25 36 45 32 -30 -31 -32 48 -34 -35 35 -37 -38 39 50 40 -42 -43 43 -45 -46 51 -48 -49 -50 -51 -52 -53 -54 -55 -56 -57
leaf_value=0.010784619148375699 -0.0096377644558006507 -0.00150812195501914 0.0096799988791722563 0.0033989285410693415 0.0082895701122111375 0.0024148054512400691 -0.00090793521400842308 0.0078942352555000494 0.010327882833516022 0.00081131243936291781 0.014966911050405091 -0.0055968426633738345 0.0018384235422303813 0.0057150428706298261 0.0018725437775249894 -0.0059933518378073149 0.00076005992782618491 -0.010878832173300811 0.0022142964231595327 0.003415764154469481 0.007552265133998615 -0.0019278331193168885 0.0086510147302738399 -0.0026177884761392203 0.0048938707937571614 -0.00029133214548803627 0.0036451870878498535 -0.0038381156851309021 -0.0040989845207642711 0.0024139284353521251 0.00086778872319564213 -0.001655787557166254 -0.00080948595207902931 0.0035607968825009644 0.012467177012968123 0.0067088463368088439 0.0038050112610159871 0.0015425708113249626 0.0025657862038023552 -0.0025818416415025166 0.00096598791312474473 0.0040177233055531782 0.0090969593512202074 0.0037633190328164308 -0.0022306580045179112 6.3406922860983659e-05 0.009454108041635826 0.0045469982453195806 0.0038617339050945358 -0.0027329841066455842 -0.00082407235745842974 0.0028988332984726146 -0.0048697878976639904 0.006117118020687754 0.0050772118573814209 0.0061407227795154369
leaf_weight=1328.3065659403801 63.166852906346321 479.93704064190388 425.55932322144508 76.536359950900078 190.64341539144516 120.6892246901989 182.63369433581829 1121.5099997222424 165.61725181341171 146.22396412491798 62.635992214083672 63.919470220804214 462.11637295782566 1372.588447406888 299.24866563081741 86.258123114705086 1059.1950020641088 63.645438522100449 675.09875795245171 342.72285601496696 217.39291571080685 61.532910540699959 991.45452882349491 380.24602425098419 1046.6472908854485 309.78353841602802 613.42357869446278 909.74320577085018 719.41809456050396 194.80402320623398 724.28555493056774 73.723792538046837 502.53933666646481 401.65424744784832 115.83569814264774 2033.4111162871122 385.49394193291664 675.76852042973042 217.72166340053082 481.66794675588608 356.89395569264889 501.85597126185894 108.5550195723772 662.71608065068722 1040.0496546924114 360.97891972959042 85.905792564153671 179.78920885920525 1428.931609198451 156.1238434612751 1181.308326035738 1050.3931672871113 725.95721378922462 142.66196276247501 423.39930793642998 603.24694435298443
leaf_count=4415 250 1768 1429 271 647 431 669 3825 553 529 198 244 1660 4770 1073 329 3831 254 2415 1211 743 227 3353 1414 3653 1129 2165 3408 2703 695 2617 272 1842 1417 379 7005 1359 2432 777 1788 1289 1768 365 2334 3849 1310 288 631 5039 582 4331 3733 2746 495 1475 2083
internal_value=0.00301954 0.00192896 0.00426662 -7.53043e-05 0.00185931 -0.00113799 0.00759493 0.00567774 0.0032071 0.00091439 0.00878314 0.00400264 -0.0020745 0.00378171 0.00148146 -0.00119662 0.00133231 -0.00340452 3.65402e-05 0.00662905 0.00432892 0.00319381 0.00747474 -0.00374821 0.00422397 0.00374879 0.00390934 -0.00168381 -0.00269215 -0.000905028 -0.000767266 0.00461275 -0.00276938 0.00615891 0.00656694 0.00705719 0.00199459 0.000652551 -0.000643741 9.40733e-05 -0.00107621 0.00211819 0.00409339 0.0045863 -0.00182671 0.00293951 0.00444216 0.0013312 0.00358485 -0.00494992 -0.000286762 0.00217738 -0.00544209 0.00351121 0.00719318 0.00773125
internal_weight=28853.6 23307.6 10755.4 12552.1 4448.54 8103.6 5545.99 2136.95 7436.26 2539.15 3409.04 5215.48 5564.45 5049.86 2319.86 3359.69 2220.78 2204.76 2515.97 3319.18 516.642 1015.44 2080.74 2084.07 1932.57 1741.92 4985.95 2897.57 1294.47 575.05 1840.87 2875.24 1412.28 2893.62 2491.97 2149.25 695.277 1803.22 1485.29 1514.33 838.562 1740.84 832.804 771.271 1116.59 2110.7 699.329 1238.98 1502.66 219.291 1399.03 1411.37 789.603 288.886 2018.1 1594.7
internal_count=102468 83524 37813 45711 15940 29771 18944 7420 26372 9181 11524 18374 20590 17821 8349 12347 7998 8243 9152 11441 1816 3595 7109 7812 6788 6141 17577 10687 4812 2109 6737 10081 5250 10012 8595 7384 2488 6533 5437 5509 3077 6230 2926 2699 4120 7496 2453 4462 5311 832 5108 5043 3000 1024 6911 5436
is_linear=0
shrinkage=0.0101238


Tree=6
num_leaves=57
num_cat=0
split_feature=4 0 5 21 5 4 58 22 5 16 57 27 13 58 58 57 21 58 57 21 57 36 35 58 41 57 17 58 41 57 59 57 27 30 21 5 0 0 28 42 22 4 38 22 5 57 59 57 57 58 14 58 38 33 14 57
split_gain=1439.38 1334.66 441.278 263.664 171.635 125.93 111.566 98.3343 91.032 78.2133 71.4938 70.0831 55.9581 54.0166 51.917 50.6161 49.5206 49.1647 36.2857 33.3789 31.1899 30.3844 28.6733 27.7767 28.7192 40.7229 27.1206 27.0758 27.0316 25.3305 32.4053 27.9139 24.8983 24.7847 24.5061 25.5326 26.4604 23.4434 22.3662 24.525 22.0933 24.3156 21.2349 20.6251 20.2437 20.0685 20.9427 19.8334 18.7524 18.0311 20.3749 17.706 17.473 17.2364 17.2089 16.9078
threshold=0.36112101376056677 -0.00019543292728485537 0.19726625829935077 0.00046755453768684531 0.24137495458126071 0.2500817477703095 0.0055803798604756602 0.00042749395729484982 0.5312488079071046 0.00062902158122621506 0.005732438527047635 70.085657337492933 -0.16955762646839501 0.0041085367556661376 0.0021589666139334445 0.0011273375712335112 0.00046755453768684531 0.0018859678530134263 0.016745811328291896 0.00027591816282646222 0.0046599479392170915 1.0000000180025095e-35 0.4645833333333334 0.0042019207030534753 -0.10816324211737081 0.0074073856230825194 -0.0016914257950211913 0.0024417433887720112 0.030754668545341705 0.0044023930095136174 1.0000000180025095e-35 0.0087921964004635828 56.875610346230424 2.1959151633401279 0.00026144951289350802 0.2069048956036568 0.00016515083552803847 0.00019304081070004034 0.44425807760260333 -2506.4999999999995 0.0046825837229626842 0.23442730307579043 1.1188279344885939 0.00069193020380697314 0.16671147197484973 0.019651073031127456 1.0000000180025095e-35 0.0032362221973016862 0.0035460786893963818 0.0013395772548392417 -0.00086608709231258691 0.0024417433887720112 -0.41073885318952824 0.0084556683416398496 -0.00019291508920669381 0.013950734399259092
decision_type=2 2 2 2 2 2 2 2 2 2 2 2 2 2 2 2 2 2 2 2 2 2 2 2 2 2 2 2 2 2 2 2 2 2 2 2 2 2 2 2 2 2 2 2 2 2 2 2 2 2 2 2 2 2 2 2
left_child=1 2 13 9 6 7 17 44 14 34 -9 12 55 49 -4 -11 -6 -2 -17 -13 -7 -16 28 -18 -25 -26 -15 -24 45 -14 31 -31 -27 -21 -3 36 -36 -19 39 42 41 -20 -28 -41 -5 46 -12 -35 -10 -1 -51 -22 -46 -50 -29 -8
right_child=4 3 8 5 16 20 11 10 48 15 22 19 29 26 21 18 23 37 40 33 51 -23 27 24 25 32 38 54 -30 30 -32 -33 -34 47 35 -37 -38 -39 -40 43 -42 -43 -44 -45 52 -47 -48 -49 53 50 -52 -53 -54 -55 -56 -57
leaf_value=-0.0096741029696875581 -0.009409195918017128 0.011008678610262362 -0.0046678984739067864 -0.00082303290064285155 0.0058082783586697511 0.0066459469135381503 -0.00078048714544490748 0.0086138978660628765 0.010552538597723126 0.015189323260186021 0.0064383780121968484 0.0072357039221760443 0.00017043814066461971 0.00069879661180791727 0.0021280614122361997 0.0075579029454490168 -0.0018435311234958061 -0.0042617505503577627 0.0065579188452432428 -0.0010996935497171057 -0.0029215662619328691 0.004747784478083647 -0.0012393645386932003 0.0035784606828009684 0.0029766015151725177 -0.0018101703900026368 -0.001130489615529813 0.0060230229871303326 0.0047101078120391415 -0.0021274353111641019 -0.0012443868432366625 -0.0052458644967474334 0.0015562231970462259 0.0059991642476382419 0.0013807882230723672 0.0096905381217549831 0.0079247660032453673 -0.00069817773246175522 0.00061184503780720492 -0.0037834311639878696 0.0010010448483399714 -0.00072275615237586796 0.0038676617592240483 -0.001414772576394366 0.0053887399455627731 0.004951076239148337 0.0090095774174723565 0.001227773984995997 0.0059074040278061027 0.00073646105637918528 -0.0050758121097714609 0.0024814567777871497 0.00077354297457759679 0.0013513269111455099 0.0042258358701268515 0.0017162984207998062
leaf_weight=64.240774407982826 157.14330926537514 1106.253555342555 95.792972669005394 195.80855378508568 263.40028934180737 182.99654597043991 589.59017392992973 1151.2307794839144 83.962022289633751 76.092746198177338 794.65112873911858 81.42972669005394 344.99898044764996 688.98970159888268 2137.3895412534475 1916.0810902118683 263.0771739333868 746.19518500566483 374.66145974397659 454.41070483624935 59.671725884079933 580.34876248240471 67.89220267534256 551.64493633806705 575.60376916825771 546.30756260454655 401.5175708681345 1188.8293793946505 682.23819151520729 552.87354409694672 837.28415201604366 660.64078494906425 373.42332042753696 96.245591357350349 98.939108103513718 615.75481642782688 187.22571709752083 256.70434367656708 399.24821001291275 780.74529269337654 140.91460728645325 52.185974135994911 104.0193468183279 746.86306013166904 174.95248441398144 391.40184858441353 734.05432626605034 724.68730811774731 875.83039881289005 76.145699247717857 289.29542964696884 1352.6768520772457 161.37531122565269 99.345227509737015 1201.4087523370981 514.53667113184929
leaf_count=255 619 3658 363 717 913 629 2160 3893 278 240 2737 278 1256 2496 7643 6531 973 2810 1288 1666 222 2031 249 1952 2045 2015 1477 4110 2381 2048 3081 2503 1342 333 354 2063 635 941 1448 2929 506 190 368 2752 609 1364 2478 2611 3034 276 1097 4816 582 356 4212 1850
internal_value=0.00299201 0.00445967 0.00103807 0.00642606 -0.000482381 0.00534649 -0.0014179 0.00595225 0.00339891 0.00838605 0.00631006 -0.00074144 -0.0014979 -0.00153813 0.0024365 0.00716765 0.00170285 -0.00422936 0.00688148 0.00120767 0.00277156 0.00269784 0.00577519 0.0012192 0.00161758 0.000881388 -0.00106906 0.00495518 0.00653495 -0.00236494 -0.00279062 -0.00384471 -0.000441991 0.000786781 0.00991006 0.0084909 0.00574605 -0.00336036 -0.00157036 -0.00199949 0.00453682 0.00567039 -6.47255e-05 -0.00263667 0.00174887 0.00716461 0.00770714 0.00183145 0.00592391 -0.00487655 -0.00387332 0.00224039 0.00323298 0.00545572 0.00513412 0.000386398
internal_weight=28921.2 20331 7423.73 12907.3 8590.2 8339.19 6016.74 6743.84 3872.67 4568.11 6211.71 4856.7 3499.92 3551.07 2813.53 2559.94 2573.46 1160.04 2483.84 1356.77 1595.35 2717.74 5060.48 2310.06 2046.98 1495.33 3121.38 2458.13 2602.35 2395.8 2050.8 1213.51 919.731 1275.34 2008.17 901.92 286.165 1002.9 2432.39 2033.15 567.762 426.847 505.537 1527.61 532.136 1920.11 1528.71 820.933 1059.14 429.682 365.441 1412.35 336.328 975.176 2390.24 1104.13
internal_count=102663 71267 26803 44464 31396 28999 22156 23332 13705 15465 21424 17786 12898 13098 10037 8755 9240 4370 8515 4888 5667 9674 17531 8327 7354 5402 11470 8571 8960 8888 7632 4551 3357 4610 6710 3052 989 3751 8974 7526 1984 1478 1845 5681 1908 6579 5215 2944 3668 1628 1373 5038 1191 3390 8322 4010
is_linear=0
shrinkage=0.0101238


Tree=7
num_leaves=57
num_cat=0
split_feature=21 5 0 5 3 6 3 0 5 21 31 18 57 0 24 21 22 3 0 22 57 57 42 27 21 7 6 39 31 3 13 34 57 14 27 46 57 52 35 57 36 5 6 57 6 0 15 3 24 9 5 3 31 15 57 5
split_gain=1364.84 1020.8 581.344 252.804 242.335 117.587 116.943 116.684 88.7793 111.512 53.0566 52.297 52.2044 44.6332 38.0879 37.177 35.0449 34.1391 49.7371 33.3576 29.9571 29.5036 27.9225 25.9322 24.9443 24.3889 24.176 24.155 24.1401 27.1272 23.3135 23.9848 22.8919 22.1489 33.8316 22.4855 21.3352 20.9121 20.8434 20.767 20.7046 25.6022 20.4633 20.3517 18.9095 18.4588 18.3091 18.2512 18.0143 17.865 17.6539 17.2617 17.8657 16.6461 16.5196 15.9665
threshold=0.00046755453768684531 0.24137495458126071 0.00022963033552514392 0.54285249114036571 0.64699968695640575 0.00035598590329755103 0.35896833240985876 0.0001597872833372094 0.22222390025854113 0.00025027529629880542 2.8988188549462039 -0.0034285514279185085 0.0049176756292581567 0.000217354521737434 0.7557457555448065 0.0014365599282448189 0.0024832773102503362 0.5216006636619569 5.8470444855629473e-05 0.0022951609111522132 0.0075401228386908778 0.0065797471906989822 -2568.4999999999995 78.688352355655596 0.0026254579492208685 0.0023614250821992759 0.00025406539498362696 1.4210775187480966 2.9745666884796345 0.46521595120429998 0.082431176410182175 0.61586705903539252 0.0080963596701622027 -0.0006337569400329835 49.999999993710411 -0.9448037979960503 0.0086667961440980452 103.50000000000001 0.52068057991348071 0.028348765335977081 1.0000000180025095e-35 0.48153172433376318 0.0002680765610421077 0.0081627536565065401 0.00036036196979694074 9.7806445410242318e-05 0.00087332064352936805 0.2291534170508385 0.56288147355643525 -1.5499877929687498 0.38886001706123358 0.72479599714279186 3.38258782739342 0.0012489472347195303 0.0039431496988981971 0.58335170149803173
decision_type=2 2 2 2 2 2 2 2 2 2 2 2 2 2 2 2 2 2 2 2 2 2 2 2 2 2 2 2 2 2 2 2 2 2 2 2 2 2 2 2 2 2 2 2 2 2 2 2 2 2 2 2 2 2 2 2
left_child=8 2 5 6 28 24 21 40 9 16 11 -7 -5 23 17 30 -1 46 22 37 -9 50 -19 26 43 55 -11 32 29 -4 44 -32 -12 35 47 -23 -18 -10 -6 -34 41 -8 -39 -2 -14 -45 -13 -35 -21 -30 53 -15 -53 -3 -40 -17
right_child=1 3 4 12 38 10 7 20 19 13 27 14 15 51 -16 25 36 18 -20 48 -22 33 -24 -25 -26 -27 -28 -29 49 -31 31 -33 39 34 -36 -37 -38 42 54 -41 -42 -43 -44 45 -46 -47 -48 -49 -50 -51 -52 52 -54 -55 -56 -57
leaf_value=0.0094894790467971585 0.0034564729338294881 -7.1158843410904231e-06 -0.0018728758510446176 0.0090884602204036654 0.00694352463547786 0.0012860221962399711 0.002019223061984167 0.009436399716507898 0.0052762319758765967 0.0038839400847893255 0.0010161750748901165 -0.0042359870453253226 0.0043917733355941409 0.0035412078106880048 -0.00011979088954544078 0.0026218079789812263 0.008273806228803476 -0.00071357085328408528 0.0036101177423415228 0.0013511650042936762 0.0057082629081249272 0.0045211664702568726 -0.0031108160479062829 0.0034936646548735144 0.0068208361799150597 0.00033995975972942632 -0.0033786219029936422 0.0013452244608492851 -0.0010137100323472849 0.001337592152961981 -5.3226962214426987e-05 0.005863293665808217 -0.0024616452946735344 -0.0021171391272550764 0.0017326924710994339 0.0005323272622588239 0.0046986542126180291 0.0065426809777201578 0.0092920975816015196 0.00078560283372670035 0.0049022631765243867 0.0051491697045626863 0.010469077724922376 -0.00047445079434662311 0.0083212655028994283 0.0044585453607094315 -0.0013058164549098969 0.00093944651340419798 0.0075676265074446159 0.0028770393063133797 0.0048368095622669111 0.0078221378865037435 0.0015440927400701668 0.0049507341998914489 0.0042251040851803536 0.0054169141300363759
leaf_weight=759.66708971560001 290.90822117030621 221.65014283359051 546.43157996237278 562.93754447996616 959.94088299572468 368.23678550124168 1782.3236463665962 330.40920943021774 127.96645167469978 59.520554348826408 382.63271354138851 1868.9416925013065 174.93350824713707 346.77630887925625 553.47388690710068 272.35341691970825 325.61261284351349 679.76879400014877 139.13430577516556 53.301880985498428 864.79279039800167 308.78490000963211 1906.2043478190899 228.81624186038971 85.686700358986855 128.01373311877251 157.31557542085648 529.53640560805798 148.89246819913387 519.97786086797714 80.18397419154644 551.90778256952763 983.58608242869377 554.76461642980576 945.90295577049255 271.50138273835182 445.6923301666975 199.68359662592411 71.673443749547005 250.05420559644699 455.3495866805315 314.23294724524021 1373.6574111133814 536.81290362775326 898.61782751977444 84.003114506602287 255.9098993986845 306.28341393172741 1119.7147716134787 576.68007433414459 370.44618885219097 300.68491749465466 59.215923622250557 94.301856011152267 829.08518075942993 1317.6120416224003
leaf_count=2541 1030 805 2019 1893 3288 1330 6372 1108 442 209 1383 7039 612 1222 2015 967 1100 2492 490 190 2994 1084 7113 808 295 462 587 1910 546 1872 290 1908 3649 2051 3392 983 1551 683 239 906 1590 1094 4565 1961 3047 294 943 1104 3812 2051 1294 1020 211 329 2903 4575
internal_value=0.00296083 0.0018875 -7.46694e-05 0.00416789 0.00332333 -0.00146838 0.0029792 0.00417889 0.00746739 0.00610877 -0.00188111 -0.002386 0.00619321 0.00369644 -0.00263753 0.00570024 0.00790032 -0.00292429 -0.00216486 0.00871847 0.00678601 0.0015107 -0.00248415 0.00116275 0.00179844 0.00461028 -0.00132811 -0.000519855 0.000661173 -0.000308892 0.00677562 0.00512011 -0.00113395 0.000973513 0.000416787 0.00268242 0.00626651 0.00966763 0.00587554 -0.00180275 0.00294317 0.00250333 0.0100008 0.00127985 0.00771235 0.00023374 -0.00388833 -0.00103103 0.00729448 0.00207665 0.00335138 0.00526819 0.00683655 0.00154512 0.00469428 0.00495121
internal_weight=28932.5 23374.9 12567.6 10807.3 3652.68 8914.89 6820.74 3747.11 5557.63 2683.3 7917.48 5771.67 3986.56 1152.33 5403.43 3423.62 1530.97 4849.96 2725.11 2874.32 1195.2 3073.64 2585.97 445.652 997.411 1717.98 216.836 2145.81 1791.98 1066.41 1705.64 632.092 1616.27 2387.24 1806.95 580.286 771.305 1701.31 1860.7 1233.64 2551.91 2096.56 1573.34 911.724 1073.55 620.816 2124.85 861.048 1173.02 725.573 686.398 706.677 359.901 315.952 900.759 1589.97
internal_count=102663 83722 45768 37954 12918 32850 24200 13158 18941 9249 29270 21422 13754 4057 20092 11861 5192 18077 10095 9692 4102 11042 9605 1604 3580 6004 796 7848 6488 3891 5857 2198 5938 8614 6547 2067 2651 5690 6430 4555 9056 7466 5248 3285 3659 2255 7982 3155 4002 2597 2428 2453 1231 1134 3142 5542
is_linear=0
shrinkage=0.0101238


Tree=8
num_leaves=57
num_cat=0
split_feature=4 21 5 5 22 58 5 58 21 6 22 16 26 5 13 58 21 16 57 57 58 41 57 59 42 30 6 57 58 6 12 58 41 57 57 12 21 16 26 58 58 30 59 58 16 6 4 41 4 11 28 22 60 18 38 16
split_gain=1384.09 887.302 482.914 164.637 153.08 109.092 107.6 84.5343 82.0173 81.5291 85.3681 74.3688 66.4583 62.3178 55.4613 48.3607 46.8854 45.222 39.9579 38.0133 37.3184 44.4379 32.2224 31.7735 31.1738 28.7786 43.2068 28.6103 28.1076 28.0955 27.1689 27.098 28.1381 39.4125 27.0055 29.7637 26.5266 23.6546 23.1311 23.1191 22.324 22.1981 21.7842 23.6991 22.5432 21.7542 21.4584 20.8456 20.5805 20.3976 21.5505 19.6698 19.5366 20.947 19.2297 19.0357
threshold=0.36112101376056677 0.00068227744167702494 0.24137495458126071 0.24137495458126071 0.00069193020380697314 0.0055803798604756602 0.58335170149803173 0.0021589666139334445 0.00032112780146539887 0.00035598590329755103 0.0018937474613749123 0.00059198848488192606 0.65669724510363647 0.37035194039344793 -0.18496266876122716 0.0018859678530134263 0.00046755453768684531 -1.7860275971815429e-05 0.016745811328291896 0.0041294891852885493 0.0011013087350875141 -0.18260618707813589 0.0018058738205581906 1.0000000180025095e-35 -2506.4999999999995 2.2671009200445278 0.00034900862374342983 0.0011273375712335112 0.0024417433887720112 0.0005818180216010661 -0.0031275777837890925 0.0042019207030534753 -0.10816324211737081 0.0074073856230825194 0.0082252449356019514 -0.24742113489801337 0.0019997665133831455 0.00018436889026222746 3.0248092166983871 0.0025527335237711672 0.0051500825211405763 1.5930623026220438 1.0000000180025095e-35 0.0077869959641247996 0.00019055814761739226 0.00025406539498362696 0.22416079044342044 -0.17792738807906969 0.16277980804443362 2.3249511718750004 0.83111526484490639 0.00068270985337175779 1.0000000180025095e-35 0.0016411173520378189 0.26936858811457493 0.00028715961666307151
decision_type=2 2 2 2 2 2 2 2 2 2 2 2 2 2 2 2 2 2 2 2 2 2 2 2 2 2 2 2 2 2 2 2 2 2 2 2 2 2 2 2 2 2 2 2 2 2 2 2 2 2 2 2 2 2 2 2
left_child=1 8 4 5 20 15 7 36 11 -7 14 -1 34 17 -11 -2 -5 -10 27 -9 -3 40 -12 38 -23 26 -8 -13 -27 -26 -19 -18 -33 -34 -6 -36 -4 52 -21 -14 -22 -25 44 -44 -37 -17 -15 54 -41 -24 55 -35 53 -16 -47 -51
right_child=3 2 6 16 12 9 25 19 13 10 22 18 39 46 37 45 31 30 -20 23 21 24 49 41 29 28 -28 -29 -30 -31 -32 32 33 51 35 42 -38 -39 -40 48 -42 -43 43 -45 -46 47 -48 -49 -50 50 -52 -53 -54 -55 -56 -57
leaf_value=0.010506960390182748 -0.0093183957605499218 -0.0086729068127412538 0.000713887776023414 0.0056519909613598155 0.0026231197553515224 0.0032291433035268905 0.0033041962856702471 0.0068878808397997808 -0.00055856737082446613 6.1074777684295411e-05 0.0080797217199551283 0.014636404905286712 -0.001771362498206688 0.0083850683023378066 -0.0030946337052997338 0.0019438713364843558 -0.0018344968732585745 0.0077796399798674837 0.0046331778520609674 0.0022870540109781834 -0.00086110720965807818 0.00024729800559127437 0.002431698710592004 0.0091154210495347568 -0.00045296243585709668 -0.0016555906647819016 0.008485694145470922 0.0077462293277692947 0.0055779153165038259 -0.0035264773547536684 0.0044669380653745271 0.0035241003072119326 0.0029155446181691495 -0.0028944955230050693 0.0035497458165092968 -0.0032558562043648108 -0.0075642868945205825 -0.0010629350478307854 0.0047899769325428533 0.0048226476603225417 0.0029152435959104721 0.0043398277068860559 -0.0019152072103958554 0.0025153898743818419 0.0010962550803308335 -0.0034543037324999814 0.0051016601982249252 -0.0051215394987695765 0.0024525921191508194 -0.0047176726624483366 0.0021542731066604604 0.0004384879375605929 -0.0050135738807355161 0.0025115350057994482 0.0011133090500603585 -0.00040178980624936832
leaf_weight=1274.0628921836615 156.82223732769489 55.977196052670479 73.760976150631905 263.94628418982029 635.70883272588253 475.10981561243534 215.94677123427391 412.63318559527397 146.8185767531395 837.64931593835354 54.056554019451141 67.358817845582962 73.023639723658562 1141.5158229023218 917.6978205293417 70.843375772237778 263.03601624071598 353.81024761497974 475.27409547567368 1791.3682791590691 255.23179124295712 675.21576245129108 405.5067685097456 106.46482190489769 478.63870759308338 54.135311245918274 906.46615140140057 1674.5187388956547 1652.3862742930651 843.52914176881313 1084.4529734700918 552.07071793079376 576.10190008580685 240.19648499786854 205.84929125010967 397.27464018762112 76.513340875506401 495.43771451711655 486.47390604019165 1003.4668088704348 414.14092434942722 1693.7229758352041 189.14960224926472 331.23394457995892 170.76391553878784 296.01504229009151 298.57799646258354 501.84267853200436 638.70328834652901 121.29280260205269 268.57872696220875 679.59171856939793 626.71774423122406 68.819831416010857 133.39025062322617 584.50428698956966
leaf_count=4214 619 221 267 913 2264 1686 761 1414 536 3051 183 212 269 3857 3429 254 973 1201 1655 6377 937 2455 1449 358 1748 199 3064 5678 5719 3159 3788 1952 2045 894 726 1482 296 1818 1696 3499 1475 5936 699 1182 614 1109 1037 1905 2272 458 960 2463 2375 246 483 2131
internal_value=0.00293016 0.0043679 0.002915 -0.000477663 0.000865204 -0.00139441 0.00466005 0.00370137 0.007447 -0.000725601 -0.00115886 0.00851883 0.00222009 0.00619386 -0.00214324 -0.00417605 0.00166163 0.00477029 0.00734801 0.00395229 -0.000949708 -0.000766143 0.000864317 0.00364438 -0.00152169 0.00622027 0.00751446 0.00806804 0.00534284 -0.00242177 0.00531433 0.00119077 0.00158407 0.000855496 0.000926305 8.36094e-05 -0.00364474 -0.00301628 0.00283415 0.00366657 0.00148109 0.0046552 -0.000589734 0.000901056 -0.00195001 -0.00331444 0.00773124 -0.00372555 0.00391463 0.000543768 -0.000253237 -0.000446618 -0.00360926 -0.00268916 -0.00204014 -0.00118108
internal_weight=28943.4 20354.2 13837.8 8589.23 6367.91 6014.28 7469.87 4640.94 6516.39 4855.37 4380.26 3491.21 3645.17 3025.18 2946.32 1158.91 2574.94 1585.08 2217.15 4490.66 2722.73 2666.76 1433.94 4078.03 1997.38 2828.93 1122.41 1741.88 1706.52 1322.17 1438.26 2311 2047.96 1495.89 1929.98 1294.27 150.274 2108.67 2277.84 1715.19 669.373 1800.19 1088.42 520.384 568.039 1002.09 1440.09 931.248 1642.17 1379.88 974.376 919.788 1613.24 986.518 429.405 705.797
internal_count=102663 71267 49089 31396 23002 22156 26087 16344 22178 17786 16100 11759 13007 10419 10919 4370 9240 5525 7545 15781 9995 9774 5181 14367 7362 9743 3825 5890 5918 4907 4989 8327 7354 5402 6967 4703 563 7868 8073 6040 2412 6294 3977 1881 2096 3751 4894 3497 5771 4998 3549 3357 6050 3675 1592 2589
is_linear=0
shrinkage=0.0101238


Tree=9
num_leaves=57
num_cat=0
split_feature=4 0 5 21 5 58 4 58 5 22 4 22 22 57 58 58 21 57 13 21 57 14 36 11 58 41 57 58 7 60 28 35 4 21 11 0 0 58 57 40 34 57 38 28 22 38 58 57 22 28 40 58 14 60 15 14
split_gain=1355.19 1262.03 416.745 245.957 161.365 107.067 103.005 86.6312 86.1727 80.8752 71.7465 65.385 63.1543 57.7375 52.556 47.5912 45.9173 38.6611 36.025 36.5717 30.1822 29.6446 29.5451 29.2596 26.558 27.5555 38.6119 26.2351 33.1964 23.7825 23.5574 23.2408 25.4345 23.2157 23.3443 22.7188 22.557 22.5338 21.6296 24.7502 24.6109 20.7437 20.389 20.1919 20.0026 19.5913 19.3708 19.3506 19.2921 17.7819 17.5971 17.5798 19.8283 16.4424 16.3096 16.1466
threshold=0.36112101376056677 -0.00019543292728485537 0.19726625829935077 0.00062810915180818393 0.24137495458126071 0.0055803798604756602 0.2500817477703095 0.0018859678530134263 0.54657137393951427 0.00042749395729484982 0.20003683120012286 0.0016953782840315732 0.0024832773102503362 0.005732438527047635 0.0041085367556661376 0.0018859678530134263 0.00046755453768684531 0.0089811892248690146 -0.16955762646839501 0.00027591816282646222 0.0018058738205581906 -0.00018051254641690895 1.0000000180025095e-35 -5.4750976562499991 0.0042019207030534753 -0.10816324211737081 0.0074073856230825194 0.0024417433887720112 -0.0023305749054998155 1.0000000180025095e-35 0.44425807760260333 0.052250000000000012 0.75863954424858104 0.00046018754848087246 1.6250000000000002 0.00019304081070004034 0.00047642561548855161 0.0067123512271791705 0.011950702872127296 0.0024078732935816798 0.6646993221620362 0.0019775666296482091 1.1188279344885939 0.83111526484490639 0.00043477280149956831 -0.41073885318952824 0.018122116103768352 0.0011273375712335112 0.00068270985337175779 -0.0574046102629494 -0.0038328757533500151 0.0013395772548392417 -0.00086608709231258691 1.0000000180025095e-35 0.00089087024904345154 0.00044747897836399693
decision_type=2 2 2 2 2 2 2 2 2 2 2 2 2 2 2 2 2 2 2 2 2 2 2 2 2 2 2 2 2 2 2 2 2 2 2 2 2 2 2 2 2 2 2 2 2 2 2 2 2 2 2 2 2 2 2 2
left_child=1 2 14 10 5 15 9 -4 22 45 12 18 44 41 51 -2 -6 47 -7 -20 -13 27 46 -16 -18 -26 54 28 -15 -24 42 32 -21 -22 -35 -17 -12 -8 39 -23 -41 -11 -25 -36 -3 -5 50 -14 -28 -47 -9 -1 -53 -33 -27 -46
right_child=4 3 7 6 16 11 37 8 -10 13 36 20 17 21 23 35 24 -19 19 31 33 38 29 30 25 26 48 -29 -30 -31 -32 53 -34 34 43 -37 -38 -39 -40 40 -42 -43 -44 -45 55 49 -48 -49 -50 -51 -52 52 -54 -55 -56 -57
leaf_value=-0.0095502724875924025 -0.0092434030426990516 0.0039168204731328017 -0.0059978338561245403 0.0034361019918974591 0.0055919752517802224 7.8813821201862037e-05 0.00011143263802869892 0.0029291406466116932 0.0061576860961562088 0.012439067746852656 0.0066827506760753705 0.0073483646481730365 0.014546021946639358 -0.0040638328783898737 0.00081978633710676132 -0.0041714329856410593 -0.0018169161836300357 0.0054885992789001888 0.0059910473169848483 0.0030860363395941938 0.0037598510657627453 0.0069514351478244269 0.0060097073961734816 -0.0023511635966684684 0.00348704500487719 0.0014904204375301266 -0.0028672774335464155 0.006535291471282012 0.0052859179995035123 0.0016653151983018746 0.00064641830541692 -0.0021113489422493179 -0.0034117879083217606 0.002065937294890594 -0.0014843663944540564 -0.00066267702099648317 0.0036747758020078784 0.0031842818677037606 0.0035125388712708618 0.0013353602778035836 0.0061552819409820929 0.007534623475488415 0.00091621026119835882 0.0017454384562547217 0.0099481274145766293 0.0009890931916853639 0.0036423628700649772 0.0080022494320678705 0.00043406338426550092 -0.0055504271699093654 0.00072637706857405654 0.00073018039017206282 -0.0050038710479646782 -0.0040719212195459379 0.005002382515262035 0.0074914224595267424
leaf_weight=64.042569622397423 156.55008186399937 79.224911659955978 94.551100313663483 278.47758413851261 264.14952799677849 919.24522635340691 319.22159594297409 569.50568099319935 952.25218904018402 115.65404750406742 671.82783767580986 63.423832342028618 56.105176270008087 52.814227685332298 670.12854719161987 744.98610085248947 262.95808833837509 1013.5043938905001 46.932007879018784 143.92568509280682 198.57529465854168 599.20260480046272 404.48157104849815 1824.9013114720583 552.35900473594666 354.38230057060719 240.08633315563202 2153.4329124838114 108.6085614413023 197.97130824625492 409.66172607243061 1152.5182432681322 97.955945327877998 441.26195637881756 796.91519150137901 256.55103294551373 463.56271685659885 1046.5166687965393 1108.6656897217035 230.18971307575703 207.26298223435879 851.07292357087135 215.59929856657982 257.2130099684 2188.7407019585371 177.79835565388203 594.2109159976244 720.33965156972408 679.63727712631226 48.750364989042282 1065.5818750411272 76.153527155518532 288.91144254803658 736.77435493469238 221.96646310389042 446.66561630368233
leaf_count=255 619 277 362 984 913 3348 1156 2021 3278 375 2298 216 176 198 2424 2810 973 3498 161 513 699 2049 1397 6780 1952 1271 894 7389 377 708 1485 4274 367 1581 2932 941 1625 3697 3896 822 713 2890 781 922 7272 640 2096 2434 2463 185 3843 276 1097 2773 774 1513
internal_value=0.00289964 0.00432157 0.000994255 0.00623038 -0.000472907 -0.00138076 0.00499414 0.00328561 0.00352782 0.00557179 0.00782212 -0.000718297 0.00840249 0.00593238 -0.00151107 -0.0041376 0.00164463 0.00686378 -0.00160203 -0.00230946 0.000839426 0.00542852 0.00263094 -0.00104851 0.00117857 0.0015678 0.00084675 0.00623927 0.00218661 0.00461631 -0.00156034 -0.00251056 0.000433434 0.000567577 0.000128707 -0.00328307 0.00548356 0.00247012 0.0045369 0.00560266 0.00367774 0.0082034 -0.00200405 -0.000690196 0.00939756 0.00166985 0.00208211 0.00859617 -0.00044231 -0.000537791 0.00150248 -0.00480638 -0.00381618 -0.00288767 0.00288514 0.00955192
internal_weight=28954 20365.6 7427.95 12937.6 8588.37 6012.83 7297.67 3878.55 3784 5931.93 5639.97 4854.74 4504.58 5426.9 3549.4 1158.09 2575.54 1789.95 3097.35 2178.11 1757.39 4460.18 2831.75 3120.29 2311.39 2048.43 1496.07 2314.86 161.423 602.453 2450.16 2131.17 241.882 1693.97 1495.39 1001.54 1135.39 1365.74 2145.32 1036.66 437.453 966.727 2040.5 1054.13 2714.63 505.026 2229.3 776.445 919.724 226.549 1635.09 429.108 365.065 1889.29 576.349 2635.41
internal_count=102663 71267 26803 44464 31396 22156 25371 13705 13343 20518 19093 17786 15170 18709 13098 4370 9240 6108 11436 8088 6350 15444 10065 11470 8327 7354 5402 7964 575 2105 9046 7927 880 6134 5435 3751 3923 4853 7480 3584 1535 3265 7561 3854 9062 1809 7960 2610 3357 825 5864 1628 1373 7047 2045 8785
is_linear=0
shrinkage=0.0101238


Tree=10
num_leaves=57
num_cat=0
split_feature=4 0 5 21 5 4 58 22 58 5 6 22 22 57 13 58 58 57 21 60 57 57 36 60 58 41 57 35 6 17 27 4 6 17 21 0 6 10 58 58 60 35 60 57 7 58 57 5 6 32 58 14 5 23 22 58
split_gain=1326.9 1235.08 408.288 240.817 158.157 118.134 105.086 92.0721 84.9606 84.3427 79.7581 82.4858 73.0353 66.8371 53.6007 51.6224 46.8376 46.1799 44.9684 32.5032 31.0582 29.9571 29.2486 27.3614 26.0307 26.9819 37.8379 24.2535 24.3581 24.0096 23.7451 23.2386 23.8069 30.2601 22.8044 22.2945 26.3496 21.9918 21.9536 21.8926 21.6847 21.1858 21.0714 19.3251 19.3106 21.0094 19.305 19.0269 19.018 19.3358 17.3379 19.467 17.2345 17.1748 17.0251 16.9372
threshold=0.36112101376056677 -0.00019543292728485537 0.19726625829935077 0.00046755453768684531 0.24137495458126071 0.2500817477703095 0.0055803798604756602 0.00042749395729484982 0.0018859678530134263 0.5312488079071046 0.00035598590329755103 0.0018937474613749123 0.0024586091564443957 0.005732438527047635 -0.18496266876122716 0.0041085367556661376 0.0018859678530134263 0.008921456057578327 0.00046755453768684531 1.0000000180025095e-35 0.0018058738205581906 0.0046599479392170915 1.0000000180025095e-35 1.0000000180025095e-35 0.0042019207030534753 -0.10816324211737081 0.0074073856230825194 0.5100150451354063 0.00041159451939165598 -0.0012273549367016342 56.875610346230424 0.20003683120012286 0.00037371608777903026 0.00069959616891374207 0.00026144951289350802 0.00019304081070004034 0.00024615159782115375 0.60003662109375011 0.0098806526511907595 0.024294925853610042 1.0000000180025095e-35 0.062256410256410259 1.0000000180025095e-35 0.025634027086198333 0.0022233263589441781 0.0025527335237711672 0.0011273375712335112 0.16671147197484973 0.00042996695265173917 1.0760949515698022 0.0013395772548392417 -0.00086608709231258691 0.44072440266609197 1.0000000180025095e-35 0.00054970389615911091 0.0080506214872002619
decision_type=2 2 2 2 2 2 2 2 2 2 2 2 2 2 2 2 2 2 2 2 2 2 2 2 2 2 2 2 2 2 2 2 2 2 2 2 2 2 2 2 2 2 2 2 2 2 2 2 2 2 2 2 2 2 2 2
left_child=1 2 15 12 6 7 16 47 -4 22 54 14 31 -9 -12 50 -2 46 -6 27 -13 -7 -10 29 -20 -26 -27 28 -15 -17 -28 32 34 -34 -3 36 -18 42 -31 -25 -24 -39 -16 -30 45 -29 -14 48 49 -5 -1 -52 -19 -22 -8 -46
right_child=4 3 8 5 18 21 10 13 9 -11 11 20 17 19 37 23 35 52 24 -21 53 -23 40 39 25 26 30 44 43 38 -32 -33 33 -35 -36 -37 -38 41 -40 -41 -42 -43 -44 -45 55 -47 -48 -49 -50 -51 51 -53 -54 -55 -56 -57
leaf_value=-0.0094786423329855894 -0.0091692610706353497 0.0091790127973854323 -0.0059467792808047763 0.0046238142405628253 0.0055327238247804425 0.0064310169470206732 0.0005015395086502845 0.0082859812383156446 0.0019928823245403148 0.0059389398683045635 5.886003619802038e-05 0.0079252688178648584 0.014011462339220376 0.0047085201383819143 -0.0026150448845093633 0.0011162118362398332 0.0019961602134417541 0.0042835695273438805 -0.0017995019018713582 0.0043097700344648339 0.0018127485855115978 0.0021207608930081051 0.0059021384267843513 -0.0031494618104588664 0.0034504183957224442 0.0028555241217271027 -0.0017749902516957391 -0.0005801280025861062 0.0077753009774093789 -0.0025132437895772552 0.001512301931344014 0.0068896639847956615 0.01157013112162081 0.0085064668608224921 0.0044630235615052147 -0.00065620866393432834 -0.004705331339572222 0.0041278074178869384 4.236857073794761e-05 0.00046974976588439203 0.0016942116276323438 -0.0019418839662562327 -0.0050917172195507369 0.0035309507283926875 -0.0024136853630900628 0.0058460321993162798 0.007742435824642578 0.0030904471392723025 -0.0053030966682561277 -0.0026841296746910252 0.00072331186985103032 -0.0049584991830186921 0.0072984857598598117 -0.00045555184185631453 0.0045531193891045112 0.0037521651356662287
leaf_weight=63.92480131983757 156.27411916851997 309.75886115431786 94.455738604068756 73.092192709445953 264.34668651223183 183.50150744616985 161.8636110574007 1155.5848971307278 2157.6926816403866 1042.0259979963303 837.67807342112064 54.1748336404562 60.356334000825882 488.46128156781197 920.89974509179592 721.23392701148987 62.206879928708076 828.01569990813732 262.88050688803196 1596.1514956206083 599.37843807041645 1414.670460537076 392.80111868679523 807.33781622350216 552.64110460877419 576.58562986552715 545.99150338768959 53.512677609920502 1469.7729692012072 641.72134731709957 373.66711421310902 468.99013411998749 922.40011803805828 713.99765306711197 191.10296408832073 256.52359558641911 682.25518079102039 59.887137860059738 734.53394092619419 214.91934308409691 193.31312896311283 527.41893130540848 598.66526740789413 136.43319292366505 55.488202273845673 1097.0689705461264 811.72102741897106 336.99017089605331 59.487319394946098 63.276772752404213 76.162325546145439 288.66632686555386 279.91439339518547 780.70252698659897 313.44073502719402 177.89972572028637
leaf_count=255 619 1030 362 256 913 629 587 3893 7707 3589 3051 183 190 1699 3432 2606 223 2882 973 5567 2150 5038 1356 3015 1952 2045 2015 195 4984 2388 1342 1597 3014 2394 663 941 2587 211 2680 781 691 1951 2274 478 204 3781 2745 1191 226 235 276 1097 950 2848 1099 623
internal_value=0.00286957 0.00427588 0.000984082 0.00616308 -0.000468094 0.00513224 -0.00136713 0.00571782 0.00325115 0.00349079 -0.00071094 -0.00113969 0.00803216 0.00606324 -0.00210786 -0.00149642 -0.00409947 0.00651558 0.00162791 0.00554678 0.000848557 0.00264058 0.00254877 -0.00103808 0.00116662 0.00155183 0.000838262 0.00610495 0.0068133 -0.000373419 -0.000438044 0.00916455 0.00964052 0.0102737 0.00746276 -0.00325195 -0.00413248 -0.00296678 -0.0011557 -0.00239047 0.0045493 -0.00128316 -0.00360895 0.00743104 0.00500503 0.00554552 0.00828041 0.00165362 -0.000839152 0.00126612 -0.00476378 -0.00378075 0.00508479 0.000533607 0.00319966 0.00225963
internal_weight=28963.9 20376.4 7428.79 12947.6 8587.48 8361.39 6011.37 6763.22 3880.29 3785.83 4854.11 4378.8 4586.26 6230.37 2944.55 3548.5 1157.26 1980.01 2576.11 5074.79 1434.26 1598.17 2743.81 3119.75 2311.77 2048.89 1496.24 3478.64 2094.67 2097.49 919.659 2606.25 2137.26 1636.4 500.862 1000.99 744.462 2106.87 1376.26 1022.26 586.114 587.306 1519.57 1606.21 1383.97 1150.58 872.077 532.846 195.856 136.369 428.753 364.829 1107.93 1380.08 475.304 233.388
internal_count=102663 71267 26803 44464 31396 28999 22156 23332 13705 13343 17786 16100 15465 21424 10919 13098 4370 6767 9240 17531 5181 5667 9754 11470 8327 7354 5402 11964 7161 7674 3357 8698 7101 5408 1693 3751 2810 7868 5068 3796 2047 2162 5706 5462 4803 3976 2935 1908 717 491 1628 1373 3832 4998 1686 827
is_linear=0
shrinkage=0.0101238


Tree=11
num_leaves=57
num_cat=0
split_feature=4 21 5 5 16 12 5 27 57 21 16 5 27 33 57 21 16 57 12 16 59 21 30 12 3 27 17 57 59 57 3 35 30 57 12 26 30 4 4 57 14 45 4 44 24 33 46 35 27 18 57 11 10 57 28 11
split_gain=1299.27 834.112 456.205 155.013 141.175 102.249 102.029 99.8471 77.3353 72.4095 76.6191 58.7282 54.0092 46.2814 46.0147 44.0511 41.3037 31.8591 30.3546 30.6439 29.2471 28.2821 28.1817 28.0048 23.2345 23.145 31.1545 22.4864 25.8116 22.2112 21.9462 21.8342 21.1883 20.8315 22.3882 20.7763 20.7699 20.5248 20.4455 20.2856 19.3206 18.0242 17.643 17.2487 16.9196 16.844 15.9125 14.9902 14.8861 26.5143 21.0032 14.7507 14.7851 14.6158 14.4706 14.2707
threshold=0.36112101376056677 0.00068227744167702494 0.24137495458126071 0.24137495458126071 -6.0956937200105192e-05 -0.31168439713433138 0.58335170149803173 68.201720864037995 0.00079595277202315639 0.00032112780146539887 0.00059198848488192606 0.37035194039344793 23.251439371178087 0.0024517683484946858 0.0058736528735607871 0.00044927615688303757 -1.7860275971815429e-05 0.016745811328291896 0.090779463011494962 0.0005344220471159213 1.0000000180025095e-35 0.00028658334672909078 2.2671009200445278 0.061245749188083218 0.3913008868694306 53.247515023856465 -0.00097975970866900799 0.0082828761078417319 1.0000000180025095e-35 0.0019775666296482091 0.76563096046447765 0.078250000000000014 1.5930623026220438 0.0059419171884655961 0.10152913101087507 3.4008141501784519 1.6048498991063973 0.21206441521644595 0.22416079044342044 0.016993186436593536 0.00012425436577802405 -0.01527100100431379 0.26315620541572576 -0.48176949360855276 0.14582167740969618 0.0040076736275572568 -0.94336525574248109 0.48570033747507296 24.390316516382711 -0.0035206898116079207 0.0087921964004635828 -1.6750488281249998 -2.0499877929687496 0.0045726783573627481 0.83111526484490639 -1.5499877929687498
decision_type=2 2 2 2 2 2 2 2 2 2 2 2 2 2 2 2 2 2 2 2 2 2 2 2 2 2 2 2 2 2 2 2 2 2 2 2 2 2 2 2 2 2 2 2 2 2 2 2 2 2 2 2 2 2 2 2
left_child=1 8 4 7 5 12 14 13 -1 10 -10 16 41 24 37 -5 -11 -12 42 45 35 -9 44 -18 33 26 -17 -7 36 -23 -14 -26 -22 -2 -35 -16 -29 -4 -13 -21 48 -3 -6 -38 -8 -20 -41 -45 49 -15 -50 -46 -53 -28 -31 -52
right_child=3 2 6 15 18 27 22 21 9 11 17 38 30 40 20 25 23 -19 19 39 32 29 -24 -25 31 -27 53 28 -30 54 -32 -33 -34 34 -36 -37 43 -39 -40 46 -42 -43 -44 47 51 -47 -48 -49 50 -51 55 52 -54 -55 -56 -57
leaf_value=0.016238579262946261 -0.0014866373216398192 -0.00030019386416094276 0.0067921943429216708 0.0056497251551079798 0.0047650242835261302 -6.677803070336718e-05 0.0034233030928395103 0.0055024693442976167 0.010093744235310185 -0.00059062084821274552 0.0075410634364696709 0.0080224251160683994 0.0020479405141912506 0.00093165001622280664 0.0017395843124456572 0.002247471848466305 0.0069335951332875796 0.0044562613487646261 -0.0014451407089046411 0.0050740671998067257 0.0081640824181018999 0.0054291175895410382 0.0051677574312970756 0.0039064467027473231 0.0023351909419089029 0.0023666406079248378 0.0024872191158855431 0.00034523447228400914 -0.00091927429526561879 -0.00038957233317693513 0.0071303601872809352 -0.0031016923249147558 0.0037298833197503133 -0.0062369466395062129 -0.00052880369735969234 0.0043262120366492117 0.0015159669643814721 0.0029835634440222767 0.0048114013559592004 0.0032255794513405701 -0.0028120640899794015 0.0021300540950784696 0.001275205169248218 -0.0057489043668735107 0.0094157893063416299 0.0018417264709020234 -0.0036982996594136482 -0.0026704401727861344 0.0021128582959240656 -0.0026203239910105886 0.00045454776398927833 0.0019192500268968469 0.0071539694394113411 -0.0013968209429052784 0.0021551342860994258 -0.0022343360815767969
leaf_weight=93.115731358528137 166.46561589837074 736.02471724152565 582.47347576916218 243.77226303517818 873.17244896292686 792.68384765088558 119.16881042718887 112.9096142500639 1265.3696769326925 146.87774869799614 1701.710299089551 1129.1330819427967 154.48663067817688 277.17623341083527 1621.2933969795704 522.98808863759041 511.87199319899082 476.30311389267445 297.87224091589451 319.60728281736374 117.67151644825935 78.029047176241875 1710.1511945426464 913.41292829811573 96.335407793521881 967.38291209936142 108.3891339302063 131.73546631634235 923.25730876624584 1188.458520039916 217.10509559512138 288.04470153152943 1715.7822870314121 590.35314384102821 81.330874055624008 396.82038477063179 51.047152325510979 213.90850852429867 295.44113278388977 72.604403778910637 836.94251002371311 535.37611593306065 185.85761952400208 384.84286017715931 388.58080346882343 329.60889512300491 52.846497431397438 312.30117638409138 296.14791540801525 915.82358053326607 368.26431725919247 68.034925565123558 549.28958535194397 734.13943889737129 276.60548554360867 436.99861989915371
leaf_count=289 616 2684 1992 840 3032 2891 418 390 4175 536 5752 3808 550 1005 5786 1869 1743 1655 1093 1111 398 270 5918 3195 346 3447 385 480 3392 4338 740 1079 6029 2264 299 1385 184 754 1025 256 3122 1917 666 1465 1298 1181 197 1163 1063 3414 1339 241 1868 2699 988 1623
internal_value=0.00283984 0.00423078 0.00282222 -0.000463365 0.000829693 -0.000239781 0.00451619 -0.00135367 0.00721163 0.00706427 0.00807983 0.00588184 0.00173242 -0.00215752 0.00358323 0.00161133 0.00449656 0.00688228 0.00295052 0.0017333 0.00311496 0.000759946 0.00603352 0.00502111 -0.00382481 0.00117429 0.00032211 -0.00148929 -0.00211205 0.000390518 0.00509148 -0.00172232 0.00404332 -0.0047676 -0.00555789 0.00226089 -0.00334707 0.00580281 0.00738228 0.00374386 -0.00149977 0.000728997 0.0041645 -0.00399446 0.0073109 0.000282638 0.000269039 -0.0044086 -0.00101425 -0.00179448 -0.000163376 0.00774562 0.006604 -0.000881381 9.85372e-05 -0.00101108
internal_weight=28973.4 20386.8 13853.6 8586.56 6370.43 4238.86 7483.17 6009.89 6533.24 6440.12 3443.38 2996.74 1642.99 4353.88 4647.95 2576.67 1572.16 2178.01 2131.57 1072.54 3851.57 1656 2835.23 1425.28 1222.53 2332.9 1365.52 2595.87 1803.18 1543.09 371.592 384.38 1833.45 838.15 671.684 2018.11 879.927 796.382 1424.57 445.058 3131.35 1271.4 1059.03 748.191 1125.07 627.481 125.451 697.144 2294.41 1193 1101.41 1005.91 617.325 842.529 1465.06 805.263
internal_count=102663 71267 49089 31396 23002 15466 26087 22156 22178 21889 11582 10307 5891 16170 16344 9240 5474 7407 7536 3838 13598 5986 9743 4938 4604 8400 4953 9575 6684 5596 1290 1425 6427 3179 2563 7171 3292 2746 4833 1564 11566 4601 3698 2812 3825 2274 453 2628 8444 4419 4025 3407 2109 3084 5326 2962
is_linear=0
shrinkage=0.0101238


Tree=12
num_leaves=57
num_cat=0
split_feature=4 0 3 21 27 4 22 58 4 13 58 4 58 33 57 4 57 4 3 6 22 6 41 11 58 30 58 33 28 21 16 14 22 3 3 3 6 0 41 58 3 6 4 3 39 57 58 1 57 41 1 0 57 40 59 0
split_gain=1255.11 1219.29 246.775 234.739 156.323 99.9192 79.8214 72.146 71.4175 69.2101 61.5751 52.7351 51.4511 49.2909 51.4515 48.2191 47.7815 42.7998 40.5047 36.417 42.5621 36.2324 35.3469 33.7534 33.1457 30.5695 39.2645 28.8146 28.2511 27.959 25.7341 23.572 24.7391 23.4791 23.4614 22.8594 26.5585 25.8764 22.1129 21.8449 21.5716 20.5459 20.1606 41.7621 25.1126 20.084 19.6975 19.08 18.3161 26.5086 20.94 17.6916 19.9692 18.5467 17.557 17.0428
threshold=0.34998778998851782 -0.00022279717813944441 0.66665181517601024 0.00065581612348389199 60.478904110950666 0.2500023096799851 0.00043477280149956831 0.0024417433887720112 0.20003683120012286 -0.2098585564823679 0.0018859678530134263 0.48463533818721777 0.0018859678530134263 0.0027378097372303812 0.0035460786893963818 0.15416932851076129 0.0055152641143649825 0.50000897049903881 0.46873033046722418 0.00035598590329755103 0.0016664625287290873 0.00045175840205047285 0.1404491234129637 -5.4750976562499991 0.0087150298058986681 2.2955041446043905 0.0024417433887720112 0.0019814949964630456 0.45290052367625394 0.00026144951289350802 0.00057971819849608568 -0.00019291508920669381 0.00071899034571279972 0.29037211835384374 0.37486647069454199 0.48611441254615789 0.00046368227049242711 6.2642513512400924e-05 -0.099954280237625412 0.0093286288902163523 0.23533917963504794 0.00038927693094592547 0.097692519426345839 0.8206332027912141 2.9448460963523684 0.0082828761078417319 0.0042896373197436341 -0.00041842272912617767 0.0084865251556038874 -0.10265078356451339 0.00025608838768675929 0.00051562601584009837 0.0056624743156135091 0.0025381685827133515 1.0000000180025095e-35 -0.00010011101403506471
decision_type=2 2 2 2 2 2 2 2 2 2 2 2 2 2 2 2 2 2 2 2 2 2 2 2 2 2 2 2 2 2 2 2 2 2 2 2 2 2 2 2 2 2 2 2 2 2 2 2 2 2 2 2 2 2 2 2
left_child=1 2 10 8 7 6 -5 -2 13 24 -1 45 -4 21 -15 34 55 33 -17 -13 -21 29 -16 -14 -9 35 -27 41 42 -3 -23 -28 -33 -11 -12 36 -18 -37 -26 -20 -31 -19 43 -25 -45 -6 -7 -47 -29 -50 -51 52 -10 -54 -35 -8
right_child=4 3 12 5 11 46 16 9 51 17 15 19 23 14 22 18 25 27 39 20 -22 30 -24 28 38 26 31 48 -30 40 -32 32 -34 54 -36 37 -38 -39 -40 -41 -42 -43 -44 44 -46 47 -48 -49 49 50 -52 -53 53 -55 -56 -57
leaf_value=-0.0056865135082891363 -0.00588074127825853 0.0095997268725744201 -0.0074614532423659301 0.0017228700494605485 0.0045444049285804002 -0.0012078624999260993 0.0038494052259714765 -0.0011263600911136746 0.0091923726721749848 0.0011250183680044808 0.0059784008699746462 0.0039960328193816676 0.0010556833074417062 0.011001099302162951 0.0073994791848292999 0.0030633350728430805 0.004734895836088663 -0.0011518089852972071 -0.0029944638328577408 -0.0026844978341955088 0.0008173011727416788 0.011556474010041489 0.0045339865109369059 0.0013120773990581416 0.0033777807336978312 -0.0018920588493017269 0.0057638298850839998 -0.00058639811945983169 0.00097938369131152984 0.0088836309957969657 0.0080801032528961883 -0.0016174479373268604 0.0041593182529198729 -0.0027609992041101919 0.0033630366461336763 0.0023605995495726627 0.0087993619096691546 0.0062360497480614648 0.00040236225794373497 0.0010113681349193623 0.0034553095124603139 -0.0057845231869214572 -0.0032508181907541533 -0.0025357815009453516 0.0043039304633963023 -0.0026028290430430349 0.0026785360190216428 0.0024569824530437266 -0.00053645644897536463 -0.0048927194438318023 -0.00037297872100063381 0.0034832179942679022 0.0061821622526001272 0.0017116552715469534 0.00022389797995882194 0.008448322403044611
leaf_weight=79.541109398007393 336.64620281755924 312.95993159711361 115.73118187487125 566.08545637130737 500.37134829163551 147.69618052244186 110.86411964893341 704.73056617379189 178.69317378103733 541.3678640127182 494.84645219147205 238.59980852901936 789.77603068947792 332.18440791964531 1784.5939506143332 791.48224391043186 267.19412514567375 130.85500122606754 210.27633541822433 488.36501398682594 1257.2245586067438 839.76385878026485 644.19029128551483 488.42070686817169 450.41443227231503 88.751694411039352 1382.6470700502396 554.29303121566772 456.19671320915222 111.9451679289341 409.41801938414574 77.615210101008415 1210.9612549394369 498.51585873961449 1372.8037984520197 257.85246661305428 593.0472240447998 647.9209750443697 586.57932876050472 384.59781050682068 250.85002778470516 438.39807154238224 662.14972712099552 1099.9884611070156 51.929261550307274 79.497898697853088 1122.405953168869 746.69345253705978 334.57960054278374 544.49095992743969 131.24378895759583 422.30313201248646 401.03128895163536 132.50524082779884 334.88276202976704 784.34527683258057
leaf_count=305 1295 1033 452 2024 1749 540 386 2593 595 1949 1699 838 2849 1087 6036 2794 926 482 783 1817 4542 2735 2229 1757 1593 326 4757 2033 1649 373 1373 283 4224 1859 4836 914 1988 2220 2128 1388 877 1676 2479 4099 183 295 3973 2658 1228 2067 481 1478 1372 469 1221 2631
internal_value=0.00281478 0.00421717 0.000805264 0.00604147 -0.000350175 0.004818 0.00536545 -0.00138256 0.00755967 -0.00108697 0.00279576 0.00139127 -0.00100743 0.00811766 0.00720262 0.00301443 0.0057432 -0.00190473 0.00157287 0.000343716 -0.000168955 0.00940042 0.00665411 -0.000783193 0.000561361 0.00530314 0.00461048 -0.00280012 -0.00131093 0.00734571 0.0104666 0.00483074 0.00380476 -0.00050806 0.00407499 0.00636402 0.00758353 0.00515838 0.00170819 -0.000422293 0.00526173 -0.00474553 -0.00176625 -0.00115613 -0.00220421 0.00294849 0.00222261 0.001953 -0.00207501 -0.00288242 -0.00402723 0.00522069 0.0062086 0.00510709 -0.00156941 0.0079118
internal_weight=28973.3 20075.6 6997.74 13077.8 8897.75 7257.39 5987.28 5587 5820.44 5250.35 3333.55 3310.75 3664.19 4685.91 2760.97 3254.01 5421.2 3508.63 1386.36 1984.19 1745.59 1924.94 2428.78 3548.46 1741.72 4525.99 2759.98 2133.86 2758.68 675.755 1249.18 2671.22 1288.58 1374.77 1867.65 1766.01 860.241 905.773 1036.99 594.874 362.795 569.253 2302.49 1640.34 1151.92 1326.56 1270.1 826.191 1564.61 1010.31 675.735 1134.53 712.23 533.537 833.399 895.209
internal_count=102626 70122 25273 44849 32504 25192 20679 20605 19657 19310 11805 11899 13468 15743 9352 11500 18655 12996 4965 7197 6359 6391 8265 13016 6314 15638 9590 7967 10167 2283 4108 9264 4507 5029 6535 6048 2914 3134 3721 2171 1250 2158 8518 6039 4282 4702 4513 2953 5809 3776 2548 3914 2436 1841 3080 3017
is_linear=0
shrinkage=0.0101238


Tree=13
num_leaves=57
num_cat=0
split_feature=4 0 5 21 27 5 4 4 5 57 6 33 4 57 17 6 30 45 36 11 57 47 57 18 6 21 33 34 0 5 16 5 0 17 27 10 16 57 57 5 6 1 3 4 57 57 35 0 57 28 10 11 3 33 39 30
split_gain=1229.15 1193.51 378.514 229.717 153.226 99.6622 97.7913 69.8228 52.4629 52.3441 52.0187 62.7613 51.6443 48.6285 53.4808 35.6831 35.8942 32.9571 31.3298 30.2799 25.6293 24.9967 24.4026 23.7177 23.446 33.212 32.603 22.7957 22.2679 32.5237 22.1865 22.0571 35.1678 20.8955 23.4358 20.7298 23.4357 19.6637 19.0335 19.0222 18.8583 18.7082 18.6614 18.2369 18.1246 17.6106 17.3276 17.3207 19.5476 17.1959 17.1557 16.792 16.7335 16.4904 16.3205 16.0272
threshold=0.34998778998851782 -0.00022279717813944441 0.19726625829935077 0.00065581612348389199 60.478904110950666 0.18213701248168948 0.2500023096799851 0.20003683120012286 0.47064314782619482 0.010631491430103781 0.00029771339904982602 0.0034196147424382446 0.48463533818721777 0.00079595277202315639 0.0012813840243768128 0.00035598590329755103 2.75073885373607 -0.50188698852276303 1.0000000180025095e-35 -5.4750976562499991 0.0019775666296482091 0.87837969732492682 0.0038527026772499089 0.0010102677596352642 0.00045175840205047285 0.00026144951289350802 0.0028087330982680121 0.85676326458027119 0.00023833056184230375 0.68447941541671764 0.00057971819849608568 0.13331240415573123 4.9411031795898459e-05 -0.00084844544060340605 34.090972141148789 1.3750000000000002 -0.0009382033472860031 0.0082828761078417319 0.0089811892248690146 0.24137495458126071 0.00029771339904982602 -0.00041842272912617767 0.23533917963504794 0.75000402331352245 0.0082252449356019514 0.0095830066129565256 0.55325000000000013 0.00051562601584009837 0.0056624743156135091 -0.4602972536408998 2.0749511718750004 3.4500122070312504 0.42221860587596899 0.0084556683416398496 2.4475876845155429 2.0804520565004281
decision_type=2 2 2 2 2 2 2 2 2 2 2 2 2 2 2 2 2 2 2 2 2 2 2 2 2 2 2 2 2 2 2 2 2 2 2 2 2 2 2 2 2 2 2 2 2 2 2 2 2 2 2 2 2 2 2 2
left_child=1 2 19 7 5 10 9 13 18 20 -2 43 37 -3 24 -14 23 51 -4 -1 -5 -18 -10 39 25 -15 30 44 29 -19 -26 32 40 -7 -35 36 -13 52 -16 -17 -22 -39 -27 -12 50 -8 -30 48 -9 -48 -21 -11 -6 -24 -46 -33
right_child=4 3 8 6 12 33 45 47 22 17 11 35 15 14 38 16 21 28 -20 27 31 -23 53 -25 26 42 -28 -29 46 -31 -32 55 -34 34 -36 -37 -38 41 -40 -41 -42 -43 -44 -45 54 -47 49 -49 -50 -51 -52 -53 -54 -55 -56 -57
leaf_value=0.00013698536612356886 0.0019233441835803933 0.016231399729616337 0.0015034119404029912 0.011113885739289203 0.0060416555524884152 0.0016392699595128525 0.0037859336051401563 0.0090934713101071402 0.0091410204721618128 0.0067845809993867705 -0.0034542445388933622 9.6640633397944889e-05 0.0039544973283484539 0.0092885068410768819 0.0075544339599907155 -0.0037003797574990294 0.0008296622876450986 0.0014984138779157398 0.0043181097483788958 -0.0015037569417863715 0.0041603498603380853 0.0061159244428828719 0.0046345981840928314 0.00019659997872317205 0.011418049075563501 0.008195165780538442 0.0077540332295863417 0.0028698128802799837 0.0059993524241339661 0.0048859009333914122 0.0078782165907470801 0.0080399456880778132 0.005851870610535272 -0.0022025429377627941 0.00061939343068212179 0.0012640708092722169 -0.0027122114724750694 -0.0025794953740767043 0.0051712282365440499 0.00074559810429894468 -0.0019975051796600717 0.0024314660068958677 0.0038829602007489908 -0.0058913593598779066 -0.0031597624069447218 0.0012924498275054108 0.0059069487914987211 0.0034470305750418234 0.0050533545771825443 0.0022905440844136408 0.0034923298992303961 0.0015514964254545749 0.0021952757855926682 0.0006490483153115792 0.00051533604032957716 0.0059381456667181318
leaf_weight=773.51797603070736 257.71819600462914 72.224699109792709 1776.8948055505753 114.13497757911682 292.95945805311203 813.17671491205692 454.39389617741108 178.88024286925793 114.4890360981226 677.24881476163864 1057.7263420671225 433.39145885407925 238.73507469892502 434.58133965730667 711.61656260490417 430.10332033038139 490.07976964116096 751.87630981206894 524.36671750247478 711.09719832241535 85.474565908312798 106.89684562385082 1060.8233780860901 593.66038364171982 851.6786138266325 158.55234774947166 937.00585794448853 84.514197662472725 623.67430301010609 476.43874637782574 326.92276664078236 663.82550430297852 521.83404955267906 472.86271531879902 807.22537566721439 248.51361453533173 1012.9194269776344 79.466030672192574 847.22777995467186 124.7938607186079 107.75167220830917 746.96008315682411 350.12656658887863 482.097766533494 1627.9289461225271 816.09269292652607 204.18763141334057 422.48612248897552 533.85871058702469 419.43413139879704 71.712395429611206 74.333005845546722 207.72906927764416 120.83826242387295 132.10914060473442 1270.9532413929701
leaf_count=2814 926 222 6366 372 1009 2922 1592 595 381 2312 3977 1582 838 1437 2398 1614 1769 2680 1832 2628 299 370 3686 2156 2771 531 3152 300 2139 1648 1096 2238 1790 1752 2923 897 3777 295 2917 450 396 2658 1219 1849 6098 2921 701 1478 1841 1482 254 264 740 433 481 4358
internal_value=0.00278569 0.00417291 0.000797033 0.00597685 -0.000346753 -0.00136912 0.00476682 0.00747803 0.00308355 0.00530816 -0.00241448 -0.00276337 0.00137705 0.00802948 0.00787773 0.000340292 -0.000167324 0.00441196 0.0021555 -0.00162293 0.00634128 0.00183393 0.00471158 -0.00121213 0.0086728 0.00719945 0.00930476 -0.00214009 0.00382768 0.00283184 0.0104865 0.00610804 0.00449998 0.000377087 -0.0004291 -0.00141067 -0.00187399 0.00291765 0.006287 -0.00270355 0.000774851 0.00193267 0.00531661 -0.00423961 -0.00231374 0.00219952 0.00478787 0.00516592 0.00614299 0.00352512 -0.00102017 0.0062854 0.00449618 0.00423302 -0.00288299 0.00668468
internal_weight=28982.1 20085.1 6998.29 13086.8 8897.02 5585.63 7261.65 5825.16 3597.41 5991.17 3492.37 3234.65 3311.38 4689.94 4617.71 1984.27 1745.53 3227.19 2301.26 3400.88 2763.97 596.977 1296.15 1148.56 3058.87 943.26 2115.61 2627.36 2475.61 1228.32 1178.6 2649.84 715.06 2093.26 1280.09 1694.82 1446.31 1327.11 1558.84 554.897 193.226 826.426 508.679 1539.82 2542.85 1270.49 1247.3 1135.23 712.739 623.622 782.81 751.582 500.689 1181.66 1760.04 1934.78
internal_count=102626 70122 25273 44849 32504 20605 25192 19657 12698 20679 13008 12082 11899 15743 15521 7197 6359 11226 8198 12575 9453 2139 4500 4220 10206 3187 7019 9761 8650 4328 3867 9081 2485 7597 4675 6256 5359 4702 5315 2064 695 2953 1750 5826 9461 4513 4322 3914 2436 2183 2882 2576 1749 4119 6579 6596
is_linear=0
shrinkage=0.0101238


Tree=14
num_leaves=57
num_cat=0
split_feature=21 0 22 58 20 3 21 0 16 58 17 58 60 3 19 58 21 42 19 21 42 58 40 58 22 31 24 31 7 21 33 28 58 25 21 45 35 36 31 35 21 40 25 45 26 14 58 38 45 33 35 31 3 48 44 12
split_gain=1185.49 414.375 221.021 128.175 130.177 101.508 94.5872 94.5267 70.8752 59.5673 62.4748 59.0459 81.6568 53.143 48.9343 48.5874 42.8183 40.7346 32.4163 40.1749 39.4658 30.8961 32.2217 30.202 28.4141 28.1135 26.1594 24.7515 23.5441 24.8747 23.4639 23.4245 22.9516 22.2602 23.1014 21.7299 21.3648 20.7803 20.4634 20.0511 19.4061 19.3301 28.0552 23.0511 19.1584 18.3574 18.4677 16.9846 16.4501 16.436 16.2316 15.424 15.391 15.2725 18.2888 15.1657
threshold=0.00046755453768684531 0.00019304081070004034 0.00035309072502930154 0.0018859678530134263 1.0000000180025095e-35 0.64699968695640575 0.00028658334672909078 -0.00039158978324849153 0.00059198848488192606 0.0011013087350875141 -0.0012273549367016342 0.0062186657451093206 1.0000000180025095e-35 0.80021157860755932 1.0000000180025095e-35 0.016811810433864597 0.0023477307210586691 -1524.4999999999998 1.0000000180025095e-35 0.00096263444217969312 3619.5000000000005 0.010810652282088997 -0.0052574715138876422 0.0018859678530134263 0.00083972746684755906 1.429948226378335 0.80400836925676122 1.6440829531000498 0.0013711237115785482 0.00061121652339071709 0.0034393330233579858 0.45290052367625394 0.0085821445100009459 42.771763315377278 0.00089491376809480749 -0.01527100100431379 0.45388320295523693 1.0000000180025095e-35 1.5175275371364871 0.020021097046413507 0.0011838023777202419 -0.0025827574162680402 57.579084020303249 -0.17579586157038601 -1.7996645944146257 0.00022321628916236307 0.0071159219369292268 -0.45321753168714762 -0.019633645735922082 0.0033992655442561174 0.70525000000000015 2.94972779427937 0.37486647069454199 -0.56174490092936669 0.25348334645171472 0.46248451620635939
decision_type=2 2 2 2 2 2 2 2 2 2 2 2 2 2 2 2 2 2 2 2 2 2 2 2 2 2 2 2 2 2 2 2 2 2 2 2 2 2 2 2 2 2 2 2 2 2 2 2 2 2 2 2 2 2 2 2
left_child=6 2 9 36 7 18 8 13 48 -2 35 28 15 21 25 33 -6 32 19 -3 -20 37 -23 -21 -14 -8 -24 -16 29 -9 -7 -15 38 40 -35 -11 -4 -5 -12 -19 -13 -17 43 -43 -31 -25 -47 -29 -1 -26 -10 -22 -41 55 -55 -51
right_child=1 5 3 4 16 30 14 11 50 10 17 12 24 31 27 41 -18 39 20 23 51 22 26 45 49 -27 -28 47 -30 44 -32 -33 -34 34 -36 -37 -38 -39 -40 52 -42 42 -44 -45 -46 46 -48 -49 -50 53 -52 -53 -54 54 -56 -57
leaf_value=0.010628528621253073 -0.0097299986757149754 0.0050669620299085873 -0.0026493843436473262 -0.0012372886975542247 0.006527469666848488 0.00714848365271821 0.0037293243516663219 0.0045689363382195513 0.0072470627539524598 -0.00059159191471398374 0.00064178418281518482 0.0081417692114109982 -0.00096497212851949954 -0.0029809152385415409 -0.0018714440572485068 0.0086838679511993411 0.0030247146003585133 0.00035555184069027235 -0.0022395095878798891 -0.0036339794607312616 0.00040276564282035242 0.0056257560689611961 0.00051928031238219292 0.0033668209641401418 0.00032566786172404002 0.0070137798208402824 0.004297669171275568 -0.00066701917340132805 -0.003054983162582734 -0.0016661044578414944 0.0048560039588423027 0.0007270386723256633 0.0008684812385476513 0.0034789897586945694 0.0014087887774940839 0.0018989167553750373 -0.0084454104282426518 0.0022597527755668684 -0.0043437084863298184 -0.0057840777843950258 0.003486228959516998 -7.9588787022200446e-05 0.0078735153333032125 0.0048883007486229639 0.0010834696990193687 -0.0035711119899687277 0.0019690538980170879 0.0044105846178809716 0.0075089640010853947 -0.00049467494346242262 0.004733061268591199 0.004505244484208258 -0.0030789486025664665 0.0045674102674789557 0.0011721276599969805 0.0035267306946835325
