{"learner":{"attributes":{"best_iteration":"159","best_score":"0.655754472537876"},"feature_names":["log_return_1m","log_return_3m","log_return_5m","candle_body_pct","upper_wick_pct","lower_wick_pct","range_pct","return_15m","return_30m","price_momentum_3","price_momentum_5","price_momentum_10","EMA_slope_9","EMA_slope_21","EMA_9_vs_21_distance","EMA_21_vs_50_distance","price_vs_EMA9","price_vs_EMA21","price_vs_EMA50","higher_high","lower_low","dist_from_swing_high","dist_from_swing_low","trend_strength_score","price_position_in_range","RSI_14","RSI_slope","Stoch_K","MACD_hist","momentum_consistency","ATR_14","ATR_5m","ATR_ratio","Bollinger_width","BB_position","volatility_percentile","true_range_expansion","volatility_regime","volume_zscore","volume_ratio_1m_vs_20m","VWAP_distance","VWAP_slope","OBV_delta","volume_spike_flag","vol_price_corr","minute_of_day_sin","minute_of_day_cos","day_of_week_sin","day_of_week_cos","is_open_range","is_lunch_time","is_close_window","minutes_since_open","minutes_to_close","symbol_id","trend_15m","price_above_15m_ema","dist_prev_day_high","dist_prev_day_low","gap_up_flag","gap_down_flag","inside_day","outside_day"],"feature_types":["float","float","float","float","float","float","float","float","float","float","float","float","float","float","float","float","float","float","float","float","float","float","float","float","float","float","float","float","float","float","float","float","float","float","float","float","float","float","float","float","float","float","float","float","float","float","float","float","float","float","float","float","float","float","float","float","float","float","float","float","float","float","float"],"gradient_booster":{"model":{"cats":{"enc":[],"feature_segments":[],"sorted_idx":[]},"gbtree_model_param":{"num_parallel_tree":"1","num_trees":"260"},"iteration_indptr":[0,1,2,3,4,5,6,7,8,9,10,11,12,13,14,15,16,17,18,19,20,21,22,23,24,25,26,27,28,29,30,31,32,33,34,35,36,37,38,39,40,41,42,43,44,45,46,47,48,49,50,51,52,53,54,55,56,57,58,59,60,61,62,63,64,65,66,67,68,69,70,71,72,73,74,75,76,77,78,79,80,81,82,83,84,85,86,87,88,89,90,91,92,93,94,95,96,97,98,99,100,101,102,103,104,105,106,107,108,109,110,111,112,113,114,115,116,117,118,119,120,121,122,123,124,125,126,127,128,129,130,131,132,133,134,135,136,137,138,139,140,141,142,143,144,145,146,147,148,149,150,151,152,153,154,155,156,157,158,159,160,161,162,163,164,165,166,167,168,169,170,171,172,173,174,175,176,177,178,179,180,181,182,183,184,185,186,187,188,189,190,191,192,193,194,195,196,197,198,199,200,201,202,203,204,205,206,207,208,209,210,211,212,213,214,215,216,217,218,219,220,221,222,223,224,225,226,227,228,229,230,231,232,233,234,235,236,237,238,239,240,241,242,243,244,245,246,247,248,249,250,251,252,253,254,255,256,257,258,259,260],"tree_info":[0,0,0,0,0,0,0,0,0,0,0,0,0,0,0,0,0,0,0,0,0,0,0,0,0,0,0,0,0,0,0,0,0,0,0,0,0,0,0,0,0,0,0,0,0,0,0,0,0,0,0,0,0,0,0,0,0,0,0,0,0,0,0,0,0,0,0,0,0,0,0,0,0,0,0,0,0,0,0,0,0,0,0,0,0,0,0,0,0,0,0,0,0,0,0,0,0,0,0,0,0,0,0,0,0,0,0,0,0,0,0,0,0,0,0,0,0,0,0,0,0,0,0,0,0,0,0,0,0,0,0,0,0,0,0,0,0,0,0,0,0,0,0,0,0,0,0,0,0,0,0,0,0,0,0,0,0,0,0,0,0,0,0,0,0,0,0,0,0,0,0,0,0,0,0,0,0,0,0,0,0,0,0,0,0,0,0,0,0,0,0,0,0,0,0,0,0,0,0,0,0,0,0,0,0,0,0,0,0,0,0,0,0,0,0,0,0,0,0,0,0,0,0,0,0,0,0,0,0,0,0,0,0,0,0,0,0,0,0,0,0,0,0,0,0,0,0,0,0,0,0,0,0,0,0,0,0,0,0,0],"trees":[{"base_weights":[9.999024E-4,1.2275921E-1,-3.2806036E-1,-1.9779316E-1,2.9828963E-1,-5.1156604E-1,-2.0364335E-1,1.0369081E-1,-3.68178E-1,5.509572E-1,2.272894E-1,-1.0647067E0,-4.6395907E-1,-2.7656424E-1,7.93144E-3,-5.2197963E-1,1.4226629E-1,-4.3249775E-2,-3.513961E-1,3.99223E-2,5.166197E-1,-3.093679E-1,2.5272506E-1,-1.2148763E0,-1.875757E-2,-2.8772178E-1,-6.1933255E-1,-3.5216382E-1,-1.2382147E-1,2.7073088E-1,-7.094827E-2,-3.117055E-4,-2.350032E-2,2.9052517E-1,4.2421326E-2,-2.2598572E-1,-4.6781266E-1,6.5866035E-1,3.3395997E-1,-1.0703396E-1,-5.042966E-1,5.0138307E-1,1.7582609E-1,-1.3690795E0,-2.5244392E-2,-3.3879372E-1,4.3796293E-2,-4.960199E-1,-8.175206E-1,-3.963829E-1,-6.0434654E-2,-8.841952E-3,-2.895437E-1,-2.4007098E-3,3.9855948E-1,1.6683552E-2,-1.1781098E-1,3.7258455E-1,9.592562E-2,-5.4925185E-2,1.9263777E-1,1.8583504E-3,-3.876223E-1,-2.3568825E-1,-5.6876063E-1,5.6504175E-2,7.1047735E-1,7.789461E-1,2.5269958E-1,-1.4192778E-2,8.889354E-2,-2.6739214E-2,-3.336431E-1,5.9479713E-1,2.3229907E-1,2.1476522E-1,-1.3595255E-1,-3.172738E-2,-4.4065066E-2,-1.6567975E-1,-4.2453897E-1,-1.03600705E-2,2.5050375E-1,-5.4506373E-1,-4.336213E-4,-9.2271924E-1,-4.1695487E-1,-2.2023791E-1,-4.713889E-1,-1.8347216E-1,1.2393961E-2,2.0624274E-1,-1.2044521E-1,-6.069822E-2,-6.8735445E-1,1.8198019E-2,3.4007153E-3,-5.9338015E-2,-4.563988E-1,8.797311E-3,1.9707017E-2,1.0304676E-2,-4.7966535E-3,5.536995E-3,-5.2341903E-3,-7.4129105E-3,7.2093266E-3,-4.9840407E-3,2.1240136E-3,2.356948E-3,-1.32285375E-2,5.442268E-3,-7.764568E-3,-1.7647766E-2,-4.690991E-3,1.10982815E-2,-9.643078E-3,2.2381943E-2,1.5745606E-2,2.7095126E-2,1.0670899E-2,-3.3735707E-3,9.018337E-3,-4.120689E-3,1.0068151E-2,-1.4723208E-2,-1.8442252E-3,1.9719357E-2,8.280624E-3,1.9173935E-2,4.5933193E-3,8.114735E-3,2.5389516E-3,-1.636116E-5,-8.367064E-3,-1.5295395E-3,-1.0379755E-2,-1.6540613E-2,-8.381117E-3,1.2786845E-2,7.579212E-4,-1.05695855E-2,-1.8836625E-2,-1.7104376E-2,-2.7677812E-2,-6.2842984E-3,-1.6558195E-2,-1.3101028E-2,-2.6134902E-3,-9.782049E-3,-1.8075177E-2,-1.2280169E-2,2.3475783E-3,1.5663244E-2,-1.0401092E-3,-1.155783E-3,-1.5074115E-2,-1.0114333E-2,4.7212313E-3,-1.4312278E-2,-2.7908338E-2,-1.2445828E-2,1.2215812E-4,-1.9643193E-2,-5.3076977E-3],"categories":[],"categories_nodes":[],"categories_segments":[],"categories_sizes":[],"default_left":[0,0,0,0,0,0,0,0,0,0,0,0,0,0,0,0,0,0,0,0,0,0,0,0,0,0,0,0,0,0,0,0,0,0,0,0,0,0,0,0,0,0,0,0,0,0,0,0,0,0,0,0,0,0,0,0,0,0,0,0,0,0,0,0,0,0,0,0,0,0,0,0,0,0,0,0,0,0,0,0,0,0,0,0,0,0,0,0,0,0,0,0,0,0,0,0,0,0,0,0,0,0,0,0,0,0,0,0,0,0,0,0,0,0,0,0,0,0,0,0,0,0,0,0,0,0,0,0,0,0,0,0,0,0,0,0,0,0,0,0,0,0,0,0,0,0,0,0,0,0,0,0,0,0,0,0,0,0,0,0,0,0,0,0,0],"id":0,"left_children":[1,3,5,7,9,11,13,15,17,19,21,23,25,27,29,31,33,-1,35,-1,37,39,41,43,-1,45,47,49,51,53,55,-1,-1,57,59,61,63,65,67,69,71,73,75,77,-1,79,81,83,85,87,89,91,93,-1,95,-1,97,99,101,103,105,107,109,111,113,115,117,119,121,-1,123,-1,125,127,129,131,133,-1,-1,135,137,-1,139,141,-1,143,145,147,149,151,-1,153,155,157,159,-1,-1,161,163,-1,-1,-1,-1,-1,-1,-1,-1,-1,-1,-1,-1,-1,-1,-1,-1,-1,-1,-1,-1,-1,-1,-1,-1,-1,-1,-1,-1,-1,-1,-1,-1,-1,-1,-1,-1,-1,-1,-1,-1,-1,-1,-1,-1,-1,-1,-1,-1,-1,-1,-1,-1,-1,-1,-1,-1,-1,-1,-1,-1,-1,-1,-1,-1,-1,-1],"loss_changes":[9.1512024E2,9.380471E2,1.40841E2,3.0301688E2,1.9325336E2,6.5635925E1,5.6718384E1,5.1408974E1,7.584201E1,7.268219E1,1.1479114E2,1.1418289E1,6.2842804E1,3.1570114E1,1.9533262E1,2.0822613E1,2.9699215E1,0E0,5.4265778E1,0E0,5.9046753E1,1.5008831E1,1.5352527E2,6.5739746E0,0E0,1.8206245E1,2.9807861E1,2.359172E1,1.7247688E1,9.947489E0,2.294359E1,0E0,0E0,1.2893181E1,1.7531694E1,6.589711E1,4.516742E1,3.9946777E1,3.599942E1,1.4900356E1,1.5369305E1,4.767047E1,7.445015E1,4.687317E0,0E0,1.3830711E1,1.2439014E1,1.7711273E1,1.9713013E1,2.0981781E1,1.5092092E1,1.2827823E1,3.375386E1,0E0,1.151227E1,0E0,1.3418015E1,1.0433495E1,1.792619E1,2.505351E1,1.4920502E1,1.0177505E1,4.5431E1,1.1553768E1,3.7904175E1,1.4235073E1,1.6588806E1,1.2236465E1,2.3391659E1,0E0,8.288024E0,0E0,7.5606136E0,4.970218E1,1.488415E1,5.306717E1,1.5414307E1,0E0,0E0,7.161624E0,1.3164673E1,0E0,4.5644236E0,1.5204361E1,0E0,9.007568E0,3.3709278E0,1.5153194E1,2.3909409E1,1.3618421E1,0E0,1.6092556E1,1.176984E1,1.6684547E1,7.400383E0,0E0,0E0,1.4433855E1,6.731722E0,0E0,0E0,0E0,0E0,0E0,0E0,0E0,0E0,0E0,0E0,0E0,0E0,0E0,0E0,0E0,0E0,0E0,0E0,0E0,0E0,0E0,0E0,0E0,0E0,0E0,0E0,0E0,0E0,0E0,0E0,0E0,0E0,0E0,0E0,0E0,0E0,0E0,0E0,0E0,0E0,0E0,0E0,0E0,0E0,0E0,0E0,0E0,0E0,0E0,0E0,0E0,0E0,0E0,0E0,0E0,0E0,0E0,0E0,0E0,0E0,0E0,0E0,0E0,0E0,0E0,0E0],"parents":[2147483647,0,0,1,1,2,2,3,3,4,4,5,5,6,6,7,7,8,8,9,9,10,10,11,11,12,12,13,13,14,14,15,15,16,16,18,18,20,20,21,21,22,22,23,23,25,25,26,26,27,27,28,28,29,29,30,30,33,33,34,34,35,35,36,36,37,37,38,38,39,39,40,40,41,41,42,42,43,43,45,45,46,46,47,47,48,48,49,49,50,50,51,51,52,52,54,54,56,56,57,57,58,58,59,59,60,60,61,61,62,62,63,63,64,64,65,65,66,66,67,67,68,68,70,70,72,72,73,73,74,74,75,75,76,76,79,79,80,80,82,82,83,83,85,85,86,86,87,87,88,88,89,89,91,91,92,92,93,93,94,94,97,97,98,98],"right_children":[2,4,6,8,10,12,14,16,18,20,22,24,26,28,30,32,34,-1,36,-1,38,40,42,44,-1,46,48,50,52,54,56,-1,-1,58,60,62,64,66,68,70,72,74,76,78,-1,80,82,84,86,88,90,92,94,-1,96,-1,98,100,102,104,106,108,110,112,114,116,118,120,122,-1,124,-1,126,128,130,132,134,-1,-1,136,138,-1,140,142,-1,144,146,148,150,152,-1,154,156,158,160,-1,-1,162,164,-1,-1,-1,-1,-1,-1,-1,-1,-1,-1,-1,-1,-1,-1,-1,-1,-1,-1,-1,-1,-1,-1,-1,-1,-1,-1,-1,-1,-1,-1,-1,-1,-1,-1,-1,-1,-1,-1,-1,-1,-1,-1,-1,-1,-1,-1,-1,-1,-1,-1,-1,-1,-1,-1,-1,-1,-1,-1,-1,-1,-1,-1,-1,-1,-1,-1],"split_conditions":[3.6690962E-1,-2.342737E-4,9.71986E-3,5.8333755E-1,6.42979E-3,2.1362111E-3,6.4769265E-4,3.0551876E-3,1.17585E-3,1.0420869E-3,3.6191536E-4,-8.0385685E-1,-1.5823053E-1,2.14E2,-1.2039961E-1,3.0283332E-1,6.255722E-2,-4.3249775E-2,8.059579E-1,3.99223E-2,7.061367E-4,6.2786925E-1,2.6849888E-3,-6.0142605E-3,-1.875757E-2,1.3333602E0,6.589329E-1,7.659574E1,1.467931E-2,1E0,2.1289631E-3,-3.117055E-4,-2.350032E-2,3.592895E-4,1E0,3.8407363E-2,-1.7079751E-1,4.7763094E-4,2.1289631E-3,4.3388373E-1,4.4764187E-3,1.4699115E-1,3.8545012E-1,1.9933413E-1,-2.5244392E-2,-1.4470299E-3,2.0039926E-1,8.948034E-1,1.4199219E0,-3.6265183E-4,1.3814114E0,-2.0800781E0,1E0,-2.4007098E-3,2.212E3,1.6683552E-2,1.926868E-2,5.7826656E-1,1.0777024E-2,7.3346924E-3,-4.7501647E-3,8.004425E-3,-2.5615185E-3,2.5295238E1,6.329693E-4,1.6090904E-4,3.1391352E-3,2.736882E-1,-4.056919E-4,-1.4192778E-2,2.7315928E-2,-2.6739214E-2,7.892489E-2,7.6006916E-3,7.058739E-2,1.1475129E-1,1.9794789E-3,-3.172738E-2,-4.4065066E-2,1.4649749E-4,-1.1201172E0,-1.03600705E-2,1.8824682E-3,-1.1417037E-1,-4.336213E-4,9.0256715E-3,-2.8326616E-4,-5.035888E-1,6.216183E-1,1.862999E-2,1.2393961E-2,-1.4693798E-3,3.5793847E-1,2.0378979E-2,7.8688353E-1,1.8198019E-2,3.4007153E-3,-9.9405634E-1,4.7199707E0,8.797311E-3,1.9707017E-2,1.0304676E-2,-4.7966535E-3,5.536995E-3,-5.2341903E-3,-7.4129105E-3,7.2093266E-3,-4.9840407E-3,2.1240136E-3,2.356948E-3,-1.32285375E-2,5.442268E-3,-7.764568E-3,-1.7647766E-2,-4.690991E-3,1.10982815E-2,-9.643078E-3,2.2381943E-2,1.5745606E-2,2.7095126E-2,1.0670899E-2,-3.3735707E-3,9.018337E-3,-4.120689E-3,1.0068151E-2,-1.4723208E-2,-1.8442252E-3,1.9719357E-2,8.280624E-3,1.9173935E-2,4.5933193E-3,8.114735E-3,2.5389516E-3,-1.636116E-5,-8.367064E-3,-1.5295395E-3,-1.0379755E-2,-1.6540613E-2,-8.381117E-3,1.2786845E-2,7.579212E-4,-1.05695855E-2,-1.8836625E-2,-1.7104376E-2,-2.7677812E-2,-6.2842984E-3,-1.6558195E-2,-1.3101028E-2,-2.6134902E-3,-9.782049E-3,-1.8075177E-2,-1.2280169E-2,2.3475783E-3,1.5663244E-2,-1.0401092E-3,-1.155783E-3,-1.5074115E-2,-1.0114333E-2,4.7212313E-3,-1.4312278E-2,-2.7908338E-2,-1.2445828E-2,1.2215812E-4,-1.9643193E-2,-5.3076977E-3],"split_indices":[4,0,58,3,57,58,1,58,58,57,22,46,41,53,41,35,4,0,3,0,15,3,33,40,0,38,4,27,57,59,57,0,0,14,59,4,41,22,57,47,58,4,41,3,0,15,24,34,10,15,39,9,60,0,42,0,57,34,57,57,18,58,17,25,17,15,33,28,1,0,44,0,44,41,3,4,15,0,0,0,10,0,22,28,0,3,40,38,4,58,0,2,44,57,39,0,0,46,10,0,0,0,0,0,0,0,0,0,0,0,0,0,0,0,0,0,0,0,0,0,0,0,0,0,0,0,0,0,0,0,0,0,0,0,0,0,0,0,0,0,0,0,0,0,0,0,0,0,0,0,0,0,0,0,0,0,0,0,0,0,0,0,0,0,0],"split_type":[0,0,0,0,0,0,0,0,0,0,0,0,0,0,0,0,0,0,0,0,0,0,0,0,0,0,0,0,0,0,0,0,0,0,0,0,0,0,0,0,0,0,0,0,0,0,0,0,0,0,0,0,0,0,0,0,0,0,0,0,0,0,0,0,0,0,0,0,0,0,0,0,0,0,0,0,0,0,0,0,0,0,0,0,0,0,0,0,0,0,0,0,0,0,0,0,0,0,0,0,0,0,0,0,0,0,0,0,0,0,0,0,0,0,0,0,0,0,0,0,0,0,0,0,0,0,0,0,0,0,0,0,0,0,0,0,0,0,0,0,0,0,0,0,0,0,0,0,0,0,0,0,0,0,0,0,0,0,0,0,0,0,0,0,0],"sum_hessian":[2.2840236E4,1.6671445E4,6.1687896E3,5.8989062E3,1.0772539E4,2.4925151E3,3.6762747E3,2.130008E3,3.7688982E3,2.3630781E3,8.409461E3,1.9752112E2,2.294994E3,2.7339854E3,9.4228937E2,1.23697754E2,2.0063103E3,5.2018013E1,3.7168804E3,8.7240814E1,2.2758374E3,3.8054196E2,8.0289194E3,1.4209212E2,5.5428997E1,1.0753014E3,1.2196925E3,1.8288169E3,9.0516833E2,2.1753558E2,7.247538E2,4.8522675E1,7.517508E1,8.0740314E2,1.1989071E3,1.7893232E3,1.927557E3,1.2802677E3,9.9556964E2,1.8672478E2,1.9381718E2,1.896489E3,6.13243E3,9.385727E1,4.8234848E1,9.317594E2,1.4354199E2,7.51877E2,4.678155E2,1.5880992E3,2.407177E2,5.343987E2,3.7076965E2,5.7268944E1,1.6026665E2,4.7015545E1,6.777382E2,5.679201E2,2.3948306E2,7.2747406E2,4.71433E2,7.4257916E2,1.0467441E3,5.8420715E2,1.3433499E3,1.0144098E2,1.1788267E3,1.5372995E2,8.4183966E2,6.0649254E1,1.2607552E2,5.2059425E1,1.4175777E2,1.4077721E3,4.8871698E2,5.4515654E3,6.80865E2,4.7813076E1,4.604419E1,3.086393E2,6.2312006E2,4.7403065E1,9.613892E1,6.822162E2,6.966086E1,3.7050943E2,9.730608E1,4.7428522E2,1.113814E3,1.9390001E2,4.6817696E1,1.8256125E2,3.5183746E2,2.3537067E2,1.3539899E2,8.228845E1,7.7978195E1,5.779322E2,9.980604E1,4.9065405E2,7.7266045E1,1.18046005E2,1.2143706E2,2.511439E2,4.7633017E2,6.1044952E1,4.1038806E2,2.1653816E2,5.2604095E2,1.7004971E2,8.766944E2,5.5765392E1,5.284418E2,1.140905E3,2.0244485E2,5.4787903E1,4.6653076E1,6.8570844E2,4.9311823E2,1.01315216E2,5.2414734E1,1.3892601E2,7.029137E2,6.766447E1,5.8411053E1,8.104103E1,6.0716736E1,1.0009361E3,4.06836E2,6.090385E1,4.2781314E2,3.3121062E3,2.1394592E3,3.7631198E2,3.04553E2,2.025384E2,1.0610092E2,2.5462288E2,3.684972E2,4.9190865E1,4.694806E1,3.1320572E2,3.6901047E2,7.761931E1,2.928901E2,4.7850906E1,4.9455173E1,1.5665678E2,3.1762845E2,6.805311E2,4.3328287E2,9.823142E1,9.566859E1,7.357183E1,1.0898942E2,2.9703525E2,5.480222E1,1.0147779E2,1.3389287E2,8.903731E1,4.636167E1,8.091424E1,4.9701794E2,5.0731228E1,4.9074814E1],"tree_param":{"num_deleted":"0","num_feature":"63","num_nodes":"165","size_leaf_vector":"1"}},{"base_weights":[-3.1173679E-3,1.1760104E-1,-3.2580656E-1,-1.957801E-1,2.8834704E-1,-4.93702E-1,-2.0875238E-1,-4.6489215E-1,4.303074E-2,5.91107E-1,2.2713555E-1,-1.0350405E0,-4.423916E-1,-3.0215722E-1,-8.696579E-3,-8.2939464E-1,-4.064896E-1,-7.5716265E-2,2.4773802E-1,4.1191526E-2,5.474009E-1,4.5193046E-1,1.602121E-1,-1.3217584E0,-8.2782906E-1,-3.138465E-1,-6.126698E-1,-3.9111444E-1,-1.4627606E-1,-7.352977E-2,2.2487517E-1,-3.7299562E-2,-7.324904E-1,-2.0917176E-1,-5.098219E-1,-4.99215E-1,-4.758593E-2,3.9047042E-1,8.044327E-2,-6.9064302E-3,5.8210236E-1,-3.0261883E-1,5.401912E-1,1.886059E-1,-1.8116465E-1,-3.1104917E-2,-4.1820392E-2,-3.1245055E-2,-1.5682222E-2,-3.740825E-1,4.787989E-2,-4.9502906E-1,-8.280066E-1,-2.6396474E-1,-5.4792863E-1,-3.2215306E-1,-7.5484455E-2,4.011274E-2,-2.1132109E-1,-1.0344483E-1,4.6473268E-1,-8.676982E-3,-8.947962E-1,-2.51556E-1,6.090023E-3,-5.422442E-1,-4.5054685E-2,-5.007817E-3,-1.9765357E-2,-1.4091642E-1,8.904896E-2,5.7824224E-1,2.1666583E-1,-1.3860788E-2,1.4296445E-1,7.9653484E-1,5.0206494E-1,-4.9992827E-1,6.0307104E-3,6.1085284E-1,2.6337478E-1,-3.1258237E-1,2.0717074E-1,-2.8732643E-1,1.1134937E-1,-6.5312886E-1,-3.107787E-1,-1.3243374E-1,8.85058E-3,-1.7540695E-1,-5.685306E-1,-1.1380463E-2,-9.4037986E-1,-3.2705548E-1,2.418118E-1,-6.580608E-1,-3.0547825E-1,-5.7522874E-2,-6.8218046E-1,-3.635199E-2,-1.2269153E-2,-6.4974375E-2,3.089342E-1,-3.2786184E-3,-3.261122E-1,9.095228E-3,-1.5048914E-2,2.8827558E-3,6.774171E-1,-1.6500447E-2,-2.876504E-2,-8.481551E-3,-4.1071343E-4,-1.5582982E-2,2.8652619E-3,5.3058076E-3,-7.5957314E-3,1.5958667E-3,-6.3229064E-3,6.339446E-4,8.023741E-3,1.8853279E-2,7.4760104E-3,4.2697494E-3,1.567226E-2,6.4463164E-3,-6.448825E-3,2.529671E-2,1.1675003E-2,2.525245E-3,1.5095108E-2,-5.4921648E-3,-1.9760018E-2,-3.2009806E-3,1.7533248E-2,1.8452709E-3,1.3624391E-2,-1.7267583E-2,3.1873623E-3,7.285739E-3,2.168798E-3,-1.4608954E-2,-3.5764752E-3,9.275204E-3,-9.7838E-3,-7.892087E-3,-2.1011772E-2,7.722294E-3,-9.818701E-3,2.9498097E-3,-9.022398E-3,-9.924291E-3,3.209302E-3,-1.7667038E-2,-3.7798716E-3,-2.9295195E-2,-1.7034233E-2,-2.3072645E-4,-1.0949167E-2,1.2697638E-2,1.2867092E-4,-7.905672E-3,-1.9498045E-2,9.186929E-4,-1.3124484E-2,8.589279E-3,-7.0178984E-3,-2.4062568E-2,-1.2735676E-2,3.862701E-3,-3.3601457E-3,-4.41794E-3,1.2811878E-2,1.5081522E-2,1.0454654E-3,-6.649757E-3,5.377902E-3,-1.45761045E-2,-3.7588952E-3,2.4258582E-2,1.315286E-2],"categories":[],"categories_nodes":[],"categories_segments":[],"categories_sizes":[],"default_left":[0,0,0,0,0,0,0,0,0,0,0,0,0,0,0,0,0,0,0,0,0,0,0,0,0,0,0,0,0,0,0,0,0,0,0,0,0,0,0,0,0,0,0,0,0,0,0,0,0,0,0,0,0,0,0,0,0,0,0,0,0,0,0,0,0,0,0,0,0,0,0,0,0,0,0,0,0,0,0,0,0,0,0,0,0,0,0,0,0,0,0,0,0,0,0,0,0,0,0,0,0,0,0,0,0,0,0,0,0,0,0,0,0,0,0,0,0,0,0,0,0,0,0,0,0,0,0,0,0,0,0,0,0,0,0,0,0,0,0,0,0,0,0,0,0,0,0,0,0,0,0,0,0,0,0,0,0,0,0,0,0,0,0,0,0,0,0,0,0,0,0,0,0,0,0,0,0,0,0,0,0],"id":1,"left_children":[1,3,5,7,9,11,13,15,17,19,21,23,25,27,29,31,33,35,37,-1,39,41,43,45,47,49,51,53,55,57,59,-1,61,63,65,67,69,71,73,-1,75,77,79,81,83,-1,-1,-1,-1,85,87,89,91,93,95,97,99,101,103,105,107,-1,109,111,-1,113,115,-1,-1,117,119,121,123,-1,125,127,129,131,-1,133,135,137,139,141,143,145,147,149,-1,151,153,-1,155,157,159,161,163,165,167,169,-1,171,173,175,177,-1,-1,-1,179,-1,-1,-1,-1,-1,-1,-1,-1,-1,-1,-1,-1,-1,-1,-1,-1,-1,-1,-1,-1,-1,-1,-1,-1,-1,-1,-1,-1,-1,-1,-1,-1,-1,-1,-1,-1,-1,-1,-1,-1,-1,-1,-1,-1,-1,-1,-1,-1,-1,-1,-1,-1,-1,-1,-1,-1,-1,-1,-1,-1,-1,-1,-1,-1,-1,-1,-1,-1,-1,-1,-1,-1],"loss_changes":[8.9329535E2,8.9298035E2,1.2269678E2,3.7826562E2,2.0019946E2,7.123578E1,6.873836E1,5.891095E1,7.580556E1,7.158887E1,1.3518478E2,1.3190918E1,5.1275726E1,3.4773956E1,1.773031E1,1.9340668E1,4.8632324E1,2.3512142E1,2.733754E1,0E0,4.7963806E1,1.3728815E2,6.711873E1,3.5099792E0,1.0183403E1,2.9085709E1,2.5527527E1,3.1834137E1,1.134416E1,1.4350788E1,2.0032791E1,0E0,2.1872604E1,1.4935978E1,2.3588867E1,8.477533E0,2.360051E1,2.016169E1,1.920323E1,0E0,2.8498657E1,2.2199146E1,3.610022E1,5.9481186E1,1.6511747E1,0E0,0E0,0E0,0E0,2.021399E1,9.375108E0,1.5309967E1,1.6626999E1,2.8134674E1,1.9088806E1,2.4912886E1,9.383991E0,1.418814E1,9.892141E0,2.054996E1,1.1263218E1,0E0,1.0173065E1,9.854317E0,0E0,2.1225922E1,5.5770807E0,0E0,0E0,1.927828E1,1.0011049E1,9.579086E0,6.9801188E0,0E0,1.6250591E1,2.0254059E1,2.2315369E1,1.0184181E1,0E0,2.619983E1,1.6988214E1,3.0611116E1,4.5059326E1,1.4895016E1,1.4826757E1,8.412659E0,2.4807053E1,5.3414135E0,0E0,6.5481606E0,1.6391724E1,0E0,1.0975403E1,1.7417908E1,5.0628743E0,8.860626E0,1.286998E1,1.0937607E1,4.6392097E0,8.846343E0,0E0,1.8178492E1,9.090113E0,6.937552E0,1.0244202E1,0E0,0E0,0E0,3.742241E0,0E0,0E0,0E0,0E0,0E0,0E0,0E0,0E0,0E0,0E0,0E0,0E0,0E0,0E0,0E0,0E0,0E0,0E0,0E0,0E0,0E0,0E0,0E0,0E0,0E0,0E0,0E0,0E0,0E0,0E0,0E0,0E0,0E0,0E0,0E0,0E0,0E0,0E0,0E0,0E0,0E0,0E0,0E0,0E0,0E0,0E0,0E0,0E0,0E0,0E0,0E0,0E0,0E0,0E0,0E0,0E0,0E0,0E0,0E0,0E0,0E0,0E0,0E0,0E0,0E0,0E0,0E0,0E0,0E0,0E0,0E0,0E0],"parents":[2147483647,0,0,1,1,2,2,3,3,4,4,5,5,6,6,7,7,8,8,9,9,10,10,11,11,12,12,13,13,14,14,15,15,16,16,17,17,18,18,20,20,21,21,22,22,23,23,24,24,25,25,26,26,27,27,28,28,29,29,30,30,32,32,33,33,34,34,35,35,36,36,37,37,38,38,40,40,41,41,42,42,43,43,44,44,49,49,50,50,51,51,52,52,53,53,54,54,55,55,56,56,57,57,58,58,59,59,60,60,62,62,63,63,65,65,66,66,69,69,70,70,71,71,72,72,74,74,75,75,76,76,77,77,79,79,80,80,81,81,82,82,83,83,84,84,85,85,86,86,87,87,89,89,90,90,92,92,93,93,94,94,95,95,96,96,97,97,98,98,99,99,101,101,102,102,103,103,104,104,108,108],"right_children":[2,4,6,8,10,12,14,16,18,20,22,24,26,28,30,32,34,36,38,-1,40,42,44,46,48,50,52,54,56,58,60,-1,62,64,66,68,70,72,74,-1,76,78,80,82,84,-1,-1,-1,-1,86,88,90,92,94,96,98,100,102,104,106,108,-1,110,112,-1,114,116,-1,-1,118,120,122,124,-1,126,128,130,132,-1,134,136,138,140,142,144,146,148,150,-1,152,154,-1,156,158,160,162,164,166,168,170,-1,172,174,176,178,-1,-1,-1,180,-1,-1,-1,-1,-1,-1,-1,-1,-1,-1,-1,-1,-1,-1,-1,-1,-1,-1,-1,-1,-1,-1,-1,-1,-1,-1,-1,-1,-1,-1,-1,-1,-1,-1,-1,-1,-1,-1,-1,-1,-1,-1,-1,-1,-1,-1,-1,-1,-1,-1,-1,-1,-1,-1,-1,-1,-1,-1,-1,-1,-1,-1,-1,-1,-1,-1,-1,-1,-1,-1,-1,-1],"split_conditions":[3.6690962E-1,-2.342737E-4,9.79622E-3,1.7919385E-1,5.4176725E-3,2.2682054E-3,2.3033293E-1,4.3918784E-3,4.6156254E-1,1.0420869E-3,2.5573368E-3,-2.656049E-1,-9.052715E-2,1.5865498E-4,3.1380884E-3,1.4191304E-3,-9.052715E-2,3.0551876E-3,1.4762239E-2,4.1191526E-2,4.2506092E-4,3.9420355E-4,5.9833086E-1,2.3462011E-1,1.4191304E-3,1.1170474E0,6.923318E-1,1E0,4.0497375E1,3.489533E-4,1.862999E-2,-3.7299562E-2,3.5310097E1,2.3924256E-2,1.6651628E0,-5.647487E0,1E0,1.4981092E-2,3.0551876E-3,-6.9064302E-3,2.454932E-3,5.7144517E-1,1.9104804E-1,2.6306391E-3,1E0,-3.1104917E-2,-4.1820392E-2,-3.1245055E-2,-1.5682222E-2,4.2506092E-4,1E0,4.606022E-4,3.1325905E-4,2.3924256E-2,6.664182E1,-1.491017E-3,7.591095E-1,8.7155744E-2,6.5029003E-3,3.9262112E-2,6.9550204E-1,-8.676982E-3,6.0736673E-4,9.7392356E-1,6.090023E-3,6.300049E0,1E0,-5.007817E-3,-1.9765357E-2,0E0,1.8031487E-2,1.6986752E-3,2.6723838E-1,-1.3860788E-2,1.171296E-3,1.194853E0,-6.384503E-4,2.634797E-4,6.0307104E-3,2.2682054E-3,3.458568E-1,3.3599455E-4,1.6453427E-1,5.5819196E-1,1.8797614E-1,-3.4193783E-3,3.8831614E-4,5.072451E-1,8.85058E-3,7.998325E-4,3.7048203E-1,-1.1380463E-2,2.8701476E-4,4.005667E-4,4.167995E0,3.73788E-4,2.5955456E-1,-2.4689111E-1,7.853845E-2,9.13879E-4,-1.2269153E-2,1.9400635E0,3.7946389E0,9.6087635E-2,3.6719123E-1,9.095228E-3,-1.5048914E-2,2.8827558E-3,1.0777024E-2,-1.6500447E-2,-2.876504E-2,-8.481551E-3,-4.1071343E-4,-1.5582982E-2,2.8652619E-3,5.3058076E-3,-7.5957314E-3,1.5958667E-3,-6.3229064E-3,6.339446E-4,8.023741E-3,1.8853279E-2,7.4760104E-3,4.2697494E-3,1.567226E-2,6.4463164E-3,-6.448825E-3,2.529671E-2,1.1675003E-2,2.525245E-3,1.5095108E-2,-5.4921648E-3,-1.9760018E-2,-3.2009806E-3,1.7533248E-2,1.8452709E-3,1.3624391E-2,-1.7267583E-2,3.1873623E-3,7.285739E-3,2.168798E-3,-1.4608954E-2,-3.5764752E-3,9.275204E-3,-9.7838E-3,-7.892087E-3,-2.1011772E-2,7.722294E-3,-9.818701E-3,2.9498097E-3,-9.022398E-3,-9.924291E-3,3.209302E-3,-1.7667038E-2,-3.7798716E-3,-2.9295195E-2,-1.7034233E-2,-2.3072645E-4,-1.0949167E-2,1.2697638E-2,1.2867092E-4,-7.905672E-3,-1.9498045E-2,9.186929E-4,-1.3124484E-2,8.589279E-3,-7.0178984E-3,-2.4062568E-2,-1.2735676E-2,3.862701E-3,-3.3601457E-3,-4.41794E-3,1.2811878E-2,1.5081522E-2,1.0454654E-3,-6.649757E-3,5.377902E-3,-1.45761045E-2,-3.7588952E-3,2.4258582E-2,1.315286E-2],"split_indices":[4,0,58,5,57,58,5,58,5,57,33,38,41,0,22,58,41,58,57,0,22,22,41,3,58,38,4,60,27,8,58,0,25,58,38,26,59,58,58,0,33,5,4,58,50,0,0,0,0,22,36,6,6,58,27,7,4,45,57,41,39,0,6,38,0,10,60,0,0,23,58,8,45,0,40,39,1,6,0,58,5,0,4,12,4,7,6,4,0,22,5,0,2,6,31,6,28,41,41,6,0,9,31,3,5,0,0,0,57,0,0,0,0,0,0,0,0,0,0,0,0,0,0,0,0,0,0,0,0,0,0,0,0,0,0,0,0,0,0,0,0,0,0,0,0,0,0,0,0,0,0,0,0,0,0,0,0,0,0,0,0,0,0,0,0,0,0,0,0,0,0,0,0,0,0,0,0,0,0,0,0],"split_type":[0,0,0,0,0,0,0,0,0,0,0,0,0,0,0,0,0,0,0,0,0,0,0,0,0,0,0,0,0,0,0,0,0,0,0,0,0,0,0,0,0,0,0,0,0,0,0,0,0,0,0,0,0,0,0,0,0,0,0,0,0,0,0,0,0,0,0,0,0,0,0,0,0,0,0,0,0,0,0,0,0,0,0,0,0,0,0,0,0,0,0,0,0,0,0,0,0,0,0,0,0,0,0,0,0,0,0,0,0,0,0,0,0,0,0,0,0,0,0,0,0,0,0,0,0,0,0,0,0,0,0,0,0,0,0,0,0,0,0,0,0,0,0,0,0,0,0,0,0,0,0,0,0,0,0,0,0,0,0,0,0,0,0,0,0,0,0,0,0,0,0,0,0,0,0,0,0,0,0,0,0],"sum_hessian":[2.2931748E4,1.6688545E4,6.2432036E3,5.8858545E3,1.0802689E4,2.5646384E3,3.6785652E3,2.7673604E3,3.1184941E3,1.816758E3,8.985932E3,2.2204018E2,2.3425984E3,2.5077236E3,1.1708413E3,3.8216702E2,2.3851934E3,1.9736283E3,1.1448658E3,8.399746E1,1.7327606E3,2.061472E3,6.9244595E3,9.314779E1,1.288924E2,1.3348817E3,1.00771655E3,1.5965906E3,9.111331E2,9.1645795E2,2.5438339E2,5.9810207E1,3.2235684E2,8.1978253E2,1.5654109E3,1.2292935E2,1.850699E3,6.177842E2,5.2708167E2,7.2237885E1,1.6605227E3,2.1588116E2,1.8455907E3,6.392747E3,5.317126E2,4.6474148E1,4.667364E1,5.9315254E1,6.957713E1,1.1443246E3,1.9055716E2,6.5169257E2,3.5602402E2,8.816908E2,7.148998E2,2.61486E2,6.4964716E2,5.0223956E2,4.1421838E2,1.0738874E2,1.4699466E2,9.015218E1,2.3220465E2,7.4620703E2,7.357549E1,1.4633284E3,1.0208249E2,4.9891296E1,7.3038055E1,1.0996005E3,7.510985E2,2.9695914E2,3.2082504E2,5.107073E1,4.7601093E2,4.5133084E2,1.2091919E3,1.5659485E2,5.9286316E1,1.4702786E3,3.753121E2,2.283392E2,6.1644077E3,3.9012497E2,1.4158759E2,2.1159514E2,9.3272943E2,1.1473426E2,7.58229E1,1.2184616E2,5.298464E2,7.577622E1,2.802478E2,7.839063E2,9.7784485E1,4.9159393E2,2.2330586E2,1.5071046E2,1.1077552E2,5.8737756E2,6.2269573E1,3.610854E2,1.4115417E2,1.4728543E2,2.6693295E2,5.423818E1,5.315056E1,5.4566032E1,9.242862E1,7.711133E1,1.550933E2,6.038442E2,1.4236284E2,1.4141854E3,4.9143E1,5.02632E1,5.1819286E1,3.3802194E2,7.6157855E2,5.6576935E2,1.8532915E2,2.2135751E2,7.5601616E1,2.727346E2,4.809045E1,3.8368347E2,9.232745E1,3.4145926E2,1.0987158E2,1.1932734E2,1.0898646E3,6.546106E1,9.113379E1,4.7973454E1,1.4223052E3,2.0253334E2,1.7277876E2,1.3187082E2,9.6468376E1,4.2744834E3,1.8899241E3,1.5390688E2,2.362181E2,9.55101E1,4.607748E1,4.81983E1,1.6339685E2,6.607644E1,8.66653E2,5.1442204E1,6.329206E1,7.468074E1,4.7165417E1,4.543697E2,7.54767E1,2.0378882E2,7.645898E1,1.4071046E2,6.4319586E2,5.091255E1,4.6871933E1,5.6766582E1,4.3482733E2,7.465234E1,1.4865352E2,5.2439705E1,9.827077E1,5.955186E1,5.1223663E1,1.916761E2,3.9570148E2,3.060748E2,5.5010597E1,7.5219406E1,6.593477E1,6.696327E1,8.032216E1,1.2931248E2,1.3762047E2,4.6112E1,4.631662E1],"tree_param":{"num_deleted":"0","num_feature":"63","num_nodes":"181","size_leaf_vector":"1"}},{"base_weights":[-3.9694663E-3,1.3132352E-1,-2.7336365E-1,-1.8375891E-1,3.043259E-1,-3.7136787E-1,-6.362398E-3,-4.6201047E-1,3.529548E-2,4.9035817E-1,2.3052251E-1,-4.3062228E-1,-1.179819E-1,8.915131E-2,-1.0482358E-1,-1.7658168E-1,-5.0961244E-1,-4.9492877E-2,3.0045888E-1,6.363074E-1,2.7115342E-1,2.836868E-1,3.4208048E-2,4.361209E-2,-4.603391E-1,-2.044941E-1,7.880612E-2,4.0119132E-1,5.319671E-2,-1.6217257E-1,1.1716112E-1,6.60693E-2,-3.407668E-1,-5.2938837E-1,1.384529E-3,-1.21012785E-1,4.738796E-2,4.066945E-1,9.146566E-2,9.663777E-1,5.6915814E-1,3.2139057E-1,-3.1050146E-2,-4.294655E-2,3.2229125E-1,1.6735256E-1,-6.313834E-2,-2.018116E-1,2.0729296E-1,-5.3201956E-1,-2.7817652E-1,-2.818511E-1,9.32047E-3,-3.456039E-2,3.4001988E-1,1.80588E-2,5.5735246E-3,2.3033392E-2,1.3911529E-2,-3.029412E-1,-7.134727E-2,1.0441177E-2,-5.2512202E-2,6.754535E-3,-4.4859396E-3,-4.854453E-1,-1.5688523E-3,-3.806059E-1,-5.8911526E-1,-1.8310389E-2,-9.377703E-2,2.1370051E-2,1.5142833E-2,6.8356156E-1,3.2367775E-1,1.0934173E-2,6.902811E-3,8.2485026E-1,3.642927E-2,4.755212E-1,7.07835E-1,4.2303705E-1,2.0171763E-1,1.6315472E-1,-8.6800195E-3,2.2896392E-2,-1.3372503E-2,2.507898E-1,4.139967E-1,2.534982E-1,-1.5182272E-1,-4.1039926E-1,-7.859336E-3,2.2455985E-3,-1.363399E-2,-2.6173599E-3,1.335308E-2,-6.670199E-1,-4.4644812E-1,-1.5492612E-1,-4.4594872E-1,1.5434766E-3,-3.3694836E-1,8.233894E-3,-1.7707172E-1,1.4443493E-1,-1.9247343E-1,1.7361702E-2,3.5804196E-4,1.264495E-1,-7.566362E-2,-4.4365096E-1,3.0961774E-2,-1.18995614E-1,1.0117184E-2,-1.0639345E-2,6.0726213E-3,-5.083026E-3,-2.3350606E-2,-8.043514E-3,-1.692346E-2,-1.7457556E-2,-9.601164E-3,-3.3204074E-3,6.583031E-3,1.5024696E-3,-6.489491E-3,1.1273781E-2,2.6141683E-2,1.0967292E-2,-1.4285167E-3,-4.036712E-3,6.1082863E-3,1.1298138E-2,2.708525E-2,6.635225E-3,1.534187E-2,2.5696527E-2,1.6784344E-2,6.3792598E-3,1.4622707E-2,1.2571466E-3,1.17814215E-2,-1.791381E-3,1.0504351E-2,-6.814599E-3,3.2582288E-3,3.8706773E-4,9.36549E-3,1.7088586E-2,9.372101E-3,4.8318706E-3,1.9719213E-2,2.400819E-3,-1.6715813E-2,-1.897052E-2,-1.1080595E-3,-8.4503535E-3,1.3278205E-3,-2.1018056E-2,-1.25058545E-2,-1.3438075E-2,-5.5181165E-3,3.9388056E-4,-6.834348E-3,6.429084E-4,-1.402411E-2,-1.2224117E-2,-3.9891815E-3,3.269872E-3,-1.0185613E-2,-3.363255E-3,1.3543824E-2,3.156847E-3,-1.2921992E-2,1.5229361E-2,1.1975421E-3,-1.2727162E-2,-7.9915347E-4,-6.7470893E-3,-1.6786534E-2,6.4047435E-3,-4.604034E-3,5.8807945E-4,-1.2944274E-2],"categories":[],"categories_nodes":[],"categories_segments":[],"categories_sizes":[],"default_left":[0,0,0,0,0,0,0,0,0,0,0,0,0,0,0,0,0,0,0,0,0,0,0,0,0,0,0,0,0,0,0,0,0,0,0,0,0,0,0,0,0,0,0,0,0,0,0,0,0,0,0,0,0,0,0,0,0,0,0,0,0,0,0,0,0,0,0,0,0,0,0,0,0,0,0,0,0,0,0,0,0,0,0,0,0,0,0,0,0,0,0,0,0,0,0,0,0,0,0,0,0,0,0,0,0,0,0,0,0,0,0,0,0,0,0,0,0,0,0,0,0,0,0,0,0,0,0,0,0,0,0,0,0,0,0,0,0,0,0,0,0,0,0,0,0,0,0,0,0,0,0,0,0,0,0,0,0,0,0,0,0,0,0,0,0,0,0,0,0,0,0,0,0,0,0,0,0,0,0,0,0,0,0,0,0],"id":2,"left_children":[1,3,5,7,9,11,13,15,17,19,21,23,25,27,29,31,33,35,37,39,41,43,45,47,49,51,53,55,57,59,61,63,65,67,-1,69,71,73,75,77,79,81,83,85,87,89,91,93,95,97,99,101,103,105,107,-1,-1,109,-1,111,113,-1,115,-1,-1,117,-1,119,121,-1,123,125,-1,127,129,-1,131,133,-1,135,137,139,141,143,-1,145,-1,147,149,151,153,155,157,-1,-1,-1,-1,159,161,163,165,-1,167,-1,169,171,173,-1,-1,175,177,179,181,183,-1,-1,-1,-1,-1,-1,-1,-1,-1,-1,-1,-1,-1,-1,-1,-1,-1,-1,-1,-1,-1,-1,-1,-1,-1,-1,-1,-1,-1,-1,-1,-1,-1,-1,-1,-1,-1,-1,-1,-1,-1,-1,-1,-1,-1,-1,-1,-1,-1,-1,-1,-1,-1,-1,-1,-1,-1,-1,-1,-1,-1,-1,-1,-1,-1,-1,-1,-1,-1,-1,-1],"loss_changes":[8.349335E2,8.312534E2,2.0040222E2,3.2946075E2,1.3516077E2,8.411261E1,1.933841E1,3.2349182E1,6.7995155E1,8.945703E1,7.35611E1,6.3986816E1,1.8076336E1,1.1710449E1,1.2890195E1,1.3558157E1,2.2589966E1,1.5878103E1,1.626889E1,3.7203186E1,1.6967377E1,6.993463E1,1.9467297E1,1.0755393E1,5.5790344E1,1.2198959E1,9.601663E0,5.440197E0,1.2730177E1,1.0287788E1,9.2132E0,5.6113157E0,8.3375435E0,1.7514404E1,0E0,1.9479609E1,1.2695102E1,1.1165871E1,6.3642693E0,1.4205353E1,1.8111664E1,1.1657066E1,8.770809E0,1.7046698E1,3.252289E1,1.7441818E1,1.6655134E1,8.865744E0,1.3422983E1,3.5420532E1,2.4948471E1,1.0079597E1,1.0557325E1,6.3911467E0,9.279189E0,0E0,0E0,8.954067E0,0E0,1.4826351E1,1.0206728E1,0E0,1.1439766E1,0E0,0E0,1.4611485E1,0E0,1.1707191E1,1.4758911E1,0E0,1.1075317E1,7.8507547E0,0E0,8.128761E0,1.0349216E1,0E0,6.3503222E0,1.3190231E1,0E0,1.57434845E1,1.2506775E1,1.0624001E1,1.5479313E1,4.6898317E0,0E0,1.3102116E1,0E0,5.8461044E1,3.317099E1,1.8057625E1,1.461591E1,1.2221825E1,1.2500716E1,0E0,0E0,0E0,0E0,2.407019E1,1.874289E1,1.0913933E1,1.4927338E1,0E0,9.498451E0,0E0,6.761673E0,9.775831E0,1.0166932E1,0E0,0E0,1.5136381E1,8.08253E0,7.2799644E0,3.7221699E0,2.1666206E1,0E0,0E0,0E0,0E0,0E0,0E0,0E0,0E0,0E0,0E0,0E0,0E0,0E0,0E0,0E0,0E0,0E0,0E0,0E0,0E0,0E0,0E0,0E0,0E0,0E0,0E0,0E0,0E0,0E0,0E0,0E0,0E0,0E0,0E0,0E0,0E0,0E0,0E0,0E0,0E0,0E0,0E0,0E0,0E0,0E0,0E0,0E0,0E0,0E0,0E0,0E0,0E0,0E0,0E0,0E0,0E0,0E0,0E0,0E0,0E0,0E0,0E0,0E0,0E0,0E0,0E0,0E0,0E0,0E0,0E0,0E0],"parents":[2147483647,0,0,1,1,2,2,3,3,4,4,5,5,6,6,7,7,8,8,9,9,10,10,11,11,12,12,13,13,14,14,15,15,16,16,17,17,18,18,19,19,20,20,21,21,22,22,23,23,24,24,25,25,26,26,27,27,28,28,29,29,30,30,31,31,32,32,33,33,35,35,36,36,37,37,38,38,39,39,40,40,41,41,42,42,43,43,44,44,45,45,46,46,47,47,48,48,49,49,50,50,51,51,52,52,53,53,54,54,57,57,59,59,60,60,62,62,65,65,67,67,68,68,70,70,71,71,73,73,74,74,76,76,77,77,79,79,80,80,81,81,82,82,83,83,85,85,87,87,88,88,89,89,90,90,91,91,92,92,97,97,98,98,99,99,100,100,102,102,104,104,105,105,106,106,109,109,110,110,111,111,112,112,113,113],"right_children":[2,4,6,8,10,12,14,16,18,20,22,24,26,28,30,32,34,36,38,40,42,44,46,48,50,52,54,56,58,60,62,64,66,68,-1,70,72,74,76,78,80,82,84,86,88,90,92,94,96,98,100,102,104,106,108,-1,-1,110,-1,112,114,-1,116,-1,-1,118,-1,120,122,-1,124,126,-1,128,130,-1,132,134,-1,136,138,140,142,144,-1,146,-1,148,150,152,154,156,158,-1,-1,-1,-1,160,162,164,166,-1,168,-1,170,172,174,-1,-1,176,178,180,182,184,-1,-1,-1,-1,-1,-1,-1,-1,-1,-1,-1,-1,-1,-1,-1,-1,-1,-1,-1,-1,-1,-1,-1,-1,-1,-1,-1,-1,-1,-1,-1,-1,-1,-1,-1,-1,-1,-1,-1,-1,-1,-1,-1,-1,-1,-1,-1,-1,-1,-1,-1,-1,-1,-1,-1,-1,-1,-1,-1,-1,-1,-1,-1,-1,-1,-1,-1,-1,-1,-1,-1],"split_conditions":[3.0004883E-1,-2.342737E-4,2.8566447E-1,1.5790977E-1,3.4648005E-4,3.409912E0,4.2107195E-1,-8.994577E-3,5.3257257E-1,1.0548754E-3,6.7333335E-1,2.7541746E-4,2.5981262E-3,1.025E-1,4.563432E0,-6.7390747E0,6.300049E0,3.514021E-1,2.385579E-3,1.5189861E-3,3.1316382E-1,1.8089405E1,-6.104854E-2,6.673177E-2,1.9560331E-4,1.0835387E0,6.701056E-3,2.120804E-3,8.5E0,3.5716778E-1,6.32E2,-9.288095E-1,2.5314888E-1,-2.259E3,1.384529E-3,1.8697842E-3,3.231423E0,-5.454299E0,-5E-1,1E0,6.234898E-1,8.5465366E-1,7.904917E-4,-1.6098633E0,4.6156254E-1,5.0194426E-3,-6.5639964E-3,4.026212E-1,4.3094757E-1,3.1586194E-3,5.1687086E-1,3.5745424E-1,1.0271098E-3,-2.3868441E-4,5.366692E0,1.80588E-2,5.5735246E-3,1.724196E-1,1.3911529E-2,2.2127709E-1,8.301558E1,1.0441177E-2,7.085058E-1,6.754535E-3,-4.4859396E-3,7.818315E-1,-1.5688523E-3,-1.8444629E-1,2.473E3,-1.8310389E-2,5.0200195E0,9.73421E-3,1.5142833E-2,3.9262112E-2,1.2897219E-3,1.0934173E-2,-2.436E3,2.8652183E-4,3.642927E-2,4.202097E-4,2.0637877E0,3.4008253E-1,1.5353303E-3,-4.287733E-4,-8.6800195E-3,8.501748E0,-1.3372503E-2,1.05733045E-4,2.3685608E-3,5.6294964E1,1.0164278E0,-2.542123E-1,-1.4986296E-3,2.2455985E-3,-1.363399E-2,-2.6173599E-3,1.335308E-2,-1.7853521E-5,3.048643E-1,5.911012E-1,-6.6262007E-1,1.5434766E-3,4.384E3,8.233894E-3,3.9617786E-1,1.0586905E0,4.3501153E0,1.7361702E-2,3.5804196E-4,-7.2071016E-1,-3.6426936E-3,-4.990265E-1,3.3063426E0,4.612374E-5,1.0117184E-2,-1.0639345E-2,6.0726213E-3,-5.083026E-3,-2.3350606E-2,-8.043514E-3,-1.692346E-2,-1.7457556E-2,-9.601164E-3,-3.3204074E-3,6.583031E-3,1.5024696E-3,-6.489491E-3,1.1273781E-2,2.6141683E-2,1.0967292E-2,-1.4285167E-3,-4.036712E-3,6.1082863E-3,1.1298138E-2,2.708525E-2,6.635225E-3,1.534187E-2,2.5696527E-2,1.6784344E-2,6.3792598E-3,1.4622707E-2,1.2571466E-3,1.17814215E-2,-1.791381E-3,1.0504351E-2,-6.814599E-3,3.2582288E-3,3.8706773E-4,9.36549E-3,1.7088586E-2,9.372101E-3,4.8318706E-3,1.9719213E-2,2.400819E-3,-1.6715813E-2,-1.897052E-2,-1.1080595E-3,-8.4503535E-3,1.3278205E-3,-2.1018056E-2,-1.25058545E-2,-1.3438075E-2,-5.5181165E-3,3.9388056E-4,-6.834348E-3,6.429084E-4,-1.402411E-2,-1.2224117E-2,-3.9891815E-3,3.269872E-3,-1.0185613E-2,-3.363255E-3,1.3543824E-2,3.156847E-3,-1.2921992E-2,1.5229361E-2,1.1975421E-3,-1.2727162E-2,-7.9915347E-4,-6.7470893E-3,-1.6786534E-2,6.4047435E-3,-4.604034E-3,5.8807945E-4,-1.2944274E-2],"split_indices":[4,0,5,5,21,10,4,40,5,16,35,6,2,35,26,26,10,5,21,33,45,27,45,3,0,32,8,33,10,5,42,46,26,42,0,33,39,26,45,48,48,28,15,11,5,8,8,24,24,33,4,4,6,15,30,0,0,3,0,38,27,0,34,0,0,47,0,28,42,0,10,33,0,41,15,0,42,6,0,6,30,28,6,15,0,27,0,0,33,25,32,38,2,0,0,0,0,16,45,39,45,0,42,0,3,39,31,0,0,38,18,38,30,16,0,0,0,0,0,0,0,0,0,0,0,0,0,0,0,0,0,0,0,0,0,0,0,0,0,0,0,0,0,0,0,0,0,0,0,0,0,0,0,0,0,0,0,0,0,0,0,0,0,0,0,0,0,0,0,0,0,0,0,0,0,0,0,0,0,0,0,0,0,0,0],"split_type":[0,0,0,0,0,0,0,0,0,0,0,0,0,0,0,0,0,0,0,0,0,0,0,0,0,0,0,0,0,0,0,0,0,0,0,0,0,0,0,0,0,0,0,0,0,0,0,0,0,0,0,0,0,0,0,0,0,0,0,0,0,0,0,0,0,0,0,0,0,0,0,0,0,0,0,0,0,0,0,0,0,0,0,0,0,0,0,0,0,0,0,0,0,0,0,0,0,0,0,0,0,0,0,0,0,0,0,0,0,0,0,0,0,0,0,0,0,0,0,0,0,0,0,0,0,0,0,0,0,0,0,0,0,0,0,0,0,0,0,0,0,0,0,0,0,0,0,0,0,0,0,0,0,0,0,0,0,0,0,0,0,0,0,0,0,0,0,0,0,0,0,0,0,0,0,0,0,0,0,0,0,0,0,0,0],"sum_hessian":[2.2908064E4,1.5249556E4,7.658509E3,5.405228E3,9.844328E3,5.6021934E3,2.0563152E3,2.380906E3,3.0243218E3,2.7961692E3,7.048159E3,4.5404155E3,1.0617781E3,1.0437806E3,1.0125346E3,3.4031683E2,2.0405892E3,2.291572E3,7.327499E2,1.6785609E3,1.1176084E3,5.546186E3,1.501973E3,2.677376E2,4.2726777E3,7.3753986E2,3.2423822E2,1.0784201E2,9.3593866E2,8.0465497E2,2.0787962E2,1.3734038E2,2.0297644E2,1.9709596E3,6.962957E1,1.3183397E3,9.7323224E2,4.8580457E2,2.4694531E2,2.837563E2,1.3948046E3,9.5830365E2,1.5930473E2,5.862142E2,4.9599717E3,6.343487E2,8.6762427E2,1.0712053E2,1.6061708E2,3.0661533E3,1.2065244E3,5.415938E2,1.9594603E2,2.2610815E2,9.813007E1,4.7484108E1,6.0357903E1,8.772583E2,5.8680386E1,3.155647E2,4.8909027E2,8.185933E1,1.26020294E2,7.708752E1,6.0252857E1,1.3445815E2,6.8518295E1,5.645768E2,1.4063828E3,6.3019302E1,1.2553204E3,9.252189E2,4.8013397E1,1.1206246E2,3.737421E2,5.3636253E1,1.9330905E2,2.0267273E2,8.108356E1,8.326136E2,5.6219104E2,5.1817773E2,4.4012592E2,9.4541046E1,6.476368E1,5.1015778E2,7.605641E1,2.786994E3,2.1729778E3,4.9952637E2,1.3482234E2,1.1914631E2,7.4847797E2,5.4404625E1,5.27159E1,7.6763954E1,8.3853134E1,1.1895209E3,1.8766324E3,6.955525E2,5.1097195E2,7.595263E1,4.6564117E2,7.681699E1,1.1912904E2,1.0597966E2,1.20128494E2,5.2083557E1,4.6046513E1,4.283876E2,4.488707E2,2.2200818E2,9.355651E1,4.411021E2,4.7988182E1,5.671903E1,6.930127E1,7.327095E1,6.1187195E1,4.0820905E2,1.5636777E2,1.191443E3,2.1493979E2,1.1624601E3,9.286035E1,8.195509E2,1.0566792E2,5.4860836E1,5.7201626E1,3.1237692E2,6.136519E1,1.1276156E2,8.05475E1,5.550134E1,1.471714E2,2.1226831E2,6.203453E2,1.7338483E2,3.888062E2,1.8536307E2,3.3281467E2,2.599101E2,1.8021584E2,4.6149487E1,4.839156E1,1.3301848E2,3.7713928E2,7.589072E2,2.0280867E3,5.779285E2,1.5950493E3,4.2693344E2,7.259292E1,8.834298E1,4.6479366E1,6.814956E1,5.0996754E1,1.1823989E2,6.302381E2,8.24596E2,3.6492493E2,1.6116814E3,2.6495102E2,2.4625568E2,4.4929678E2,5.9851578E1,4.5112036E2,3.0019666E2,1.6544453E2,4.6917397E1,7.221165E1,5.9913807E1,4.6065857E1,5.686076E1,6.3267735E1,6.996976E1,3.5841785E2,4.8499428E1,4.0037128E2,1.00481E2,1.2152717E2,4.6387672E1,4.716884E1,3.148967E2,1.262054E2],"tree_param":{"num_deleted":"0","num_feature":"63","num_nodes":"185","size_leaf_vector":"1"}},{"base_weights":[7.589451E-3,1.2510556E-1,-3.1273648E-1,-1.7281087E-1,2.8710684E-1,-4.807198E-1,-1.9680542E-1,-3.8086456E-1,1.1666239E-1,4.088314E-1,1.6960247E-1,-5.7952374E-1,-2.2023498E-1,-2.4967016E-1,1.0125708E-1,-3.728566E-2,-3.6623865E-1,-3.5212897E-2,2.5040033E-1,-2.521983E-1,4.5378172E-1,-2.9330748E-1,1.9094953E-1,-1.0386205E0,-5.29684E-1,-6.302346E-1,-1.5127106E-1,-3.2592285E-1,-8.386541E-2,-1.4757009E-1,2.103322E-1,-8.514706E-2,-4.2661104E-1,-4.374563E-1,3.1519001E-3,-1.2171626E-2,2.8846768E-1,-5.3567266E-1,9.906895E-2,6.3296515E-1,3.6979833E-1,-1.9073887E-2,-1.8059878E-1,2.5106466E-1,5.3361032E-2,-1.8739177E-2,-1.1665096E0,-3.432898E-1,-6.8812317E-1,-2.462211E-2,-1.0314661E-2,-2.6270562E-1,1.2677296E-1,-1.623371E-1,-4.0169036E-1,1.7772917E-1,-1.6402774E-1,-1.4116019E-2,4.80759E-2,4.057785E-1,6.6678815E-2,-1.5324399E-2,-1.29978E-2,-5.296207E-1,-2.9733667E-1,-6.009941E-3,-1.7873703E-2,-1.2489128E-2,3.063445E-2,3.4274468E-1,6.2489256E-2,-3.7348524E-1,-2.838766E-2,2.9838625E-1,-9.874375E-3,7.3539513E-1,2.5629455E-1,3.9864182E-1,8.4680304E-2,3.657108E-3,-3.328591E-1,3.4079227E-1,1.6170138E-1,-3.7994105E-1,8.385038E-2,-3.6610257E-2,-2.4114046E-2,-5.920509E-1,-2.7969414E-1,-7.3179334E-1,-6.92124E-3,-3.8178238E-1,3.8750537E-2,2.5130445E-1,-5.650275E-3,-1.1408722E-1,-1.753936E-2,-4.8255515E-1,-2.1526134E-1,-3.830222E-2,1.4830729E-2,7.531708E-3,-1.9872262E-1,1.0129563E-2,-8.358545E-3,1.3657234E-3,2.0480962E-2,-6.0975455E-2,1.2841715E-2,-2.688656E-3,9.737157E-3,-2.3892247E-3,-1.5288349E-2,-3.1650625E-3,-1.207538E-2,8.220792E-3,-2.23724E-4,7.716358E-3,1.6261706E-2,-8.974957E-3,4.607616E-3,-3.7430204E-3,-1.7129386E-2,-2.6496674E-3,2.0688035E-2,2.6637606E-2,1.7032634E-2,1.0057053E-2,-5.584309E-3,1.2741239E-2,7.829397E-3,1.0301167E-2,-1.0349874E-3,-1.5480966E-2,-1.0613408E-3,8.960183E-3,2.4224304E-2,-1.7987452E-3,5.781937E-3,-1.8832099E-2,-2.3231537E-3,3.0062343E-3,-1.2720692E-2,-8.955458E-3,-2.4582312E-2,3.1610841E-3,-9.598332E-3,-2.2158133E-2,-1.3578084E-2,8.9586596E-5,-1.4190302E-2,7.3218076E-3,-4.485085E-3,6.207186E-4,1.4473759E-2,-6.7902696E-3,1.2544103E-3,-1.6864162E-2,-8.806035E-3,-1.052986E-3,-1.0985606E-2,-8.028055E-3,1.0460023E-2,-6.37178E-3,6.824941E-3,8.3725555E-3,-7.123473E-3],"categories":[],"categories_nodes":[],"categories_segments":[],"categories_sizes":[],"default_left":[0,0,0,0,0,0,0,0,0,0,0,0,0,0,0,0,0,0,0,0,0,0,0,0,0,0,0,0,0,0,0,0,0,0,0,0,0,0,0,0,0,0,0,0,0,0,0,0,0,0,0,0,0,0,0,0,0,0,0,0,0,0,0,0,0,0,0,0,0,0,0,0,0,0,0,0,0,0,0,0,0,0,0,0,0,0,0,0,0,0,0,0,0,0,0,0,0,0,0,0,0,0,0,0,0,0,0,0,0,0,0,0,0,0,0,0,0,0,0,0,0,0,0,0,0,0,0,0,0,0,0,0,0,0,0,0,0,0,0,0,0,0,0,0,0,0,0,0,0,0,0,0,0,0,0,0,0,0,0,0,0,0,0,0,0,0,0],"id":3,"left_children":[1,3,5,7,9,11,13,15,17,19,21,23,25,27,29,-1,31,33,35,37,39,41,43,45,47,49,51,53,55,57,59,61,63,65,67,-1,69,71,73,75,77,-1,79,81,83,-1,85,87,89,-1,-1,91,93,95,97,99,101,-1,103,105,107,-1,109,111,113,-1,-1,-1,115,117,119,121,-1,123,-1,125,127,129,131,-1,133,135,137,139,141,-1,-1,143,145,147,-1,149,151,153,-1,155,-1,157,159,161,-1,-1,163,-1,-1,-1,-1,165,-1,-1,-1,-1,-1,-1,-1,-1,-1,-1,-1,-1,-1,-1,-1,-1,-1,-1,-1,-1,-1,-1,-1,-1,-1,-1,-1,-1,-1,-1,-1,-1,-1,-1,-1,-1,-1,-1,-1,-1,-1,-1,-1,-1,-1,-1,-1,-1,-1,-1,-1,-1,-1,-1,-1,-1,-1,-1,-1],"loss_changes":[8.627284E2,8.0923035E2,1.197926E2,3.5569803E2,1.5534802E2,6.4644714E1,5.7347824E1,4.876535E1,5.016471E1,1.585141E2,5.4610123E1,4.166681E1,1.953043E1,3.908281E1,1.4880486E1,0E0,5.7448364E1,1.7846577E1,3.4569695E1,3.3822586E1,7.516797E1,1.0924931E1,4.369426E1,8.199539E0,4.8512146E1,6.6826973E0,1.8319931E1,2.6244598E1,2.0420692E1,1.1898363E1,1.0702101E1,2.030392E1,3.7109406E1,4.6505795E0,1.3223207E1,0E0,1.5267715E1,1.5030907E1,1.3814601E1,6.150244E1,2.79693E1,0E0,9.050919E0,2.9478867E1,2.1221077E1,0E0,6.165329E0,1.1940315E1,1.6957092E1,0E0,0E0,1.5152056E1,6.9843884E0,1.530542E1,2.1816742E1,1.7749643E1,1.1300367E1,0E0,1.2167366E1,1.9354551E1,1.1181181E1,0E0,1.602911E1,1.67641E1,3.1656036E1,0E0,0E0,0E0,1.0310255E1,1.56193695E1,9.766016E0,8.31793E0,0E0,1.8800179E1,0E0,3.4045837E1,1.6905716E1,2.2387543E1,1.1018442E1,0E0,8.578812E0,1.5855179E1,1.9986252E1,9.447195E0,2.0513622E1,0E0,0E0,1.2281868E1,1.6145367E1,1.377533E1,0E0,1.5430275E1,5.450922E0,7.6873384E0,0E0,1.2807921E1,0E0,2.1209747E1,1.41766815E1,1.504594E1,0E0,0E0,9.9114E0,0E0,0E0,0E0,0E0,1.1955781E1,0E0,0E0,0E0,0E0,0E0,0E0,0E0,0E0,0E0,0E0,0E0,0E0,0E0,0E0,0E0,0E0,0E0,0E0,0E0,0E0,0E0,0E0,0E0,0E0,0E0,0E0,0E0,0E0,0E0,0E0,0E0,0E0,0E0,0E0,0E0,0E0,0E0,0E0,0E0,0E0,0E0,0E0,0E0,0E0,0E0,0E0,0E0,0E0,0E0,0E0,0E0,0E0,0E0,0E0,0E0,0E0,0E0,0E0,0E0],"parents":[2147483647,0,0,1,1,2,2,3,3,4,4,5,5,6,6,7,7,8,8,9,9,10,10,11,11,12,12,13,13,14,14,16,16,17,17,18,18,19,19,20,20,21,21,22,22,23,23,24,24,25,25,26,26,27,27,28,28,29,29,30,30,31,31,32,32,33,33,34,34,36,36,37,37,38,38,39,39,40,40,42,42,43,43,44,44,46,46,47,47,48,48,51,51,52,52,53,53,54,54,55,55,56,56,58,58,59,59,60,60,62,62,63,63,64,64,68,68,69,69,70,70,71,71,73,73,75,75,76,76,77,77,78,78,80,80,81,81,82,82,83,83,84,84,87,87,88,88,89,89,91,91,92,92,93,93,95,95,97,97,98,98,99,99,102,102,107,107],"right_children":[2,4,6,8,10,12,14,16,18,20,22,24,26,28,30,-1,32,34,36,38,40,42,44,46,48,50,52,54,56,58,60,62,64,66,68,-1,70,72,74,76,78,-1,80,82,84,-1,86,88,90,-1,-1,92,94,96,98,100,102,-1,104,106,108,-1,110,112,114,-1,-1,-1,116,118,120,122,-1,124,-1,126,128,130,132,-1,134,136,138,140,142,-1,-1,144,146,148,-1,150,152,154,-1,156,-1,158,160,162,-1,-1,164,-1,-1,-1,-1,166,-1,-1,-1,-1,-1,-1,-1,-1,-1,-1,-1,-1,-1,-1,-1,-1,-1,-1,-1,-1,-1,-1,-1,-1,-1,-1,-1,-1,-1,-1,-1,-1,-1,-1,-1,-1,-1,-1,-1,-1,-1,-1,-1,-1,-1,-1,-1,-1,-1,-1,-1,-1,-1,-1,-1,-1,-1,-1,-1],"split_conditions":[3.7037706E-1,-2.342737E-4,9.79622E-3,2.6468477E-1,2.9798186E0,2.1919411E-1,8.2214355E1,1.17585E-3,4.3349114E-1,3.428895E-4,6.153203E-4,2.3993582E-3,2.8417686E-3,2.3033293E-1,4.605707E-3,-3.728566E-2,-7.896492E-3,-7.4186367E-1,3.0551876E-3,2.0019531E-1,2.2346054E-3,6.1095487E-3,1.650476E-1,2.0932674E0,-1.3482516E-1,-7.4916226E-3,4.2411187E-1,1.54E2,-7.419511E-4,1.5989708E-2,5.710357E-4,2.8417686E-3,1.4116633E-2,3.390612E-1,-8.728636E-1,-1.2171626E-2,1.2897219E-3,3.5168174E-1,6.304454E-4,1.5387022E-1,2.7802894E-1,-1.9073887E-2,-6.74371E-1,8.711736E-2,4.557205E-3,-1.8739177E-2,1.068411E0,3.8428218E-4,6.880257E0,-2.462211E-2,-1.0314661E-2,2.3498148E-1,6.5403126E-2,1.0997252E-2,7.3999023E-1,3.6327875E-1,2.031513E0,-1.4116019E-2,1.0012054E-3,2.8253193E0,1.3047E4,-1.5324399E-2,1.1170474E0,-7.040147E-1,1E0,-6.009941E-3,-1.7873703E-2,-1.2489128E-2,3.500167E1,1E0,-3.9299316E0,-1.4899902E0,-2.838766E-2,-1.1252187E-2,-9.874375E-3,2.2825121E-4,1E0,1E0,5.2783614E-1,3.657108E-3,2.833363E-3,7.517501E1,2.770914E-1,5.428292E-1,1.6780682E-2,-3.6610257E-2,-2.4114046E-2,-1.4046435E-3,2.3313417E0,1.0886688E-1,-6.92124E-3,-2.1799316E0,-4.3806504E-3,5.6178376E-2,-5.650275E-3,5.069872E-3,-1.753936E-2,1.9197208E-3,1.7498933E-2,7.818315E-1,1.4830729E-2,7.531708E-3,1.2909733E0,1.0129563E-2,-8.358545E-3,1.3657234E-3,2.0480962E-2,-9.799247E-1,1.2841715E-2,-2.688656E-3,9.737157E-3,-2.3892247E-3,-1.5288349E-2,-3.1650625E-3,-1.207538E-2,8.220792E-3,-2.23724E-4,7.716358E-3,1.6261706E-2,-8.974957E-3,4.607616E-3,-3.7430204E-3,-1.7129386E-2,-2.6496674E-3,2.0688035E-2,2.6637606E-2,1.7032634E-2,1.0057053E-2,-5.584309E-3,1.2741239E-2,7.829397E-3,1.0301167E-2,-1.0349874E-3,-1.5480966E-2,-1.0613408E-3,8.960183E-3,2.4224304E-2,-1.7987452E-3,5.781937E-3,-1.8832099E-2,-2.3231537E-3,3.0062343E-3,-1.2720692E-2,-8.955458E-3,-2.4582312E-2,3.1610841E-3,-9.598332E-3,-2.2158133E-2,-1.3578084E-2,8.9586596E-5,-1.4190302E-2,7.3218076E-3,-4.485085E-3,6.207186E-4,1.4473759E-2,-6.7902696E-3,1.2544103E-3,-1.6864162E-2,-8.806035E-3,-1.052986E-3,-1.0985606E-2,-8.028055E-3,1.0460023E-2,-6.37178E-3,6.824941E-3,8.3725555E-3,-7.123473E-3],"split_indices":[4,0,58,5,30,5,27,58,5,22,22,58,58,5,5,0,40,13,58,5,33,58,45,31,41,40,5,52,15,44,21,58,58,5,38,0,15,24,40,4,4,0,38,4,58,0,39,22,26,0,0,38,45,33,9,24,30,0,14,31,42,0,38,45,60,0,0,0,25,36,9,10,0,44,0,21,37,60,39,0,21,25,24,3,33,0,0,17,31,45,0,9,40,3,0,33,0,21,5,47,0,0,41,0,0,0,0,46,0,0,0,0,0,0,0,0,0,0,0,0,0,0,0,0,0,0,0,0,0,0,0,0,0,0,0,0,0,0,0,0,0,0,0,0,0,0,0,0,0,0,0,0,0,0,0,0,0,0,0,0,0,0,0,0,0,0,0],"split_type":[0,0,0,0,0,0,0,0,0,0,0,0,0,0,0,0,0,0,0,0,0,0,0,0,0,0,0,0,0,0,0,0,0,0,0,0,0,0,0,0,0,0,0,0,0,0,0,0,0,0,0,0,0,0,0,0,0,0,0,0,0,0,0,0,0,0,0,0,0,0,0,0,0,0,0,0,0,0,0,0,0,0,0,0,0,0,0,0,0,0,0,0,0,0,0,0,0,0,0,0,0,0,0,0,0,0,0,0,0,0,0,0,0,0,0,0,0,0,0,0,0,0,0,0,0,0,0,0,0,0,0,0,0,0,0,0,0,0,0,0,0,0,0,0,0,0,0,0,0,0,0,0,0,0,0,0,0,0,0,0,0,0,0,0,0,0,0],"sum_hessian":[2.2918412E4,1.6767146E4,6.1512656E3,5.906055E3,1.0861092E4,2.5117515E3,3.6395142E3,3.4362861E3,2.469769E3,5.334746E3,5.5263457E3,1.8210225E3,6.907289E2,3.0912468E3,5.482673E2,5.102743E1,3.3852585E3,1.1564656E3,1.3133033E3,3.3966745E2,4.995079E3,2.4361243E2,5.2827334E3,1.783298E2,1.6426927E3,9.945422E1,5.9127466E2,2.1174448E3,9.7380194E2,1.6709111E2,3.8117618E2,5.9852936E2,2.7867292E3,1.0069552E2,1.05577E3,6.8527435E1,1.244776E3,1.8797243E2,1.5169502E2,1.5940583E3,3.4010205E3,5.377362E1,1.898388E2,3.6764285E3,1.6063048E3,4.6789448E1,1.3154036E2,7.547622E2,8.879305E2,4.919216E1,5.0262062E1,4.2210382E2,1.6917084E2,6.7028015E2,1.4471647E3,2.2841426E2,7.453877E2,5.8416367E1,1.0867474E2,1.6147774E2,2.1969844E2,7.962554E1,5.189038E2,1.5509132E3,1.235816E3,4.9245537E1,5.1449978E1,6.004561E1,9.957244E2,1.00370013E3,2.4107582E2,1.4144476E2,4.6527664E1,1.05619576E2,4.607544E1,1.2532538E3,3.4080453E2,3.08857E3,3.1245035E2,6.2109688E1,1.2772911E2,1.8344736E3,1.841955E3,1.05596855E2,1.500708E3,8.501204E1,4.6528324E1,1.536679E2,6.010943E2,8.0731134E2,8.0619156E1,3.0258212E2,1.19521706E2,1.2297717E2,4.6193672E1,6.082661E2,6.2013992E1,1.009351E3,4.3781366E2,1.4270781E2,8.570644E1,5.483008E1,6.905576E2,5.6930557E1,5.1744186E1,7.842239E1,8.305534E1,1.664143E2,5.3284134E1,4.2160406E2,9.729973E1,8.094977E1,1.4699635E3,5.367865E2,6.9902954E2,1.2606015E2,8.696643E2,7.991157E2,2.0458438E2,5.1173332E1,1.899025E2,7.209383E1,6.935094E1,5.6363243E1,4.9256332E1,4.2547556E2,8.2777826E2,2.7577618E2,6.502834E1,1.9940981E3,1.094472E3,9.293331E1,2.1951704E2,7.1962326E1,5.5766785E1,1.7811008E3,5.33727E1,3.206672E2,1.5212877E3,5.2203014E1,5.339384E1,1.4346425E3,6.606558E1,8.107323E1,7.259467E1,8.8569664E1,5.1252466E2,6.225121E2,1.8479924E2,7.7444725E1,2.251374E2,5.6227547E1,6.3294163E1,6.692545E1,5.605172E1,3.3289148E2,2.7537463E2,5.6494806E2,4.4440298E2,2.2239294E2,2.154207E2,8.8898735E1,5.380908E1,6.440931E2,4.6464527E1,5.8429817E1,1.0798449E2],"tree_param":{"num_deleted":"0","num_feature":"63","num_nodes":"167","size_leaf_vector":"1"}},{"base_weights":[-8.159414E-3,1.0430126E-1,-3.1395295E-1,-1.8028696E-1,2.5233728E-1,-4.4367763E-1,-1.836531E-1,-3.9992258E-1,7.474638E-2,4.8658016E-1,1.7624763E-1,-5.0567156E-1,-1.628655E-1,8.811965E-2,-2.3916969E-1,-6.801003E-1,-3.4062287E-1,-3.8053248E-2,2.5401714E-1,6.3279694E-1,2.7477092E-1,-2.6730634E-2,1.8716604E-1,-1.1862626E0,-4.7637025E-1,-1.1179794E-1,-1.5902443E-2,-5.7370678E-2,3.107644E-1,2.5186792E-1,-2.7406624E-1,-3.951713E-2,-6.085897E-1,-4.4043487E-1,-1.8417245E-1,-6.53806E-2,3.9331564E-1,4.898805E-1,1.6398674E-1,9.752168E-1,5.6474566E-1,3.788972E-2,2.255806E-1,4.157288E-1,1.3805485E-1,-3.8004585E-2,-2.732683E-2,-2.9481184E-1,-6.1879325E-1,-2.5052884E-1,6.7805134E-2,-3.6270308E-1,7.361641E-2,1.9735344E-2,9.811036E-2,1.8237237E-2,2.0308658E-2,-2.0942152E-1,-5.4532266E-1,-2.4692123E-1,-7.924957E-1,-4.8862863E-1,-1.8763174E-1,-2.6468945E-1,6.649161E-2,-1.4934318E-1,5.452325E-2,1.9561522E-2,1.9294686E-3,2.4578838E-2,3.7496367E-1,2.028046E-1,-1.13969045E-2,1.1135254E0,9.713606E-3,9.510784E-1,4.9760774E-1,3.5914108E-1,6.632999E-2,8.424399E-1,3.8376367E-1,2.1579835E-1,1.2451893E-2,-4.620935E-1,-1.7147622E-1,-2.9523596E-1,-6.863421E-1,-5.9018075E-2,-4.2465317E-1,-5.9123624E-2,1.2414229E-2,-2.3709284E-3,-1.7295407E-2,-5.9568887E-3,1.6987865E-1,1.1407038E-2,-3.546681E-3,-5.9644473E-3,6.935286E-3,1.910945E-1,-2.4657704E-1,-6.5684724E-1,-2.5257283E-1,-1.292506E-2,6.821536E-5,-1.55448215E-2,-2.4286438E-2,-6.903968E-3,-1.4881262E-2,-8.1270905E-3,6.2074107E-3,-4.416175E-3,-1.3359434E-2,-1.6440835E-3,1.38205625E-2,2.039904E-3,-6.732962E-3,-2.5533573E-3,4.7726347E-3,1.9344412E-2,6.8924096E-3,-5.0438778E-3,6.5615266E-3,2.4985055E-2,3.6213957E-2,2.0673266E-2,3.221469E-2,1.5572217E-2,6.766252E-3,6.324504E-3,1.3821378E-2,-1.1843572E-2,3.2992328E-3,1.4839306E-2,3.301147E-2,1.1902779E-2,-6.852941E-4,7.123395E-3,4.1359337E-4,1.7615826E-3,-5.77747E-3,-1.8138701E-2,-6.0075E-3,-3.0417317E-3,-1.4880133E-2,-1.5228483E-2,-1.7409788E-3,-2.1831758E-2,-1.3272932E-2,2.5397767E-3,-8.991471E-3,-1.9389087E-2,-3.3887334E-3,2.6147908E-3,-1.2025002E-2,-6.6947103E-3,9.333333E-3,1.4948933E-2,4.122526E-4,-8.582254E-3,-7.9309294E-4,-2.2280652E-2,-1.0722732E-2,-1.8030041E-3,-1.573077E-2],"categories":[],"categories_nodes":[],"categories_segments":[],"categories_sizes":[],"default_left":[0,0,0,0,0,0,0,0,0,0,0,0,0,0,0,0,0,0,0,0,0,0,0,0,0,0,0,0,0,0,0,0,0,0,0,0,0,0,0,0,0,0,0,0,0,0,0,0,0,0,0,0,0,0,0,0,0,0,0,0,0,0,0,0,0,0,0,0,0,0,0,0,0,0,0,0,0,0,0,0,0,0,0,0,0,0,0,0,0,0,0,0,0,0,0,0,0,0,0,0,0,0,0,0,0,0,0,0,0,0,0,0,0,0,0,0,0,0,0,0,0,0,0,0,0,0,0,0,0,0,0,0,0,0,0,0,0,0,0,0,0,0,0,0,0,0,0,0,0,0,0,0,0,0,0,0,0,0,0,0,0,0,0,0,0],"id":4,"left_children":[1,3,5,7,9,11,13,15,17,19,21,23,25,27,29,31,33,35,37,39,41,-1,43,45,47,49,-1,51,53,55,57,-1,59,61,63,65,67,69,71,73,75,-1,77,79,81,-1,-1,83,85,87,89,91,93,-1,95,97,-1,99,101,103,105,107,109,111,113,115,117,-1,-1,-1,119,121,-1,123,-1,125,127,129,131,133,135,137,139,141,143,145,147,149,151,153,-1,-1,-1,-1,155,-1,-1,-1,-1,157,159,161,163,-1,-1,-1,-1,-1,-1,-1,-1,-1,-1,-1,-1,-1,-1,-1,-1,-1,-1,-1,-1,-1,-1,-1,-1,-1,-1,-1,-1,-1,-1,-1,-1,-1,-1,-1,-1,-1,-1,-1,-1,-1,-1,-1,-1,-1,-1,-1,-1,-1,-1,-1,-1,-1,-1,-1,-1,-1,-1,-1,-1,-1,-1],"loss_changes":[7.882782E2,7.060295E2,1.0417828E2,3.212143E2,1.9648816E2,5.3765625E1,4.639254E1,5.1190094E1,5.3656746E1,8.3711365E1,1.04019684E2,5.0451843E1,1.1791324E1,1.6894974E1,4.3751328E1,2.89384E1,3.9708466E1,1.9198887E1,2.1760857E1,3.726172E1,5.963684E1,0E0,9.252249E1,3.9069672E0,6.271875E1,1.2386425E1,0E0,1.2615916E1,1.7726606E1,1.915971E1,4.1801224E1,0E0,3.268834E1,1.8914154E1,1.9989521E1,1.5419566E1,9.901661E0,1.3039162E1,1.661161E1,2.2851059E1,3.4599915E1,0E0,2.247276E1,1.9884369E1,6.625156E1,0E0,0E0,2.1998756E1,2.9707397E1,9.352791E0,1.0506151E1,6.9209137E0,6.15128E0,0E0,9.6521435E0,6.2422805E0,0E0,2.8647682E1,1.49782715E1,9.14968E0,6.5400543E0,1.5743225E1,1.0960695E1,1.7215015E1,1.3185139E1,1.903541E1,1.0985395E1,0E0,0E0,0E0,8.98082E0,9.370728E0,0E0,8.975311E0,0E0,8.625931E0,1.9132935E1,1.0582802E1,1.2711136E1,1.0952454E1,2.6360397E1,3.5630478E1,2.9565279E1,2.1588997E1,1.3824429E1,1.3985037E1,2.4199463E1,5.3832994E0,1.2325972E1,9.424931E0,0E0,0E0,0E0,0E0,1.1502947E1,0E0,0E0,0E0,0E0,1.0093906E1,2.4723602E1,1.3418304E1,7.5231066E0,0E0,0E0,0E0,0E0,0E0,0E0,0E0,0E0,0E0,0E0,0E0,0E0,0E0,0E0,0E0,0E0,0E0,0E0,0E0,0E0,0E0,0E0,0E0,0E0,0E0,0E0,0E0,0E0,0E0,0E0,0E0,0E0,0E0,0E0,0E0,0E0,0E0,0E0,0E0,0E0,0E0,0E0,0E0,0E0,0E0,0E0,0E0,0E0,0E0,0E0,0E0,0E0,0E0,0E0,0E0,0E0,0E0,0E0,0E0,0E0,0E0,0E0],"parents":[2147483647,0,0,1,1,2,2,3,3,4,4,5,5,6,6,7,7,8,8,9,9,10,10,11,11,12,12,13,13,14,14,15,15,16,16,17,17,18,18,19,19,20,20,22,22,23,23,24,24,25,25,27,27,28,28,29,29,30,30,32,32,33,33,34,34,35,35,36,36,37,37,38,38,39,39,40,40,42,42,43,43,44,44,47,47,48,48,49,49,50,50,51,51,52,52,54,54,55,55,57,57,58,58,59,59,60,60,61,61,62,62,63,63,64,64,65,65,66,66,70,70,71,71,73,73,75,75,76,76,77,77,78,78,79,79,80,80,81,81,82,82,83,83,84,84,85,85,86,86,87,87,88,88,89,89,94,94,99,99,100,100,101,101,102,102],"right_children":[2,4,6,8,10,12,14,16,18,20,22,24,26,28,30,32,34,36,38,40,42,-1,44,46,48,50,-1,52,54,56,58,-1,60,62,64,66,68,70,72,74,76,-1,78,80,82,-1,-1,84,86,88,90,92,94,-1,96,98,-1,100,102,104,106,108,110,112,114,116,118,-1,-1,-1,120,122,-1,124,-1,126,128,130,132,134,136,138,140,142,144,146,148,150,152,154,-1,-1,-1,-1,156,-1,-1,-1,-1,158,160,162,164,-1,-1,-1,-1,-1,-1,-1,-1,-1,-1,-1,-1,-1,-1,-1,-1,-1,-1,-1,-1,-1,-1,-1,-1,-1,-1,-1,-1,-1,-1,-1,-1,-1,-1,-1,-1,-1,-1,-1,-1,-1,-1,-1,-1,-1,-1,-1,-1,-1,-1,-1,-1,-1,-1,-1,-1,-1,-1,-1,-1,-1,-1],"split_conditions":[3.7037706E-1,-2.55677E-4,1.1678807E-2,2.1919411E-1,3.1367436E-4,3.0939347E-1,-1.6211286E-1,5.152216E-3,4.654484E-1,1.0548754E-3,1.4191304E-3,1.6393262E-3,7.5597174E-2,1.891213E-2,2.7723976E-3,1.17585E-3,1E0,1.2106716E-3,8.544218E-3,1.5189861E-3,1.3959234E-3,-2.6730634E-2,5.985237E-3,6.26088E-1,-1.4652227E-1,7.161265E-3,-1.5902443E-2,1.5887368E-2,1.6234234E-1,3.719549E-3,7.4204594E-1,-3.951713E-2,-3.8522717E-1,7.705E-1,1.87594E-2,1E0,5.6000977E0,1.3431597E-3,7.655708E-3,8.442354E-4,4.2121937E-3,3.788972E-2,1E0,1.6978254E-3,1.37902E-1,-3.8004585E-2,-2.732683E-2,5.152216E-3,3.6578302E-4,1.7737249E-2,2.3981698E-1,-9.5881975E-1,-3.772999E-1,1.9735344E-2,-3.762794E-3,1.0366126E0,2.0308658E-2,4.7587472E-4,2.3507547E-2,-1.3178325E-3,-7.768979E-3,3.6795208E1,7.290966E-1,-6.73494E-2,-4.5958307E-1,3.0283332E-1,-1.1514495E-3,1.9561522E-2,1.9294686E-3,2.4578838E-2,3.6110764E-3,-2.5459917E-3,-1.13969045E-2,6.234898E-1,9.713606E-3,9.427498E-1,3.623323E-3,1.3722859E-3,6.2187045E-4,1.3166338E0,2.3170267E-3,1.1912101E-1,8.626278E-4,1.00097656E-1,7.7466667E-1,1.4706305E-1,2.8701476E-4,4.8999023E-1,-8.547916E-2,6.0033333E-1,1.2414229E-2,-2.3709284E-3,-1.7295407E-2,-5.9568887E-3,-9.8078525E-1,1.1407038E-2,-3.546681E-3,-5.9644473E-3,6.935286E-3,7.0484686E-1,3.390612E-1,1.4069093E-3,8.448773E-3,-1.292506E-2,6.821536E-5,-1.55448215E-2,-2.4286438E-2,-6.903968E-3,-1.4881262E-2,-8.1270905E-3,6.2074107E-3,-4.416175E-3,-1.3359434E-2,-1.6440835E-3,1.38205625E-2,2.039904E-3,-6.732962E-3,-2.5533573E-3,4.7726347E-3,1.9344412E-2,6.8924096E-3,-5.0438778E-3,6.5615266E-3,2.4985055E-2,3.6213957E-2,2.0673266E-2,3.221469E-2,1.5572217E-2,6.766252E-3,6.324504E-3,1.3821378E-2,-1.1843572E-2,3.2992328E-3,1.4839306E-2,3.301147E-2,1.1902779E-2,-6.852941E-4,7.123395E-3,4.1359337E-4,1.7615826E-3,-5.77747E-3,-1.8138701E-2,-6.0075E-3,-3.0417317E-3,-1.4880133E-2,-1.5228483E-2,-1.7409788E-3,-2.1831758E-2,-1.3272932E-2,2.5397767E-3,-8.991471E-3,-1.9389087E-2,-3.3887334E-3,2.6147908E-3,-1.2025002E-2,-6.6947103E-3,9.333333E-3,1.4948933E-2,4.122526E-4,-8.582254E-3,-7.9309294E-4,-2.2280652E-2,-1.0722732E-2,-1.8030041E-3,-1.573077E-2],"split_indices":[4,0,58,5,21,5,41,58,5,16,58,58,41,58,57,58,59,1,57,33,57,0,57,4,41,58,0,5,3,18,4,0,12,35,58,59,9,40,40,18,57,0,60,57,4,0,0,58,6,57,44,46,44,0,8,32,0,21,58,1,40,25,28,41,26,35,2,0,0,0,57,15,0,48,0,24,40,6,6,26,15,41,15,9,35,3,2,9,38,35,0,0,0,0,46,0,0,0,0,34,5,8,40,0,0,0,0,0,0,0,0,0,0,0,0,0,0,0,0,0,0,0,0,0,0,0,0,0,0,0,0,0,0,0,0,0,0,0,0,0,0,0,0,0,0,0,0,0,0,0,0,0,0,0,0,0,0,0,0,0,0,0,0,0,0],"split_type":[0,0,0,0,0,0,0,0,0,0,0,0,0,0,0,0,0,0,0,0,0,0,0,0,0,0,0,0,0,0,0,0,0,0,0,0,0,0,0,0,0,0,0,0,0,0,0,0,0,0,0,0,0,0,0,0,0,0,0,0,0,0,0,0,0,0,0,0,0,0,0,0,0,0,0,0,0,0,0,0,0,0,0,0,0,0,0,0,0,0,0,0,0,0,0,0,0,0,0,0,0,0,0,0,0,0,0,0,0,0,0,0,0,0,0,0,0,0,0,0,0,0,0,0,0,0,0,0,0,0,0,0,0,0,0,0,0,0,0,0,0,0,0,0,0,0,0,0,0,0,0,0,0,0,0,0,0,0,0,0,0,0,0,0,0],"sum_hessian":[2.2921893E4,1.6758629E4,6.163264E3,5.734493E3,1.1024136E4,3.0884482E3,3.0748162E3,3.0810667E3,2.6534263E3,2.702979E3,8.321156E3,2.529925E3,5.585233E2,5.215669E2,2.5532493E3,5.381974E2,2.5428694E3,1.6286549E3,1.0247714E3,1.5990897E3,1.1038894E3,7.860424E1,8.242552E3,1.0442314E2,2.4255017E3,4.9711612E2,6.1407154E1,3.1543924E2,2.0612766E2,1.6941174E2,2.3838374E3,4.673842E1,4.9145898E2,1.5524429E3,9.904264E2,1.5316265E3,9.702838E1,2.8309927E2,7.416721E2,2.6510843E2,1.3339812E3,4.7321392E1,1.0565681E3,1.4578291E3,6.784723E3,5.2890503E1,5.153264E1,1.0662573E3,1.3592445E3,2.8047128E2,2.1664485E2,9.469734E1,2.2074191E2,7.103626E1,1.3509138E2,1.1426472E2,5.5147022E1,1.9250652E3,4.5877237E2,1.6566501E2,3.2579398E2,1.3038748E3,2.4856808E2,7.496332E2,2.4079321E2,9.0082465E2,6.308019E2,4.910915E1,4.7919235E1,6.3080933E1,2.2001836E2,6.949206E2,4.675155E1,2.1695876E2,4.8149666E1,1.9749919E2,1.136482E3,5.746331E2,4.819349E2,1.0159476E2,1.3562344E3,4.1907847E3,2.5939382E3,4.5251004E2,6.1374725E2,2.3475905E2,1.1244855E3,1.3356773E2,1.4690355E2,1.6261977E2,5.402509E1,4.6233944E1,4.84634E1,5.508579E1,1.6565611E2,5.6498837E1,7.859255E1,5.697432E1,5.72904E1,1.6342549E2,1.7616396E3,3.3221307E2,1.2655928E2,8.774682E1,7.791818E1,9.0089615E1,2.3570436E2,2.2839864E2,1.0754762E3,1.974254E2,5.114269E1,5.0755643E2,2.4207674E2,1.8662459E2,5.4168625E1,2.6818567E2,6.32639E2,2.813939E2,3.4940796E2,6.104395E1,1.589744E2,5.778645E1,6.3713416E2,1.0599576E2,1.10963005E2,1.02149994E2,9.53492E1,8.98944E2,2.3753807E2,2.9975842E2,2.7487473E2,4.6746517E1,4.351884E2,5.4588554E1,4.70062E1,1.2148071E3,1.4142728E2,3.4610557E3,7.297292E2,2.106063E3,4.8787537E2,2.5156491E2,2.0094514E2,5.261208E2,8.762649E1,1.11503174E2,1.2325588E2,7.445386E2,3.7994684E2,8.528496E1,4.828277E1,7.6476974E1,7.0426575E1,1.1545165E2,4.716811E1,4.8012634E1,1.17643486E2,5.464903E1,1.0877646E2,1.359547E3,4.0209262E2,2.127921E2,1.1942098E2,7.960965E1,4.6949627E1],"tree_param":{"num_deleted":"0","num_feature":"63","num_nodes":"165","size_leaf_vector":"1"}},{"base_weights":[9.89738E-4,1.1842787E-1,-2.6856014E-1,-1.8265915E-1,2.8335097E-1,-5.506081E-1,-2.2128937E-1,-3.932425E-1,-1.1727385E-1,4.3932787E-1,1.9050902E-1,-6.6628325E-1,-3.6092383E-1,-1.7249683E-1,-4.26083E-1,-2.634274E-1,-4.9597594E-1,-1.7101665E-1,1.0368108E-1,-1.9062933E-1,4.7200516E-1,2.4764143E-1,-3.0771708E-2,-5.409126E-3,-7.230997E-1,-2.9396263E-1,-2.2912042E-2,4.327907E-1,-1.8737136E-1,-1.1385337E-1,-4.9602497E-1,-2.0785749E-1,-1.597697E-2,-3.9703977E-1,-6.2481976E-1,2.661115E-1,-1.9665582E-1,3.318985E-1,-3.998608E-2,-4.7581252E-1,8.750911E-2,7.240536E-1,3.973472E-1,3.8269424E-1,1.580108E-1,7.549422E-3,-1.5517254E-2,-4.9761492E-1,-8.0676717E-1,-4.3472195E-1,-7.134708E-2,1.9719278E-2,3.7435747E-3,-2.0933618E-1,1.04281366E-1,2.2509295E-2,-1.0341939E-2,-8.0172354E-1,-4.0701345E-1,-2.8913516E-1,3.0565491E-2,-1.9932106E-2,-3.3966845E-1,-7.2554547E-1,-7.609968E-3,-1.1674687E-2,5.0102186E-1,-2.7519223E-1,-7.8810416E-2,1.8686993E-2,2.2564279E-1,8.935823E-2,-2.038876E-1,-1.9824954E-2,-6.5658432E-3,1.3843644E-2,-9.6723335E-3,8.200682E-1,5.231891E-1,8.914978E-1,3.507823E-1,-1.834281E-1,4.3747368E-1,2.2735526E-1,5.835191E-2,-1.8713214E-2,1.0192388E-2,-6.4444506E-1,-5.764925E-3,-5.9892327E-1,-9.610107E-1,-5.2948916E-1,-3.312641E-3,5.159775E-3,-9.27584E-3,8.244257E-3,-2.200031E-1,1.6448604E-2,3.5628148E-3,-6.9091627E-3,4.5259204E-3,-9.3435735E-1,-1.3291785E-2,-4.46205E-1,4.364127E-3,-9.96193E-3,4.9012942E-5,8.814391E-3,-5.0520524E-3,-1.4222548E-2,-5.0703916E-3,-1.6779143E-2,-2.6706418E-2,1.9675888E-2,6.001891E-3,-1.228211E-2,-5.362446E-3,-4.459962E-3,2.9852192E-3,2.1155046E-3,1.3176332E-2,8.675071E-3,-2.8157462E-3,-1.2928829E-2,-4.886396E-4,2.455152E-2,1.3902379E-2,1.743136E-2,3.5521588E-3,3.4954138E-2,2.0179927E-2,1.1457148E-2,8.0766086E-4,7.996502E-3,-9.5259715E-3,1.5972396E-2,9.252223E-3,3.9777313E-3,1.034007E-2,-1.0476905E-2,2.6291371E-3,2.5867654E-3,-3.9620125E-3,-1.0707719E-2,-2.5678558E-2,-2.3047158E-2,-1.0347966E-2,-2.9790826E-2,-1.4376113E-2,-7.0353323E-3,-1.9801134E-2,-2.9381071E-3,-7.445671E-3,1.3256384E-2,-3.0972173E-3,-1.9061238E-2,-3.8052686E-2,-3.3750967E-3,-1.410273E-2],"categories":[],"categories_nodes":[],"categories_segments":[],"categories_sizes":[],"default_left":[0,0,0,0,0,0,0,0,0,0,0,0,0,0,0,0,0,0,0,0,0,0,0,0,0,0,0,0,0,0,0,0,0,0,0,0,0,0,0,0,0,0,0,0,0,0,0,0,0,0,0,0,0,0,0,0,0,0,0,0,0,0,0,0,0,0,0,0,0,0,0,0,0,0,0,0,0,0,0,0,0,0,0,0,0,0,0,0,0,0,0,0,0,0,0,0,0,0,0,0,0,0,0,0,0,0,0,0,0,0,0,0,0,0,0,0,0,0,0,0,0,0,0,0,0,0,0,0,0,0,0,0,0,0,0,0,0,0,0,0,0,0,0,0,0,0,0,0,0,0,0,0,0,0,0,0,0,0,0],"id":5,"left_children":[1,3,5,7,9,11,13,15,17,19,21,23,25,27,29,31,33,35,37,39,41,43,45,-1,47,49,-1,51,53,55,57,59,-1,61,63,65,67,69,71,73,75,77,79,81,83,85,-1,87,89,91,93,-1,-1,95,97,99,-1,101,103,105,107,-1,109,111,-1,-1,113,115,117,-1,119,121,123,-1,-1,-1,-1,125,127,129,131,133,135,137,139,141,-1,143,-1,145,147,149,-1,-1,-1,-1,151,-1,153,-1,-1,155,-1,157,-1,-1,-1,-1,-1,-1,-1,-1,-1,-1,-1,-1,-1,-1,-1,-1,-1,-1,-1,-1,-1,-1,-1,-1,-1,-1,-1,-1,-1,-1,-1,-1,-1,-1,-1,-1,-1,-1,-1,-1,-1,-1,-1,-1,-1,-1,-1,-1,-1,-1,-1,-1,-1,-1,-1],"loss_changes":[7.247159E2,7.918349E2,9.2628815E1,7.770538E1,1.4919781E2,2.1881348E1,5.945758E1,1.7832092E1,5.1137066E1,7.913635E1,8.165088E1,1.6551697E1,1.1873039E1,4.3264755E1,2.500209E1,1.0357727E1,9.514542E0,3.8821594E1,2.7623812E1,1.5037578E1,6.87724E1,6.213678E1,2.6996267E1,0E0,1.0426849E1,1.0359823E1,0E0,9.650433E0,3.0045502E1,7.4549627E0,2.5451675E1,9.732861E0,0E0,7.8784866E0,1.1398262E1,3.1069775E1,3.0282372E1,1.1941143E1,1.0960975E1,5.4018326E0,1.7410795E1,1.6106628E1,6.4878235E1,6.350421E1,2.1323029E1,1.1746389E1,0E0,6.3408165E0,1.2923065E1,6.040085E0,8.760318E0,0E0,0E0,2.3639206E1,1.6270304E1,5.313655E0,0E0,8.953888E0,1.604586E1,7.8307304E0,7.879729E0,0E0,9.834244E0,7.161087E0,0E0,0E0,8.602554E0,2.6974457E1,2.0261528E1,0E0,9.338212E0,1.2445177E1,1.1235732E1,0E0,0E0,0E0,0E0,1.2443329E1,1.15590515E1,1.4594528E1,5.3354156E1,1.3830229E1,2.6966248E1,2.230809E1,2.0474773E1,1.6183083E1,0E0,7.2736626E0,0E0,9.085106E0,1.2070831E1,8.037083E0,0E0,0E0,0E0,0E0,2.4159424E1,0E0,1.505437E1,0E0,0E0,1.6151855E1,0E0,1.4229523E1,0E0,0E0,0E0,0E0,0E0,0E0,0E0,0E0,0E0,0E0,0E0,0E0,0E0,0E0,0E0,0E0,0E0,0E0,0E0,0E0,0E0,0E0,0E0,0E0,0E0,0E0,0E0,0E0,0E0,0E0,0E0,0E0,0E0,0E0,0E0,0E0,0E0,0E0,0E0,0E0,0E0,0E0,0E0,0E0,0E0,0E0,0E0,0E0,0E0,0E0,0E0,0E0,0E0,0E0,0E0],"parents":[2147483647,0,0,1,1,2,2,3,3,4,4,5,5,6,6,7,7,8,8,9,9,10,10,11,11,12,12,13,13,14,14,15,15,16,16,17,17,18,18,19,19,20,20,21,21,22,22,24,24,25,25,27,27,28,28,29,29,30,30,31,31,33,33,34,34,35,35,36,36,37,37,38,38,39,39,40,40,41,41,42,42,43,43,44,44,45,45,47,47,48,48,49,49,50,50,53,53,54,54,55,55,57,57,58,58,59,59,60,60,62,62,63,63,66,66,67,67,68,68,70,70,71,71,72,72,77,77,78,78,79,79,80,80,81,81,82,82,83,83,84,84,85,85,87,87,89,89,90,90,91,91,96,96,98,98,101,101,103,103],"right_children":[2,4,6,8,10,12,14,16,18,20,22,24,26,28,30,32,34,36,38,40,42,44,46,-1,48,50,-1,52,54,56,58,60,-1,62,64,66,68,70,72,74,76,78,80,82,84,86,-1,88,90,92,94,-1,-1,96,98,100,-1,102,104,106,108,-1,110,112,-1,-1,114,116,118,-1,120,122,124,-1,-1,-1,-1,126,128,130,132,134,136,138,140,142,-1,144,-1,146,148,150,-1,-1,-1,-1,152,-1,154,-1,-1,156,-1,158,-1,-1,-1,-1,-1,-1,-1,-1,-1,-1,-1,-1,-1,-1,-1,-1,-1,-1,-1,-1,-1,-1,-1,-1,-1,-1,-1,-1,-1,-1,-1,-1,-1,-1,-1,-1,-1,-1,-1,-1,-1,-1,-1,-1,-1,-1,-1,-1,-1,-1,-1,-1,-1,-1,-1],"split_conditions":[3.3333334E-1,-2.342737E-4,3.5219258E-4,3.213903E-4,9.195902E-3,3.8969656E-3,7.1433556E-1,-2.259E3,1E0,3.9420355E-4,6.4371735E-2,-1.1209681E1,3.6830467E-1,2.7819356E-4,3.73788E-4,2.515873E-4,2.4023438E-2,3.4016161E-3,2.9540977E-3,4.5907095E-2,2.2346054E-3,3.4354453E-3,2.889307E-2,-5.409126E-3,4.202097E-4,-6.573076E-4,-2.2912042E-2,2.8999023E0,2.5981262E-3,2.2549654E-4,2.3769767E0,2.0982556E0,-1.597697E-2,1.2167165E-3,3.6056995E0,1.16058E-3,1E0,2.2139382E0,1.0453902E0,2.1899398E-3,-1.9864723E-4,5.2281734E-2,2.1289631E-3,3.9420355E-4,3.8897042E0,1.4687425E0,-1.5517254E-2,-1.4780942E-1,-2.8132927E-1,1.0889289E0,1.0401207E0,1.9719278E-2,3.7435747E-3,2.7541746E-4,5.9051653E-3,-9.7437006E-1,-1.0341939E-2,1.2427983E0,5.6000977E0,-2.912E3,4.7100824E-3,-1.9932106E-2,-8.3075685E-4,-7.080993E-4,-7.609968E-3,-1.1674687E-2,9.240759E-1,-8.3075685E-4,3.0041262E-4,1.8686993E-2,6.96499E-4,1.78106E-2,-6.26E3,-1.9824954E-2,-6.5658432E-3,1.3843644E-2,-9.6723335E-3,2.5564346E0,1E0,1.0420869E-3,5.9833086E-1,1.2666667E-2,2.3127599E0,9.686305E-4,9.583652E-4,7.345338E-1,1.0192388E-2,-1.0106463E-4,-5.764925E-3,-8.7426393E-4,3.983724E-1,7E-1,-3.312641E-3,5.159775E-3,-9.27584E-3,8.244257E-3,-2.0240827E-1,1.6448604E-2,2.8810683E-3,-6.9091627E-3,4.5259204E-3,6.6406405E-1,-1.3291785E-2,-1.3619332E-3,4.364127E-3,-9.96193E-3,4.9012942E-5,8.814391E-3,-5.0520524E-3,-1.4222548E-2,-5.0703916E-3,-1.6779143E-2,-2.6706418E-2,1.9675888E-2,6.001891E-3,-1.228211E-2,-5.362446E-3,-4.459962E-3,2.9852192E-3,2.1155046E-3,1.3176332E-2,8.675071E-3,-2.8157462E-3,-1.2928829E-2,-4.886396E-4,2.455152E-2,1.3902379E-2,1.743136E-2,3.5521588E-3,3.4954138E-2,2.0179927E-2,1.1457148E-2,8.0766086E-4,7.996502E-3,-9.5259715E-3,1.5972396E-2,9.252223E-3,3.9777313E-3,1.034007E-2,-1.0476905E-2,2.6291371E-3,2.5867654E-3,-3.9620125E-3,-1.0707719E-2,-2.5678558E-2,-2.3047158E-2,-1.0347966E-2,-2.9790826E-2,-1.4376113E-2,-7.0353323E-3,-1.9801134E-2,-2.9381071E-3,-7.445671E-3,1.3256384E-2,-3.0972173E-3,-1.9061238E-2,-3.8052686E-2,-3.3750967E-3,-1.410273E-2],"split_indices":[4,0,22,22,57,33,4,42,20,22,41,26,44,21,6,22,4,57,21,44,33,33,57,0,6,14,0,11,2,14,30,39,0,21,31,22,59,30,32,33,18,4,57,22,30,28,0,45,28,32,32,0,0,6,57,46,0,39,9,42,24,0,0,7,0,0,39,0,17,0,22,4,42,0,0,0,0,30,37,57,41,35,30,6,22,39,0,14,0,17,38,29,0,0,0,0,13,0,2,0,0,39,0,15,0,0,0,0,0,0,0,0,0,0,0,0,0,0,0,0,0,0,0,0,0,0,0,0,0,0,0,0,0,0,0,0,0,0,0,0,0,0,0,0,0,0,0,0,0,0,0,0,0,0,0,0,0,0,0],"split_type":[0,0,0,0,0,0,0,0,0,0,0,0,0,0,0,0,0,0,0,0,0,0,0,0,0,0,0,0,0,0,0,0,0,0,0,0,0,0,0,0,0,0,0,0,0,0,0,0,0,0,0,0,0,0,0,0,0,0,0,0,0,0,0,0,0,0,0,0,0,0,0,0,0,0,0,0,0,0,0,0,0,0,0,0,0,0,0,0,0,0,0,0,0,0,0,0,0,0,0,0,0,0,0,0,0,0,0,0,0,0,0,0,0,0,0,0,0,0,0,0,0,0,0,0,0,0,0,0,0,0,0,0,0,0,0,0,0,0,0,0,0,0,0,0,0,0,0,0,0,0,0,0,0,0,0,0,0,0,0],"sum_hessian":[2.289388E4,1.5946342E4,6.94754E3,5.643483E3,1.0302858E4,9.972563E2,5.9502837E3,1.3371105E3,4.3063726E3,3.844312E3,6.4585464E3,6.194781E2,3.7777826E2,4.80539E3,1.1448933E3,5.906991E2,7.464113E2,3.4638591E3,8.425133E2,1.8957906E2,3.654733E3,5.1332056E3,1.3253408E3,6.677632E1,5.527017E2,3.306128E2,4.7165447E1,1.1525634E2,4.690134E3,2.095295E2,9.3536383E2,5.0225027E2,8.8448845E1,4.2220953E2,3.242018E2,1.9191129E2,3.2719478E3,3.2548096E2,5.170323E2,9.360386E1,9.59752E1,8.351668E2,2.8195662E3,2.0477356E3,3.08547E3,1.2362174E3,8.912348E1,1.4958195E2,4.0311978E2,2.0254398E2,1.2806882E2,5.915418E1,5.610216E1,4.3616514E3,3.2848257E2,1.3761089E2,7.191861E1,2.1093364E2,7.244302E2,3.745628E2,1.2768746E2,6.3304485E1,3.5890503E2,2.515973E2,7.260451E1,4.8785152E1,1.4312614E2,1.9634398E3,1.3085079E3,7.65915E1,2.4888947E2,2.8898087E2,2.2805145E2,4.6341087E1,4.726277E1,4.9331066E1,4.664413E1,5.650615E2,2.7010532E2,2.4281209E2,2.5767542E3,1.8066255E2,1.867073E3,1.8194573E3,1.2660127E3,1.1525558E3,8.3661545E1,9.9153496E1,5.042846E1,1.7172418E2,2.313956E2,1.5566429E2,4.6879696E1,6.482572E1,6.3243095E1,8.96857E1,4.271966E3,5.5837746E1,2.726448E2,4.699015E1,9.0620735E1,1.4913113E2,6.180251E1,6.7745184E2,4.6978348E1,3.0036295E2,7.419986E1,5.428802E1,7.3399445E1,1.687384E2,1.9016663E2,1.6941957E2,8.217774E1,8.189333E1,6.1232803E1,6.3320703E2,1.3302328E3,9.0688605E2,4.0162192E2,1.563805E2,9.250898E1,1.3282646E2,1.561544E2,9.4183266E1,1.338682E2,4.63106E2,1.0195551E2,2.1184294E2,5.8262375E1,7.266172E1,1.7015038E2,2.146747E3,4.3000696E2,4.6027283E1,1.3463527E2,7.8348987E2,1.0835831E3,1.1628005E3,6.5665686E2,9.842222E1,1.1675905E3,6.064129E2,5.4614294E2,5.228941E1,4.6864082E1,8.356161E1,8.816258E1,1.8228699E2,4.910861E1,6.328291E1,9.238137E1,1.3027563E3,2.9692092E3,5.3275024E1,2.193698E2,9.634205E1,5.278909E1,1.1300982E2,5.64442E2],"tree_param":{"num_deleted":"0","num_feature":"63","num_nodes":"159","size_leaf_vector":"1"}},{"base_weights":[-1.7055876E-3,3.757689E-1,-8.431804E-2,1.0736005E0,3.4754524E-1,-2.0689034E-1,1.7117383E-1,3.6535237E-2,2.4089444E-2,2.840123E-1,5.7553786E-1,-3.138345E-1,8.1368856E-2,-2.7388135E-1,1.9840895E-1,3.6069706E-1,1.04542695E-1,9.8233503E-1,4.729853E-1,-1.1533705E0,-2.942855E-1,-1.2496045E-1,2.7183545E-1,-2.189098E-2,-1.568507E-1,3.1682554E-1,9.678929E-2,5.8174294E-1,2.5188774E-1,-7.4070334E-2,2.1489091E-1,4.003211E-2,7.638477E-1,5.365104E-1,1.4370745E-1,-4.3290466E-2,-9.255229E-1,-3.6671028E-1,-1.5761897E-1,-3.0111307E-1,-4.2459574E-2,4.4156352E-1,1.16340555E-1,6.6353485E-2,-3.724528E-1,4.7590232E-1,2.498615E-1,3.126282E-1,5.29738E-2,7.6233166E-1,4.501811E-1,-7.992233E-3,2.8055033E-1,1.3877024E-1,-3.1727034E-1,3.15033E-1,6.59723E-2,1.20369205E-2,3.3578448E-2,4.613292E-1,8.30271E-1,-7.2574215E-3,1.2461102E-2,-2.0112917E-2,-3.3745423E-2,-1.08435854E-1,-4.2803052E-1,-3.1491944E-1,-9.378284E-2,-6.9734514E-2,-4.441746E-1,-1.9845518E-1,5.1228147E-2,6.064717E-1,3.290352E-1,1.8311035E-2,8.469988E-2,7.621628E-3,-6.522674E-3,-6.037705E-1,2.2044233E-3,6.225096E-1,2.7352855E-1,-7.718633E-2,2.9829562E-1,4.154229E-1,3.548118E-2,-4.8587047E-2,1.6835086E-1,2.6357288E-2,1.488415E-2,6.911617E-3,1.7038383E-2,1.1427242E-2,5.6505953E-3,1.0351365E-2,-4.8828525E-3,-1.5598544E-2,-1.0985879E-3,-2.1844034E-3,1.0398508E-2,-7.943797E-3,6.1791684E-3,1.5777333E-2,6.162811E-3,3.3141315E-2,1.4613742E-2,-7.4525885E-3,1.2268584E-3,-1.637785E-2,-9.5605645E-3,-1.1223232E-2,-3.8174542E-3,-3.1978795E-3,4.9809003E-3,9.144491E-3,-5.2364236E-3,-5.583922E-3,-1.5711412E-2,-1.1330765E-2,-9.4992627E-4,8.439953E-3,-5.5681675E-4,2.720456E-2,1.4170806E-2,5.9375293E-3,1.3489093E-2,4.0698946E-3,-1.17986165E-2,-2.4366632E-2,-9.26394E-3,1.145228E-2,2.1966865E-2,1.368361E-2,3.013466E-3,-7.5028874E-3,1.2977087E-2,5.539856E-3,1.2283362E-2,7.7806744E-3,1.744396E-2,-7.027809E-3,1.0047137E-2,5.43705E-4,-9.431178E-3,1.9972527E-2,3.8493266E-3],"categories":[],"categories_nodes":[],"categories_segments":[],"categories_sizes":[],"default_left":[0,0,0,0,0,0,0,0,0,0,0,0,0,0,0,0,0,0,0,0,0,0,0,0,0,0,0,0,0,0,0,0,0,0,0,0,0,0,0,0,0,0,0,0,0,0,0,0,0,0,0,0,0,0,0,0,0,0,0,0,0,0,0,0,0,0,0,0,0,0,0,0,0,0,0,0,0,0,0,0,0,0,0,0,0,0,0,0,0,0,0,0,0,0,0,0,0,0,0,0,0,0,0,0,0,0,0,0,0,0,0,0,0,0,0,0,0,0,0,0,0,0,0,0,0,0,0,0,0,0,0,0,0,0,0,0,0,0,0,0,0,0,0,0,0,0,0],"id":6,"left_children":[1,3,5,7,9,11,13,-1,-1,15,17,19,21,23,25,27,29,31,33,35,37,39,41,-1,43,45,47,49,51,53,55,-1,57,59,61,-1,63,65,67,69,71,73,75,77,79,81,83,85,87,89,91,-1,93,95,97,99,101,-1,-1,103,105,-1,-1,-1,-1,107,109,111,113,115,117,119,121,123,125,-1,127,-1,-1,129,-1,131,133,135,137,139,141,143,145,-1,-1,-1,-1,-1,-1,-1,-1,-1,-1,-1,-1,-1,-1,-1,-1,-1,-1,-1,-1,-1,-1,-1,-1,-1,-1,-1,-1,-1,-1,-1,-1,-1,-1,-1,-1,-1,-1,-1,-1,-1,-1,-1,-1,-1,-1,-1,-1,-1,-1,-1,-1,-1,-1,-1,-1,-1,-1],"loss_changes":[7.134368E2,8.0907715E1,5.8781354E2,8.020981E0,5.719107E1,3.910406E2,7.376332E1,0E0,0E0,4.249649E1,3.5896423E1,1.5184729E2,1.3489565E2,2.1331417E1,6.900679E1,5.2034363E1,1.821965E1,1.7726898E1,1.4374756E1,1.9925323E1,8.949463E1,2.394514E1,4.7106567E1,0E0,1.3782446E1,2.8211884E1,2.9186209E1,1.6955032E1,2.250222E1,1.8272856E1,8.521183E0,0E0,1.7532883E1,1.2722549E1,1.3915439E1,0E0,7.950302E0,9.359631E1,3.1448143E1,1.7396244E1,1.6399714E1,1.5836044E1,1.6128231E1,8.938905E0,1.5243052E1,2.3278076E1,2.9523544E1,1.483654E1,3.006079E1,1.2929352E1,1.3791344E1,0E0,1.3935478E1,1.4047094E1,1.1336288E1,8.321247E0,1.28401575E1,0E0,0E0,1.2053123E1,1.3084908E1,0E0,0E0,0E0,0E0,2.8021732E1,6.446588E1,1.465329E1,1.3504877E1,9.666828E0,9.830238E0,1.4652174E1,1.2746452E1,1.2205093E1,9.22921E0,0E0,2.8321512E1,0E0,0E0,7.2145233E0,0E0,1.638208E1,1.2042435E1,2.5626373E1,2.3250412E1,1.0987389E1,1.3434337E1,2.7316706E1,1.9250526E1,0E0,0E0,0E0,0E0,0E0,0E0,0E0,0E0,0E0,0E0,0E0,0E0,0E0,0E0,0E0,0E0,0E0,0E0,0E0,0E0,0E0,0E0,0E0,0E0,0E0,0E0,0E0,0E0,0E0,0E0,0E0,0E0,0E0,0E0,0E0,0E0,0E0,0E0,0E0,0E0,0E0,0E0,0E0,0E0,0E0,0E0,0E0,0E0,0E0,0E0,0E0,0E0,0E0,0E0,0E0,0E0,0E0,0E0],"parents":[2147483647,0,0,1,1,2,2,3,3,4,4,5,5,6,6,9,9,10,10,11,11,12,12,13,13,14,14,15,15,16,16,17,17,18,18,19,19,20,20,21,21,22,22,24,24,25,25,26,26,27,27,28,28,29,29,30,30,32,32,33,33,34,34,36,36,37,37,38,38,39,39,40,40,41,41,42,42,43,43,44,44,45,45,46,46,47,47,48,48,49,49,50,50,52,52,53,53,54,54,55,55,56,56,59,59,60,60,65,65,66,66,67,67,68,68,69,69,70,70,71,71,72,72,73,73,74,74,76,76,79,79,81,81,82,82,83,83,84,84,85,85,86,86,87,87,88,88],"right_children":[2,4,6,8,10,12,14,-1,-1,16,18,20,22,24,26,28,30,32,34,36,38,40,42,-1,44,46,48,50,52,54,56,-1,58,60,62,-1,64,66,68,70,72,74,76,78,80,82,84,86,88,90,92,-1,94,96,98,100,102,-1,-1,104,106,-1,-1,-1,-1,108,110,112,114,116,118,120,122,124,126,-1,128,-1,-1,130,-1,132,134,136,138,140,142,144,146,-1,-1,-1,-1,-1,-1,-1,-1,-1,-1,-1,-1,-1,-1,-1,-1,-1,-1,-1,-1,-1,-1,-1,-1,-1,-1,-1,-1,-1,-1,-1,-1,-1,-1,-1,-1,-1,-1,-1,-1,-1,-1,-1,-1,-1,-1,-1,-1,-1,-1,-1,-1,-1,-1,-1,-1,-1,-1],"split_conditions":[4.6329087E-4,1.9256412E-3,3.6366662E-1,1.0420869E-3,5.762759E-1,3.0298415E-4,3.0551876E-3,3.6535237E-2,2.4089444E-2,3.1367436E-4,1.637777E0,1.6393262E-3,6.3633335E-1,1.4191304E-3,3.2142513E0,2.72673E-3,1.8166667E-1,6.184074E-3,2.117541E-2,8.742787E-4,1.5272845E-1,2.9318623E-2,3.4527206E0,-2.189098E-2,2.0212341E-2,2.3685608E-3,6.5029003E-3,4.3388373E-1,2.7718437E-1,1.6754195E-1,1E0,4.003211E-2,6.234898E-1,1E0,2.920077E0,-4.3290466E-2,3.705E-1,4.202097E-4,2.727777E-1,1.1183144E-2,3.8133663E-1,1.0141988E-2,3.4016161E-3,-1.3079667E-1,1.232044E-3,1.0321693E-3,3.6578302E-4,-8.72496E-1,1E0,5.5562926E-4,5.625348E0,-7.992233E-3,1.0296169E-3,9.7878015E-5,9.6794516E-2,-9.3404844E-5,3.0645823E0,1.20369205E-2,3.3578448E-2,3.1367436E-4,3.7555795E-4,-7.2574215E-3,1.2461102E-2,-2.0112917E-2,-3.3745423E-2,6.50821E-4,3.2420035E-3,1.0586905E0,5.0200195E0,-2.3129277E-4,-1.9821248E-3,5.596667E-1,3.2862464E-3,1.859283E0,2.34E2,1.8311035E-2,6.72789E-1,7.621628E-3,-6.522674E-3,-9.255405E-1,2.2044233E-3,5.909444E-1,-9.5105654E-1,8.9990234E-1,6.195277E-1,2.4390258E-2,2.2311568E-1,3.6830467E-1,8.3633924E-1,2.6357288E-2,1.488415E-2,6.911617E-3,1.7038383E-2,1.1427242E-2,5.6505953E-3,1.0351365E-2,-4.8828525E-3,-1.5598544E-2,-1.0985879E-3,-2.1844034E-3,1.0398508E-2,-7.943797E-3,6.1791684E-3,1.5777333E-2,6.162811E-3,3.3141315E-2,1.4613742E-2,-7.4525885E-3,1.2268584E-3,-1.637785E-2,-9.5605645E-3,-1.1223232E-2,-3.8174542E-3,-3.1978795E-3,4.9809003E-3,9.144491E-3,-5.2364236E-3,-5.583922E-3,-1.5711412E-2,-1.1330765E-2,-9.4992627E-4,8.439953E-3,-5.5681675E-4,2.720456E-2,1.4170806E-2,5.9375293E-3,1.3489093E-2,4.0698946E-3,-1.17986165E-2,-2.4366632E-2,-9.26394E-3,1.145228E-2,2.1966865E-2,1.368361E-2,3.013466E-3,-7.5028874E-3,1.2977087E-2,5.539856E-3,1.2283362E-2,7.7806744E-3,1.744396E-2,-7.027809E-3,1.0047137E-2,5.43705E-4,-9.431178E-3,1.9972527E-2,3.8493266E-3],"split_indices":[21,57,5,57,5,0,58,0,0,21,30,58,3,58,30,33,35,58,57,58,5,5,30,0,57,33,57,47,3,28,19,0,48,48,30,0,35,6,3,57,3,57,57,12,6,21,6,46,59,17,26,0,16,14,5,0,30,0,0,21,1,0,0,0,0,22,33,39,10,1,8,35,33,31,52,0,41,0,0,46,0,5,46,10,5,58,44,44,32,0,0,0,0,0,0,0,0,0,0,0,0,0,0,0,0,0,0,0,0,0,0,0,0,0,0,0,0,0,0,0,0,0,0,0,0,0,0,0,0,0,0,0,0,0,0,0,0,0,0,0,0,0,0,0,0,0,0],"split_type":[0,0,0,0,0,0,0,0,0,0,0,0,0,0,0,0,0,0,0,0,0,0,0,0,0,0,0,0,0,0,0,0,0,0,0,0,0,0,0,0,0,0,0,0,0,0,0,0,0,0,0,0,0,0,0,0,0,0,0,0,0,0,0,0,0,0,0,0,0,0,0,0,0,0,0,0,0,0,0,0,0,0,0,0,0,0,0,0,0,0,0,0,0,0,0,0,0,0,0,0,0,0,0,0,0,0,0,0,0,0,0,0,0,0,0,0,0,0,0,0,0,0,0,0,0,0,0,0,0,0,0,0,0,0,0,0,0,0,0,0,0,0,0,0,0,0,0],"sum_hessian":[2.2878227E4,4.1079766E3,1.877025E4,1.5968661E2,3.9482898E3,1.2684742E4,6.085509E3,7.104058E1,8.8646034E1,3.0878298E3,8.604599E2,9.252183E3,3.4325593E3,3.5092697E2,5.734582E3,2.1634277E3,9.2440216E2,1.7324387E2,6.87216E2,2.1053784E2,9.041645E3,1.6476681E3,1.7848914E3,6.4529434E1,2.8639752E2,2.6484092E3,3.0861726E3,7.1364874E2,1.4497789E3,3.5300977E2,5.7139233E2,5.5108883E1,1.1813498E2,5.760772E2,1.111388E2,7.4575455E1,1.3596239E2,5.9098115E3,3.1318333E3,5.255444E2,1.1221237E3,8.5338763E2,9.315037E2,1.4071819E2,1.4567935E2,7.845835E2,1.8638258E3,5.207767E2,2.565396E3,3.007795E2,4.1286923E2,7.288011E1,1.3768988E3,1.882553E2,1.6475449E2,3.4164694E2,2.297454E2,6.855038E1,4.9584602E1,4.5868842E2,1.173888E2,4.788259E1,6.3256214E1,8.183596E1,5.4126427E1,1.1339092E3,4.7759023E3,9.040742E2,2.227759E3,2.0079407E2,3.2475034E2,4.2104987E2,7.010738E2,3.4613293E2,5.072547E2,5.0915962E1,8.8058777E2,8.3109184E1,5.7608997E1,9.6387886E1,4.9291466E1,4.549783E2,3.2960522E2,2.4041835E2,1.6234073E3,3.798783E2,1.4089838E2,1.3643899E3,1.2010061E3,1.6129718E2,1.3948233E2,1.8817384E2,2.2469539E2,4.9847205E2,8.784268E2,1.07660904E2,8.059439E1,8.699711E1,7.775737E1,4.629501E1,2.9535196E2,7.090397E1,1.5884143E2,3.1333234E2,1.453561E2,5.257363E1,6.481517E1,5.5120703E2,5.8270215E2,1.5770234E3,3.198879E3,5.9486365E2,3.092106E2,2.0616313E3,1.6612762E2,4.6244644E1,1.5454942E2,1.1076529E2,2.1398505E2,1.8359647E2,2.374534E2,1.5354898E2,5.475248E2,6.811666E1,2.7801627E2,2.961793E2,2.1107541E2,7.844432E2,9.61446E1,4.721017E1,4.9177715E1,2.0720413E2,2.4777415E2,1.4007681E2,1.895284E2,1.7734511E2,6.3073242E1,9.754126E2,6.479948E2,2.3509207E2,1.4478624E2,7.4827225E1,6.607115E1,1.1066261E3,2.577638E2,5.932079E1,1.1416853E3],"tree_param":{"num_deleted":"0","num_feature":"63","num_nodes":"147","size_leaf_vector":"1"}},{"base_weights":[1.5098338E-3,-1.18281625E-1,2.3638901E-1,-2.694332E-1,1.6253608E-1,4.3709198E-1,1.6896829E-1,-4.4334006E-1,-1.8196933E-1,3.079809E-1,-1.2968472E-1,4.76971E-1,-3.4933046E-2,-2.7502447E-1,1.9392137E-1,-1.2011915E0,-4.0345916E-1,-2.1049905E-1,1.3780013E-1,5.1596665E-1,2.1217069E-1,1.6491935E-2,-1.5631798E-1,3.0078372E-1,5.791727E-1,3.5307982E-3,-7.443564E-3,-4.437034E-1,9.763209E-2,4.3516642E-1,1.5565623E-1,-4.337108E-2,-9.191245E-1,1.4598721E-1,-4.3697217E-1,-2.680808E-1,-6.3085645E-2,6.509906E-1,-9.0761995E-3,6.817559E-1,3.5165834E-1,3.0268458E-1,2.5229102E-2,-1.9561413E-1,1.7918041E-1,6.685432E-2,3.8996282E-1,6.682831E-1,2.5760147E-1,-2.4211794E-1,-2.2030583E-2,-3.9358754E-3,9.346503E-3,6.53609E-2,5.3749657E-1,1.8907593E-1,-1.4193897E-1,-1.9042237E-2,-3.1548258E-2,-6.5129553E-3,3.691027E-1,-3.133467E-1,-6.006735E-1,-1.6018265E-3,-3.1396067E-1,1.8011542E-2,-1.6969727E-1,2.7081102E-2,1.1774494E-2,1.8661607E-2,-1.1677189E-1,7.8986967E-1,3.7183028E-1,2.446788E-2,2.4758E-1,6.314225E-1,2.6226375E-1,1.407202E-1,-1.1572485E-1,-3.1102654E-1,-9.8066844E-2,1.2058039E-2,3.3978333E-3,1.3322479E-2,-1.4949846E-1,6.650922E-1,2.6749808E-1,4.8191184E-1,8.7746155E-1,-5.1838337E-3,5.069269E-1,-1.7254876E-2,-1.5368726E-4,1.068823E-2,-1.6007306E-1,5.926687E-1,2.1770333E-3,1.2610042E-1,3.0101117E-1,1.0639626E-2,-2.0290558E-1,2.3161808E-2,1.3575944E-3,-4.3777996E-3,-1.084817E-2,-1.102874E-2,-2.110721E-2,-3.95488E-3,6.7204423E-3,-3.6416674E-4,-9.747229E-3,-2.0029831E-3,5.6436895E-3,-8.045539E-3,-8.313425E-4,-1.4256364E-2,3.9109786E-4,1.2776561E-2,2.5288247E-2,1.389217E-2,3.1142486E-3,1.3403254E-2,2.147751E-3,2.1272032E-2,7.20829E-3,-2.710082E-3,8.015888E-3,8.402298E-3,-3.6504306E-3,-1.5963206E-2,-8.631983E-4,-4.8838556E-3,-1.2314458E-2,7.314134E-3,-4.1391123E-3,-7.217289E-3,6.5220664E-3,2.7532908E-3,-1.50725E-2,8.3822375E-3,2.305616E-2,-1.9899444E-3,8.982852E-3,2.1867012E-3,1.469783E-2,7.912915E-3,2.6362196E-2,-7.08263E-3,8.823196E-3,7.332134E-3,1.883702E-2,-1.1433608E-2,2.6957546E-3,2.10263E-2,1.1501266E-2,3.1536433E-3,1.8421372E-2,9.902906E-3,1.6883403E-3,-3.0681966E-3,-1.1949627E-2],"categories":[],"categories_nodes":[],"categories_segments":[],"categories_sizes":[],"default_left":[0,0,0,0,0,0,0,0,0,0,0,0,0,0,0,0,0,0,0,0,0,0,0,0,0,0,0,0,0,0,0,0,0,0,0,0,0,0,0,0,0,0,0,0,0,0,0,0,0,0,0,0,0,0,0,0,0,0,0,0,0,0,0,0,0,0,0,0,0,0,0,0,0,0,0,0,0,0,0,0,0,0,0,0,0,0,0,0,0,0,0,0,0,0,0,0,0,0,0,0,0,0,0,0,0,0,0,0,0,0,0,0,0,0,0,0,0,0,0,0,0,0,0,0,0,0,0,0,0,0,0,0,0,0,0,0,0,0,0,0,0,0,0,0,0,0,0,0,0,0,0,0,0,0,0,0,0,0,0,0,0],"id":7,"left_children":[1,3,5,7,9,11,13,15,17,19,21,23,25,27,29,31,33,35,37,39,41,-1,43,45,47,-1,-1,49,51,53,55,-1,57,59,61,63,65,67,69,71,73,75,77,79,81,83,85,87,89,91,-1,-1,-1,93,95,97,99,-1,-1,-1,101,103,105,107,109,111,113,-1,-1,-1,115,117,119,-1,121,123,125,127,129,131,133,-1,135,-1,137,139,141,143,145,147,149,-1,-1,-1,151,153,-1,155,157,-1,159,-1,-1,-1,-1,-1,-1,-1,-1,-1,-1,-1,-1,-1,-1,-1,-1,-1,-1,-1,-1,-1,-1,-1,-1,-1,-1,-1,-1,-1,-1,-1,-1,-1,-1,-1,-1,-1,-1,-1,-1,-1,-1,-1,-1,-1,-1,-1,-1,-1,-1,-1,-1,-1,-1,-1,-1,-1,-1,-1,-1],"loss_changes":[6.448594E2,6.4424506E2,1.047471E2,1.500827E2,2.257268E2,3.6640594E1,6.419693E1,9.979419E1,5.989354E1,7.066223E1,3.4188473E1,3.2319214E1,5.7995744E0,1.9381443E1,5.0644073E1,1.7248993E1,5.775952E1,5.1162476E1,4.0534164E1,3.0463898E1,4.107856E1,0E0,2.2446667E1,1.3746243E1,3.2550415E1,0E0,0E0,1.5174034E1,5.564596E0,2.8421661E1,4.7093018E1,0E0,4.8109283E0,1.5369498E1,5.9831543E1,5.299182E1,1.4638004E1,8.867203E0,3.0859154E1,1.8651825E1,3.1275566E1,2.1735E1,1.2892668E1,1.7158337E1,8.088919E0,1.6365631E1,1.6073761E1,3.4674896E1,1.6148977E1,1.2266001E1,0E0,0E0,0E0,1.1814981E1,1.4884598E1,3.0008514E1,1.5374372E1,0E0,0E0,0E0,1.7124752E1,2.078653E1,4.1987915E1,2.2116543E1,4.3661316E1,1.6247534E1,1.2440474E1,0E0,0E0,0E0,1.8918203E1,1.7067719E1,4.9062233E0,0E0,1.9006643E1,9.244873E0,1.4815147E1,1.9461802E1,1.3937559E1,1.2654091E1,1.5573851E1,0E0,6.550501E0,0E0,1.1830369E1,9.04808E0,6.504986E0,9.604187E0,1.9272339E1,9.805203E0,5.36005E0,0E0,0E0,0E0,6.274941E0,1.5634293E1,0E0,1.7433743E1,2.1265E1,0E0,9.045055E0,0E0,0E0,0E0,0E0,0E0,0E0,0E0,0E0,0E0,0E0,0E0,0E0,0E0,0E0,0E0,0E0,0E0,0E0,0E0,0E0,0E0,0E0,0E0,0E0,0E0,0E0,0E0,0E0,0E0,0E0,0E0,0E0,0E0,0E0,0E0,0E0,0E0,0E0,0E0,0E0,0E0,0E0,0E0,0E0,0E0,0E0,0E0,0E0,0E0,0E0,0E0,0E0,0E0,0E0,0E0,0E0,0E0,0E0,0E0,0E0],"parents":[2147483647,0,0,1,1,2,2,3,3,4,4,5,5,6,6,7,7,8,8,9,9,10,10,11,11,12,12,13,13,14,14,15,15,16,16,17,17,18,18,19,19,20,20,22,22,23,23,24,24,27,27,28,28,29,29,30,30,32,32,33,33,34,34,35,35,36,36,37,37,38,38,39,39,40,40,41,41,42,42,43,43,44,44,45,45,46,46,47,47,48,48,49,49,53,53,54,54,55,55,56,56,60,60,61,61,62,62,63,63,64,64,65,65,66,66,70,70,71,71,72,72,74,74,75,75,76,76,77,77,78,78,79,79,80,80,82,82,84,84,85,85,86,86,87,87,88,88,89,89,90,90,94,94,95,95,97,97,98,98,100,100],"right_children":[2,4,6,8,10,12,14,16,18,20,22,24,26,28,30,32,34,36,38,40,42,-1,44,46,48,-1,-1,50,52,54,56,-1,58,60,62,64,66,68,70,72,74,76,78,80,82,84,86,88,90,92,-1,-1,-1,94,96,98,100,-1,-1,-1,102,104,106,108,110,112,114,-1,-1,-1,116,118,120,-1,122,124,126,128,130,132,134,-1,136,-1,138,140,142,144,146,148,150,-1,-1,-1,152,154,-1,156,158,-1,160,-1,-1,-1,-1,-1,-1,-1,-1,-1,-1,-1,-1,-1,-1,-1,-1,-1,-1,-1,-1,-1,-1,-1,-1,-1,-1,-1,-1,-1,-1,-1,-1,-1,-1,-1,-1,-1,-1,-1,-1,-1,-1,-1,-1,-1,-1,-1,-1,-1,-1,-1,-1,-1,-1,-1,-1,-1,-1,-1,-1],"split_conditions":[3.5716778E-1,2.874915E-4,2.2495427E0,8.078303E-3,2.7583948E-1,3.6366662E-1,3.2531614E-3,1.4191304E-3,8.410285E1,8.306081E-3,2.7723976E-3,4.2603633E-4,2.3939453E-2,-1.2888802E-3,5.167735E-3,8.742787E-4,1.5769766E-4,1.8938413E-1,2.7781853E-1,1.8944943E-1,1E0,1.6491935E-2,8.903336E1,-4.4995117E-1,3.705E-1,3.5307982E-3,-7.443564E-3,-1.899811E-3,2.0980617E-5,-5.220345E-4,5.33066E-1,-4.337108E-2,2.8529959E0,4.6740277E-4,-1.1709021E-1,3.6578302E-4,1E0,1.5E0,3.2819326E-3,3.3161237E0,1.9256412E-3,9.6666664E-2,2.11E2,1.1320464E-2,4.8934567E-1,-6.0226774E-1,3.9166667E-2,6.668023E-1,7.102273E-4,-1.0101783E0,-2.2030583E-2,-3.9358754E-3,9.346503E-3,6.1548376E-1,-7.253744E-1,6.195277E-1,3.7923201E-3,-1.9042237E-2,-3.1548258E-2,-6.5129553E-3,1.3253304E0,6.845697E-4,2.0153204E-1,1.6010234E-2,-7.3618377E-3,1.6994648E-2,2.16243E-2,2.7081102E-2,1.1774494E-2,1.8661607E-2,1.6950125E-4,5.530547E-4,6.800049E0,2.446788E-2,2.7310771E-3,8.925153E-4,-8.6272264E-1,8.047999E-2,-3.5602424E-1,-1.461354E-4,-4.4901115E-1,1.2058039E-2,1.2489221E0,1.3322479E-2,6.234898E-1,7.4346485E-6,-1.7994395E-1,3.830126E-3,-1.84E3,6.112505E-1,-2.55E2,-1.7254876E-2,-1.5368726E-4,1.068823E-2,2.1247057E-2,2.8999813E-3,2.1770333E-3,9.947445E-1,7.09E-1,1.0639626E-2,5.7504206E0,2.3161808E-2,1.3575944E-3,-4.3777996E-3,-1.084817E-2,-1.102874E-2,-2.110721E-2,-3.95488E-3,6.7204423E-3,-3.6416674E-4,-9.747229E-3,-2.0029831E-3,5.6436895E-3,-8.045539E-3,-8.313425E-4,-1.4256364E-2,3.9109786E-4,1.2776561E-2,2.5288247E-2,1.389217E-2,3.1142486E-3,1.3403254E-2,2.147751E-3,2.1272032E-2,7.20829E-3,-2.710082E-3,8.015888E-3,8.402298E-3,-3.6504306E-3,-1.5963206E-2,-8.631983E-4,-4.8838556E-3,-1.2314458E-2,7.314134E-3,-4.1391123E-3,-7.217289E-3,6.5220664E-3,2.7532908E-3,-1.50725E-2,8.3822375E-3,2.305616E-2,-1.9899444E-3,8.982852E-3,2.1867012E-3,1.469783E-2,7.912915E-3,2.6362196E-2,-7.08263E-3,8.823196E-3,7.332134E-3,1.883702E-2,-1.1433608E-2,2.6957546E-3,2.10263E-2,1.1501266E-2,3.1536433E-3,1.8421372E-2,9.902906E-3,1.6883403E-3,-3.0681966E-3,-1.1949627E-2],"split_indices":[5,0,31,58,4,4,58,58,27,57,57,6,41,18,57,58,6,5,12,41,60,0,27,9,35,0,0,7,2,2,41,0,31,22,41,6,60,11,57,31,57,35,53,58,13,38,35,5,6,41,0,0,0,39,46,5,40,0,0,0,31,6,4,58,40,58,58,0,0,0,1,6,11,0,8,18,38,4,13,7,41,0,12,0,48,16,13,58,42,34,42,0,0,0,58,8,0,13,35,0,31,0,0,0,0,0,0,0,0,0,0,0,0,0,0,0,0,0,0,0,0,0,0,0,0,0,0,0,0,0,0,0,0,0,0,0,0,0,0,0,0,0,0,0,0,0,0,0,0,0,0,0,0,0,0,0,0,0,0,0,0],"split_type":[0,0,0,0,0,0,0,0,0,0,0,0,0,0,0,0,0,0,0,0,0,0,0,0,0,0,0,0,0,0,0,0,0,0,0,0,0,0,0,0,0,0,0,0,0,0,0,0,0,0,0,0,0,0,0,0,0,0,0,0,0,0,0,0,0,0,0,0,0,0,0,0,0,0,0,0,0,0,0,0,0,0,0,0,0,0,0,0,0,0,0,0,0,0,0,0,0,0,0,0,0,0,0,0,0,0,0,0,0,0,0,0,0,0,0,0,0,0,0,0,0,0,0,0,0,0,0,0,0,0,0,0,0,0,0,0,0,0,0,0,0,0,0,0,0,0,0,0,0,0,0,0,0,0,0,0,0,0,0,0,0],"sum_hessian":[2.2918943E4,1.5177977E4,7.740967E3,9.867008E3,5.310968E3,1.9464943E3,5.794472E3,3.3018484E3,6.56516E3,3.5460298E3,1.7649381E3,1.794856E3,1.5163832E2,3.083293E2,5.486143E3,1.6506775E2,3.1367805E3,6.027398E3,5.377621E2,1.1183345E3,2.4276953E3,6.2345657E1,1.7025924E3,6.589256E2,1.1359303E3,8.953174E1,6.210658E1,2.1225449E2,9.607482E1,7.5105597E2,4.735087E3,7.1349106E1,9.371864E1,1.8032634E2,2.9564543E3,4.3343423E3,1.6930555E3,1.19660835E2,4.1810123E2,5.566574E2,5.6167706E2,1.6357118E3,7.9198364E2,1.5240807E3,1.7851172E2,1.818662E2,4.7705942E2,8.894535E2,2.464768E2,1.3533066E2,7.692382E1,4.8117992E1,4.7956833E1,1.6278328E2,5.882727E2,4.257027E3,4.7806036E2,4.63487E1,4.7369938E1,6.648872E1,1.1383761E2,1.684409E3,1.2720452E3,6.3663696E2,3.6977053E3,9.6159296E2,7.314626E2,4.838861E1,7.1272224E1,5.677875E1,3.6132248E2,4.1269324E2,1.4396419E2,9.1471E1,4.7020605E2,1.7910011E2,1.4566117E3,4.3531052E2,3.5667313E2,6.981123E2,8.259684E2,7.2375206E1,1.0613651E2,6.2230648E1,1.19635544E2,1.469402E2,3.301192E2,4.7037073E2,4.1908276E2,1.19999664E2,1.26477135E2,5.165623E1,8.367443E1,6.703919E1,9.574409E1,5.2510065E2,6.3172085E1,2.7243125E3,1.5327142E3,4.9528072E1,4.285323E2,4.608926E1,6.774835E1,5.730445E2,1.1113645E3,5.719274E2,7.001178E2,4.0341876E2,2.3321819E2,4.2693604E2,3.2707693E3,6.472081E2,3.143848E2,3.9051303E2,3.4094955E2,8.913606E1,2.721864E2,1.1516664E2,2.975266E2,9.545829E1,4.85059E1,1.9568967E2,2.745164E2,1.3009964E2,4.900046E1,1.0573852E2,1.3508732E3,2.7209436E2,1.6321614E2,5.504205E1,3.0163107E2,3.505849E2,3.475274E2,1.0333688E2,7.2263153E2,4.965858E1,5.6477932E1,7.346998E1,4.616557E1,4.7092007E1,9.98482E1,4.8170704E1,2.819485E2,5.2608227E1,4.177625E2,4.8800198E1,3.7028256E2,6.76449E1,5.2354767E1,5.32985E1,7.3178635E1,4.819945E1,4.754464E1,2.675731E2,2.5752756E2,2.6661172E3,5.8195168E1,1.234852E3,2.9786227E2,3.0640854E2,1.2212376E2],"tree_param":{"num_deleted":"0","num_feature":"63","num_nodes":"161","size_leaf_vector":"1"}},{"base_weights":[1.2570777E-3,1.0420478E-1,-2.7376485E-1,-1.7840865E-1,2.4618362E-1,-4.4425732E-1,-1.5311128E-1,-3.9518815E-1,2.4508437E-2,4.7353593E-1,1.8616414E-1,-6.736735E-1,-3.3719897E-1,-2.3954941E-1,5.2867876E-3,-3.3048596E-2,-3.7743366E-1,-9.852402E-2,2.3045814E-1,3.508132E-2,4.4428465E-1,-3.119888E-1,2.0865394E-1,-7.871978E-1,-3.7258244E-1,-3.7236753E-1,1.1363003E-1,-3.2724082E-1,-5.6724586E-2,3.4456038E-1,-4.760389E-2,-1.6283222E-1,-4.3890455E-1,-2.0038144E-1,3.7267514E-2,-8.255423E-3,2.701179E-1,-1.1514637E-2,4.7318065E-1,-2.0307409E-2,-1.8133563E-1,3.5340255E-1,1.268267E-1,-8.552344E-3,-8.501722E-1,-1.4293142E-1,-6.461601E-1,-2.0092208E-2,-4.1568726E-1,-6.775711E-3,9.552872E-3,-3.758721E-1,3.9960463E-2,-1.598845E-1,2.443184E-1,3.8749466E-3,1.5588085E-2,-8.1473604E-2,2.4336335E-1,-4.445626E-2,-3.91679E-1,-4.6294117E-1,3.3005178E-3,6.3254833E-3,-2.279034E-1,1.4001103E-1,-1.4985247E-1,4.1295883E-1,1.8611448E-1,8.890313E-1,4.304595E-1,-6.939136E-2,-1.936041E-2,5.568189E-1,2.90494E-1,1.8485902E-1,4.9015633E-3,-6.592572E-1,-9.745119E-1,2.5088093E-3,-1.4112728E-2,-1.0017369E-2,-2.4705863E-2,-2.2185749E-1,7.4809804E-3,-1.2364539E-1,-4.7175664E-1,-5.1546838E-2,-4.4337508E-1,-6.141764E-3,2.26771E-1,-2.472583E-1,1.5714166E-1,4.14806E-1,-3.128209E-3,-1.4979604E-1,8.674462E-2,1.5538329E-2,-1.0800104E-3,-1.2390646E-2,9.159841E-4,-1.505254E-2,-1.5034926E-3,-6.219213E-3,-1.3849712E-2,-9.085787E-3,-3.4143194E-3,-1.9703044E-3,6.462833E-3,2.8064211E-3,-7.88179E-3,1.3465723E-2,-2.0600331E-3,1.2022609E-2,8.736021E-4,1.6435876E-2,2.6982486E-2,2.435267E-3,1.3140709E-2,-5.503398E-3,1.1883635E-2,3.4611963E-2,1.3683052E-2,-1.1322821E-2,8.534153E-3,-1.3213671E-2,5.388736E-3,2.4350355E-3,-5.1806625E-3,-1.3586197E-2,-2.3865081E-2,-1.8044237E-2,-2.892472E-2,1.2859252E-3,-1.1902803E-2,-1.0654932E-2,1.7297624E-3,-9.1164755E-3,-1.6024062E-2,-9.0748705E-3,3.4161434E-3,-6.4466223E-3,-1.5070877E-2,1.3772526E-2,-3.8842233E-3,-7.302932E-4,-1.0564815E-2,-1.7737129E-3,1.3234947E-2,2.5324775E-3,1.6292052E-2,-7.958232E-3,-1.7739212E-3,-2.0607866E-3,9.285312E-3],"categories":[],"categories_nodes":[],"categories_segments":[],"categories_sizes":[],"default_left":[0,0,0,0,0,0,0,0,0,0,0,0,0,0,0,0,0,0,0,0,0,0,0,0,0,0,0,0,0,0,0,0,0,0,0,0,0,0,0,0,0,0,0,0,0,0,0,0,0,0,0,0,0,0,0,0,0,0,0,0,0,0,0,0,0,0,0,0,0,0,0,0,0,0,0,0,0,0,0,0,0,0,0,0,0,0,0,0,0,0,0,0,0,0,0,0,0,0,0,0,0,0,0,0,0,0,0,0,0,0,0,0,0,0,0,0,0,0,0,0,0,0,0,0,0,0,0,0,0,0,0,0,0,0,0,0,0,0,0,0,0,0,0,0,0,0,0,0,0,0,0,0,0,0,0],"id":8,"left_children":[1,3,5,7,9,11,13,15,17,19,21,23,25,27,29,-1,31,33,35,-1,37,39,41,43,45,47,49,51,53,55,57,59,61,63,65,-1,67,-1,69,-1,71,73,75,-1,77,79,81,83,85,-1,-1,87,89,91,93,-1,-1,95,97,99,101,103,-1,-1,105,107,109,111,113,115,117,119,-1,121,123,125,127,129,131,-1,-1,-1,-1,133,-1,135,137,139,141,-1,143,145,147,149,-1,151,153,-1,-1,-1,-1,-1,-1,-1,-1,-1,-1,-1,-1,-1,-1,-1,-1,-1,-1,-1,-1,-1,-1,-1,-1,-1,-1,-1,-1,-1,-1,-1,-1,-1,-1,-1,-1,-1,-1,-1,-1,-1,-1,-1,-1,-1,-1,-1,-1,-1,-1,-1,-1,-1,-1,-1,-1,-1,-1],"loss_changes":[6.5008136E2,6.7036383E2,1.2864377E2,2.4574379E2,1.5174219E2,6.365262E1,5.014103E1,3.8480225E1,7.3115524E1,5.419574E1,9.856415E1,2.8185394E1,2.8016388E1,3.7984314E1,2.3200506E1,0E0,3.4859924E1,2.498521E1,2.2666794E1,0E0,5.5775482E1,2.104787E1,9.970227E1,1.7997955E1,1.4185141E1,2.501442E1,1.0680154E1,2.8593964E1,2.385154E1,7.8425694E0,1.102317E1,1.59397E1,2.7576416E1,1.2204033E1,1.488503E1,0E0,1.2046539E1,0E0,3.851007E1,0E0,1.6918045E1,3.8901978E1,3.8050217E1,0E0,1.2557404E1,1.0576837E1,7.268051E0,1.0545825E1,2.3901459E1,0E0,0E0,3.0955856E1,9.1839E0,1.58446665E1,1.1952957E1,0E0,0E0,1.1515053E1,1.0533651E1,1.2182259E1,1.0402756E1,1.8220703E1,0E0,0E0,1.0241451E1,9.952421E0,9.372595E0,1.3598274E1,2.436817E1,5.259079E0,3.0764435E1,1.55446E1,0E0,3.0536423E1,3.0537323E1,2.5191925E1,2.7841064E1,7.1591263E0,7.5657043E0,0E0,0E0,0E0,0E0,5.962629E0,0E0,1.149792E1,1.8859344E1,1.184445E1,2.522821E1,0E0,1.0950177E1,1.34246025E1,8.824177E0,7.5291176E0,0E0,8.444452E0,1.16663685E1,0E0,0E0,0E0,0E0,0E0,0E0,0E0,0E0,0E0,0E0,0E0,0E0,0E0,0E0,0E0,0E0,0E0,0E0,0E0,0E0,0E0,0E0,0E0,0E0,0E0,0E0,0E0,0E0,0E0,0E0,0E0,0E0,0E0,0E0,0E0,0E0,0E0,0E0,0E0,0E0,0E0,0E0,0E0,0E0,0E0,0E0,0E0,0E0,0E0,0E0,0E0,0E0,0E0,0E0,0E0,0E0,0E0,0E0],"parents":[2147483647,0,0,1,1,2,2,3,3,4,4,5,5,6,6,7,7,8,8,9,9,10,10,11,11,12,12,13,13,14,14,16,16,17,17,18,18,20,20,21,21,22,22,23,23,24,24,25,25,26,26,27,27,28,28,29,29,30,30,31,31,32,32,33,33,34,34,36,36,38,38,40,40,41,41,42,42,44,44,45,45,46,46,47,47,48,48,51,51,52,52,53,53,54,54,57,57,58,58,59,59,60,60,61,61,64,64,65,65,66,66,67,67,68,68,69,69,70,70,71,71,73,73,74,74,75,75,76,76,77,77,78,78,83,83,85,85,86,86,87,87,88,88,90,90,91,91,92,92,93,93,95,95,96,96],"right_children":[2,4,6,8,10,12,14,16,18,20,22,24,26,28,30,-1,32,34,36,-1,38,40,42,44,46,48,50,52,54,56,58,60,62,64,66,-1,68,-1,70,-1,72,74,76,-1,78,80,82,84,86,-1,-1,88,90,92,94,-1,-1,96,98,100,102,104,-1,-1,106,108,110,112,114,116,118,120,-1,122,124,126,128,130,132,-1,-1,-1,-1,134,-1,136,138,140,142,-1,144,146,148,150,-1,152,154,-1,-1,-1,-1,-1,-1,-1,-1,-1,-1,-1,-1,-1,-1,-1,-1,-1,-1,-1,-1,-1,-1,-1,-1,-1,-1,-1,-1,-1,-1,-1,-1,-1,-1,-1,-1,-1,-1,-1,-1,-1,-1,-1,-1,-1,-1,-1,-1,-1,-1,-1,-1,-1,-1,-1,-1,-1,-1],"split_conditions":[3.6690962E-1,-2.7600757E-4,9.87606E-3,1.7919385E-1,6.215043E-3,5.6898216E-4,1.9346141E0,1.4191304E-3,4.4444445E-1,1.0420869E-3,3.428895E-4,1.7919385E-1,2.5788205E0,2.3033293E-1,4.7587472E-4,-3.3048596E-2,-3.522E3,1E0,3.5327007E-3,3.508132E-2,3.428895E-4,4.3918784E-3,3.328514E-3,-3.5091469E-3,-3.2632532E0,3.9433266E-4,3.8260058E-2,4.2763152E-4,1.4780942E-1,1.1356066E-1,1.1329E4,4.098821E1,6.459961E0,3.4016161E-3,2.6288506E-2,-8.255423E-3,1.0297188E-2,-1.1514637E-2,1.5505997E-3,-2.0307409E-2,2.9703163E-2,2.4263756E-4,6.7333335E-1,-8.552344E-3,5.1936187E-4,5.4410374E-1,-8.41E2,7.161265E-3,4.1413915E-1,-6.775711E-3,9.552872E-3,4.3948408E-4,5.1366384E-3,4.6713415E-1,1.4027412E-3,3.8749466E-3,1.5588085E-2,2.52691E-1,5.55854E-3,6.585043E-1,-1.0189432E-4,-7.768979E-3,3.3005178E-3,6.3254833E-3,1.029167E0,9.13879E-4,9.624413E-3,4.959854E-1,-5.0912923E-3,-9.914449E-1,-1.5400391E0,9.749279E-1,-1.936041E-2,1.0153129E-3,1.988783E-3,1.8355938E-3,2.7982903E-1,1E0,5.342038E-2,2.5088093E-3,-1.4112728E-2,-1.0017369E-2,-2.4705863E-2,1.9100465E0,7.4809804E-3,1.5272845E-1,-4.916384E-3,3.4129694E-1,-5.574448E-4,-6.141764E-3,-9.41176E-1,-4.3678102E0,-2.3344536E-1,3.3333334E-1,-3.128209E-3,2.8566447E-1,-9.1879123E-1,1.5538329E-2,-1.0800104E-3,-1.2390646E-2,9.159841E-4,-1.505254E-2,-1.5034926E-3,-6.219213E-3,-1.3849712E-2,-9.085787E-3,-3.4143194E-3,-1.9703044E-3,6.462833E-3,2.8064211E-3,-7.88179E-3,1.3465723E-2,-2.0600331E-3,1.2022609E-2,8.736021E-4,1.6435876E-2,2.6982486E-2,2.435267E-3,1.3140709E-2,-5.503398E-3,1.1883635E-2,3.4611963E-2,1.3683052E-2,-1.1322821E-2,8.534153E-3,-1.3213671E-2,5.388736E-3,2.4350355E-3,-5.1806625E-3,-1.3586197E-2,-2.3865081E-2,-1.8044237E-2,-2.892472E-2,1.2859252E-3,-1.1902803E-2,-1.0654932E-2,1.7297624E-3,-9.1164755E-3,-1.6024062E-2,-9.0748705E-3,3.4161434E-3,-6.4466223E-3,-1.5070877E-2,1.3772526E-2,-3.8842233E-3,-7.302932E-4,-1.0564815E-2,-1.7737129E-3,1.3234947E-2,2.5324775E-3,1.6292052E-2,-7.958232E-3,-1.7739212E-3,-2.0607866E-3,9.285312E-3],"split_indices":[4,0,58,5,57,22,26,58,5,57,22,5,39,5,21,0,42,59,58,0,22,58,33,7,26,6,5,0,45,5,42,25,10,57,57,0,57,0,33,0,13,21,35,0,6,4,42,58,4,0,0,6,33,12,6,0,0,5,40,39,17,40,0,0,32,6,4,44,40,46,9,47,0,33,58,58,45,59,34,0,0,0,0,31,0,5,40,39,16,0,46,26,45,5,0,3,46,0,0,0,0,0,0,0,0,0,0,0,0,0,0,0,0,0,0,0,0,0,0,0,0,0,0,0,0,0,0,0,0,0,0,0,0,0,0,0,0,0,0,0,0,0,0,0,0,0,0,0,0,0,0,0,0,0,0],"split_type":[0,0,0,0,0,0,0,0,0,0,0,0,0,0,0,0,0,0,0,0,0,0,0,0,0,0,0,0,0,0,0,0,0,0,0,0,0,0,0,0,0,0,0,0,0,0,0,0,0,0,0,0,0,0,0,0,0,0,0,0,0,0,0,0,0,0,0,0,0,0,0,0,0,0,0,0,0,0,0,0,0,0,0,0,0,0,0,0,0,0,0,0,0,0,0,0,0,0,0,0,0,0,0,0,0,0,0,0,0,0,0,0,0,0,0,0,0,0,0,0,0,0,0,0,0,0,0,0,0,0,0,0,0,0,0,0,0,0,0,0,0,0,0,0,0,0,0,0,0,0,0,0,0,0,0],"sum_hessian":[2.2960625E4,1.6706834E4,6.2537925E3,5.586575E3,1.1120258E4,2.5916277E3,3.6621648E3,2.7010261E3,2.885549E3,2.3225376E3,8.79772E3,8.245941E2,1.7670336E3,2.3692563E3,1.2929084E3,5.8468235E1,2.6425579E3,1.8064143E3,1.0791349E3,8.2148735E1,2.240389E3,3.8002795E2,8.417692E3,5.9881415E2,2.2577992E2,1.6391647E3,1.278689E2,1.6012302E3,7.680262E2,1.743723E2,1.1185361E3,5.883987E2,2.0541592E3,1.0321768E3,7.7423755E2,7.5179596E1,1.0039553E3,7.270276E1,2.1676863E3,8.953244E1,2.904955E2,3.0400254E3,5.3776665E3,6.980111E1,5.2901306E2,1.2274472E2,1.0303521E2,1.7949716E2,1.4596675E3,5.0253048E1,7.761585E1,1.4139677E3,1.8726256E2,5.7201227E2,1.9601395E2,9.051018E1,8.386213E1,1.0019104E3,1.1662571E2,3.878011E2,2.0059761E2,1.969402E3,8.47573E1,6.2143406E1,9.700333E2,4.9980545E2,2.744321E2,3.7177673E2,6.321786E2,2.0194315E2,1.965743E3,2.390571E2,5.1438408E1,7.1808246E2,2.321943E3,3.643487E3,1.7341794E3,2.086501E2,3.2036295E2,7.509132E1,4.7653404E1,4.8225662E1,5.4809544E1,1.06029205E2,7.346796E1,2.3510532E2,1.2245621E3,2.4359422E2,1.1703734E3,7.785397E1,1.09408585E2,4.4842462E2,1.2358763E2,1.3274219E2,6.327177E1,7.1251855E2,2.8939185E2,5.470913E1,6.191658E1,6.2447174E1,3.253539E2,1.3776346E2,6.2834152E1,2.7737057E2,1.6920314E3,4.916909E2,4.783424E2,1.5404501E2,3.4576044E2,9.6197174E1,1.7823494E2,3.2220966E2,4.9567055E1,2.4168314E2,3.9049545E2,4.6900402E1,1.5504276E2,2.3173302E2,1.73401E3,1.8971837E2,4.9338737E1,5.7728924E1,6.603535E2,6.055493E1,2.2613882E3,5.6305954E1,3.5871812E3,1.2104954E3,5.2368414E2,1.151496E2,9.35005E1,5.985174E1,2.605112E2,4.6472385E1,5.9556824E1,9.76093E1,1.3749602E2,5.328561E2,6.917061E2,9.435995E1,1.4923428E2,3.848359E2,7.855376E2,6.284425E1,4.6564335E1,1.7060736E2,2.7781726E2,7.327487E1,5.031276E1,4.6744503E1,8.599767E1,2.7187607E2,4.4064252E2,1.757754E2,1.13616425E2],"tree_param":{"num_deleted":"0","num_feature":"63","num_nodes":"155","size_leaf_vector":"1"}},{"base_weights":[1.0165724E-3,1.0116087E-1,-2.6894033E-1,-1.5579836E-1,2.418965E-1,-9.089008E-1,-2.4244785E-1,-3.732662E-1,6.1242178E-2,4.9016085E-1,1.8798041E-1,-1.0315222E0,-1.48123205E-2,-3.3571193E-1,-7.910295E-2,-6.745777E-1,-3.2485402E-1,-5.5990856E-2,2.5265974E-1,3.4128394E-2,4.5633125E-1,3.006476E-1,9.353622E-2,-2.0058872E-2,-1.1464552E0,-4.9177456E-1,-2.5384662E-1,2.335875E-1,-1.1277366E-1,-3.389513E-2,-5.8457756E-1,-1.4488961E-1,-3.9079937E-1,-4.972907E-1,-2.7496278E-2,5.1589584E-1,1.8418492E-1,-7.4725887E-3,4.880163E-1,-1.3528122E-1,3.5676193E-1,1.6299008E-1,-3.3023328E-2,-2.7671078E-2,-3.6041524E-2,-6.058206E-1,-2.9337946E-1,-2.818071E-1,1.5116155E-1,1.8078433E-2,6.4605355E-2,2.571811E-1,-1.4086239E-1,-1.7934865E-1,-7.654792E-1,7.6828417E-3,-1.944587E-1,-4.2133093E-1,-1.1840659E-2,-3.5692034E-3,-2.2399792E-2,-7.051871E-2,1.8138935E-1,4.2872718E-1,2.2125242E-2,-8.326882E-3,2.1832892E-1,7.0557374E-1,4.0899584E-1,-4.4618118E-1,1.8323189E-1,4.204685E-1,1.4340314E-1,-3.8623673E-1,1.943534E-1,2.9139131E-2,-2.4408503E-1,-1.387463E-1,-6.687691E-1,-2.2937447E-1,-1.7400319E-2,-2.1450028E-1,-4.0264288E-1,-5.3157266E-3,3.1756377E-1,-9.233067E-3,1.1380478E-2,1.1753198E-2,-1.9379569E-3,-2.3668376E-1,-4.8245255E-2,-1.3640862E-2,1.6927806E-3,-2.699726E-2,-1.6489765E-2,-1.3687055E-3,-9.567697E-3,-1.33412415E-2,-6.127007E-3,-5.445158E-3,8.9607695E-3,2.3190212E-3,-3.3583853E-3,1.2962048E-2,1.1814175E-3,1.2725004E-3,1.5971655E-2,8.614848E-3,-3.1600104E-4,2.1574805E-2,4.1454816E-3,1.4890436E-2,7.987747E-3,-2.5683451E-2,-7.8590335E-3,1.503166E-2,-5.471739E-4,1.2823291E-2,5.3029563E-3,-4.392136E-3,6.3878554E-3,-1.9254975E-2,-1.811061E-3,6.346305E-3,-2.0065422E-3,-4.945721E-3,2.6203461E-3,-1.1602388E-2,1.1344679E-3,4.226988E-3,-1.0992201E-2,-2.0119702E-2,-8.533705E-3,-9.5797535E-3,-1.3529839E-3,-9.11578E-3,-2.5554062E-3,-1.9857641E-2,-8.563266E-3,7.6237274E-4,1.5511782E-2,-4.778153E-3,-1.4199176E-2,2.4802645E-3,-4.4641066E-3],"categories":[],"categories_nodes":[],"categories_segments":[],"categories_sizes":[],"default_left":[0,0,0,0,0,0,0,0,0,0,0,0,0,0,0,0,0,0,0,0,0,0,0,0,0,0,0,0,0,0,0,0,0,0,0,0,0,0,0,0,0,0,0,0,0,0,0,0,0,0,0,0,0,0,0,0,0,0,0,0,0,0,0,0,0,0,0,0,0,0,0,0,0,0,0,0,0,0,0,0,0,0,0,0,0,0,0,0,0,0,0,0,0,0,0,0,0,0,0,0,0,0,0,0,0,0,0,0,0,0,0,0,0,0,0,0,0,0,0,0,0,0,0,0,0,0,0,0,0,0,0,0,0,0,0,0,0,0,0,0,0,0,0,0,0],"id":9,"left_children":[1,3,5,7,9,11,13,15,17,19,21,23,-1,25,27,29,31,33,35,-1,37,39,41,-1,43,45,47,49,51,-1,53,55,57,59,61,63,65,-1,67,69,71,73,75,-1,-1,77,79,81,83,-1,85,87,89,91,93,-1,95,97,99,-1,-1,101,103,105,-1,-1,107,109,111,113,115,117,119,121,123,125,127,129,131,133,-1,135,137,-1,139,-1,-1,-1,-1,141,143,-1,-1,-1,-1,-1,-1,-1,-1,-1,-1,-1,-1,-1,-1,-1,-1,-1,-1,-1,-1,-1,-1,-1,-1,-1,-1,-1,-1,-1,-1,-1,-1,-1,-1,-1,-1,-1,-1,-1,-1,-1,-1,-1,-1,-1,-1,-1,-1,-1,-1,-1,-1,-1,-1],"loss_changes":[6.181508E2,6.03137E2,1.0489499E2,2.7857214E2,1.4424292E2,1.1222275E1,9.050714E1,4.3004425E1,6.628735E1,4.856064E1,9.420688E1,