{"learner":{"attributes":{"best_iteration":"424","best_score":"0.5994624474391997"},"feature_names":["log_return_1m","log_return_3m","log_return_5m","candle_body_pct","upper_wick_pct","lower_wick_pct","range_pct","return_15m","return_30m","price_momentum_3","price_momentum_5","price_momentum_10","EMA_slope_9","EMA_slope_21","EMA_9_vs_21_distance","EMA_21_vs_50_distance","price_vs_EMA9","price_vs_EMA21","price_vs_EMA50","higher_high","lower_low","dist_from_swing_high","dist_from_swing_low","trend_strength_score","price_position_in_range","RSI_14","RSI_slope","Stoch_K","MACD_hist","momentum_consistency","ATR_14","ATR_5m","ATR_ratio","Bollinger_width","BB_position","volatility_percentile","true_range_expansion","volatility_regime","volume_zscore","volume_ratio_1m_vs_20m","VWAP_distance","VWAP_slope","OBV_delta","volume_spike_flag","vol_price_corr","minute_of_day_sin","minute_of_day_cos","day_of_week_sin","day_of_week_cos","is_open_range","is_lunch_time","is_close_window","minutes_since_open","minutes_to_close","symbol_id","trend_15m","price_above_15m_ema","dist_prev_day_high","dist_prev_day_low","gap_up_flag","gap_down_flag","inside_day","outside_day"],"feature_types":["float","float","float","float","float","float","float","float","float","float","float","float","float","float","float","float","float","float","float","float","float","float","float","float","float","float","float","float","float","float","float","float","float","float","float","float","float","float","float","float","float","float","float","float","float","float","float","float","float","float","float","float","float","float","float","float","float","float","float","float","float","float","float"],"gradient_booster":{"model":{"cats":{"enc":[],"feature_segments":[],"sorted_idx":[]},"gbtree_model_param":{"num_parallel_tree":"1","num_trees":"525"},"iteration_indptr":[0,1,2,3,4,5,6,7,8,9,10,11,12,13,14,15,16,17,18,19,20,21,22,23,24,25,26,27,28,29,30,31,32,33,34,35,36,37,38,39,40,41,42,43,44,45,46,47,48,49,50,51,52,53,54,55,56,57,58,59,60,61,62,63,64,65,66,67,68,69,70,71,72,73,74,75,76,77,78,79,80,81,82,83,84,85,86,87,88,89,90,91,92,93,94,95,96,97,98,99,100,101,102,103,104,105,106,107,108,109,110,111,112,113,114,115,116,117,118,119,120,121,122,123,124,125,126,127,128,129,130,131,132,133,134,135,136,137,138,139,140,141,142,143,144,145,146,147,148,149,150,151,152,153,154,155,156,157,158,159,160,161,162,163,164,165,166,167,168,169,170,171,172,173,174,175,176,177,178,179,180,181,182,183,184,185,186,187,188,189,190,191,192,193,194,195,196,197,198,199,200,201,202,203,204,205,206,207,208,209,210,211,212,213,214,215,216,217,218,219,220,221,222,223,224,225,226,227,228,229,230,231,232,233,234,235,236,237,238,239,240,241,242,243,244,245,246,247,248,249,250,251,252,253,254,255,256,257,258,259,260,261,262,263,264,265,266,267,268,269,270,271,272,273,274,275,276,277,278,279,280,281,282,283,284,285,286,287,288,289,290,291,292,293,294,295,296,297,298,299,300,301,302,303,304,305,306,307,308,309,310,311,312,313,314,315,316,317,318,319,320,321,322,323,324,325,326,327,328,329,330,331,332,333,334,335,336,337,338,339,340,341,342,343,344,345,346,347,348,349,350,351,352,353,354,355,356,357,358,359,360,361,362,363,364,365,366,367,368,369,370,371,372,373,374,375,376,377,378,379,380,381,382,383,384,385,386,387,388,389,390,391,392,393,394,395,396,397,398,399,400,401,402,403,404,405,406,407,408,409,410,411,412,413,414,415,416,417,418,419,420,421,422,423,424,425,426,427,428,429,430,431,432,433,434,435,436,437,438,439,440,441,442,443,444,445,446,447,448,449,450,451,452,453,454,455,456,457,458,459,460,461,462,463,464,465,466,467,468,469,470,471,472,473,474,475,476,477,478,479,480,481,482,483,484,485,486,487,488,489,490,491,492,493,494,495,496,497,498,499,500,501,502,503,504,505,506,507,508,509,510,511,512,513,514,515,516,517,518,519,520,521,522,523,524,525],"tree_info":[0,0,0,0,0,0,0,0,0,0,0,0,0,0,0,0,0,0,0,0,0,0,0,0,0,0,0,0,0,0,0,0,0,0,0,0,0,0,0,0,0,0,0,0,0,0,0,0,0,0,0,0,0,0,0,0,0,0,0,0,0,0,0,0,0,0,0,0,0,0,0,0,0,0,0,0,0,0,0,0,0,0,0,0,0,0,0,0,0,0,0,0,0,0,0,0,0,0,0,0,0,0,0,0,0,0,0,0,0,0,0,0,0,0,0,0,0,0,0,0,0,0,0,0,0,0,0,0,0,0,0,0,0,0,0,0,0,0,0,0,0,0,0,0,0,0,0,0,0,0,0,0,0,0,0,0,0,0,0,0,0,0,0,0,0,0,0,0,0,0,0,0,0,0,0,0,0,0,0,0,0,0,0,0,0,0,0,0,0,0,0,0,0,0,0,0,0,0,0,0,0,0,0,0,0,0,0,0,0,0,0,0,0,0,0,0,0,0,0,0,0,0,0,0,0,0,0,0,0,0,0,0,0,0,0,0,0,0,0,0,0,0,0,0,0,0,0,0,0,0,0,0,0,0,0,0,0,0,0,0,0,0,0,0,0,0,0,0,0,0,0,0,0,0,0,0,0,0,0,0,0,0,0,0,0,0,0,0,0,0,0,0,0,0,0,0,0,0,0,0,0,0,0,0,0,0,0,0,0,0,0,0,0,0,0,0,0,0,0,0,0,0,0,0,0,0,0,0,0,0,0,0,0,0,0,0,0,0,0,0,0,0,0,0,0,0,0,0,0,0,0,0,0,0,0,0,0,0,0,0,0,0,0,0,0,0,0,0,0,0,0,0,0,0,0,0,0,0,0,0,0,0,0,0,0,0,0,0,0,0,0,0,0,0,0,0,0,0,0,0,0,0,0,0,0,0,0,0,0,0,0,0,0,0,0,0,0,0,0,0,0,0,0,0,0,0,0,0,0,0,0,0,0,0,0,0,0,0,0,0,0,0,0,0,0,0,0,0,0,0,0,0,0,0,0,0,0,0,0,0,0,0,0,0,0,0,0,0,0,0,0,0,0,0,0,0,0,0,0,0,0,0,0,0,0,0,0,0,0,0,0,0,0,0,0,0,0,0,0,0,0,0,0,0,0,0,0,0,0,0,0,0,0,0,0,0,0,0,0,0,0,0,0,0,0],"trees":[{"base_weights":[4.6577994E-3,1.032326E-1,-2.2615021E-1,-1.3949409E-1,2.2238648E-1,2.8414118E-1,-2.5394794E-1,1.270399E-1,-2.3859824E-1,4.2243475E-1,1.1395502E-1,1.0711273E0,1.4948165E-1,-7.798506E-1,-2.288883E-1,-7.4833107E-1,1.5600131E-1,-1.3473307E0,-2.2103137E-1,1.400771E0,4.0043503E-1,1.6944302E-2,2.5814167E-1,9.656675E-3,1.9055087E-2,2.3793961E-1,-7.4765864E-3,-1.218477E0,-6.573967E-1,-1.3494454E-1,-3.4068277E-1,-3.7547536E-3,-1.5615098E-2,3.7218282E-1,7.06032E-2,-1.3033193E-2,-2.0398956E-2,-2.9445451E-1,-8.9369595E-2,1.3117695E-2,1.5191131E0,-3.0517591E-2,4.214978E-1,1.4954618E-1,-5.9309933E-2,-4.5333382E-1,2.8300598E-1,-2.3388837E-1,3.4609908E-1,-1.9677928E-2,-1.1192147E-2,-5.3606415E-1,-1.189974E0,-6.2303048E-2,-2.8804263E-1,-3.8852307E-1,-1.4163993E-1,7.161112E-3,8.861345E-4,3.978899E-4,6.861114E-3,-3.0883047E-4,-4.784114E-3,3.5943536E-4,-3.0618159E-3,2.424901E-2,1.75786E-2,7.7261827E-3,-1.9354246E-3,6.4185844E-3,3.661503E-3,2.9163412E-3,-7.859612E-4,-9.258278E-3,-6.45061E-4,-1.4421255E-3,-1.3403998E-2,7.438801E-3,3.0976203E-3,1.9533453E-3,-7.181795E-3,9.359107E-3,3.4075463E-3,-9.0137986E-4,-8.37311E-3,-1.0474207E-2,-1.9539082E-2,8.966019E-4,-1.7738524E-3,-7.897156E-3,-2.9772099E-3,-1.412756E-3,-5.602301E-3,3.568287E-3,-2.4342847E-3],"categories":[],"categories_nodes":[],"categories_segments":[],"categories_sizes":[],"default_left":[0,0,0,0,0,0,0,0,0,0,0,0,0,0,0,0,0,0,0,0,0,0,0,0,0,0,0,0,0,0,0,0,0,0,0,0,0,0,0,0,0,0,0,0,0,0,0,0,0,0,0,0,0,0,0,0,0,0,0,0,0,0,0,0,0,0,0,0,0,0,0,0,0,0,0,0,0,0,0,0,0,0,0,0,0,0,0,0,0,0,0,0,0,0,0],"id":0,"left_children":[1,3,5,7,9,11,13,15,17,19,21,23,25,27,29,31,33,35,37,39,41,43,45,-1,-1,47,-1,49,51,53,55,-1,-1,57,59,-1,-1,61,63,-1,65,67,69,71,73,75,77,79,81,-1,-1,83,85,87,89,91,93,-1,-1,-1,-1,-1,-1,-1,-1,-1,-1,-1,-1,-1,-1,-1,-1,-1,-1,-1,-1,-1,-1,-1,-1,-1,-1,-1,-1,-1,-1,-1,-1,-1,-1,-1,-1,-1,-1],"loss_changes":[5.838466E2,5.20095E2,1.0900754E2,1.5643921E2,2.6158203E2,4.193444E1,9.581287E1,4.081817E1,8.378262E1,9.0689575E1,1.09422485E2,6.2720337E0,2.1667397E1,1.6983887E1,7.298428E1,1.0051054E1,2.8680706E1,3.2690735E0,4.106401E1,2.9988708E0,3.765912E1,4.7306988E1,5.578685E1,0E0,0E0,1.5570396E1,0E0,5.9108505E0,1.6224403E1,4.2021652E1,3.017389E1,0E0,0E0,2.277269E1,2.0256351E1,0E0,0E0,5.004332E1,2.529044E1,0E0,1.7832336E0,1.3941041E1,3.659613E1,2.543732E1,1.9940796E1,2.0486454E1,4.1202713E1,6.8413754E0,7.7210712E0,0E0,0E0,9.749638E0,4.309265E0,2.4037468E1,2.3478577E1,2.5560455E1,1.0870841E1,0E0,0E0,0E0,0E0,0E0,0E0,0E0,0E0,0E0,0E0,0E0,0E0,0E0,0E0,0E0,0E0,0E0,0E0,0E0,0E0,0E0,0E0,0E0,0E0,0E0,0E0,0E0,0E0,0E0,0E0,0E0,0E0,0E0,0E0,0E0,0E0,0E0,0E0],"parents":[2147483647,0,0,1,1,2,2,3,3,4,4,5,5,6,6,7,7,8,8,9,9,10,10,11,11,12,12,13,13,14,14,15,15,16,16,17,17,18,18,19,19,20,20,21,21,22,22,25,25,27,27,28,28,29,29,30,30,33,33,34,34,37,37,38,38,40,40,41,41,42,42,43,43,44,44,45,45,46,46,47,47,48,48,51,51,52,52,53,53,54,54,55,55,56,56],"right_children":[2,4,6,8,10,12,14,16,18,20,22,24,26,28,30,32,34,36,38,40,42,44,46,-1,-1,48,-1,50,52,54,56,-1,-1,58,60,-1,-1,62,64,-1,66,68,70,72,74,76,78,80,82,-1,-1,84,86,88,90,92,94,-1,-1,-1,-1,-1,-1,-1,-1,-1,-1,-1,-1,-1,-1,-1,-1,-1,-1,-1,-1,-1,-1,-1,-1,-1,-1,-1,-1,-1,-1,-1,-1,-1,-1,-1,-1,-1,-1],"split_conditions":[3.4014285E-1,-2.0458405E-4,2.0818552E-3,5E-1,5.0782915E-3,8.4515504E-4,1.7074111E-3,1.543586E-3,8.711298E-4,6.5455417E-4,1E0,2.197966E-3,7.333171E-1,8.711298E-4,5.1480883E-1,1.2E2,4.7492804E-3,2.0019531E-2,1E0,3.4313116E-4,-3.9792844E-4,2.1561838E-3,1.4625031E-3,9.656675E-3,1.9055087E-2,3.7639078E-5,-7.4765864E-3,1.008348E0,-9.557372E-5,1E0,4.110409E-3,-3.7547536E-3,-1.5615098E-2,2.1058717E-1,2.3730226E0,-1.3033193E-2,-2.0398956E-2,3.6772836E-3,7.675419E-2,1.3117695E-2,-3.1794336E-2,-9.908659E-1,1.9449343E-1,1.0735707E-2,1.2676086E-3,7.321339E-4,1.4655895E-3,-7.5E-1,2.8603995E-4,-1.9677928E-2,-1.1192147E-2,7.0682293E-1,1.2604798E-2,8.5722774E-1,-2.843546E-4,6.048166E-1,-4.8695794E-1,7.161112E-3,8.861345E-4,3.978899E-4,6.861114E-3,-3.0883047E-4,-4.784114E-3,3.5943536E-4,-3.0618159E-3,2.424901E-2,1.75786E-2,7.7261827E-3,-1.9354246E-3,6.4185844E-3,3.661503E-3,2.9163412E-3,-7.859612E-4,-9.258278E-3,-6.45061E-4,-1.4421255E-3,-1.3403998E-2,7.438801E-3,3.0976203E-3,1.9533453E-3,-7.181795E-3,9.359107E-3,3.4075463E-3,-9.0137986E-4,-8.37311E-3,-1.0474207E-2,-1.9539082E-2,8.966019E-4,-1.7738524E-3,-7.897156E-3,-2.9772099E-3,-1.412756E-3,-5.602301E-3,3.568287E-3,-2.4342847E-3],"split_indices":[4,0,57,3,57,57,58,58,58,57,59,18,4,58,4,53,57,4,59,14,14,33,58,0,0,17,0,32,14,60,33,0,0,4,38,0,0,57,4,0,38,46,4,57,58,22,33,11,7,0,0,31,12,31,0,31,28,0,0,0,0,0,0,0,0,0,0,0,0,0,0,0,0,0,0,0,0,0,0,0,0,0,0,0,0,0,0,0,0,0,0,0,0,0,0],"split_type":[0,0,0,0,0,0,0,0,0,0,0,0,0,0,0,0,0,0,0,0,0,0,0,0,0,0,0,0,0,0,0,0,0,0,0,0,0,0,0,0,0,0,0,0,0,0,0,0,0,0,0,0,0,0,0,0,0,0,0,0,0,0,0,0,0,0,0,0,0,0,0,0,0,0,0,0,0,0,0,0,0,0,0,0,0,0,0,0,0,0,0,0,0,0,0],"sum_hessian":[2.5659518E4,1.7980746E4,7.678772E3,5.9203354E3,1.2060411E4,3.9621658E2,7.282555E3,1.604595E3,4.3157407E3,4.2382646E3,7.822146E3,5.6892857E1,3.3932373E2,3.298901E2,6.952665E3,5.060625E1,1.5539886E3,6.615406E1,4.2495864E3,9.185691E1,4.1464077E3,4.6767026E3,3.1454436E3,3.120872E1,2.5684137E1,3.025685E2,3.6755226E1,7.008025E1,2.5980984E2,3.7791355E3,3.1735295E3,2.5229328E1,2.5376923E1,4.391055E2,1.1148832E3,2.5427458E1,4.0726604E1,2.727393E3,1.5221934E3,2.273201E1,6.91249E1,1.931884E2,3.9532195E3,1.7071459E3,2.9695564E3,1.05641365E2,3.0398022E3,5.6209976E1,2.4635854E2,3.8801746E1,3.1278507E1,2.1320625E2,4.6603592E1,2.5639763E3,1.2151593E3,2.5578142E3,6.1571533E2,2.815726E2,1.575329E2,1.02358484E3,9.1298355E1,5.451337E2,2.1822593E3,8.373964E2,6.8479694E2,2.2609015E1,4.6515884E1,3.0007921E1,1.6318048E2,2.7326382E3,1.2205812E3,1.273361E3,4.337849E2,4.6705997E1,2.9228506E3,6.6212616E1,3.942875E1,4.4744128E2,2.5923608E3,2.540553E1,3.0804443E1,4.6862946E1,1.9949559E2,3.713223E1,1.7607402E2,2.1177471E1,2.542612E1,9.1286566E2,1.6511106E3,2.0312848E2,1.0120309E3,2.870798E2,2.2707344E3,5.726318E1,5.5845215E2],"tree_param":{"num_deleted":"0","num_feature":"63","num_nodes":"95","size_leaf_vector":"1"}},{"base_weights":[-1.7800331E-3,-1.1245567E-1,2.0039846E-1,-2.2952569E-1,8.779156E-2,4.066659E-1,9.043615E-2,-1.4842565E-2,-2.9758874E-1,2.0060529E-1,-1.6979668E-1,2.9398775E-1,5.86568E-1,-7.1336657E-1,1.1286011E-1,-2.0846966E-1,6.885741E-2,-4.5249948E-1,-2.0175973E-1,4.0143818E-1,9.7321585E-2,3.223485E-1,-2.1353862E-1,6.66021E-1,2.3724934E-1,6.0919076E-1,-6.011124E-3,-3.3627433E-1,-1.1714447E0,1.8470438E-1,-8.447219E-2,-7.146955E-2,-4.724815E-1,8.2295716E-1,4.7938902E-2,-8.2801765E-1,-4.1530573E-1,-1.321149E0,-1.8789709E-1,1.3237759E0,3.6634934E-1,1.7764966E-1,-8.431755E-2,-5.1394342E-3,4.6080506E-1,-1.4568859E-2,-1.9358258E-1,9.409936E-1,5.426082E-1,1.1645692E-1,3.3932462E-1,3.3418798E-1,6.939004E-1,-6.611624E-1,2.0310844E-3,-1.8160965E-2,-9.892334E-3,4.6707055E-1,1.3462155E-1,5.3285744E-2,-2.3476948E-1,-6.346064E-3,9.884726E-4,-7.3762443E-3,4.229863E-3,1.6149297E-2,5.641822E-3,1.6655114E-3,-1.5420371E-3,-7.945461E-4,-1.2295556E-2,-5.867675E-3,-3.748061E-4,-1.3188439E-2,-2.0358577E-2,-1.1821348E-3,-4.077948E-3,2.1166895E-2,1.2631872E-2,-1.1084751E-3,5.3690504E-3,-6.65226E-4,3.544955E-3,8.553549E-3,-1.4618819E-3,4.404926E-3,1.3448397E-2,-2.879792E-3,2.8603284E-3,9.880768E-3,1.7015329E-2,1.5726527E-2,5.831034E-3,3.6824911E-3,-1.8749664E-4,4.760549E-3,-5.794181E-3,-5.589026E-3,5.440824E-3,1.150261E-2,7.1072825E-3,-3.3388424E-3,-1.2694522E-2,7.245918E-3,-3.1234815E-3,-9.060308E-4,2.6036198E-3,-5.2853185E-3,1.571345E-3,-1.1123993E-2,-2.772596E-3],"categories":[],"categories_nodes":[],"categories_segments":[],"categories_sizes":[],"default_left":[0,0,0,0,0,0,0,0,0,0,0,0,0,0,0,0,0,0,0,0,0,0,0,0,0,0,0,0,0,0,0,0,0,0,0,0,0,0,0,0,0,0,0,0,0,0,0,0,0,0,0,0,0,0,0,0,0,0,0,0,0,0,0,0,0,0,0,0,0,0,0,0,0,0,0,0,0,0,0,0,0,0,0,0,0,0,0,0,0,0,0,0,0,0,0,0,0,0,0,0,0,0,0,0,0,0,0,0,0,0,0],"id":1,"left_children":[1,3,5,7,9,11,13,15,17,19,21,23,25,27,29,31,33,35,37,39,41,43,45,47,49,51,-1,53,55,57,59,61,63,65,67,69,71,73,75,77,79,81,83,-1,85,-1,87,89,91,93,95,97,99,101,-1,-1,-1,103,105,107,109,-1,-1,-1,-1,-1,-1,-1,-1,-1,-1,-1,-1,-1,-1,-1,-1,-1,-1,-1,-1,-1,-1,-1,-1,-1,-1,-1,-1,-1,-1,-1,-1,-1,-1,-1,-1,-1,-1,-1,-1,-1,-1,-1,-1,-1,-1,-1,-1,-1,-1],"loss_changes":[5.7651996E2,3.9035052E2,2.0669739E2,1.5353247E2,1.7856296E2,6.407129E1,1.07259605E2,4.1024155E1,1.1834497E2,8.859245E1,4.0359844E1,4.1018402E1,2.9007294E1,2.751249E1,8.2043396E1,2.7598396E1,2.7841312E1,4.2237244E1,7.626927E1,4.647679E1,4.120484E1,1.5261696E1,3.0302704E1,8.23835E0,2.0847702E1,2.7585968E1,0E0,1.44232E1,5.218498E0,5.9925827E1,3.200013E1,3.0190826E1,1.7925434E1,7.020584E0,2.2152729E1,2.152655E1,3.09628E1,2.7588654E0,5.7879837E1,3.89888E0,2.5265518E1,4.049093E1,1.6766083E1,0E0,8.796589E0,0E0,1.6886627E1,4.308777E0,1.1293602E1,1.6486439E1,1.5159836E1,1.6815403E1,2.4674377E1,6.40613E0,0E0,0E0,0E0,3.670012E1,4.575686E1,2.4063683E1,1.100021E1,0E0,0E0,0E0,0E0,0E0,0E0,0E0,0E0,0E0,0E0,0E0,0E0,0E0,0E0,0E0,0E0,0E0,0E0,0E0,0E0,0E0,0E0,0E0,0E0,0E0,0E0,0E0,0E0,0E0,0E0,0E0,0E0,0E0,0E0,0E0,0E0,0E0,0E0,0E0,0E0,0E0,0E0,0E0,0E0,0E0,0E0,0E0,0E0,0E0,0E0],"parents":[2147483647,0,0,1,1,2,2,3,3,4,4,5,5,6,6,7,7,8,8,9,9,10,10,11,11,12,12,13,13,14,14,15,15,16,16,17,17,18,18,19,19,20,20,21,21,22,22,23,23,24,24,25,25,27,27,28,28,29,29,30,30,31,31,32,32,33,33,34,34,35,35,36,36,37,37,38,38,39,39,40,40,41,41,42,42,44,44,46,46,47,47,48,48,49,49,50,50,51,51,52,52,53,53,57,57,58,58,59,59,60,60],"right_children":[2,4,6,8,10,12,14,16,18,20,22,24,26,28,30,32,34,36,38,40,42,44,46,48,50,52,-1,54,56,58,60,62,64,66,68,70,72,74,76,78,80,82,84,-1,86,-1,88,90,92,94,96,98,100,102,-1,-1,-1,104,106,108,110,-1,-1,-1,-1,-1,-1,-1,-1,-1,-1,-1,-1,-1,-1,-1,-1,-1,-1,-1,-1,-1,-1,-1,-1,-1,-1,-1,-1,-1,-1,-1,-1,-1,-1,-1,-1,-1,-1,-1,-1,-1,-1,-1,-1,-1,-1,-1,-1,-1,-1],"split_conditions":[3.9213338E-1,1.9012073E-4,5.0782915E-3,4.093998E-4,3.0432013E-1,6.276216E-1,1.2676086E-3,4.190505E-3,1.2501271E-1,5.0782915E-3,2.460312E-3,1.7773792E-3,2.8044019E-2,9.625306E-1,1E0,-2.4279788E-2,1.1573741E-3,2.2304205E-3,8.711298E-4,6.5455417E-4,1E0,2.0125788E-5,1.3723548E-3,8.3938435E-2,4.570363E-5,1.4E2,-6.011124E-3,2.93E2,3.27E2,1.4529853E-3,1.0964948E0,1.7802746E-3,3.295594E-4,2.7477412E-4,1E0,6.9143444E-1,3.41E2,9.8917514E-1,3.3333334E-1,1.0168581E0,-3.018943E-4,1.5E2,1.1741819E-3,-5.1394342E-3,7.116152E1,-1.4568859E-2,1.6856284E-3,2.62E2,6.5455417E-4,8.561581E-1,2.8044019E-2,-1.4500732E0,1.8926059E-3,-1.2451274E-1,2.0310844E-3,-1.8160965E-2,-9.892334E-3,3.916582E-1,3.4959023E-3,-7.9992676E-1,2.8259992E-3,-6.346064E-3,9.884726E-4,-7.3762443E-3,4.229863E-3,1.6149297E-2,5.641822E-3,1.6655114E-3,-1.5420371E-3,-7.945461E-4,-1.2295556E-2,-5.867675E-3,-3.748061E-4,-1.3188439E-2,-2.0358577E-2,-1.1821348E-3,-4.077948E-3,2.1166895E-2,1.2631872E-2,-1.1084751E-3,5.3690504E-3,-6.65226E-4,3.544955E-3,8.553549E-3,-1.4618819E-3,4.404926E-3,1.3448397E-2,-2.879792E-3,2.8603284E-3,9.880768E-3,1.7015329E-2,1.5726527E-2,5.831034E-3,3.6824911E-3,-1.8749664E-4,4.760549E-3,-5.794181E-3,-5.589026E-3,5.440824E-3,1.150261E-2,7.1072825E-3,-3.3388424E-3,-1.2694522E-2,7.245918E-3,-3.1234815E-3,-9.060308E-4,2.6036198E-3,-5.2853185E-3,1.571345E-3,-1.1123993E-2,-2.772596E-3],"split_indices":[5,0,57,6,4,5,58,58,5,57,57,57,58,30,60,41,57,58,58,57,60,14,58,41,17,52,0,52,52,33,30,58,1,6,60,31,52,32,4,32,17,52,33,0,25,0,1,52,57,30,58,11,40,41,0,0,0,4,58,9,58,0,0,0,0,0,0,0,0,0,0,0,0,0,0,0,0,0,0,0,0,0,0,0,0,0,0,0,0,0,0,0,0,0,0,0,0,0,0,0,0,0,0,0,0,0,0,0,0,0,0],"split_type":[0,0,0,0,0,0,0,0,0,0,0,0,0,0,0,0,0,0,0,0,0,0,0,0,0,0,0,0,0,0,0,0,0,0,0,0,0,0,0,0,0,0,0,0,0,0,0,0,0,0,0,0,0,0,0,0,0,0,0,0,0,0,0,0,0,0,0,0,0,0,0,0,0,0,0,0,0,0,0,0,0,0,0,0,0,0,0,0,0,0,0,0,0,0,0,0,0,0,0,0,0,0,0,0,0,0,0,0,0,0,0],"sum_hessian":[2.5762871E4,1.6649254E4,9.113618E3,1.05066455E4,6.1426084E3,3.1681472E3,5.9454707E3,2.5294666E3,7.9771787E3,4.271902E3,1.8707064E3,1.9496265E3,1.2185206E3,1.6053996E2,5.7849307E3,7.629811E2,1.7664856E3,3.0473596E3,4.929819E3,1.4498528E3,2.822049E3,1.5218483E2,1.7185216E3,2.565937E2,1.6930328E3,1.1930168E3,2.5503843E1,8.898761E1,7.155236E1,4.2409614E3,1.5439694E3,5.0314264E2,2.5983844E2,4.666307E1,1.7198225E3,2.7274765E2,2.774612E3,5.9172657E1,4.870646E3,5.1815056E1,1.3980377E3,1.9567327E3,8.653164E2,2.4503792E1,1.2768104E2,3.655125E1,1.6819703E3,7.747322E1,1.7912047E2,7.763903E2,9.1664246E2,2.8209195E2,9.1092487E2,5.3305523E1,3.5682087E1,4.6825394E1,2.4726967E1,6.376594E2,3.603302E3,8.059155E2,7.3805383E2,1.3199147E2,3.7115118E2,2.3470766E2,2.5130785E1,2.2207304E1,2.4455767E1,1.1665461E3,5.532763E2,3.2355537E1,2.403921E2,2.5820007E3,1.9261137E2,2.6174625E1,3.299803E1,2.684725E3,2.1859211E3,2.7608784E1,2.420627E1,1.1412199E2,1.2839158E3,5.5691003E2,1.3998226E3,2.925796E1,8.360585E2,1.0519941E2,2.2481632E1,1.5879498E3,9.402055E1,5.1764484E1,2.570874E1,2.2781555E1,1.5633891E2,3.457798E2,4.3061053E2,8.930388E2,2.3603642E1,2.5829058E1,2.562629E2,4.2479965E2,4.8612518E2,2.3328499E1,2.9977024E1,5.71723E2,6.593642E1,8.471136E2,2.7561885E3,1.0131591E2,7.045997E2,2.7802893E1,7.102509E2],"tree_param":{"num_deleted":"0","num_feature":"63","num_nodes":"111","size_leaf_vector":"1"}},{"base_weights":[3.7614256E-3,1.12944536E-1,-2.0116714E-1,-1.24692746E-1,2.3193258E-1,-1.1357759E-1,-3.3340636E-1,-3.0702966E-1,5.375308E-2,3.092362E-1,1.0519667E-1,-4.2226774E-1,-8.168955E-2,-4.0369734E-1,-1.1392597E-1,-3.3619526E-1,1.3597639E-2,1.166925E-2,3.274531E-1,2.4685277E-1,4.8617133E-1,-5.3715173E-2,1.4645515E-1,-7.572598E-1,-3.0283874E-1,2.0195824E-1,-1.1264273E-1,-1.8299046E-1,-4.717345E-1,3.584979E-1,-1.7637835E-1,-2.729436E-1,-4.6621332E-1,1.558305E-1,-4.0845764E-1,-1.2348478E-1,8.3781615E-2,4.8190862E-2,4.8222455E-1,1.0780473E-1,3.0386505E-1,6.7660975E-1,3.378402E-1,-1.5193042E-1,1.5391468E-1,3.378546E-1,1.1465405E-1,-5.215358E-1,-1.0131903E0,-3.6246976E-1,1.4082976E-1,2.4495473E-2,4.0991792E-1,-1.5330748E-1,-3.5672635E-3,-1.146649E-1,-4.712593E-1,2.0592523E-1,-4.9160066E-1,1.9000898E-1,1.15437815E-2,-2.7104384E-1,1.0406567E-1,-1.0237967E-3,-4.3662554E-3,-7.674154E-3,-4.0677115E-3,7.548753E-4,8.625678E-3,-9.774061E-3,1.0967309E-4,-1.911054E-3,8.018986E-3,-5.8439054E-4,2.1878495E-3,2.579936E-3,-5.88628E-3,8.16605E-3,-9.234557E-4,4.751854E-3,9.27326E-4,4.387351E-3,1.1766747E-3,7.1769278E-3,1.1332931E-2,-1.9733284E-3,5.0304616E-3,-4.020297E-3,5.413344E-4,4.864098E-4,7.790261E-3,5.3999415E-3,-1.8526722E-3,2.1101192E-3,-4.784731E-4,-1.2734769E-2,-2.5378838E-3,-1.6827267E-2,-6.3752495E-3,-6.366743E-3,-1.105038E-3,6.5860176E-3,-3.3110552E-3,1.1831744E-3,-8.402003E-3,1.135499E-2,2.9337455E-3,-2.6319958E-3,1.3948404E-4,-3.2143595E-3,9.048848E-4,1.8807708E-3,-2.8684672E-3,-1.1703553E-2,-3.5663135E-3,6.667677E-3,-1.2458087E-3,-5.4994035E-3,-8.318626E-3,5.433932E-3,-5.0422195E-3,-4.28201E-3,3.063399E-3,-3.3337686E-3,3.2510704E-3],"categories":[],"categories_nodes":[],"categories_segments":[],"categories_sizes":[],"default_left":[0,0,0,0,0,0,0,0,0,0,0,0,0,0,0,0,0,0,0,0,0,0,0,0,0,0,0,0,0,0,0,0,0,0,0,0,0,0,0,0,0,0,0,0,0,0,0,0,0,0,0,0,0,0,0,0,0,0,0,0,0,0,0,0,0,0,0,0,0,0,0,0,0,0,0,0,0,0,0,0,0,0,0,0,0,0,0,0,0,0,0,0,0,0,0,0,0,0,0,0,0,0,0,0,0,0,0,0,0,0,0,0,0,0,0,0,0,0,0,0,0,0,0,0,0],"id":2,"left_children":[1,3,5,7,9,11,13,15,17,19,21,23,25,27,29,31,33,35,37,39,41,43,45,47,49,51,53,55,57,59,61,63,65,67,69,71,73,75,77,79,81,83,85,87,89,91,93,95,97,99,101,103,105,107,109,111,113,115,117,119,-1,121,123,-1,-1,-1,-1,-1,-1,-1,-1,-1,-1,-1,-1,-1,-1,-1,-1,-1,-1,-1,-1,-1,-1,-1,-1,-1,-1,-1,-1,-1,-1,-1,-1,-1,-1,-1,-1,-1,-1,-1,-1,-1,-1,-1,-1,-1,-1,-1,-1,-1,-1,-1,-1,-1,-1,-1,-1,-1,-1,-1,-1,-1,-1],"loss_changes":[5.757405E2,4.747127E2,1.0356064E2,1.8228357E2,1.0956543E2,5.2942482E1,5.4926147E1,2.5915833E1,3.261502E1,7.657153E1,2.7805649E1,1.9924309E1,4.286084E1,4.0436005E1,2.5603958E1,2.0761658E1,1.3987239E1,2.3942562E1,1.6286953E1,4.0705017E1,5.0906494E1,1.785805E1,2.0450172E1,7.4262238E0,9.916721E0,1.7719076E1,1.9514694E1,1.2501717E1,2.785962E1,8.63982E0,2.0345285E1,1.9221725E1,1.48884735E1,8.508897E0,8.119054E0,1.3303472E1,1.6786255E1,9.937369E0,1.825253E1,1.4145832E1,2.2067444E1,1.8672272E1,2.1382904E1,1.7480434E1,1.4333546E1,1.6293518E1,1.9643562E1,1.0104607E1,7.981304E0,1.0918465E1,6.4080944E0,1.1239127E1,1.8487228E1,2.4117813E1,2.067637E1,1.3635675E1,9.932444E0,5.376978E0,2.05802E1,9.980533E0,0E0,1.5354794E1,9.872714E0,0E0,0E0,0E0,0E0,0E0,0E0,0E0,0E0,0E0,0E0,0E0,0E0,0E0,0E0,0E0,0E0,0E0,0E0,0E0,0E0,0E0,0E0,0E0,0E0,0E0,0E0,0E0,0E0,0E0,0E0,0E0,0E0,0E0,0E0,0E0,0E0,0E0,0E0,0E0,0E0,0E0,0E0,0E0,0E0,0E0,0E0,0E0,0E0,0E0,0E0,0E0,0E0,0E0,0E0,0E0,0E0,0E0,0E0,0E0,0E0,0E0,0E0],"parents":[2147483647,0,0,1,1,2,2,3,3,4,4,5,5,6,6,7,7,8,8,9,9,10,10,11,11,12,12,13,13,14,14,15,15,16,16,17,17,18,18,19,19,20,20,21,21,22,22,23,23,24,24,25,25,26,26,27,27,28,28,29,29,30,30,31,31,32,32,33,33,34,34,35,35,36,36,37,37,38,38,39,39,40,40,41,41,42,42,43,43,44,44,45,45,46,46,47,47,48,48,49,49,50,50,51,51,52,52,53,53,54,54,55,55,56,56,57,57,58,58,59,59,61,61,62,62],"right_children":[2,4,6,8,10,12,14,16,18,20,22,24,26,28,30,32,34,36,38,40,42,44,46,48,50,52,54,56,58,60,62,64,66,68,70,72,74,76,78,80,82,84,86,88,90,92,94,96,98,100,102,104,106,108,110,112,114,116,118,120,-1,122,124,-1,-1,-1,-1,-1,-1,-1,-1,-1,-1,-1,-1,-1,-1,-1,-1,-1,-1,-1,-1,-1,-1,-1,-1,-1,-1,-1,-1,-1,-1,-1,-1,-1,-1,-1,-1,-1,-1,-1,-1,-1,-1,-1,-1,-1,-1,-1,-1,-1,-1,-1,-1,-1,-1,-1,-1,-1,-1,-1,-1,-1,-1],"split_conditions":[3.0432013E-1,-2.0774375E-4,5.0667316E-1,2.380814E-1,7.943815E-4,-4.0247192E-4,7.421123E-4,-7.193398E-1,5.7150334E-1,6.153268E-1,-2.3463522E-3,2.3459852E-2,2.7538513E-4,4.093998E-4,3.3894627E-4,1.5002441E-1,2.8563E4,-7.62508E-2,3.3331394E1,1.51E2,2.3083334E-1,1.7974648E-1,8.990116E-1,-1.4535E4,1.0274447E-3,7.272551E-4,4.347734E-1,2.9246306E-2,-4.8695794E-1,4.4162E4,6.702855E1,7.7270037E-1,-2.1196686E-4,1.1324002E0,2.1099822E-5,-6.7880076E-1,7.018008E-4,1.2491327E-3,3.7241544E-4,1.0733333E-1,7.0633334E-1,4.2368166E-4,-1.279921E-1,9.993924E-1,1E0,8.245E-1,-7.165336E-3,-8.00341E0,3.4437E4,2.3467863E-1,3.0162776E-1,5.1816666E-1,8.2771254E-1,5.5910378E0,-9.891898E-4,-3.8583568E-4,2.5714998E1,-1.9725333E-3,6.830679E-1,1.5488E4,1.15437815E-2,3.7503815E-1,3.9664988E-4,-1.0237967E-3,-4.3662554E-3,-7.674154E-3,-4.0677115E-3,7.548753E-4,8.625678E-3,-9.774061E-3,1.0967309E-4,-1.911054E-3,8.018986E-3,-5.8439054E-4,2.1878495E-3,2.579936E-3,-5.88628E-3,8.16605E-3,-9.234557E-4,4.751854E-3,9.27326E-4,4.387351E-3,1.1766747E-3,7.1769278E-3,1.1332931E-2,-1.9733284E-3,5.0304616E-3,-4.020297E-3,5.413344E-4,4.864098E-4,7.790261E-3,5.3999415E-3,-1.8526722E-3,2.1101192E-3,-4.784731E-4,-1.2734769E-2,-2.5378838E-3,-1.6827267E-2,-6.3752495E-3,-6.366743E-3,-1.105038E-3,6.5860176E-3,-3.3110552E-3,1.1831744E-3,-8.402003E-3,1.135499E-2,2.9337455E-3,-2.6319958E-3,1.3948404E-4,-3.2143595E-3,9.048848E-4,1.8807708E-3,-2.8684672E-3,-1.1703553E-2,-3.5663135E-3,6.667677E-3,-1.2458087E-3,-5.4994035E-3,-8.318626E-3,5.433932E-3,-5.0422195E-3,-4.28201E-3,3.063399E-3,-3.3337686E-3,3.2510704E-3],"split_indices":[4,0,4,5,21,0,18,46,5,5,8,5,21,6,6,4,42,12,27,52,35,38,32,42,17,18,5,41,28,42,25,31,18,32,1,46,6,6,16,35,35,6,41,32,50,35,28,26,42,5,41,35,34,26,18,2,27,2,4,42,0,5,1,0,0,0,0,0,0,0,0,0,0,0,0,0,0,0,0,0,0,0,0,0,0,0,0,0,0,0,0,0,0,0,0,0,0,0,0,0,0,0,0,0,0,0,0,0,0,0,0,0,0,0,0,0,0,0,0,0,0,0,0,0,0],"split_type":[0,0,0,0,0,0,0,0,0,0,0,0,0,0,0,0,0,0,0,0,0,0,0,0,0,0,0,0,0,0,0,0,0,0,0,0,0,0,0,0,0,0,0,0,0,0,0,0,0,0,0,0,0,0,0,0,0,0,0,0,0,0,0,0,0,0,0,0,0,0,0,0,0,0,0,0,0,0,0,0,0,0,0,0,0,0,0,0,0,0,0,0,0,0,0,0,0,0,0,0,0,0,0,0,0,0,0,0,0,0,0,0,0,0,0,0,0,0,0,0,0,0,0,0,0],"sum_hessian":[2.572975E4,1.6786553E4,8.943197E3,5.600814E3,1.1185738E4,5.380932E3,3.5622646E3,2.7698586E3,2.8309556E3,6.9469604E3,4.2387773E3,5.0268454E2,4.8782476E3,2.6975244E3,8.6474036E2,2.538869E3,2.3098964E2,2.45457E3,3.763853E2,5.13783E3,1.8091305E3,8.736159E2,3.3651616E3,1.3073463E2,3.7194992E2,4.794274E2,4.3988203E3,6.36478E2,2.0610464E3,1.0042243E2,7.6431793E2,1.7100201E3,8.288489E2,1.7323186E2,5.7757782E1,8.5374756E2,1.6008226E3,1.3467613E2,2.4170918E2,1.4948579E3,3.6429722E3,7.905999E2,1.0185306E3,5.932567E2,2.803592E2,4.7811044E2,2.8870513E3,6.960662E1,6.1128014E1,3.28042E2,4.3907925E1,2.5927588E2,2.201515E2,3.20394E3,1.1948801E3,5.156365E2,1.2084156E2,5.843708E1,2.0026093E3,7.669079E1,2.3731647E1,5.71457E2,1.92861E2,3.8954068E2,1.3204795E3,4.7914883E2,3.4970007E2,1.4544975E2,2.778211E1,3.1753052E1,2.600473E1,8.3046686E2,2.3280666E1,6.243921E2,9.7643054E2,1.0422201E2,3.045413E1,1.9387514E2,4.7834045E1,1.9312007E2,1.3017378E3,3.2193108E3,4.2366132E2,4.5770932E2,3.3289056E2,8.229013E1,9.362404E2,3.3112918E2,2.6212756E2,2.2181886E2,5.854031E1,4.164991E2,6.1611305E1,2.2229482E3,6.641029E2,2.8901503E1,4.0705116E1,4.0075726E1,2.1052288E1,2.2915025E2,9.889173E1,2.2805109E1,2.1102816E1,2.3679816E2,2.2477732E1,6.3843E1,1.563085E2,2.5024834E3,7.014567E2,2.756186E2,9.192616E2,1.4685338E2,3.687831E2,3.8403587E1,8.243797E1,2.8956736E1,2.9480345E1,1.2982502E3,7.04359E2,5.5487644E1,2.1203142E1,5.172206E2,5.423639E1,5.4733196E1,1.3812779E2],"tree_param":{"num_deleted":"0","num_feature":"63","num_nodes":"125","size_leaf_vector":"1"}},{"base_weights":[-8.790887E-4,1.12355486E-1,-2.1307585E-1,-1.648539E-1,2.1370395E-1,1.853795E-1,-2.4213871E-1,-1.3110666E0,-1.4802556E-1,-3.2093504E-1,2.3333101E-1,2.9752457E-1,-8.36669E-2,-5.6235385E-1,-2.0696986E-1,-2.0550834E-2,-1.1717414E-2,1.6377288E-1,-2.0321226E-1,-6.4651036E-1,-1.1098318E-1,3.0252534E-1,1.14759326E-1,7.8016914E-2,5.3280115E-1,-1.7444217E-1,6.7282617E-3,-1.0900899E0,-5.006696E-1,-1.33428E-1,-3.1338665E-1,1.179465E-2,1.2388876E-1,-1.4281161E-1,-3.785781E-1,-2.5508103E-1,-1.0599579E0,1.0810829E-2,-4.930921E-1,4.497764E-1,2.2475305E-1,1.7856744E-1,8.786514E-3,1.4470005E-4,1.0360146E-2,1.3514325E-3,6.205718E-1,-2.636994E-1,4.228413E-3,-1.286302E0,-7.1156947E-3,-4.5674023E-1,-1.1521412E0,-4.3657976E-1,-9.750894E-2,-3.402871E-1,9.199195E-2,-1.4832371E-3,2.8694503E-3,-9.816478E-4,-4.037037E-3,3.7573741E-3,-5.5513196E-3,2.1522013E-3,-6.788979E-3,-1.9586513E-2,-1.1749569E-2,1.4431742E-3,-1.04948245E-2,-1.0208643E-2,-9.080995E-4,8.155308E-3,4.8368513E-3,4.4633397E-3,1.8803879E-3,4.482845E-3,1.664032E-3,-3.9950623E-3,7.222365E-4,3.0929546E-3,-2.4547998E-3,1.4030833E-2,6.3507794E-3,1.0359037E-3,-5.4385965E-3,-1.0681257E-2,-2.1365615E-2,-2.9157707E-3,-7.5991102E-3,-1.849473E-2,-1.1350737E-2,-2.5273997E-3,-7.51237E-3,-4.9699127E-4,-2.8254217E-3,-5.1816427E-3,-2.2826826E-3,8.35554E-3,-2.1186422E-4],"categories":[],"categories_nodes":[],"categories_segments":[],"categories_sizes":[],"default_left":[0,0,0,0,0,0,0,0,0,0,0,0,0,0,0,0,0,0,0,0,0,0,0,0,0,0,0,0,0,0,0,0,0,0,0,0,0,0,0,0,0,0,0,0,0,0,0,0,0,0,0,0,0,0,0,0,0,0,0,0,0,0,0,0,0,0,0,0,0,0,0,0,0,0,0,0,0,0,0,0,0,0,0,0,0,0,0,0,0,0,0,0,0,0,0,0,0,0,0],"id":3,"left_children":[1,3,5,7,9,11,13,15,17,19,21,23,25,27,29,-1,-1,31,33,35,37,39,41,43,45,47,-1,49,51,53,55,-1,57,59,61,63,65,67,69,71,73,75,77,79,-1,-1,81,83,-1,85,-1,87,89,91,93,95,97,-1,-1,-1,-1,-1,-1,-1,-1,-1,-1,-1,-1,-1,-1,-1,-1,-1,-1,-1,-1,-1,-1,-1,-1,-1,-1,-1,-1,-1,-1,-1,-1,-1,-1,-1,-1,-1,-1,-1,-1,-1,-1],"loss_changes":[6.1741425E2,4.707551E2,1.035813E2,8.6341E1,1.2882275E2,1.8380096E1,9.373312E1,5.362816E0,7.6128944E1,2.965541E1,9.707086E1,2.2145016E1,9.761133E0,2.629007E1,5.8734985E1,0E0,0E0,1.924231E1,3.9749542E1,2.729226E1,1.2365417E1,8.548627E1,2.950175E1,1.2283979E1,7.7652664E0,6.995021E0,0E0,8.56031E0,2.0650665E1,4.83358E1,3.3491974E1,0E0,1.3955196E1,3.116196E1,2.6667496E1,9.685118E0,4.6523514E0,1.6120955E1,7.566886E0,3.5963562E1,4.5555634E1,2.2989922E1,2.3443962E1,8.839957E0,0E0,0E0,1.0111038E1,6.775017E0,0E0,8.564384E0,0E0,1.9296432E1,2.1631966E0,1.5127945E1,2.7681812E1,2.4965271E1,1.120439E1,0E0,0E0,0E0,0E0,0E0,0E0,0E0,0E0,0E0,0E0,0E0,0E0,0E0,0E0,0E0,0E0,0E0,0E0,0E0,0E0,0E0,0E0,0E0,0E0,0E0,0E0,0E0,0E0,0E0,0E0,0E0,0E0,0E0,0E0,0E0,0E0,0E0,0E0,0E0,0E0,0E0,0E0],"parents":[2147483647,0,0,1,1,2,2,3,3,4,4,5,5,6,6,7,7,8,8,9,9,10,10,11,11,12,12,13,13,14,14,17,17,18,18,19,19,20,20,21,21,22,22,23,23,24,24,25,25,27,27,28,28,29,29,30,30,32,32,33,33,34,34,35,35,36,36,37,37,38,38,39,39,40,40,41,41,42,42,43,43,46,46,47,47,49,49,51,51,52,52,53,53,54,54,55,55,56,56],"right_children":[2,4,6,8,10,12,14,16,18,20,22,24,26,28,30,-1,-1,32,34,36,38,40,42,44,46,48,-1,50,52,54,56,-1,58,60,62,64,66,68,70,72,74,76,78,80,-1,-1,82,84,-1,86,-1,88,90,92,94,96,98,-1,-1,-1,-1,-1,-1,-1,-1,-1,-1,-1,-1,-1,-1,-1,-1,-1,-1,-1,-1,-1,-1,-1,-1,-1,-1,-1,-1,-1,-1,-1,-1,-1,-1,-1,-1,-1,-1,-1,-1,-1,-1],"split_conditions":[3.0432013E-1,-2.9735218E-4,2.7538513E-4,8.711298E-4,1.7802746E-3,2.6176948E-2,2.5102713E-3,6.813707E-4,4.6663412E-1,1.2676086E-3,2.9185459E-3,8.799805E1,1.3130967E-2,8.711298E-4,5.0667316E-1,-2.0550834E-2,-1.1717414E-2,7.427131E-1,1.429817E-1,2.775E-1,4.7876213E1,3.2575277E-4,1E0,4.2400995E-1,4.3280185E-3,2.4671827E-3,6.7282617E-3,-5.3491973E-4,-1.6955467E-2,-4.0247192E-4,6.702855E1,1.179465E-2,5.5244807E-3,1E0,-7.040147E-1,-1.21245675E-1,2.3070422E-1,7.5E-1,5.7137877E-1,3.8463706E-1,3.560529E-1,-4.9242356E-1,-1.9695894E-3,2.2219208E-1,1.0360146E-2,1.3514325E-3,6.579705E-1,6.882992E-1,4.228413E-3,9.078366E-1,-7.1156947E-3,4.222805E-1,-9.6004987E-1,4.4445953E-1,1E0,1.1776524E-2,-2.980633E-1,-1.4832371E-3,2.8694503E-3,-9.816478E-4,-4.037037E-3,3.7573741E-3,-5.5513196E-3,2.1522013E-3,-6.788979E-3,-1.9586513E-2,-1.1749569E-2,1.4431742E-3,-1.04948245E-2,-1.0208643E-2,-9.080995E-4,8.155308E-3,4.8368513E-3,4.4633397E-3,1.8803879E-3,4.482845E-3,1.664032E-3,-3.9950623E-3,7.222365E-4,3.0929546E-3,-2.4547998E-3,1.4030833E-2,6.3507794E-3,1.0359037E-3,-5.4385965E-3,-1.0681257E-2,-2.1365615E-2,-2.9157707E-3,-7.5991102E-3,-1.849473E-2,-1.1350737E-2,-2.5273997E-3,-7.51237E-3,-4.9699127E-4,-2.8254217E-3,-5.1816427E-3,-2.2826826E-3,8.35554E-3,-2.1186422E-4],"split_indices":[4,0,21,58,58,45,58,58,3,58,33,27,58,58,4,0,0,30,4,35,25,21,60,44,58,8,0,15,41,0,25,0,58,60,45,41,3,9,3,3,3,45,8,3,0,0,39,30,0,30,0,4,46,3,60,58,38,0,0,0,0,0,0,0,0,0,0,0,0,0,0,0,0,0,0,0,0,0,0,0,0,0,0,0,0,0,0,0,0,0,0,0,0,0,0,0,0,0,0],"split_type":[0,0,0,0,0,0,0,0,0,0,0,0,0,0,0,0,0,0,0,0,0,0,0,0,0,0,0,0,0,0,0,0,0,0,0,0,0,0,0,0,0,0,0,0,0,0,0,0,0,0,0,0,0,0,0,0,0,0,0,0,0,0,0,0,0,0,0,0,0,0,0,0,0,0,0,0,0,0,0,0,0,0,0,0,0,0,0,0,0,0,0,0,0,0,0,0,0,0,0],"sum_hessian":[2.569364E4,1.6753775E4,8.939864E3,4.485195E3,1.2268581E4,6.073743E2,8.33249E3,6.3805466E1,4.4213896E3,4.339065E2,1.1834675E4,4.286174E2,1.7875696E2,8.231266E2,7.509364E3,3.8812225E1,2.4993238E1,6.6458856E2,3.756801E3,1.693102E2,2.6459628E2,7.4724683E3,4.362206E3,2.224177E2,2.0619969E2,1.5562631E2,2.3130642E1,8.442962E1,7.3869696E2,4.441903E3,3.067461E3,3.3384453E1,6.312041E2,2.7956802E3,9.6112067E2,8.778674E1,8.152345E1,2.0136266E2,6.323362E1,2.580999E3,4.891469E3,2.7223481E3,1.6398582E3,2.0121199E2,2.12057E1,3.5282158E1,1.7091754E2,1.3222101E2,2.3405313E1,6.130797E1,2.312165E1,6.9359656E2,4.510042E1,4.6938562E2,3.972517E3,2.8767253E3,1.907355E2,1.7870598E2,4.5249814E2,1.9685723E3,8.2710803E2,5.643679E1,9.0468384E2,3.3706345E1,5.40804E1,2.1272972E1,6.0250484E1,1.8018558E2,2.1177084E1,3.762899E1,2.560463E1,8.5748987E2,1.7235092E3,2.0607107E3,2.8307585E3,6.6992804E2,2.0524202E3,2.1000839E2,1.4298497E3,8.8993416E1,1.12218575E2,3.9561565E1,1.3135597E2,4.0057846E1,9.2163155E1,2.6470703E1,3.483726E1,2.3272765E2,4.608689E2,2.2424294E1,2.2676126E1,1.651229E2,3.0426273E2,2.6235085E3,1.3490085E3,2.1948953E3,6.8183E2,3.0982481E1,1.5975302E2],"tree_param":{"num_deleted":"0","num_feature":"63","num_nodes":"99","size_leaf_vector":"1"}},{"base_weights":[5.422499E-4,7.665791E-2,-2.7324033E-1,-1.3985033E-1,1.8092214E-1,4.0691808E-1,-2.9452872E-1,-2.6613143E-1,9.32333E-2,4.1025975E-1,9.5562786E-2,1.3930152E-2,2.0929767E-1,-5.1648803E-2,-3.3798817E-1,-3.851288E-1,-1.5729032E-1,3.2788175E-1,5.275839E-3,1.3490334E0,3.826368E-1,3.3666745E-3,2.430995E-1,2.5039613E-2,1.12172235E-2,-1.3630933E-1,2.3520012E-1,-2.808366E-1,-5.386418E-1,4.930448E-2,-4.1900232E-1,4.3665943E-1,-1.7060189E-1,-9.297435E-2,3.6756667E-1,-8.569651E-2,1.3903834E-1,1.4065935E-2,1.9912578E-2,3.1543493E-1,6.020797E-1,6.2838E-2,-1.7431313E-1,1.1515759E-1,3.431783E-1,2.1086058E-1,-5.66669E-3,1.803562E-1,-2.420691E-1,4.5946178E-1,-5.9980344E-2,-3.104466E-1,1.4842016E-2,-5.7165575E-1,6.9423206E-2,-4.708576E-3,3.1028558E-3,-4.1612745E-3,-7.345911E-3,-2.2326822E-4,1.05532585E-2,-1.1056131E-3,-3.5074444E-3,-7.4305316E-3,2.8956889E-3,6.574681E-3,2.3156E-3,-1.9786588E-3,2.6616566E-3,-1.3776717E-3,3.2831714E-3,5.361364E-3,2.7029428E-3,1.8254359E-3,8.676085E-3,3.1072367E-3,1.3601972E-4,3.7065782E-3,-2.6506546E-3,4.3999185E-3,1.0318229E-3,5.3368644E-3,8.7048206E-4,-2.440503E-3,6.0490523E-3,8.253545E-3,6.7520596E-4,1.0770746E-2,-3.8782365E-3,3.123352E-3,1.0076505E-2,4.6848096E-3,-4.7726533E-3,5.5264044E-3,-4.210473E-3,2.3437666E-3,-3.8649272E-3,-7.885663E-3,-4.2844863E-4,8.688356E-3,-4.735626E-3],"categories":[],"categories_nodes":[],"categories_segments":[],"categories_sizes":[],"default_left":[0,0,0,0,0,0,0,0,0,0,0,0,0,0,0,0,0,0,0,0,0,0,0,0,0,0,0,0,0,0,0,0,0,0,0,0,0,0,0,0,0,0,0,0,0,0,0,0,0,0,0,0,0,0,0,0,0,0,0,0,0,0,0,0,0,0,0,0,0,0,0,0,0,0,0,0,0,0,0,0,0,0,0,0,0,0,0,0,0,0,0,0,0,0,0,0,0,0,0,0,0],"id":4,"left_children":[1,3,5,7,9,11,13,15,17,19,21,-1,23,25,27,29,31,33,35,37,39,41,43,45,-1,47,49,51,53,55,57,59,61,63,65,67,69,-1,-1,71,73,75,77,79,81,83,-1,85,87,89,91,93,95,97,99,-1,-1,-1,-1,-1,-1,-1,-1,-1,-1,-1,-1,-1,-1,-1,-1,-1,-1,-1,-1,-1,-1,-1,-1,-1,-1,-1,-1,-1,-1,-1,-1,-1,-1,-1,-1,-1,-1,-1,-1,-1,-1,-1,-1,-1,-1],"loss_changes":[5.370802E2,4.5525735E2,8.129657E1,1.929761E2,2.6642636E2,2.1607477E1,5.7371277E1,5.5011932E1,4.7556293E1,9.522632E1,1.349468E2,0E0,1.5527449E1,2.009913E1,5.2734314E1,2.9902374E1,1.764441E1,1.0526451E1,2.0419046E1,3.1534271E0,5.2719482E1,6.4537796E1,4.8813644E1,8.812788E0,0E0,2.1432129E1,1.2516911E1,3.1446686E1,2.0540497E1,1.12054E1,2.6680237E1,8.061603E0,1.7911175E1,8.16911E0,1.4280571E1,1.8407562E1,1.8119339E1,0E0,0E0,2.7454681E1,2.1205688E1,4.143792E1,1.8396198E1,1.3506187E1,3.60511E1,7.318609E0,0E0,9.183809E0,2.6322573E1,7.081869E0,1.0407971E1,1.9783691E1,1.643331E1,1.3165924E1,1.3687843E1,0E0,0E0,0E0,0E0,0E0,0E0,0E0,0E0,0E0,0E0,0E0,0E0,0E0,0E0,0E0,0E0,0E0,0E0,0E0,0E0,0E0,0E0,0E0,0E0,0E0,0E0,0E0,0E0,0E0,0E0,0E0,0E0,0E0,0E0,0E0,0E0,0E0,0E0,0E0,0E0,0E0,0E0,0E0,0E0,0E0,0E0],"parents":[2147483647,0,0,1,1,2,2,3,3,4,4,5,5,6,6,7,7,8,8,9,9,10,10,12,12,13,13,14,14,15,15,16,16,17,17,18,18,19,19,20,20,21,21,22,22,23,23,25,25,26,26,27,27,28,28,29,29,30,30,31,31,32,32,33,33,34,34,35,35,36,36,39,39,40,40,41,41,42,42,43,43,44,44,45,45,47,47,48,48,49,49,50,50,51,51,52,52,53,53,54,54],"right_children":[2,4,6,8,10,12,14,16,18,20,22,-1,24,26,28,30,32,34,36,38,40,42,44,46,-1,48,50,52,54,56,58,60,62,64,66,68,70,-1,-1,72,74,76,78,80,82,84,-1,86,88,90,92,94,96,98,100,-1,-1,-1,-1,-1,-1,-1,-1,-1,-1,-1,-1,-1,-1,-1,-1,-1,-1,-1,-1,-1,-1,-1,-1,-1,-1,-1,-1,-1,-1,-1,-1,-1,-1,-1,-1,-1,-1,-1,-1,-1,-1,-1,-1,-1,-1],"split_conditions":[4.222805E-1,-2.018417E-4,1.6951107E-3,3.3315247E-1,4.2842925E-3,8.4515504E-4,3.4621055E-4,1.2501271E-1,4.7492804E-3,6.5455417E-4,1E0,1.3930152E-2,2.1517153E-3,1.0565441E-3,6.830679E-1,-7.0090926E-1,1.6029956E-3,-1.0367044E-3,1E0,3.34E-1,6.418674E-1,2.667643E-1,2.03E2,3.9259817E-2,1.12172235E-2,-4.2250738E-4,7.818315E-1,8.541746E-1,4.0748646E-3,-3.2207964E-3,1.5002441E-1,4.4362536E-3,1.2498093E-1,4.165819E-2,-2.843546E-4,5.7150334E-1,-1.378789E-1,1.4065935E-2,1.9912578E-2,3.8766667E-1,-2.7549645E-4,5.6118006E-3,6.1769956E-1,1.5681069E-3,1.869453E-2,3.8396565E-3,-5.66669E-3,6.60304E-1,-1.8319577E-3,1.0650584E0,1.21180736E-1,-6.461984E-1,1.2421998E0,1.3991339E-3,5.5726706E-3,-4.708576E-3,3.1028558E-3,-4.1612745E-3,-7.345911E-3,-2.2326822E-4,1.05532585E-2,-1.1056131E-3,-3.5074444E-3,-7.4305316E-3,2.8956889E-3,6.574681E-3,2.3156E-3,-1.9786588E-3,2.6616566E-3,-1.3776717E-3,3.2831714E-3,5.361364E-3,2.7029428E-3,1.8254359E-3,8.676085E-3,3.1072367E-3,1.3601972E-4,3.7065782E-3,-2.6506546E-3,4.3999185E-3,1.0318229E-3,5.3368644E-3,8.7048206E-4,-2.440503E-3,6.0490523E-3,8.253545E-3,6.7520596E-4,1.0770746E-2,-3.8782365E-3,3.123352E-3,1.0076505E-2,4.6848096E-3,-4.7726533E-3,5.5264044E-3,-4.210473E-3,2.3437666E-3,-3.8649272E-3,-7.885663E-3,-4.2844863E-4,8.688356E-3,-4.735626E-3],"split_indices":[4,0,57,5,57,57,6,5,57,57,59,0,7,8,4,45,57,1,59,35,5,4,52,45,0,2,47,24,8,40,4,40,4,4,0,5,12,0,0,35,16,57,30,33,57,40,0,30,7,32,3,28,30,2,57,0,0,0,0,0,0,0,0,0,0,0,0,0,0,0,0,0,0,0,0,0,0,0,0,0,0,0,0,0,0,0,0,0,0,0,0,0,0,0,0,0,0,0,0,0,0],"split_type":[0,0,0,0,0,0,0,0,0,0,0,0,0,0,0,0,0,0,0,0,0,0,0,0,0,0,0,0,0,0,0,0,0,0,0,0,0,0,0,0,0,0,0,0,0,0,0,0,0,0,0,0,0,0,0,0,0,0,0,0,0,0,0,0,0,0,0,0,0,0,0,0,0,0,0,0,0,0,0,0,0,0,0,0,0,0,0,0,0,0,0,0,0,0,0,0,0,0,0,0,0],"sum_hessian":[2.5770709E4,2.0165193E4,5.605516E3,6.554403E3,1.3610791E4,1.6958269E2,5.435933E3,4.2510933E3,2.3033098E3,3.6908157E3,9.919975E3,3.865883E1,1.3092386E2,8.2537415E2,4.610559E3,2.0296028E3,2.2214905E3,6.2725696E2,1.676053E3,1.0415463E2,3.586661E3,6.1055874E3,3.8143877E3,1.0244121E2,2.8482658E1,6.376865E2,1.8768762E2,3.5903032E3,1.020256E3,1.4677E2,1.8828328E3,4.8010967E1,2.1734795E3,5.3934563E1,5.733224E2,9.9779285E2,6.782601E2,3.9950867E1,6.4203766E1,2.7476274E3,8.390336E2,4.5749453E3,1.530642E3,1.6750745E3,2.1393132E3,7.306291E1,2.9378294E1,1.5947704E2,4.782095E2,1.06348724E2,8.133889E1,3.2634492E3,3.268541E2,9.677731E2,5.2482864E1,4.5775898E1,1.009941E2,1.0722174E3,8.1061536E2,2.172897E1,2.6281998E1,1.1353936E3,1.0380858E3,2.1227646E1,3.2706913E1,3.4102875E2,2.3229362E2,8.1615643E2,1.816364E2,2.1048425E2,4.6777582E2,1.5119858E3,1.2356415E3,8.878932E1,7.5024426E2,1.0680006E3,3.5069448E3,8.321729E1,1.4474247E3,2.4231923E2,1.4327552E3,1.7542682E3,3.85045E2,2.8178087E1,4.4884827E1,3.508315E1,1.2439388E2,2.1529808E1,4.5667972E2,6.2287506E1,4.4061222E1,3.415724E1,4.7181652E1,3.6031998E1,3.2274172E3,2.1406393E2,1.1279018E2,9.243937E2,4.3379425E1,2.1879951E1,3.0602913E1],"tree_param":{"num_deleted":"0","num_feature":"63","num_nodes":"101","size_leaf_vector":"1"}},{"base_weights":[-6.920837E-3,1.0325089E-1,-2.1257617E-1,-1.6771E-1,2.0214435E-1,2.9005155E-1,-2.3990946E-1,9.417238E-2,-2.2584976E-1,5.623065E-1,1.4823245E-1,9.3584144E-1,1.7367896E-1,-6.399968E-2,-2.9093146E-1,-1.7591059E-1,2.1443027E-1,-3.2042205E-1,-8.585259E-2,1.3795753E0,5.104806E-1,2.0577228E-1,4.735838E-3,7.880736E-3,1.7222514E-2,2.283116E-1,-5.6508235E-3,-1.5347825E-1,1.08182214E-1,-2.2877146E-1,-4.6380505E-1,-3.3943892E-1,1.517912E-1,6.5120673E-1,1.3635135E-1,-2.9549995E-1,-6.326586E-1,-1.7541184E-1,9.187201E-2,1.2375815E-2,1.5290898E0,8.3818763E-1,4.3860757E-1,2.8643376E-1,8.6948134E-2,-2.3998944E-1,4.1180756E-2,-2.0054737E-1,3.2801068E-1,-1.3192776E-1,-1.1837017E-2,5.663015E-1,5.7550035E-2,-5.9431326E-1,-2.0267954E-1,4.6438333E-3,-4.7876322E-1,1.8367686E-3,-7.2386963E-3,-2.6086168E-3,5.585435E-3,1.4464802E-3,1.2506269E-2,7.3174075E-3,9.339837E-4,-4.4598375E-3,-1.7846513E-3,-1.3373586E-2,-5.9925374E-3,3.421167E-3,-3.2153495E-3,-2.4216697E-3,3.4592617E-3,2.282676E-2,1.754949E-2,1.3322168E-2,7.9477895E-3,6.501247E-3,1.2861233E-3,4.6446878E-3,9.101017E-4,-6.6926953E-4,1.7866828E-3,-5.490564E-3,-8.139113E-4,9.645659E-4,-2.5450264E-3,1.4754211E-3,-1.12823965E-2,2.3686127E-3,8.263187E-3,4.671539E-4,-2.7386164E-3,2.288537E-3,1.1646507E-2,-6.9834065E-4,3.895738E-3,-3.6235692E-3,-9.071704E-3,-3.1372122E-4,-3.1786356E-3,-6.8969885E-3,-2.5250816E-3],"categories":[],"categories_nodes":[],"categories_segments":[],"categories_sizes":[],"default_left":[0,0,0,0,0,0,0,0,0,0,0,0,0,0,0,0,0,0,0,0,0,0,0,0,0,0,0,0,0,0,0,0,0,0,0,0,0,0,0,0,0,0,0,0,0,0,0,0,0,0,0,0,0,0,0,0,0,0,0,0,0,0,0,0,0,0,0,0,0,0,0,0,0,0,0,0,0,0,0,0,0,0,0,0,0,0,0,0,0,0,0,0,0,0,0,0,0,0,0,0,0,0,0],"id":5,"left_children":[1,3,5,7,9,11,13,15,17,19,21,23,25,27,29,31,33,35,37,39,41,43,45,-1,-1,47,-1,49,51,53,55,57,59,61,63,65,67,69,71,-1,73,75,77,79,81,83,85,87,89,91,-1,93,95,97,99,-1,101,-1,-1,-1,-1,-1,-1,-1,-1,-1,-1,-1,-1,-1,-1,-1,-1,-1,-1,-1,-1,-1,-1,-1,-1,-1,-1,-1,-1,-1,-1,-1,-1,-1,-1,-1,-1,-1,-1,-1,-1,-1,-1,-1,-1,-1,-1],"loss_changes":[5.82013E2,4.4825024E2,1.2317471E2,6.812654E1,2.3786902E2,3.4604618E1,7.6263E1,2.6453445E1,4.843953E1,6.687317E1,8.8020584E1,8.022179E0,1.3013819E1,2.947605E1,7.0687805E1,1.350722E1,1.9118624E1,1.6813904E1,2.3528986E1,4.8522186E0,3.500641E1,7.29068E1,2.7232271E1,0E0,0E0,1.550293E1,0E0,2.0023458E1,1.5147742E1,4.611522E1,2.1402252E1,1.6816156E1,8.057482E0,1.3524612E1,1.3092329E1,1.3623489E1,1.0465706E1,2.9072876E1,2.3228767E1,0E0,5.036621E-1,1.0237289E1,2.247342E1,6.420044E1,2.0463163E1,1.2372078E1,1.979271E1,1.4113897E1,1.2866022E1,1.544417E1,0E0,7.9064045E0,1.5486978E1,9.345116E0,3.0707443E1,0E0,2.1202179E1,0E0,0E0,0E0,0E0,0E0,0E0,0E0,0E0,0E0,0E0,0E0,0E0,0E0,0E0,0E0,0E0,0E0,0E0,0E0,0E0,0E0,0E0,0E0,0E0,0E0,0E0,0E0,0E0,0E0,0E0,0E0,0E0,0E0,0E0,0E0,0E0,0E0,0E0,0E0,0E0,0E0,0E0,0E0,0E0,0E0,0E0],"parents":[2147483647,0,0,1,1,2,2,3,3,4,4,5,5,6,6,7,7,8,8,9,9,10,10,11,11,12,12,13,13,14,14,15,15,16,16,17,17,18,18,19,19,20,20,21,21,22,22,25,25,27,27,28,28,29,29,30,30,31,31,32,32,33,33,34,34,35,35,36,36,37,37,38,38,40,40,41,41,42,42,43,43,44,44,45,45,46,46,47,47,48,48,49,49,51,51,52,52,53,53,54,54,56,56],"right_children":[2,4,6,8,10,12,14,16,18,20,22,24,26,28,30,32,34,36,38,40,42,44,46,-1,-1,48,-1,50,52,54,56,58,60,62,64,66,68,70,72,-1,74,76,78,80,82,84,86,88,90,92,-1,94,96,98,100,-1,102,-1,-1,-1,-1,-1,-1,-1,-1,-1,-1,-1,-1,-1,-1,-1,-1,-1,-1,-1,-1,-1,-1,-1,-1,-1,-1,-1,-1,-1,-1,-1,-1,-1,-1,-1,-1,-1,-1,-1,-1,-1,-1,-1,-1,-1,-1],"split_conditions":[3.0432013E-1,-2.9735218E-4,2.0818552E-3,4.1265474E-3,2.873113E-3,8.4515504E-4,4.335486E-4,3.8316843E-4,1E0,6.5455417E-4,1E0,9.536343E-1,7.333171E-1,1E0,5.7890004E-1,5.5766955E-4,6.3601474E-4,1.7869717E-2,1.0875082E-3,1.5117744E-3,3.2201707E-2,8.4355014E-4,-1.2773109E-3,7.880736E-3,1.7222514E-2,4.570363E-5,-5.6508235E-3,2.1040006E-2,2.0213453E-4,-5.126718E-4,-5.6925714E-1,3.822567E1,1.018475E0,1.0168581E0,1.6029956E-3,1.1057675E0,3.96888E-4,7.392721E-1,1.1111111E-1,1.2375815E-2,1E0,4.2780387E-4,2.419219E-1,1.2186934E-1,4.302134E-4,-4.6745883E-4,7.314359E-3,-7.363009E-5,8.9793047E-4,-1.6308E4,-1.1837017E-2,1.055251E0,1.1295074E-3,-8.566E4,4.20296E-3,4.6438333E-3,9.699707E-1,1.8367686E-3,-7.2386963E-3,-2.6086168E-3,5.585435E-3,1.4464802E-3,1.2506269E-2,7.3174075E-3,9.339837E-4,-4.4598375E-3,-1.7846513E-3,-1.3373586E-2,-5.9925374E-3,3.421167E-3,-3.2153495E-3,-2.4216697E-3,3.4592617E-3,2.282676E-2,1.754949E-2,1.3322168E-2,7.9477895E-3,6.501247E-3,1.2861233E-3,4.6446878E-3,9.101017E-4,-6.6926953E-4,1.7866828E-3,-5.490564E-3,-8.139113E-4,9.645659E-4,-2.5450264E-3,1.4754211E-3,-1.12823965E-2,2.3686127E-3,8.263187E-3,4.671539E-4,-2.7386164E-3,2.288537E-3,1.1646507E-2,-6.9834065E-4,3.895738E-3,-3.6235692E-3,-9.071704E-3,-3.1372122E-4,-3.1786356E-3,-6.8969885E-3,-2.5250816E-3],"split_indices":[4,0,57,57,57,57,6,22,59,57,60,31,4,59,4,15,21,57,6,18,41,21,7,0,0,17,0,57,21,0,28,25,32,32,57,32,22,30,24,0,19,21,45,45,22,14,40,17,21,42,0,32,21,42,57,0,9,0,0,0,0,0,0,0,0,0,0,0,0,0,0,0,0,0,0,0,0,0,0,0,0,0,0,0,0,0,0,0,0,0,0,0,0,0,0,0,0,0,0,0,0,0,0],"split_type":[0,0,0,0,0,0,0,0,0,0,0,0,0,0,0,0,0,0,0,0,0,0,0,0,0,0,0,0,0,0,0,0,0,0,0,0,0,0,0,0,0,0,0,0,0,0,0,0,0,0,0,0,0,0,0,0,0,0,0,0,0,0,0,0,0,0,0,0,0,0,0,0,0,0,0,0,0,0,0,0,0,0,0,0,0,0,0,0,0,0,0,0,0,0,0,0,0,0,0,0,0,0,0],"sum_hessian":[2.5685607E4,1.6725867E4,8.959741E3,4.472058E3,1.2253809E4,4.616196E2,8.498122E3,8.12343E2,3.659715E3,1.5942234E3,1.0659585E4,6.942782E1,3.9219177E2,1.91117E3,6.5869517E3,2.5012697E2,5.6221606E2,2.1834539E3,1.4762615E3,9.356786E1,1.5006555E3,7.6083315E3,3.0512532E3,3.7450886E1,3.1976933E1,3.6009122E2,3.210056E1,1.257693E3,6.5347705E2,4.8465625E3,1.740389E3,1.6684009E2,8.328688E1,8.416752E1,4.7804852E2,2.0238279E3,1.5962585E2,9.816215E2,4.9463992E2,2.5418766E1,6.814909E1,2.6804166E2,1.2326139E3,4.531093E3,3.0772388E3,3.947852E2,2.656468E3,6.773255E1,2.9235867E2,1.2233433E3,3.4349766E1,6.403945E1,5.894376E2,3.2146814E2,4.525094E3,3.0955832E1,1.7094332E3,5.0732002E1,1.1610808E2,3.650342E1,4.6783463E1,3.0179392E1,5.398813E1,6.3962936E1,4.140856E2,1.6023666E3,4.214613E2,4.9694515E1,1.0993133E2,1.3244531E2,8.491762E2,1.8883746E2,3.0580246E2,3.0489075E1,3.766002E1,1.5402185E2,1.14019806E2,1.0651888E3,1.6742502E2,3.48649E3,1.0446029E3,7.993813E2,2.2778574E3,1.982753E2,1.9650989E2,2.3387651E3,3.1770288E2,4.638178E1,2.1350775E1,1.9596085E2,9.639781E1,3.80125E2,8.4321826E2,2.9180597E1,3.4858852E1,4.0280493E2,1.8663268E2,7.2871826E1,2.485963E2,7.9163885E2,3.7334556E3,1.485077E3,2.2435616E2],"tree_param":{"num_deleted":"0","num_feature":"63","num_nodes":"103","size_leaf_vector":"1"}},{"base_weights":[-5.219596E-4,-1.0833065E-1,1.9403797E-1,2.2487657E-1,-1.7593136E-1,4.695846E-1,1.0999286E-1,1.2660147E0,2.0549582E-1,-7.5736237E-1,-1.5355055E-1,3.5161448E-1,6.424652E-1,2.2677189E-1,-5.110788E-3,1.30693205E-2,1.9110879E-2,3.5333005E-1,1.0646752E-1,-1.2428975E0,-5.602524E-1,-2.2750936E-1,2.3994243E-3,8.9682E-1,3.2004252E-1,8.2852465E-1,5.3618985E-1,1.5433967E-1,4.2486688E-1,-6.7848516E-1,2.02068E-2,5.0001025E-1,2.607821E-1,-7.884508E-3,3.0008176E-1,-9.9491525E-1,-1.473951E0,-4.822711E-1,-1.098099E0,-3.035268E-1,-7.98889E-2,-1.919129E-1,9.4719306E-2,1.6431948E-2,8.075849E-3,1.8624099E-1,4.0063074E-1,7.1873444E-1,1.1212623E0,1.1168973E0,4.7477266E-1,1.9640669E-1,-2.920563E-2,5.589972E-1,1.877649E-1,-1.9812943E-1,-1.0505528E0,-7.00734E-2,1.6333976E-1,5.735362E-3,1.2720319E-2,5.349461E-3,1.9481652E-3,-8.1675695E-3,3.0112875E-4,4.7981176E-3,-1.0456152E-3,-8.030051E-3,-1.5851583E-2,-2.130505E-2,-1.5062999E-2,1.3048769E-3,-7.835906E-3,-1.778222E-2,-1.0283759E-2,-1.3154878E-3,-4.9323025E-3,4.5798016E-3,-1.4206606E-3,1.4942163E-3,-3.499054E-3,5.3896643E-3,6.887146E-4,1.4839037E-3,5.8466685E-3,5.7621207E-3,1.3462381E-4,1.0756406E-2,1.3358949E-3,1.7717477E-2,8.150096E-3,1.8477527E-2,1.0942428E-2,3.514265E-3,7.6578767E-3,7.175928E-4,3.530569E-3,1.1530022E-2,-1.1339918E-3,-2.2001826E-4,7.872414E-3,-5.816175E-3,3.5355068E-3,-8.619863E-3,3.0262969E-3,-8.113229E-3,-1.619298E-2,4.7233524E-3,-1.1944545E-3,9.843449E-4,4.0158206E-3],"categories":[],"categories_nodes":[],"categories_segments":[],"categories_sizes":[],"default_left":[0,0,0,0,0,0,0,0,0,0,0,0,0,0,0,0,0,0,0,0,0,0,0,0,0,0,0,0,0,0,0,0,0,0,0,0,0,0,0,0,0,0,0,0,0,0,0,0,0,0,0,0,0,0,0,0,0,0,0,0,0,0,0,0,0,0,0,0,0,0,0,0,0,0,0,0,0,0,0,0,0,0,0,0,0,0,0,0,0,0,0,0,0,0,0,0,0,0,0,0,0,0,0,0,0,0,0,0,0,0,0],"id":6,"left_children":[1,3,5,7,9,11,13,15,17,19,21,23,25,27,29,-1,-1,31,33,35,37,39,41,43,45,47,49,51,53,55,57,59,61,63,65,67,69,71,73,75,77,79,81,-1,-1,83,85,87,89,91,93,95,97,99,101,103,105,107,109,-1,-1,-1,-1,-1,-1,-1,-1,-1,-1,-1,-1,-1,-1,-1,-1,-1,-1,-1,-1,-1,-1,-1,-1,-1,-1,-1,-1,-1,-1,-1,-1,-1,-1,-1,-1,-1,-1,-1,-1,-1,-1,-1,-1,-1,-1,-1,-1,-1,-1,-1,-1],"loss_changes":[5.3983167E2,3.7306E2,2.1245679E2,5.6110443E1,1.790433E2,4.3512115E1,9.453516E1,1.1354752E0,4.012854E1,4.8129974E1,1.5292487E2,2.1694931E1,1.6737915E1,5.0026276E1,6.0412666E1,0E0,0E0,1.4805954E1,3.641079E1,6.951645E0,1.4769661E1,1.00898865E2,7.654713E1,6.1223183E0,1.2956474E1,9.298386E0,1.9294113E1,1.9755821E1,2.9604446E1,2.2743645E1,4.414501E1,1.2532982E1,1.0992264E1,1.93904E1,1.4642162E1,5.1270905E0,1.6101532E0,2.0680801E1,2.5677795E0,8.449249E1,3.610268E1,3.0608334E1,3.8568794E1,0E0,0E0,8.591771E0,1.0444809E1,1.354129E1,8.487053E0,3.1237183E0,1.0886986E1,2.0931633E1,2.4476978E1,1.2672348E1,1.7115364E1,1.1260343E1,4.773628E0,1.825257E1,1.6483868E1,0E0,0E0,0E0,0E0,0E0,0E0,0E0,0E0,0E0,0E0,0E0,0E0,0E0,0E0,0E0,0E0,0E0,0E0,0E0,0E0,0E0,0E0,0E0,0E0,0E0,0E0,0E0,0E0,0E0,0E0,0E0,0E0,0E0,0E0,0E0,0E0,0E0,0E0,0E0,0E0,0E0,0E0,0E0,0E0,0E0,0E0,0E0,0E0,0E0,0E0,0E0,0E0],"parents":[2147483647,0,0,1,1,2,2,3,3,4,4,5,5,6,6,7,7,8,8,9,9,10,10,11,11,12,12,13,13,14,14,17,17,18,18,19,19,20,20,21,21,22,22,23,23,24,24,25,25,26,26,27,27,28,28,29,29,30,30,31,31,32,32,33,33,34,34,35,35,36,36,37,37,38,38,39,39,40,40,41,41,42,42,45,45,46,46,47,47,48,48,49,49,50,50,51,51,52,52,53,53,54,54,55,55,56,56,57,57,58,58],"right_children":[2,4,6,8,10,12,14,16,18,20,22,24,26,28,30,-1,-1,32,34,36,38,40,42,44,46,48,50,52,54,56,58,60,62,64,66,68,70,72,74,76,78,80,82,-1,-1,84,86,88,90,92,94,96,98,100,102,104,106,108,110,-1,-1,-1,-1,-1,-1,-1,-1,-1,-1,-1,-1,-1,-1,-1,-1,-1,-1,-1,-1,-1,-1,-1,-1,-1,-1,-1,-1,-1,-1,-1,-1,-1,-1,-1,-1,-1,-1,-1,-1,-1,-1,-1,-1,-1,-1,-1,-1,-1,-1,-1,-1],"split_conditions":[3.8885123E-1,3.127919E-4,3.9617796E-3,6.5455417E-4,1.543586E-3,6.194773E-1,8.4846426E-4,1.9763531E-1,5.156494E-3,8.711298E-4,1.4077626E-4,1.0200612E-3,3.71544E-2,6.970033E-1,1.2676086E-3,1.30693205E-2,1.9110879E-2,2.743901E-2,1E0,3.8433334E-1,-9.815221E-3,2.380814E-1,4.54606E-1,8.7342846E-1,2.3070422E-1,6.038082E-4,1.0200612E-3,6.3483334E-1,6.500244E-1,3.61E-1,1E0,1.2784541E-3,2.521466E-3,8.071149E-6,7.0633334E-1,9.825707E-1,-1.7969337E-1,6.7535204E-1,5.454949E-1,4.335486E-4,2.3408795E-3,4.1265474E-3,3.0651512E-3,1.6431948E-2,8.075849E-3,9.749279E-1,2.306577E-3,3.9116666E-1,1.0335655E0,1.4158576E-2,6.579705E-1,4.297592E-4,7E1,-3.63926E-4,-1.2451274E-1,-8.870108E-1,6.3523266E-4,-6.507376E-1,5.999349E-1,5.735362E-3,1.2720319E-2,5.349461E-3,1.9481652E-3,-8.1675695E-3,3.0112875E-4,4.7981176E-3,-1.0456152E-3,-8.030051E-3,-1.5851583E-2,-2.130505E-2,-1.5062999E-2,1.3048769E-3,-7.835906E-3,-1.778222E-2,-1.0283759E-2,-1.3154878E-3,-4.9323025E-3,4.5798016E-3,-1.4206606E-3,1.4942163E-3,-3.499054E-3,5.3896643E-3,6.887146E-4,1.4839037E-3,5.8466685E-3,5.7621207E-3,1.3462381E-4,1.0756406E-2,1.3358949E-3,1.7717477E-2,8.150096E-3,1.8477527E-2,1.0942428E-2,3.514265E-3,7.6578767E-3,7.175928E-4,3.530569E-3,1.1530022E-2,-1.1339918E-3,-2.2001826E-4,7.872414E-3,-5.816175E-3,3.5355068E-3,-8.619863E-3,3.0262969E-3,-8.113229E-3,-1.619298E-2,4.7233524E-3,-1.1944545E-3,9.843449E-4,4.0158206E-3],"split_indices":[5,21,57,57,58,5,21,41,57,58,0,57,41,5,58,0,0,41,59,35,13,5,3,39,3,6,57,35,10,35,59,18,57,17,35,32,41,31,3,6,57,57,57,0,0,47,7,35,31,58,39,6,52,14,41,46,6,44,5,0,0,0,0,0,0,0,0,0,0,0,0,0,0,0,0,0,0,0,0,0,0,0,0,0,0,0,0,0,0,0,0,0,0,0,0,0,0,0,0,0,0,0,0,0,0,0,0,0,0,0,0],"split_type":[0,0,0,0,0,0,0,0,0,0,0,0,0,0,0,0,0,0,0,0,0,0,0,0,0,0,0,0,0,0,0,0,0,0,0,0,0,0,0,0,0,0,0,0,0,0,0,0,0,0,0,0,0,0,0,0,0,0,0,0,0,0,0,0,0,0,0,0,0,0,0,0,0,0,0,0,0,0,0,0,0,0,0,0,0,0,0,0,0,0,0,0,0,0,0,0,0,0,0,0,0,0,0,0,0,0,0,0,0,0,0],"sum_hessian":[2.5734643E4,1.655931E4,9.175331E3,2.7925237E3,1.3766787E4,2.1434377E3,7.031893E3,4.9879246E1,2.7426445E3,5.0908252E2,1.3257705E4,1.2758236E3,8.676141E2,3.4900771E3,3.5418162E3,2.2204796E1,2.767445E1,1.0991901E3,1.6434545E3,1.4549109E2,3.6359143E2,8.992566E3,4.2651387E3,6.8363945E1,1.2074596E3,3.1298587E2,5.5462823E2,2.5569094E3,9.3316766E2,1.2742569E2,3.4143904E3,4.2355826E2,6.756317E2,1.0338046E3,6.0964996E2,7.268619E1,7.280489E1,3.1917633E2,4.4415092E1,5.9351865E3,3.0573796E3,1.3733911E3,2.8917473E3,2.9373686E1,3.899026E1,4.5510526E2,7.523544E2,2.300848E2,8.290108E1,5.143515E1,5.0319305E2,2.0801055E3,4.7680402E2,5.951503E2,3.3801733E2,5.6276295E1,7.11494E1,2.094064E3,1.3203264E3,3.724491E2,5.1109177E1,2.962575E2,3.7937424E2,4.8579002E1,9.852255E2,5.22711E2,8.6938965E1,2.6510628E1,4.6175564E1,4.8774525E1,2.403037E1,5.1155277E1,2.6802106E2,2.3240849E1,2.1174246E1,1.5142448E3,4.420942E3,1.8540816E2,2.8719714E3,2.6495023E2,1.1084409E3,3.450865E2,2.546661E3,3.5433484E2,1.007704E2,6.8949677E2,6.285762E1,1.990107E2,3.1074106E1,5.660019E1,2.630089E1,2.4117748E1,2.73174E1,1.6943025E2,3.3376282E2,6.9259424E2,1.3875112E3,2.7332289E1,4.4947174E2,3.587975E1,5.5927057E2,3.7629585E1,3.0038773E2,2.702285E1,2.9253447E1,2.164439E1,4.950501E1,9.434405E1,1.99972E3,8.1012427E2,5.1020212E2],"tree_param":{"num_deleted":"0","num_feature":"63","num_nodes":"111","size_leaf_vector":"1"}},{"base_weights":[-1.1372383E-3,1.0467885E-1,-2.0024018E-1,-1.6279346E-1,2.0223986E-1,2.2582127E-1,-2.3224208E-1,-2.578699E-1,9.2414066E-2,3.7542537E-1,1.0896817E-1,9.586182E-1,1.3716456E-1,-7.032305E-1,-2.0717841E-1,-9.866487E-1,-2.3525827E-1,3.8088483E-1,-1.8881949E-3,1.2648759E0,3.5541248E-1,-5.858836E-1,1.2453608E-1,7.043106E-1,1.8175187E-2,1.9501045E-1,-4.2331675E-1,-1.1529804E0,-5.940464E-1,-2.5973552E-1,-4.3743136E-3,-1.8579017E-2,-7.435667E-1,-2.6145884E-1,1.2817259E-1,-1.5008512E-2,5.141907E-1,-1.0434595E-2,2.5228482E-2,9.037073E-3,1.450908E0,2.8349245E-1,5.555416E-1,-1.9541109E-1,-1.0239481E0,1.8895978E-1,-4.3919265E-2,1.4583305E-2,3.7445282E-3,4.226009E-2,3.5588828E-1,-7.472819E-5,-9.306142E-3,-1.395519E0,-1.0879009E-2,-6.7400545E-1,4.2208564E-4,-3.2159442E-1,-1.390927E-1,1.3382474E-1,-1.2338366E-1,-4.549412E-3,-1.3714773E-2,-4.8752567E-3,-2.2802898E-3,-1.1166453E-3,5.657813E-3,4.4868425E-3,-5.101756E-3,8.677145E-3,2.8233763E-3,-3.8178742E-4,5.1739933E-3,2.261326E-2,1.639921E-2,1.7255454E-3,4.8387647E-3,9.942484E-3,5.47679E-3,-6.2553016E-3,3.2812746E-3,-9.264496E-3,-1.7449059E-2,3.8051521E-3,1.0298764E-3,-2.509147E-4,-5.7487143E-3,-2.8524755E-3,4.1890074E-3,3.8993857E-3,1.2436706E-2,-2.1436216E-2,-1.4530304E-2,-8.042897E-3,-1.8017938E-2,-5.2676764E-3,-3.0781776E-3,-4.4126464E-3,-8.6650695E-4,8.1411813E-4,6.45255E-3,-1.9347612E-3,6.534916E-3],"categories":[],"categories_nodes":[],"categories_segments":[],"categories_sizes":[],"default_left":[0,0,0,0,0,0,0,0,0,0,0,0,0,0,0,0,0,0,0,0,0,0,0,0,0,0,0,0,0,0,0,0,0,0,0,0,0,0,0,0,0,0,0,0,0,0,0,0,0,0,0,0,0,0,0,0,0,0,0,0,0,0,0,0,0,0,0,0,0,0,0,0,0,0,0,0,0,0,0,0,0,0,0,0,0,0,0,0,0,0,0,0,0,0,0,0,0,0,0,0,0,0,0],"id":7,"left_children":[1,3,5,7,9,11,13,15,17,19,21,23,25,27,29,31,33,35,37,39,41,43,45,47,-1,49,51,53,55,57,59,-1,61,63,65,67,69,-1,71,-1,73,75,77,79,81,83,85,-1,-1,87,89,-1,-1,91,-1,93,-1,95,97,99,101,-1,-1,-1,-1,-1,-1,-1,-1,-1,-1,-1,-1,-1,-1,-1,-1,-1,-1,-1,-1,-1,-1,-1,-1,-1,-1,-1,-1,-1,-1,-1,-1,-1,-1,-1,-1,-1,-1,-1,-1,-1,-1],"loss_changes":[5.4242285E2,4.3872144E2,1.2187286E2,1.09058105E2,1.9894638E2,4.0454597E1,9.796359E1,5.3726074E1,3.320058E1,7.6306946E1,8.669634E1,6.1820145E0,1.8185501E1,1.9926376E1,8.412167E1,8.992241E0,3.0284393E1,1.5876362E1,1.9693031E1,9.234589E0,6.0557556E1,2.984829E1,8.5019394E1,7.055912E0,0E0,1.244021E1,6.1646414E0,5.33622E0,1.7019455E1,4.6732483E1,2.6748577E1,0E0,7.2062225E0,2.8263428E1,1.3713491E1,1.0223245E1,9.501793E0,0E0,1.768337E1,0E0,1.7772369E0,3.9244385E1,3.0641998E1,1.1726281E1,6.9964066E0,6.2291412E1,2.1131336E1,0E0,0E0,1.8593681E1,8.49848E0,0E0,0E0,1.2808533E0,0E0,1.2730621E1,0E0,2.8219086E1,3.0441288E1,1.9235744E1,1.2527716E1,0E0,0E0,0E0,0E0,0E0,0E0,0E0,0E0,0E0,0E0,0E0,0E0,0E0,0E0,0E0,0E0,0E0,0E0,0E0,0E0,0E0,0E0,0E0,0E0,0E0,0E0,0E0,0E0,0E0,0E0,0E0,0E0,0E0,0E0,0E0,0E0,0E0,0E0,0E0,0E0,0E0,0E0],"parents":[2147483647,0,0,1,1,2,2,3,3,4,4,5,5,6,6,7,7,8,8,9,9,10,10,11,11,12,12,13,13,14,14,15,15,16,16,17,17,18,18,19,19,20,20,21,21,22,22,23,23,25,25,26,26,27,27,28,28,29,29,30,30,32,32,33,33,34,34,35,35,36,36,38,38,40,40,41,41,42,42,43,43,44,44,45,45,46,46,49,49,50,50,53,53,55,55,57,57,58,58,59,59,60,60],"right_children":[2,4,6,8,10,12,14,16,18,20,22,24,26,28,30,32,34,36,38,40,42,44,46,48,-1,50,52,54,56,58,60,-1,62,64,66,68,70,-1,72,-1,74,76,78,80,82,84,86,-1,-1,88,90,-1,-1,92,-1,94,-1,96,98,100,102,-1,-1,-1,-1,-1,-1,-1,-1,-1,-1,-1,-1,-1,-1,-1,-1,-1,-1,-1,-1,-1,-1,-1,-1,-1,-1,-1,-1,-1,-1,-1,-1,-1,-1,-1,-1,-1,-1,-1,-1,-1,-1],"split_conditions":[3.0432013E-1,-2.9735218E-4,2.4023666E-3,3.3360454E-1,5.0782915E-3,8.4515504E-4,1.7802746E-3,1.2676086E-3,4.7492804E-3,6.5455417E-4,1.2676086E-3,6.34469E-4,7.333171E-1,8.711298E-4,3.9990234E-1,-9.575714E-1,-7.1018535E-1,-6.9737906E-4,1.2676086E-3,8.185411E-4,6.3633335E-1,2.945E-1,1E0,-1.2608059E-1,1.8175187E-2,1.2340697E-2,8.297853E-1,-1.5757646E-1,-7.0710677E-1,1E0,9.437457E-1,-1.8579017E-2,9.984364E-1,1.19049005E-1,1.0214151E0,4.4445953E-1,-8.9687276E-1,-1.0434595E-2,5.833164E-1,9.037073E-3,1E0,1.1181206E-4,2.8332293E-2,3.7235007E-2,1.15E2,1.63E2,8.818333E-1,1.4583305E-2,3.7445282E-3,2.5378028E-1,-6.9151306E-1,-7.472819E-5,-9.306142E-3,1.3483654E-1,-1.0879009E-2,7.747365E-3,4.2208564E-4,2.3600725E-5,-1.5611676E-4,1.0999756E0,3.08E2,-4.549412E-3,-1.3714773E-2,-4.8752567E-3,-2.2802898E-3,-1.1166453E-3,5.657813E-3,4.4868425E-3,-5.101756E-3,8.677145E-3,2.8233763E-3,-3.8178742E-4,5.1739933E-3,2.261326E-2,1.639921E-2,1.7255454E-3,4.8387647E-3,9.942484E-3,5.47679E-3,-6.2553016E-3,3.2812746E-3,-9.264496E-3,-1.7449059E-2,3.8051521E-3,1.0298764E-3,-2.509147E-4,-5.7487143E-3,-2.8524755E-3,4.1890074E-3,3.8993857E-3,1.2436706E-2,-2.1436216E-2,-1.4530304E-2,-8.042897E-3,-1.8017938E-2,-5.2676764E-3,-3.0781776E-3,-4.4126464E-3,-8.6650695E-4,8.1411813E-4,6.45255E-3,-1.9347612E-3,6.534916E-3],"split_indices":[4,0,57,5,57,57,58,58,57,57,58,1,4,58,5,46,46,1,58,17,5,35,60,38,0,58,31,41,46,59,31,0,31,5,32,5,46,0,5,0,19,0,41,38,53,53,35,0,0,5,46,0,0,34,0,13,0,16,0,11,53,0,0,0,0,0,0,0,0,0,0,0,0,0,0,0,0,0,0,0,0,0,0,0,0,0,0,0,0,0,0,0,0,0,0,0,0,0,0,0,0,0,0],"split_type":[0,0,0,0,0,0,0,0,0,0,0,0,0,0,0,0,0,0,0,0,0,0,0,0,0,0,0,0,0,0,0,0,0,0,0,0,0,0,0,0,0,0,0,0,0,0,0,0,0,0,0,0,0,0,0,0,0,0,0,0,0,0,0,0,0,0,0,0,0,0,0,0,0,0,0,0,0,0,0,0,0,0,0,0,0,0,0,0,0,0,0,0,0,0,0,0,0,0,0,0,0,0,0],"sum_hessian":[2.574397E4,1.6810338E4,8.933634E3,4.492654E3,1.2317684E4,6.2371704E2,8.309917E3,3.2732234E3,1.2194302E3,4.3106855E3,8.0069976E3,6.627594E1,5.574411E2,4.1852628E2,7.891391E3,9.7241905E1,3.1759817E3,2.996957E2,9.197345E2,9.3514206E1,4.2171714E3,1.7467401E2,7.8323237E3,4.2813213E1,2.3462727E1,5.0587274E2,5.156834E1,7.992342E1,3.3860287E2,6.2670024E3,1.6243884E3,3.3943493E1,6.3298416E1,2.962674E3,2.1330754E2,7.571029E1,2.2398543E2,2.9683298E1,8.9005115E2,2.3799608E1,6.97146E1,3.1040503E3,1.1131212E3,9.310479E1,8.156923E1,5.665508E3,2.166816E3,2.1145073E1,2.1668142E1,2.601302E2,2.4574257E2,2.1149395E1,3.0418947E1,4.4207954E1,3.5715473E1,3.0018668E2,3.841619E1,4.1417173E3,2.1252852E3,7.5153674E2,8.728517E2,2.7780067E1,3.551835E1,1.3387961E3,1.6238779E3,1.25240265E2,8.8067276E1,3.875797E1,3.6952316E1,1.5110081E2,7.288461E1,7.762765E2,1.13774666E2,2.7930204E1,4.1784397E1,1.0911956E3,2.0128547E3,4.6247394E2,6.506472E2,5.7200165E1,3.5904625E1,4.066493E1,4.09043E1,2.992885E3,2.6726228E3,2.0379977E3,1.2881813E2,1.342333E2,1.2589686E2,2.2398714E2,2.1755438E1,2.2513403E1,2.1694553E1,2.759503E2,2.4236393E1,2.2121804E3,1.929537E3,5.8102167E2,1.5442635E3,6.2535864E2,1.26178116E2,8.4217053E2,3.0681128E1],"tree_param":{"num_deleted":"0","num_feature":"63","num_nodes":"103","size_leaf_vector":"1"}},{"base_weights":[2.4462494E-3,9.5349066E-2,-2.1522132E-1,-1.103735E-1,1.953094E-1,-3.9134976E-1,-1.3701057E-1,-2.7770308E-1,5.61307E-2,5.237866E-1,1.437187E-1,-8.548038E-1,-3.3933577E-1,2.2496778E-1,-1.7334639E-1,-1.3004515E0,-2.608242E-1,-8.9595E-1,7.500912E-2,1.2815623E0,4.7684965E-1,2.039923E-1,-4.6541784E-3,-7.560987E-1,-1.878416E-2,-3.7702018E-1,-3.126396E-2,8.8165295E-1,1.2906425E-1,-8.8631704E-2,-3.0340338E-1,-1.1601149E-2,-2.2044115E-2,9.568066E-2,-2.8841707E-1,-6.7182747E-3,-1.4621948E-2,5.0332767E-1,4.6413623E-2,1.4232808E0,1.37838125E-2,6.7174685E-1,3.9029393E-1,-5.4614395E-1,2.2056042E-1,1.4476725E-1,-5.8000077E-2,-1.613988E-2,-6.5268314E-1,-3.0024868E-1,-5.6062067E-1,2.0548908E-1,-3.265024E-1,6.981089E-3,1.8529247E-2,2.0221326E-1,-4.647362E-1,2.6432043E-2,-2.3355679E-1,-2.0366254E-1,-4.31592E-1,1.8322092E-4,9.036706E-3,-2.8491898E-3,-5.4502706E-3,2.3365512E-3,8.318702E-3,3.9893363E-5,4.4700354E-3,1.4513272E-2,2.1843404E-2,4.697319E-3,9.935901E-3,2.2053835E-3,6.119623E-3,-2.723201E-3,-1.1860841E-2,3.664595E-3,7.013488E-4,1.2456523E-2,1.178802E-3,-4.8056482E-3,-2.9411598E-4,-7.3844385E-3,-1.5926845E-2,-9.699227E-3,-3.5368877E-3,-3.226107E-3,-8.833912E-3,5.384748E-3,-2.7929884E-3,-8.35352E-3,4.7288314E-4,-8.8341546E-4,4.434589E-3,-4.191387E-5,-1.2731388E-2,-2.8695175E-4,4.1279467E-3,2.0912446E-3,-3.7763468E-3,-3.619049E-3,4.223534E-4,6.9863135E-3,-6.046395E-3],"categories":[],"categories_nodes":[],"categories_segments":[],"categories_sizes":[],"default_left":[0,0,0,0,0,0,0,0,0,0,0,0,0,0,0,0,0,0,0,0,0,0,0,0,0,0,0,0,0,0,0,0,0,0,0,0,0,0,0,0,0,0,0,0,0,0,0,0,0,0,0,0,0,0,0,0,0,0,0,0,0,0,0,0,0,0,0,0,0,0,0,0,0,0,0,0,0,0,0,0,0,0,0,0,0,0,0,0,0,0,0,0,0,0,0,0,0,0,0,0,0,0,0,0,0],"id":8,"left_children":[1,3,5,7,9,11,13,15,17,19,21,23,25,27,29,31,33,35,37,39,41,43,45,47,-1,49,51,53,55,57,59,-1,-1,61,63,-1,-1,65,67,69,-1,71,73,75,77,79,81,-1,83,85,87,89,91,-1,-1,93,95,97,99,101,103,-1,-1,-1,-1,-1,-1,-1,-1,-1,-1,-1,-1,-1,-1,-1,-1,-1,-1,-1,-1,-1,-1,-1,-1,-1,-1,-1,-1,-1,-1,-1,-1,-1,-1,-1,-1,-1,-1,-1,-1,-1,-1,-1,-1],"loss_changes":[5.2241864E2,3.7236084E2,1.0640048E2,1.6499496E2,2.0642996E2,5.6986786E1,7.0446075E1,5.0652954E1,5.3426834E1,5.821805E1,9.419766E1,1.2325302E1,2.4806107E1,3.0668015E1,5.3577835E1,5.9775314E0,2.8622223E1,4.167389E0,3.5643276E1,1.7777557E0,2.603833E1,9.320941E1,2.4269682E1,9.122154E0,0E0,2.6680542E1,1.6426998E1,1.0699417E1,1.8665863E1,4.9159817E1,2.4444382E1,0E0,0E0,1.0076506E1,2.428009E1,0E0,0E0,7.4029884E0,3.4594883E1,2.5065384E0,0E0,1.1879776E1,1.7544083E1,1.9203793E1,6.9736786E1,3.542374E1,2.4507954E1,0E0,8.169876E0,1.879248E1,1.9001282E1,1.1080322E1,1.1606357E1,0E0,0E0,1.3719161E1,1.0864768E1,2.264941E1,2.6776566E1,1.7908794E1,2.1248245E1,0E0,0E0,0E0,0E0,0E0,0E0,0E0,0E0,0E0,0E0,0E0,0E0,0E0,0E0,0E0,0E0,0E0,0E0,0E0,0E0,0E0,0E0,0E0,0E0,0E0,0E0,0E0,0E0,0E0,0E0,0E0,0E0,0E0,0E0,0E0,0E0,0E0,0E0,0E0,0E0,0E0,0E0,0E0,0E0],"parents":[2147483647,0,0,1,1,2,2,3,3,4,4,5,5,6,6,7,7,8,8,9,9,10,10,11,11,12,12,13,13,14,14,15,15,16,16,17,17,18,18,19,19,20,20,21,21,22,22,23,23,25,25,26,26,27,27,28,28,29,29,30,30,33,33,34,34,37,37,38,38,39,39,41,41,42,42,43,43,44,44,45,45,46,46,48,48,49,49,50,50,51,51,52,52,55,55,56,56,57,57,58,58,59,59,60,60],"right_children":[2,4,6,8,10,12,14,16,18,20,22,24,26,28,30,32,34,36,38,40,42,44,46,48,-1,50,52,54,56,58,60,-1,-1,62,64,-1,-1,66,68,70,-1,72,74,76,78,80,82,-1,84,86,88,90,92,-1,-1,94,96,98,100,102,104,-1,-1,-1,-1,-1,-1,-1,-1,-1,-1,-1,-1,-1,-1,-1,-1,-1,-1,-1,-1,-1,-1,-1,-1,-1,-1,-1,-1,-1,-1,-1,-1,-1,-1,-1,-1,-1,-1,-1,-1,-1,-1,-1,-1],"split_conditions":[3.4014285E-1,-2.0774375E-4,4.9868473E-3,2.380814E-1,2.9265403E-3,1.4625031E-3,2.2792597E-3,8.711298E-4,1.1564946E-3,6.5455417E-4,1E0,1.340845E0,-7.431448E-1,8.4515504E-4,1E0,1.0121541E0,-7.0090926E-1,6.4927023E-3,2.3408795E-3,7E-1,2.2109116E-3,1.2676086E-3,2.3008116E-4,6.813707E-4,-1.878416E-2,6.0181487E-1,-4.5091975E-2,6.34469E-4,7.333171E-1,5.217068E-1,7.262114E-3,-1.1601149E-2,-2.2044115E-2,-7.0710677E-1,1.5002441E-1,-6.7182747E-3,-1.4621948E-2,3.3337855E-1,5.7150334E-1,6.3667362E1,1.37838125E-2,-5.207295E-4,1.4287375E-1,2.6083332E-1,1.17537394E-1,8.1297505E-4,4.5971265E-3,-1.613988E-2,-1.8011013E-2,-9.436886E-4,6.7946124E-1,1.2492632E0,6E-1,6.981089E-3,1.8529247E-2,8.878295E-4,-1.5212339E-1,8.285784E1,3.2693753E-4,9.749279E-1,-3.404569E-3,1.8322092E-4,9.036706E-3,-2.8491898E-3,-5.4502706E-3,2.3365512E-3,8.318702E-3,3.9893363E-5,4.4700354E-3,1.4513272E-2,2.1843404E-2,4.697319E-3,9.935901E-3,2.2053835E-3,6.119623E-3,-2.723201E-3,-1.1860841E-2,3.664595E-3,7.013488E-4,1.2456523E-2,1.178802E-3,-4.8056482E-3,-2.9411598E-4,-7.3844385E-3,-1.5926845E-2,-9.699227E-3,-3.5368877E-3,-3.226107E-3,-8.833912E-3,5.384748E-3,-2.7929884E-3,-8.35352E-3,4.7288314E-4,-8.8341546E-4,4.434589E-3,-4.191387E-5,-1.2731388E-2,-2.8695175E-4,4.1279467E-3,2.0912446E-3,-3.7763468E-3,-3.619049E-3,4.223534E-4,6.9863135E-3,-6.046395E-3],"split_indices":[4,0,58,5,57,58,57,58,58,57,60,31,46,57,60,31,45,34,57,29,40,58,21,58,0,4,44,1,4,4,57,0,0,45,4,0,0,5,5,25,0,8,5,35,45,22,58,0,13,1,31,31,29,0,0,22,45,27,6,47,40,0,0,0,0,0,0,0,0,0,0,0,0,0,0,0,0,0,0,0,0,0,0,0,0,0,0,0,0,0,0,0,0,0,0,0,0,0,0,0,0,0,0,0,0],"split_type":[0,0,0,0,0,0,0,0,0,0,0,0,0,0,0,0,0,0,0,0,0,0,0,0,0,0,0,0,0,0,0,0,0,0,0,0,0,0,0,0,0,0,0,0,0,0,0,0,0,0,0,0,0,0,0,0,0,0,0,0,0,0,0,0,0,0,0,0,0,0,0,0,0,0,0,0,0,0,0,0,0,0,0,0,0,0,0,0,0,0,0,0,0,0,0,0,0,0,0,0,0,0,0,0,0],"sum_hessian":[2.5832297E4,1.8105314E4,7.7269824E3,5.92052E3,1.2184794E4,2.374879E3,5.3521035E3,2.9526184E3,2.9679019E3,1.6527516E3,1.0532042E4,2.3811115E2,2.1367678E3,4.8777286E2,4.8643306E3,4.672577E1,2.9058928E3,5.68183E1,2.9110835E3,9.4895485E1,1.5578561E3,7.4893013E3,3.0427412E3,2.0475858E2,3.3352566E1,1.9036794E3,2.330884E2,6.1132454E1,4.2664038E2,2.946645E3,1.9176858E3,2.330939E1,2.341638E1,2.0857683E2,2.697316E3,2.1205284E1,3.5613018E1,1.8116585E2,2.7299175E3,5.643714E1,3.845834E1,4.7704755E2,1.0808086E3,1.6116139E2,7.3281396E3,8.000639E2,2.2426775E3,3.5285385E1,1.6947319E2,1.3442002E3,5.594793E2,1.2951958E2,1.0356883E2,3.7607635E1,2.3524818E1,3.8042526E2,4.6215122E1,1.6429845E3,1.3036605E3,1.0799487E3,8.3773706E2,1.8399683E2,2.4580008E1,1.7023435E3,9.949724E2,5.121002E1,1.2995583E2,2.3775198E3,3.5239774E2,2.5758257E1,3.0678885E1,9.773639E1,3.7931116E2,2.6681918E2,8.139894E2,8.272885E1,7.843254E1,5.4710317E3,1.857108E3,5.1031784E1,7.490321E2,2.337487E2,2.0089287E3,1.4659581E2,2.2877375E1,9.22585E1,1.2519417E3,1.4323605E2,4.1624323E2,8.7248566E1,4.2271008E1,5.5768543E1,4.7800285E1,1.2628521E2,2.5414006E2,2.4520891E1,2.1694233E1,1.4070164E3,2.3596812E2,1.5324693E2,1.1504136E3,8.3172955E2,2.4821915E2,2.1649752E1,8.1608734E2],"tree_param":{"num_deleted":"0","num_feature":"63","num_nodes":"105","size_leaf_vector":"1"}},{"base_weights":[7.999749E-4,9.399266E-2,-2.0136486E-1,-1.3404334E-1,1.9675922E-1,5.1099443E-1,-2.1762337E-1,-2.7653095E-1,4.7220137E-2,5.278276E-1,1.4566267E-1,3.6443743E-1,1.4482388E-2,-7.9512E-1,-1.9888383E-1,-1.2192767E0,-2.5999472E-1,-7.887651E-1,6.8364054E-2,1.2674859E0,4.809432E-1,2.0850655E-1,-1.1746322E-2,7.4709773E-1,1.7203744E-1,-7.0012254E-1,-1.9708913E-2,-2.473017E-1,-7.1282214E-3,-1.2184049E-2,-1.8863995E-2,1.6931668E-1,-2.9189324E-1,-3.3529976E-3,-1.4191822E-2,3.3409902E-1,1.51862055E-2,1.2250679E-2,1.4383066E0,5.929152E-1,3.2540143E-1,-2.6669693E-1,2.3415819E-1,-2.4401806E-1,2.233664E-2,3.2877538E-3,1.5657978E-2,-1.0505686E-1,4.7448677E-1,-1.6018154E-2,-5.956522E-1,-7.6853275E-2,-2.994688E-1,7.315057E-2,-1.8623897E-1,3.578347E-3,-4.224992E-3,-3.119156E-3,-5.575098E-3,2.7980955E-4,6.0982206E-3,1.3026273E-3,-2.4338467E-3,2.1203363E-2,1.5532854E-2,6.330316E-3,1.0049764E-2,5.5476693E-3,-6.4867105E-5,-1.3884159E-2,-2.7510014E-3,3.8721177E-3,8.5143687E-4,-4.16161E-3,4.5054E-3,5.9624626E-3,3.3309545E-5,3.481435E-3,-8.193979E-3,1.4415156E-3,1.1624341E-2,-6.4963023E-3,-1.74754E-2,3.5848867E-3,-1.8041079E-3,-5.1900474E-3,-2.7248326E-3,-1.8963397E-3,2.0134368E-3,5.5296947E-3,-3.0713556E-3],"categories":[],"categories_nodes":[],"categories_segments":[],"categories_sizes":[],"default_left":[0,0,0,0,0,0,0,0,0,0,0,0,0,0,0,0,0,0,0,0,0,0,0,0,0,0,0,0,0,0,0,0,0,0,0,0,0,0,0,0,0,0,0,0,0,0,0,0,0,0,0,0,0,0,0,0,0,0,0,0,0,0,0,0,0,0,0,0,0,0,0,0,0,0,0,0,0,0,0,0,0,0,0,0,0,0,0,0,0,0,0],"id":9,"left_children":[1,3,5,7,9,11,13,15,17,19,21,23,-1,25,27,29,31,33,35,37,39,41,43,45,47,49,-1,51,53,-1,-1,55,57,-1,-1,59,61,-1,63,65,67,69,71,73,75,-1,-1,77,79,-1,81,83,85,87,89,-1,-1,-1,-1,-1,-1,-1,-1,-1,-1,-1,-1,-1,-1,-1,-1,-1,-1,-1,-1,-1,-1,-1,-1,-1,-1,-1,-1,-1,-1,-1,-1,-1,-1,-1,-1],"loss_changes":[4.8462234E2,4.126256E2,9.410898E1,1.4129614E2,2.0524405E2,1.5164879E1,8.5724304E1,4.743518E1,4.2621826E1,5.5662994E1,1.04027725E2,1.0661472E1,0E0,1.5459778E1,7.137286E1,1.9609375E0,4.1286255E1,8.815552E0,3.320065E1,4.274353E0,2.6409454E1,9.167297E1,2.3766052E1,1.0346485E1,8.328304E0,1.1121582E1,0E0,5.4552948E1,2.231219E1,0E0,0E0,1.0459564E1,2.0251083E1,0E0,0E0,1.5620625E1,3.2604553E1,0E0,8.683624E-1,1.6566925E1,2.0030083E1,1.745259E1,7.1308685E1,1.606009E1,2.2254362E1,0E0,0E0,1.0101952E1,6.927457E0,0E0,1.338018E1,2.9966835E1,4.082614E1,1.8423956E1,1.3526894E1,0E0,0E0,0E0,0E0,0E0,0E0,0E0,0E0,0E0,0E0,0E0,0E0,0E0,0E0,0E0,0E0,0E0,0E0,0E0,0E0,0E0,0E0,0E0,0E0,0E0,0E0,0E0,0E0,0E0,0E0,0E0,0E0,0E0,0E0,0E0,0E0],"parents":[2147483647,0,0,1,1,2,2,3,3,4,4,5,5,6,6,7,7,8,8,9,9,10,10,11,11,13,13,14,14,15,15,16,16,17,17,18,18,19,19,20,20,21,21,22,22,23,23,24,24,25,25,27,27,28,28,31,31,32,32,35,35,36,36,38,38,39,39,40,40,41,41,42,42,43,43,44,44,47,47,48,48,50,50,51,51,52,52,53,53,54,54],"right_children":[2,4,6,8,10,12,14,16,18,20,22,24,-1,26,28,30,32,34,36,38,40,42,44,46,48,50,-1,52,54,-1,-1,56,58,-1,-1,60,62,-1,64,66,68,70,72,74,76,-1,-1,78,80,-1,82,84,86,88,90,-1,-1,-1,-1,-1,-1,-1,-1,-1,-1,-1,-1,-1,-1,-1,-1,-1,-1,-1,-1,-1,-1,-1,-1,-1,-1,-1,-1,-1,-1,-1,-1,-1,-1,-1,-1],"split_conditions":[3.332881E-1,-2.3278322E-4,1.3986393E-3,2.6668295E-1,2.9265403E-3,1.9162105E-2,1.4625031E-3,8.711298E-4,1.2676086E-3,6.5455417E-4,1E0,8.4515504E-4,1.4482388E-2,1.2840569E0,3.8885123E-1,-5.075384E-1,-7.0090926E-1,9.7105306E-1,3.715994E-3,3.2783332E-1,4.1433334E-1,1.7802746E-3,-1.2773109E-3,3.9664988E-4,2.8561464E-1,6.813707E-4,-1.9708913E-2,4.4129888E-4,1E0,-1.2184049E-2,-1.8863995E-2,8.1416667E-1,1E0,-3.3529976E-3,-1.4191822E-2,3.397052E-1,1E0,1.2250679E-2,2.3467863E-1,5.1718813E-1,9.272905E-1,6.813707E-4,1.17537394E-1,1.1393027E0,3.816667E-2,3.2877538E-3,1.5657978E-2,1.4283223E-1,6.9835427E-4,-1.6018154E-2,-1.4992434E-2,-3.1623272E-3,2.779119E-3,4.190505E-3,2.2176732E-3,3.578347E-3,-4.224992E-3,-3.119156E-3,-5.575098E-3,2.7980955E-4,6.0982206E-3,1.3026273E-3,-2.4338467E-3,2.1203363E-2,1.5532854E-2,6.330316E-3,1.0049764E-2,5.5476693E-3,-6.4867105E-5,-1.3884159E-2,-2.7510014E-3,3.8721177E-3,8.5143687E-4,-4.16161E-3,4.5054E-3,5.9624626E-3,3.3309545E-5,3.481435E-3,-8.193979E-3,1.4415156E-3,1.1624341E-2,-6.4963023E-3,-1.74754E-2,3.5848867E-3,-1.8041079E-3,-5.1900474E-3,-2.7248326E-3,-1.8963397E-3,2.0134368E-3,5.5296947E-3,-3.0713556E-3],"split_indices":[4,0,57,5,57,58,58,58,58,57,60,57,0,30,5,45,45,32,57,35,35,58,7,1,3,58,0,6,60,0,0,35,60,0,0,5,60,0,5,5,24,58,45,38,35,0,0,3,21,0,13,40,33,58,57,0,0,0,0,0,0,0,0,0,0,0,0,0,0,0,0,0,0,0,0,0,0,0,0,0,0,0,0,0,0,0,0,0,0,0,0],"split_type":[0,0,0,0,0,0,0,0,0,0,0,0,0,0,0,0,0,0,0,0,0,0,0,0,0,0,0,0,0,0,0,0,0,0,0,0,0,0,0,0,0,0,0,0,0,0,0,0,0,0,0,0,0,0,0,0,0,0,0,0,0,0,0,0,0,0,0,0,0,0,0,0,0,0,0,0,0,0,0,0,0,0,0,0,0,0,0,0,0,0,0],"sum_hessian":[2.5720707E4,1.7605545E4,8.115163E3,5.4692124E3,1.2136333E4,1.804158E2,7.934747E3,3.061847E3,2.4073652E3,1.6214362E3,1.0514896E4,1.4555762E2,3.485819E1,2.4810837E2,7.6866387E3,5.155021E1,3.0102969E3,5.8506195E1,2.3488591E3,9.512811E1,1.526308E3,7.514501E3,3.0003953E3,4.7751904E1,9.780571E1,2.2006946E2,2.803891E1,6.1368154E3,1.5498232E3,2.346371E1,2.8086496E1,2.079054E2,2.8023914E3,2.1003231E1,3.7502964E1,3.907983E2,1.9580608E3,3.3908962E1,6.1219147E1,8.85841E2,6.4046704E2,3.8438586E2,7.130115E3,3.8316534E2,2.61723E3,2.3063631E1,2.4688272E1,5.137394E1,4.6431767E1,3.5509644E1,1.8455981E2,1.4386582E3,4.698157E3,1.0705619E3,4.7926138E2,1.7252834E2,3.5377052E1,1.963285E3,8.391063E2,1.13468796E2,2.7732953E2,1.3809225E3,5.7713824E2,3.4379818E1,2.6839329E1,5.3020013E2,3.5564087E2,4.9776224E2,1.4270477E2,2.5510427E1,3.5887543E2,5.2916646E3,1.8384508E3,3.421081E2,4.105727E1,1.14609474E2,2.5026204E3,3.0225548E1,2.1148392E1,2.507776E1,2.1354008E1,1.6292035E2,2.1639462E1,2.1006616E2,1.228592E3,2.3453372E3,2.3528203E3,2.864792E2,7.840827E2,3.3479588E1,4.457818E2],"tree_param":{"num_deleted":"0","num_feature":"63","num_nodes":"91","size_leaf_vector":"1"}},{"base_weights":[1.5161247E-3,2.3714183E-1,-6.853999E-2,4.2452186E-1,1.172091E-1,-6.487482E-1,-4.854097E-2,1.1270561E0,3.953587E-1,2.4558155E-2,2.7517742E-1,-1.2924373E0,-5.0121456E-1,2.2068936E-1,-7.916377E-2,1.244789E0,9.949601E-3,4.2110974E-1,3.65499E-2,1.1389578E-1,-9.008927E-2,4.304633E-1,9.815846E-2,-1.1264071E0,-2.295296E-2,-4.450011E-1,-1.0942445E0,9.706317E-1,1.8124323E-1,-1.5031028E-1,4.622821E-2,1.817234E-2,1.3260856E-2,4.4956192E-1,2.1868072E-2,-1.2858576E-2,2.4448161E-1,1.8992779E-1,-1.4635053E-1,-7.3607876E-3,-5.177783E-1,7.4378914E-1,3.3285838E-1,-8.8389795E-3,1.4975075E-1,-1.0568267E-2,-1.2802987E0,-6.7031515E-1,-3.0656826E-1,-7.945669E-3,-2.0152964E-2,3.1720977E-3,1.1933081E0,-2.2822544E-3,2.577305E-1,-2.9104114E-1,-1.0520386E-1,-7.20617E-2,1.13650285E-1,6.132313E-3,-2.224958E-3,2.8291685E-3,-7.50365E-3,-2.9153393E-3,5.6284885E-3,1.0472948E-2,2.0555486E-3,-1.1720839E-3,-9.574944E-3,7.1656285E-4,-3.1991494E-3,-1.4459151E-2,-5.2672112E-3,7.85679E-3,1.787424E-2,5.26239E-3,3.574606E-4,2.9457693E-3,-1.8769595E-3,-1.1464923E-2,-1.9749697E-2,-1.592771E-2,-7.11859E-3,-1.4044736E-3,-7.416648E-3,1.2378095E-2,1.9980337E-2,-5.176978E-3,7.582234E-4,-5.656703E-3,3.7150239E-3,-1.1150092E-3,-4.310557E-3,-8.730969E-4,-3.1121878E-3,5.2466197E-3,-1.3256995E-3,2.8521032E-3,6.024825E-4],"categories":[],"categories_nodes":[],"categories_segments":[],"categories_sizes":[],"default_left":[0,0,0,0,0,0,0,0,0,0,0,0,0,0,0,0,0,0,0,0,0,0,0,0,0,0,0,0,0,0,0,0,0,0,0,0,0,0,0,0,0,0,0,0,0,0,0,0,0,0,0,0,0,0,0,0,0,0,0,0,0,0,0,0,0,0,0,0,0,0,0,0,0,0,0,0,0,0,0,0,0,0,0,0,0,0,0,0,0,0,0,0,0,0,0,0,0,0,0],"id":10,"left_children":[1,3,5,7,9,11,13,15,17,19,21,23,25,27,29,31,-1,33,35,37,39,41,43,45,-1,47,49,51,53,55,57,-1,-1,59,61,-1,63,65,67,69,71,73,75,-1,77,-1,79,81,83,-1,-1,-1,85,87,89,91,93,95,97,-1,-1,-1,-1,-1,-1,-1,-1,-1,-1,-1,-1,-1,-1,-1,-1,-1,-1,-1,-1,-1,-1,-1,-1,-1,-1,-1,-1,-1,-1,-1,-1,-1,-1,-1,-1,-1,-1,-1,-1],"loss_changes":[4.246715E2,1.3245233E2,2.300754E2,4.6696777E1,5.2629543E1,6.2104675E1,1.580737E2,3.0918274E0,2.0408173E1,2.3239014E1,3.6502342E1,7.1330414E0,1.7491928E1,5.7751472E1,1.5357516E2,7.809677E-1,0E0,2.3416351E1,3.153944E1,2.5257872E1,3.5158577E1,2.140506E1,2.4738485E1,3.6178665E0,0E0,1.520771E1,8.873535E0,1.55972595E1,2.6131027E1,6.96862E1,4.971142E1,0E0,0E0,1.746698E1,1.5796482E1,0E0,1.0600327E1,2.0311218E1,9.564541E0,1.2071759E1,1.0630859E1,1.4406158E1,1.0831383E1,0E0,1.2512988E1,0E0,4.1189957E0,1.2536751E1,1.5650543E1,0E0,0E0,0E0,4.70739E0,1.2775467E1,2.1273552E1,1.9381561E1,4.240477E1,3.0074398E1,2.7608242E1,0E0,0E0,0E0,0E0,0E0,0E0,0E0,0E0,0E0,0E0,0E0,0E0,0E0,0E0,0E0,0E0,0E0,0E0,0E0,0E0,0E0,0E0,0E0,0E0,0E0,0E0,0E0,0E0,0E0,0E0,0E0,0E0,0E0,0E0,0E0,0E0,0E0,0E0,0E0,0E0],"parents":[2147483647,0,0,1,1,2,2,3,3,4,4,5,5,6,6,7,7,8,8,9,9,10,10,11,11,12,12,13,13,14,14,15,15,17,17,18,18,19,19,20,20,21,21,22,22,23,23,25,25,26,26,27,27,28,28,29,29,30,30,33,33,34,34,36,36,37,37,38,38,39,39,40,40,41,41,42,42,44,44,46,46,47,47,48,48,52,52,53,53,54,54,55,55,56,56,57,57,58,58],"right_children":[2,4,6,8,10,12,14,16,18,20,22,24,26,28,30,32,-1,34,36,38,40,42,44,46,-1,48,50,52,54,56,58,-1,-1,60,62,-1,64,66,68,70,72,74,76,-1,78,-1,80,82,84,-1,-1,-1,86,88,90,92,94,96,98,-1,-1,-1,-1,-1,-1,-1,-1,-1,-1,-1,-1,-1,-1,-1,-1,-1,-1,-1,-1,-1,-1,-1,-1,-1,-1,-1,-1,-1,-1,-1,-1,-1,-1,-1,-1,-1,-1,-1,-1],"split_conditions":[3.914814E-4,4.8739314E-3,1.4625031E-3,6.5455417E-4,1E0,6.813707E-4,2.9265403E-3,2.6234068E-4,3.3791673E-1,2.1731647E-4,-2.1217768E-1,5.6E-1,7.8533334E-1,8.4515504E-4,1E0,9.729471E-1,9.949601E-3,-7.2236395E-1,2.0007324E-1,1.7794354E-1,1.3475359E-2,9.2652935E-4,2.5102713E-3,-9.8162717E-1,-2.295296E-2,4.3388373E-1,7.807604E-4,1.4687198E-3,-2.4166644E-4,-3.4600522E-4,-2.0774375E-4,1.817234E-2,1.3260856E-2,2.8044019E-2,6.0310494E-3,-1.2858576E-2,4.3351408E-2,9.9975586E-2,4.4847688E-1,9.749279E-1,9.1223815E-4,7.88474E-3,2.6738544E-3,-8.8389795E-3,3.127919E-4,-1.0568267E-2,-1.864048E-3,5.68882E-1,9.261265E-1,-7.945669E-3,-2.0152964E-2,3.1720977E-3,6.7274E4,2.0119105E-4,9.4548985E-4,4.20296E-3,1.0804322E-2,-7.040147E-1,9.078366E-1,6.132313E-3,-2.224958E-3,2.8291685E-3,-7.50365E-3,-2.9153393E-3,5.6284885E-3,1.0472948E-2,2.0555486E-3,-1.1720839E-3,-9.574944E-3,7.1656285E-4,-3.1991494E-3,-1.4459151E-2,-5.2672112E-3,7.85679E-3,1.787424E-2,5.26239E-3,3.574606E-4,2.9457693E-3,-1.8769595E-3,-1.1464923E-2,-1.9749697E-2,-1.592771E-2,-7.11859E-3,-1.4044736E-3,-7.416648E-3,1.2378095E-2,1.9980337E-2,-5.176978E-3,7.582234E-4,-5.656703E-3,3.7150239E-3,-1.1150092E-3,-4.310557E-3,-8.730969E-4,-3.1121878E-3,5.2466197E-3,-1.3256995E-3,2.8521032E-3,6.024825E-4],"split_indices":[21,57,58,57,59,58,57,21,45,21,45,35,35,57,59,24,0,46,9,45,57,22,58,46,0,47,22,8,0,0,0,0,0,58,40,0,28,10,28,47,22,58,22,0,21,0,7,39,30,0,0,0,42,22,33,57,57,45,30,0,0,0,0,0,0,0,0,0,0,0,0,0,0,0,0,0,0,0,0,0,0,0,0,0,0,0,0,0,0,0,0,0,0,0,0,0,0,0,0],"split_type":[0,0,0,0,0,0,0,0,0,0,0,0,0,0,0,0,0,0,0,0,0,0,0,0,0,0,0,0,0,0,0,0,0,0,0,0,0,0,0,0,0,0,0,0,0,0,0,0,0,0,0,0,0,0,0,0,0,0,0,0,0,0,0,0,0,0,0,0,0,0,0,0,0,0,0,0,0,0,0,0,0,0,0,0,0,0,0,0,0,0,0,0,0,0,0,0,0,0,0],"sum_hessian":[2.5724762E4,5.8950654E3,1.9829695E4,2.2996487E3,3.595417E3,6.597003E2,1.9169996E4,9.018417E1,2.2094646E3,2.2669534E3,1.3284635E3,1.2158951E2,5.381108E2,1.9571292E3,1.7212867E4,6.684991E1,2.3334269E1,2.0613513E3,1.4811317E2,1.2741249E3,9.9282855E2,7.069215E2,6.21542E2,9.107226E1,3.0517256E1,4.930888E2,4.5021996E1,9.6640724E1,1.8604884E3,1.0981728E4,6.231138E3,4.0344376E1,2.6505527E1,1.9241022E3,1.3724918E2,2.4672249E1,1.23440926E2,9.8625616E2,2.8786877E2,8.3274896E2,1.6007959E2,1.6636452E2,5.40557E2,3.8421906E1,5.8312006E2,3.1126806E1,5.994545E1,1.8622011E2,3.0686868E2,2.2107447E1,2.2914549E1,2.3053493E1,7.358723E1,5.4756976E2,1.3129187E3,2.6641802E3,8.317548E3,2.262161E3,3.9689775E3,1.8798817E3,4.4220444E1,1.0397976E2,3.326942E1,3.459388E1,8.884704E1,5.1979202E1,9.34277E2,2.6281583E2,2.5052929E1,6.602705E2,1.7247847E2,2.602154E1,1.3405804E2,1.352147E2,3.1149807E1,4.449834E2,9.557361E1,4.6633945E2,1.16780624E2,2.2211191E1,3.7734257E1,3.5138165E1,1.5108195E2,1.7261359E2,1.342551E2,4.2946026E1,3.0641203E1,7.201198E1,4.7555777E2,4.288551E1,1.2700332E3,3.886595E2,2.2755208E3,6.399085E3,1.9184626E3,1.2789165E2,2.1342693E3,1.5851661E3,2.3838113E3],"tree_param":{"num_deleted":"0","num_feature":"63","num_nodes":"99","size_leaf_vector":"1"}},{"base_weights":[-2.7399964E-4,8.9408845E-2,-2.1469365E-1,-1.31626E-1,1.9858639E-1,-5.3867763E-1,-1.731412E-1,-2.9534036E-1,2.8581757E-2,3.7548923E-1,1.0237292E-1,-1.1406047E0,-4.8114213E-1,9.107637E-1,-1.8302879E-1,-6.8616605E-1,-2.5179884E-1,-8.591043E-1,5.017799E-2,1.197337E0,3.5773095E-1,1.3353894E-2,2.3242354E-1,-1.0287641E-2,-1.8438084E-2,-2.3977004E-1,-5.8399475E-1,7.54684E-3,1.6811203E-2,-2.3690525E-1,-2.6580876E-2,-2.2024104E-1,-8.609099E-1,-7.6998964E-2,-3.1304678E-1,-1.1061906E0,-4.0450236E-3,9.752403E-3,3.1556147E-1,1.3767868E0,1.2099853E-2,2.9974896E-1,5.24445E-1,7.6250836E-2,-9.8822765E-2,-4.334133E-1,2.56338E-1,-6.1005396E-1,-1.4522462E-1,-1.1216666E0,-5.372276E-1,-8.840974E-3,-2.7828863E-1,1.7089438E-1,-8.549124E-2,2.486884E-3,-6.657427E-3,-8.554447E-3,-1.4875999E-2,8.1780227E-4,-3.902724E-3,-1.6825823E-3,-5.2252933E-3,-1.738325E-2,-1.1083662E-2,5.7221265E-3,-2.46602E-4,7.0180474E-3,1.1536663E-3,1.3105159E-2,2.1216651E-2,5.8029788E-3,3.199679E-3,9.251877E-3,5.450309E-3,-4.115478E-4,2.1226031E-3,-2.4315652E-3,1.115569E-3,-2.2392268E-3,-1.121235E-2,4.951555E-3,1.5630564E-3,-4.1728565E-3,-1.1546354E-2,-3.186129E-3,4.325192E-3,-1.8375827E-2,-1.0602468E-2,1.7272821E-3,-7.724281E-3,-1.1931609E-3,4.5556E-3,-4.252392E-3,-6.7999365E-4,7.6265526E-3,1.3490841E-3,3.280093E-3,-1.5292353E-3],"categories":[],"categories_nodes":[],"categories_segments":[],"categories_sizes":[],"default_left":[0,0,0,0,0,0,0,0,0,0,0,0,0,0,0,0,0,0,0,0,0,0,0,0,0,0,0,0,0,0,0,0,0,0,0,0,0,0,0,0,0,0,0,0,0,0,0,0,0,0,0,0,0,0,0,0,0,0,0,0,0,0,0,0,0,0,0,0,0,0,0,0,0,0,0,0,0,0,0,0,0,0,0,0,0,0,0,0,0,0,0,0,0,0,0,0,0,0,0],"id":11,"left_children":[1,3,5,7,9,11,13,15,17,19,21,23,25,27,29,31,33,35,37,39,41,43,45,-1,-1,47,49,-1,-1,51,53,55,57,59,61,63,-1,65,67,69,-1,71,73,75,77,79,81,83,85,87,89,91,93,95,97,-1,-1,-1,-1,-1,-1,-1,-1,-1,-1,-1,-1,-1,-1,-1,-1,-1,-1,-1,-1,-1,-1,-1,-1,-1,-1,-1,-1,-1,-1,-1,-1,-1,-1,-1,-1,-1,-1,-1,-1,-1,-1,-1,-1],"loss_changes":[4.932247E2,4.3645044E2,1.0173877E2,1.5685269E2,2.0600925E2,2.9222427E1,7.20293E1,5.016101E1,5.799863E1,6.181372E1,9.0790016E1,5.7860794E0,1.9377396E1,6.7499237E0,5.6011185E1,2.3905151E1,2.8483795E1,9.483166E0,3.167028E1,3.2950287E0,4.020691E1,3.286366E1,5.0851974E1,0E0,0E0,8.193525E0,1.3250595E1,0E0,0E0,4.665335E1,1.9831926E1,9.599138E0,1.1438278E1,2.1018883E1,3.0143326E1,1.6758308E0,0E0,3.0847279E1,1.9162258E1,3.0976715E0,0E0,2.4786285E1,2.0891571E1,2.7063187E1,2.6154243E1,1.2007311E1,5.0266327E1,3.4398136E0,8.680603E0,2.6108932E0,1.6189835E1,2.1937061E1,4.1353455E1,1.0890679E1,1.3288134E1,0E0,0E0,0E0,0E0,0E0,0E0,0E0,0E0,0E0,0E0,0E0,0E0,0E0,0E0,0E0,0E0,0E0,0E0,0E0,0E0,0E0,0E0,0E0,0E0,0E0,0E0,0E0,0E0,0E0,0E0,0E0,0E0,0E0,0E0,0E0,0E0,0E0,0E0,0E0,0E0,0E0,0E0,0E0,0E0],"parents":[2147483647,0,0,1,1,2,2,3,3,4,4,5,5,6,6,7,7,8,8,9,9,10,10,11,11,12,12,13,13,14,14,15,15,16,16,17,17,18,18,19,19,20,20,21,21,22,22,25,25,26,26,29,29,30,30,31,31,32,32,33,33,34,34,35,35,37,37,38,38,39,39,41,41,42,42,43,43,44,44,45,45,46,46,47,47,48,48,49,49,50,50,51,51,52,52,53,53,54,54],"right_children":[2,4,6,8,10,12,14,16,18,20,22,24,26,28,30,32,34,36,38,40,42,44,46,-1,-1,48,50,-1,-1,52,54,56,58,60,62,64,-1,66,68,70,-1,72,74,76,78,80,82,84,86,88,90,92,94,96,98,-1,-1,-1,-1,-1,-1,-1,-1,-1,-1,-1,-1,-1,-1,-1,-1,-1,-1,-1,-1,-1,-1,-1,-1,-1,-1,-1,-1,-1,-1,-1,-1,-1,-1,-1,-1,-1,-1,-1,-1,-1,-1,-1,-1],"split_conditions":[3.4546664E-1,-2.0458405E-4,2.7179488E-3,2.380814E-1,5.0782915E-3,8.711298E-4,8.4515504E-4,2.344663E-3,1.2676086E-3,6.5455417E-4,1E0,8.634196E-1,4.4438416E-1,9.536343E-1,3.3340114E-1,7.8237903E-1,-2.6850258E-3,-1.5206347E-3,5.7150334E-1,7E-1,6.418674E-1,1.1147084E0,1.4625031E-3,-1.0287641E-2,-1.8438084E-2,7.2128646E-2,5.838403E-3,7.54684E-3,1.6811203E-2,3.647372E-4,3.9617796E-3,-9.523958E-1,-3.5799472E-4,1.3695653E-1,4.5187543E-3,8.711298E-4,-4.0450236E-3,2.3408795E-3,2.951494E-3,1.5802765E-3,1.2099853E-2,2.5802248E-3,1.7928076E-3,3.3337855E-1,1.1025139E0,7.321339E-4,-2.0791169E-1,-3.5836795E-1,1.804945E-4,-2.3224181E-1,2.2833332E-2,2.677442E-2,1.7089343E-3,-9.1694796E-4,-1.7489786E-1,2.486884E-3,-6.657427E-3,-8.554447E-3,-1.4875999E-2,8.1780227E-4,-3.902724E-3,-1.6825823E-3,-5.2252933E-3,-1.738325E-2,-1.1083662E-2,5.7221265E-3,-2.46602E-4,7.0180474E-3,1.1536663E-3,1.3105159E-2,2.1216651E-2,5.8029788E-3,3.199679E-3,9.251877E-3,5.450309E-3,-4.115478E-4,2.1226031E-3,-2.4315652E-3,1.115569E-3,-2.2392268E-3,-1.121235E-2,4.951555E-3,1.5630564E-3,-4.1728565E-3,-1.1546354E-2,-3.186129E-3,4.325192E-3,-1.8375827E-2,-1.0602468E-2,1.7272821E-3,-7.724281E-3,-1.1931609E-3,4.5556E-3,-4.252392E-3,-6.7999365E-4,7.6265526E-3,1.3490841E-3,3.280093E-3,-1.5292353E-3],"split_indices":[4,0,58,5,57,58,57,58,58,57,59,31,4,31,5,31,40,8,5,29,5,30,58,0,0,5,57,0,0,6,57,46,14,4,57,58,0,57,33,18,0,57,33,5,39,22,45,45,16,38,35,38,7,7,13,0,0,0,0,0,0,0,0,0,0,0,0,0,0,0,0,0,0,0,0,0,0,0,0,0,0,0,0,0,0,0,0,0,0,0,0,0,0,0,0,0,0,0,0],"split_type":[0,0,0,0,0,0,0,0,0,0,0,0,0,0,0,0,0,0,0,0,0,0,0,0,0,0,0,0,0,0,0,0,0,0,0,0,0,0,0,0,0,0,0,0,0,0,0,0,0,0,0,0,0,0,0,0,0,0,0,0,0,0,0,0,0,0,0,0,0,0,0,0,0,0,0,0,0,0,0,0,0,0,0,0,0,0,0,0,0,0,0,0,0,0,0,0,0,0,0],"sum_hessian":[2.5647059E4,1.8083885E4,7.5631733E3,5.9789727E3,1.2104912E4,8.584088E2,6.7047646E3,2.956719E3,3.022254E3,4.2633135E3,7.841598E3,7.32809E1,7.851279E2,5.98007E1,6.644964E3,2.949321E2,2.6617869E3,7.0876816E1,2.9513772E3,8.8793465E1,4.17452E3,4.6558096E3,3.1857883E3,3.1939596E1,4.1341305E1,2.355718E2,5.4955615E2,3.21543E1,2.76464E1,4.942416E3,1.7025477E3,8.1049774E1,2.1388234E2,6.9124054E2,1.9705463E3,4.830656E1,2.2570251E1,2.5621143E3,3.8926294E2,5.1889637E1,3.690383E1,3.099341E3,1.0751792E3,2.983372E3,1.6724376E3,1.0987096E2,3.0759172E3,4.682491E1,1.8874689E2,4.217074E1,5.073854E2,7.5927374E2,4.183142E3,3.9076532E2,1.3117823E3,3.3351585E1,4.769819E1,1.2037364E2,9.350869E1,4.2295566E2,2.682849E2,6.068392E2,1.363707E3,2.491283E1,2.339373E1,1.602856E2,2.4018286E3,1.9947215E2,1.8979079E2,2.1320803E1,3.0568834E1,9.032986E2,2.1960425E3,4.1605634E2,6.591228E2,1.3132089E3,1.6701633E3,1.1415376E3,5.3089996E2,6.8024994E1,4.1845966E1,1.6543268E3,1.4215905E3,2.316387E1,2.366104E1,1.572967E2,3.1450174E1,2.1083893E1,2.1086845E1,3.3539013E1,4.7384637E2,6.177084E2,1.4156537E2,3.508438E3,6.7470435E2,5.550848E1,3.3525684E2,1.084589E2,1.2033235E3],"tree_param":{"num_deleted":"0","num_feature":"63","num_nodes":"99","size_leaf_vector":"1"}},{"base_weights":[-3.8321507E-3,-9.407288E-2,1.9628873E-1,-1.9844496E-1,8.813668E-2,3.866981E-1,1.03548385E-1,-4.9011037E-1,-1.591107E-1,4.2406207E-1,3.5019066E-2,5.337799E-1,2.8234774E-1,-6.842347E-1,1.2428917E-1,-1.099945E0,-4.1960678E-1,4.9430694E-2,-2.1331784E-1,1.1738349E0,3.6301625E-1,-1.6985127E-1,1.0060668E-1,7.1294826E-1,4.403452E-1,9.587684E-2,3.8158518E-1,-3.3035287E-1,-1.0764642E0,1.988626E-1,-7.850374E-2,-9.057981E-1,-2.2197727E-2,-7.3105365E-2,-4.8904407E-1,1.12766875E-2,3.47717E-2,-3.1440333E-1,-7.123989E-2,1.839194E-2,9.597907E-3,4.4591394E-1,2.1690238E-1,-3.3816522E-1,-9.2386454E-2,1.4355971E-1,-1.5825203E-1,4.2113194E-1,8.205684E-1,5.0217533E-1,9.3595654E-2,-2.6469693E-1,1.6109529E-1,4.1068032E-1,-5.158134E-3,-9.585327E-3,-6.8391435E-2,-1.7869016E-2,-1.0899674E-2,5.072101E-1,1.4695588E-1,2.818133E-2,-2.4748684E-1,-6.2350617E-3,-1.3980802E-2,3.6550323E-3,-4.8371335E-3,-2.6147463E-3,-7.4905897E-3,-1.7597218E-3,1.2951836E-3,3.7431351E-3,-4.320714E-3,-2.8981157E-3,-4.9832488E-5,4.43899E-3,9.221957E-3,4.5580072E-3,2.4389444E-4,-1.160344E-2,-3.7404553E-3,-1.7422667E-3,2.6855338E-3,4.6468948E-4,2.926553E-3,-3.5420356E-3,5.5136933E-4,1.5623303E-3,8.410069E-3,1.3811211E-2,8.431289E-3,5.0236913E-3,9.507283E-3,-2.2191624E-3,9.588152E-3,-1.2809673E-2,4.1377786E-4,3.9236057E-3,3.2984797E-4,-1.402636E-3,5.869938E-3,4.1056597E-3,-6.328997E-3,3.214137E-3,1.0146606E-2,-7.5362634E-4,2.7753804E-3,-2.5594595E-3,1.425085E-3,-3.701485E-3,3.5087736E-3],"categories":[],"categories_nodes":[],"categories_segments":[],"categories_sizes":[],"default_left":[0,0,0,0,0,0,0,0,0,0,0,0,0,0,0,0,0,0,0,0,0,0,0,0,0,0,0,0,0,0,0,0,0,0,0,0,0,0,0,0,0,0,0,0,0,0,0,0,0,0,0,0,0,0,0,0,0,0,0,0,0,0,0,0,0,0,0,0,0,0,0,0,0,0,0,0,0,0,0,0,0,0,0,0,0,0,0,0,0,0,0,0,0,0,0,0,0,0,0,0,0,0,0,0,0,0,0,0,0,0,0],"id":12,"left_children":[1,3,5,7,9,11,13,15,17,19,21,23,25,27,29,31,33,35,37,39,41,43,45,47,49,51,53,55,57,59,61,63,-1,65,67,-1,69,71,73,-1,-1,75,77,79,81,83,85,87,89,91,93,95,97,99,-1,-1,101,-1,-1,103,105,107,109,-1,-1,-1,-1,-1,-1,-1,-1,-1,-1,-1,-1,-1,-1,-1,-1,-1,-1,-1,-1,-1,-1,-1,-1,-1,-1,-1,-1,-1,-1,-1,-1,-1,-1,-1,-1,-1,-1,-1,-1,-1,-1,-1,-1,-1,-1,-1,-1],"loss_changes":[4.645302E2,3.3717053E2,1.4112921E2,1.2924167E2,1.1520659E2,4.0032837E1,8.7943436E1,5.711856E1,1.1230957E2,3.9929443E1,7.495131E1,1.7861572E1,2.8342087E1,1.8816948E1,7.926247E1,1.4069931E1,2.8881302E1,2.4138302E1,1.1321893E2,5.4448395E0,9.795425E0,1.7606586E1,4.699884E1,1.129361E1,1.5303329E1,1.2598819E1,2.2632202E1,7.6123505E0,3.4198837E0,6.1251556E1,2.5419102E1,6.496811E0,0E0,2.0782648E1,2.2605545E1,0E0,2.142162E1,3.4921112E1,3.2769875E1,0E0,0E0,1.4180862E1,7.5567207E0,1.2418068E1,1.0859142E1,3.0616798E1,1.3231958E1,6.5700893E0,1.0399353E1,1.5833694E1,1.8236265E1,1.7174704E1,8.368979E0,1.6819473E1,0E0,0E0,7.2454805E0,0E0,0E0,3.7790543E1,4.2261024E1,1.5316361E1,9.225433E0,0E0,0E0,0E0,0E0,0E0,0E0,0E0,0E0,0E0,0E0,0E0,0E0,0E0,0E0,0E0,0E0,0E0,0E0,0E0,0E0,0E0,0E0,0E0,0E0,0E0,0E0,0E0,0E0,0E0,0E0,0E0,0E0,0E0,0E0,0E0,0E0,0E0,0E0,0E0,0E0,0E0,0E0,0E0,0E0,0E0,0E0,0E0,0E0],"parents":[2147483647,0,0,1,1,2,2,3,3,4,4,5,5,6,6,7,7,8,8,9,9,10,10,11,11,12,12,13,13,14,14,15,15,16,16,17,17,18,18,19,19,20,20,21,21,22,22,23,23,24,24,25,25,26,26,27,27,28,28,29,29,30,30,31,31,33,33,34,34,36,36,37,37,38,38,41,41,42,42,43,43,44,44,45,45,46,46,47,47,48,48,49,49,50,50,51,51,52,52,53,53,56,56,59,59,60,60,61,61,62,62],"right_children":[2,4,6,8,10,12,14,16,18,20,22,24,26,28,30,32,34,36,38,40,42,44,46,48,50,52,54,56,58,60,62,64,-1,66,68,-1,70,72,74,-1,-1,76,78,80,82,84,86,88,90,92,94,96,98,100,-1,-1,102,-1,-1,104,106,108,110,-1,-1,-1,-1,-1,-1,-1,-1,-1,-1,-1,-1,-1,-1,-1,-1,-1,-1,-1,-1,-1,-1,-1,-1,-1,-1,-1,-1,-1,-1,-1,-1,-1,-1,-1,-1,-1,-1,-1,-1,-1,-1,-1,-1,-1,-1,-1,-1],"split_conditions":[4.2859635E-1,1.9012073E-4,4.829752E-3,2.6722697E-3,2.9752515E-3,8.4583145E-1,1.2676086E-3,8.711298E-4,3.753882E-4,6.5455417E-4,4.7063047E-1,2.873113E-3,-4.2415475E-5,9.4486433E-1,1E0,1.1502018E0,-6.6262007E-1,-2.2586289E-1,2.3467863E-1,1.0530322E0,1.4824189E-1,1.5085214E-1,4.0878505E-3,5.1021427E-1,1.2619896E-1,-5.627554E-4,2.8044019E-2,8.711298E-4,1.8592109E-1,1.3953574E-3,1.1711429E0,4.210355E-4,-2.2197727E-2,4.077546E1,6.789745E-1,1.12766875E-2,4.94088E-3,1.4990382E-3,2.3294315E-1,1.839194E-2,9.597907E-3,9.006629E-1,2.0165667E-3,2.5102713E-3,1.20392E5,5.6363195E-1,7.138567E0,-2.2252093E-1,2.1215715E-3,6.970033E-1,5.3277053E-4,5.879141E-2,2.1E2,4.7988857E1,-5.158134E-3,-9.585327E-3,-1.3620439E-2,-1.7869016E-2,-1.0899674E-2,6.153268E-1,3.4959023E-3,4.5351955E1,4.1469324E-1,-6.2350617E-3,-1.3980802E-2,3.6550323E-3,-4.8371335E-3,-2.6147463E-3,-7.4905897E-3,-1.7597218E-3,1.2951836E-3,3.7431351E-3,-4.320714E-3,-2.8981157E-3,-4.9832488E-5,4.43899E-3,9.221957E-3,4.5580072E-3,2.4389444E-4,-1.160344E-2,-3.7404553E-3,-1.7422667E-3,2.6855338E-3,4.6468948E-4,2.926553E-3,-3.5420356E-3,5.5136933E-4,1.5623303E-3,8.410069E-3,1.3811211E-2,8.431289E-3,5.0236913E-3,9.507283E-3,-2.2191624E-3,9.588152E-3,-1.2809673E-2,4.1377786E-4,3.9236057E-3,3.2984797E-4,-1.402636E-3,5.869938E-3,4.1056597E-3,-6.328997E-3,3.214137E-3,1.0146606E-2,-7.5362634E-4,2.7753804E-3,-2.5594595E-3,1.425085E-3,-3.701485E-3,3.5087736E-3],"split_indices":[5,0,57,58,57,30,58,58,6,57,3,57,16,30,60,30,45,41,5,32,41,5,40,5,45,16,58,58,3,33,30,6,0,25,30,0,58,57,3,0,0,24,57,58,42,24,26,48,40,5,6,41,52,25,0,0,28,0,0,5,58,25,45,0,0,0,0,0,0,0,0,0,0,0,0,0,0,0,0,0,0,0,0,0,0,0,0,0,0,0,0,0,0,0,0,0,0,0,0,0,0,0,0,0,0,0,0,0,0,0,0],"split_type":[0,0,0,0,0,0,0,0,0,0,0,0,0,0,0,0,0,0,0,0,0,0,0,0,0,0,0,0,0,0,0,0,0,0,0,0,0,0,0,0,0,0,0,0,0,0,0,0,0,0,0,0,0,0,0,0,0,0,0,0,0,0,0,0,0,0,0,0,0,0,0,0,0,0,0,0,0,0,0,0,0,0,0,0,0,0,0,0,0,0,0,0,0,0,0,0,0,0,0,0,0,0,0,0,0,0,0,0,0,0,0],"sum_hessian":[2.5720871E4,1.7727512E4,7.99336E3,1.1271159E4,6.4563516E3,2.6170518E3,5.376308E3,1.3380662E3,9.933094E3,8.805737E2,5.575778E3,1.0844597E3,1.5325922E3,1.3711058E2,5.2391973E3,1.3717892E2,1.2008873E3,2.04929E3,7.883803E3,6.495069E1,8.1562305E2,1.3517754E3,4.2240024E3,3.6946603E2,7.1499365E2,5.330019E2,9.995902E2,7.30299E1,6.408067E1,3.830592E3,1.4086053E3,1.0467169E2,3.250724E1,2.008166E2,1.0000707E3,3.5682278E1,2.0136078E3,4.605727E3,3.2780762E3,4.2254498E1,2.26962E1,5.190945E2,2.9652856E2,4.2500894E2,9.267665E2,3.6232324E3,6.0076984E2,1.0084612E2,2.686199E2,6.0641797E2,1.0857569E2,8.117738E1,4.5182452E2,9.6373083E2,3.5859398E1,2.8418118E1,4.4611782E1,2.849218E1,3.5588493E1,5.50683E2,3.279909E3,8.639634E2,5.44642E2,2.8265427E1,7.6406265E1,9.156938E1,1.09247215E2,2.1195346E2,7.881172E2,5.5061414E2,1.4629937E3,9.500739E1,4.5107197E3,1.0251233E3,2.252953E3,3.6310355E2,1.5599092E2,1.7975185E2,1.1677672E2,3.7941505E1,3.8706744E2,8.180456E2,1.0872087E2,1.5164602E3,2.1067722E3,3.8755E2,2.1321983E2,4.255327E1,5.829285E1,1.1821614E2,1.5040376E2,3.903119E2,2.1610605E2,7.7306335E1,3.1269354E1,2.3349096E1,5.7828293E1,2.2551833E2,2.263062E2,5.8759365E1,9.0497144E2,2.3318087E1,2.1293694E1,2.7466354E2,2.7601947E2,7.750879E2,2.504821E3,2.2789763E2,6.3606573E2,5.12437E2,3.220497E1],"tree_param":{"num_deleted":"0","num_feature":"63","num_nodes":"111","size_leaf_vector":"1"}},{"base_weights":[-3.5390332E-3,8.931316E-2,-2.0456809E-1,-1.1826523E-1,1.9134066E-1,-1.1262693E-1,-3.2269418E-1,4.540476E-2,-2.4036276E-1,4.989581E-1,1.4117262E-1,9.7317725E-2,-1.687943E-1,3.8968887E-2,-3.6708948E-1,-6.0227656E-1,6.881155E-2,-9.0343904E-1,-2.1520752E-1,1.1832558E0,4.594398E-1,2.1145543E-1,-3.3027355E-2,-8.061685E-2,2.6213586E-1,-2.4962167E-1,-3.500047E-2,-7.516749E-2,4.7588977E-1,-4.2591435E-1,-1.3030463E-1,-1.416183E-2,-2.7680585E-1,3.922401E-2,4.5335063E-1,-1.2351748E0,-6.30414E-1,-1.5462576E-1,-4.1180143E-1,1.1374676E-2,1.3664165E0,8.316583E-1,4.0469044E-1,-2.5168923E-1,2.3610076E-1,-2.923846E-1,6.73748E-3,7.534745E-3,-3.9127323E-1,6.7624235E-1,2.0761757E-1,-3.2896182E-1,-1.2989372E-1,-8.230195E-1,9.920189E-3,5.1276833E-3,-1.4893931E-1,1.7136456E-1,1.3985156E-2,-1.8171338E-2,-4.1169307E-1,1.5292333E-1,-2.1093427E-1,-7.868626E-3,1.1359125E-3,3.148317E-3,-5.210816E-4,2.8873528E-3,1.0193215E-2,-1.1970011E-2,-1.943889E-2,-3.2824487E-4,-1.2249098E-2,-6.632193E-4,-3.5873584E-3,1.2689306E-3,-5.900711E-3,2.0367593E-2,1.3840664E-2,9.153932E-3,1.3800495E-2,6.4507634E-3,2.6432753E-3,5.352874E-4,-5.834139E-3,3.9612497E-3,7.049535E-4,-4.9453415E-3,2.4413553E-3,4.4938194E-4,-3.9067343E-3,7.2295903E-3,-7.037998E-4,-8.96365E-3,2.8658954E-3,4.0849466E-3,1.3779798E-2,7.8596466E-4,4.6398034E-3,-2.2145237E-3,-5.2964604E-3,6.433878E-4,-3.436414E-3,-3.7406823E-3,-1.7044064E-2,-2.2444203E-3,1.3281245E-3,-9.653786E-4,-1.0209465E-2,-2.6550745E-3,8.535222E-3,-5.7720765E-3,9.636526E-4,6.472363E-3,-1.1864745E-3,-8.098283E-3,-1.5074029E-3],"categories":[],"categories_nodes":[],"categories_segments":[],"categories_sizes":[],"default_left":[0,0,0,0,0,0,0,0,0,0,0,0,0,0,0,0,0,0,0,0,0,0,0,0,0,0,0,0,0,0,0,0,0,0,0,0,0,0,0,0,0,0,0,0,0,0,0,0,0,0,0,0,0,0,0,0,0,0,0,0,0,0,0,0,0,0,0,0,0,0,0,0,0,0,0,0,0,0,0,0,0,0,0,0,0,0,0,0,0,0,0,0,0,0,0,0,0,0,0,0,0,0,0,0,0,0,0,0,0,0,0,0,0,0,0,0,0],"id":13,"left_children":[1,3,5,7,9,11,13,15,17,19,21,23,25,27,29,31,33,35,37,39,41,43,45,47,49,51,53,55,57,59,61,-1,63,65,67,69,71,73,75,-1,77,79,81,83,85,87,89,91,93,95,97,99,101,103,105,-1,107,109,-1,-1,111,113,115,-1,-1,-1,-1,-1,-1,-1,-1,-1,-1,-1,-1,-1,-1,-1,-1,-1,-1,-1,-1,-1,-1,-1,-1,-1,-1,-1,-1,-1,-1,-1,-1,-1,-1,-1,-1,-1,-1,-1,-1,-1,-1,-1,-1,-1,-1,-1,-1,-1,-1,-1,-1,-1,-1],"loss_changes":[4.7835672E2,3.7129037E2,8.7901825E1,1.154672E2,1.8132007E2,5.372452E1,5.6906128E1,3.7475372E1,5.500435E1,4.402234E1,1.237498E2,2.8231806E1,3.8853615E1,1.9398546E1,4.3904266E1,1.2888748E1,2.7107037E1,1.01612015E1,3.7923843E1,4.11689E0,3.14458E1,8.226007E1,2.997644E1,1.2691159E1,1.1140667E1,2.1236786E1,4.7957382E1,1.0607385E1,1.4115316E1,3.357376E1,1.4406048E1,0E0,6.0946307E0,3.469675E1,1.2552685E1,2.8450089E0,1.2229435E1,2.9772583E1,1.332856E1,0E0,1.5025787E0,5.1692047E0,2.3187195E1,2.0236948E1,7.963776E1,1.5177628E1,2.08082E1,1.1904923E1,1.803859E1,7.4484425E0,9.399136E0,1.5565079E1,2.0814602E1,1.8065197E1,2.0911253E1,0E0,1.2580966E1,9.686225E0,0E0,0E0,3.0484222E1,1.1499515E1,1.902203E1,0E0,0E0,0E0,0E0,0E0,0E0,0E0,0E0,0E0,0E0,0E0,0E0,0E0,0E0,0E0,0E0,0E0,0E0,0E0,0E0,0E0,0E0,0E0,0E0,0E0,0E0,0E0,0E0,0E0,0E0,0E0,0E0,0E0,0E0,0E0,0E0,0E0,0E0,0E0,0E0,0E0,0E0,0E0,0E0,0E0,0E0,0E0,0E0,0E0,0E0,0E0,0E0,0E0,0E0],"parents":[2147483647,0,0,1,1,2,2,3,3,4,4,5,5,6,6,7,7,8,8,9,9,10,10,11,11,12,12,13,13,14,14,15,15,16,16,17,17,18,18,19,19,20,20,21,21,22,22,23,23,24,24,25,25,26,26,27,27,28,28,29,29,30,30,32,32,33,33,34,34,35,35,36,36,37,37,38,38,40,40,41,41,42,42,43,43,44,44,45,45,46,46,47,47,48,48,49,49,50,50,51,51,52,52,53,53,54,54,56,56,57,57,60,60,61,61,62,62],"right_children":[2,4,6,8,10,12,14,16,18,20,22,24,26,28,30,32,34,36,38,40,42,44,46,48,50,52,54,56,58,60,62,-1,64,66,68,70,72,74,76,-1,78,80,82,84,86,88,90,92,94,96,98,100,102,104,106,-1,108,110,-1,-1,112,114,116,-1,-1,-1,-1,-1,-1,-1,-1,-1,-1,-1,-1,-1,-1,-1,-1,-1,-1,-1,-1,-1,-1,-1,-1,-1,-1,-1,-1,-1,-1,-1,-1,-1,-1,-1,-1,-1,-1,-1,-1,-1,-1,-1,-1,-1,-1,-1,-1,-1,-1,-1,-1,-1,-1],"split_conditions":[3.3333334E-1,-2.0774375E-4,5.0667316E-1,6.0009766E-1,2.9752515E-3,4.00551E-3,3.0555917E-4,1.543586E-3,1.3723548E-3,6.5455417E-4,1E0,7.8741425E-5,1E0,-1.2728443E-2,9.740525E-4,-9.2718387E-1,2.3730226E0,8.711298E-4,1.429817E-1,3.34E-1,2.2794504E-2,1.7802746E-3,-1.2315462E-3,4.7372478E-1,1.1573741E-3,6.0666233E1,1.6313158E-3,-6.8509206E-2,8.372405E-3,8.711298E-4,5.470969E-4,-1.416183E-2,-8.2995605E-1,4.789272E-3,1E0,3.7433332E-1,-1.7114924E-1,8.212729E-1,-7.040147E-1,1.1374676E-2,2.488244E-1,8.500061E1,5.5569597E-4,5.7556486E-4,1.17537394E-1,1.8116125E-3,2.2570169E-2,8.8520765E-2,2.6176948E-2,1.026351E0,9.876715E-4,-1.404491E-1,2.484568E-3,1.2680942E-2,-9.7437006E-1,5.1276833E-3,1.2796562E-2,1.371695E0,1.3985156E-2,-1.8171338E-2,5.914683E-3,4.398049E-3,2.6210279E-3,-7.868626E-3,1.1359125E-3,3.148317E-3,-5.210816E-4,2.8873528E-3,1.0193215E-2,-1.1970011E-2,-1.943889E-2,-3.2824487E-4,-1.2249098E-2,-6.632193E-4,-3.5873584E-3,1.2689306E-3,-5.900711E-3,2.0367593E-2,1.3840664E-2,9.153932E-3,1.3800495E-2,6.4507634E-3,2.6432753E-3,5.352874E-4,-5.834139E-3,3.9612497E-3,7.049535E-4,-4.9453415E-3,2.4413553E-3,4.4938194E-4,-3.9067343E-3,7.2295903E-3,-7.037998E-4,-8.96365E-3,2.8658954E-3,4.0849466E-3,1.3779798E-2,7.8596466E-4,4.6398034E-3,-2.2145237E-3,-5.2964604E-3,6.433878E-4,-3.436414E-3,-3.7406823E-3,-1.7044064E-2,-2.2444203E-3,1.3281245E-3,-9.653786E-4,-1.0209465E-2,-2.6550745E-3,8.535222E-3,-5.7720765E-3,9.636526E-4,6.472363E-3,-1.1864745E-3,-8.098283E-3,-1.5074029E-3],"split_indices":[4,0,4,3,57,57,6,58,58,57,60,16,59,38,18,46,38,58,4,35,41,58,7,3,57,27,58,41,58,58,6,0,9,57,59,35,12,3,45,0,12,27,16,22,45,22,58,34,45,31,7,12,41,57,46,0,57,39,0,0,33,57,33,0,0,0,0,0,0,0,0,0,0,0,0,0,0,0,0,0,0,0,0,0,0,0,0,0,0,0,0,0,0,0,0,0,0,0,0,0,0,0,0,0,0,0,0,0,0,0,0,0,0,0,0,0,0],"split_type":[0,0,0,0,0,0,0,0,0,0,0,0,0,0,0,0,0,0,0,0,0,0,0,0,0,0,0,0,0,0,0,0,0,0,0,0,0,0,0,0,0,0,0,0,0,0,0,0,0,0,0,0,0,0,0,0,0,0,0,0,0,0,0,0,0,0,0,0,0,0,0,0,0,0,0,0,0,0,0,0,0,0,0,0,0,0,0,0,0,0,0,0,0,0,0,0,0,0,0,0,0,0,0,0,0,0,0,0,0,0,0,0,0,0,0,0,0],"sum_hessian":[2.5625236E4,1.7529275E4,8.095961E3,5.7765405E3,1.1752734E4,4.553645E3,3.542316E3,2.4683535E3,3.3081873E3,1.6467141E3,1.01060205E4,9.6096594E2,3.5926792E3,3.8729944E2,3.1550164E3,8.524587E1,2.3831074E3,1.1966321E2,3.188524E3,8.835518E1,1.5583589E3,7.200643E3,2.9053774E3,4.6233286E2,4.986331E2,2.2391238E3,1.3535554E3,3.0772208E2,7.957735E1,2.526552E3,6.2846436E2,3.3970474E1,5.12754E1,2.213851E3,1.6925641E2,5.2461403E1,6.7201805E1,2.438761E3,7.49763E2,3.40469E1,5.4308277E1,1.9803905E2,1.3603198E3,3.6334958E2,6.8372935E3,3.8541306E2,2.5199644E3,3.6088162E2,1.0145125E2,5.6706078E1,4.41927E2,1.3456664E3,8.934573E2,7.208349E1,1.2814719E3,4.169207E1,2.6603003E2,5.3098457E1,2.647889E1,3.5895695E1,2.4906562E3,1.390672E2,4.8939713E2,2.69593E1,2.4316097E1,6.26464E2,1.5873871E3,9.834792E1,7.0908485E1,2.3904083E1,2.855732E1,2.2452839E1,4.4748966E1,1.2889453E3,1.1498157E3,4.8029926E1,7.0173303E2,3.261059E1,2.1697685E1,1.2243659E2,7.560245E1,9.647884E2,3.9553143E2,1.4343213E2,2.1991747E2,5.0686455E3,1.768648E3,3.29108E2,5.630506E1,2.312295E3,2.0766945E2,3.575137E1,3.2513025E2,6.883374E1,3.261751E1,2.924894E1,2.7457138E1,2.1821393E2,2.2371309E2,4.1603748E2,9.2962897E2,3.77009E2,5.164483E2,3.416927E1,3.7914223E1,4.2909607E2,8.5237585E2,2.3816449E2,2.7865526E1,3.007286E1,2.3025597E1,2.3675566E3,1.2309984E2,5.781179E1,8.125541E1,9.397346E1,3.9542368E2],"tree_param":{"num_deleted":"0","num_feature":"63","num_nodes":"117","size_leaf_vector":"1"}},{"base_weights":[5.1921117E-3,-8.566978E-2,1.9162832E-1,2.0810951E-1,-1.4085539E-1,4.2383134E-1,1.2332001E-1,1.2638342E0,1.885749E-1,4.129804E-1,-1.5572198E-1,1.0108162E0,3.975538E-1,2.194715E-1,4.1261525E-3,1.2006038E-2,2.0209886E-2,2.9151934E-1,9.773276E-2,1.6553937E-1,6.310456E-1,-2.6385856E-1,-1.09782755E-1,1.151002E0,8.230582E-3,2.9139394E-1,5.2805805E-1,1.172974E-1,3.4262472E-1,-1.684122E-1,6.623481E-2,3.2434857E-1,-1.3649394E-1,2.6233664E-1,-5.8197014E-2,3.3407027E-1,-2.3802112E-1,1.5248103E-2,5.3514785E-1,-5.7793416E-2,-3.0925456E-1,-2.2723225E-1,-4.3918286E-2,1.140321E-2,1.8311428E-2,3.9497897E-1,1.512633E-1,8.030854E-1,3.9844E-1,1.6684643E-3,2.4420701E-1,5.632076E-1,2.1830986E-1,-5.026323E-1,-7.889439E-2,5.6739205E-1,5.1918805E-2,2.2600966E-3,5.434495E-3,-5.9520253E-3,1.917091E-3,2.3107475E-3,6.974057E-3,3.0574459E-3,-1.7913019E-3,1.0617197E-3,1.2672384E-2,3.709072E-3,-7.999545E-3,1.4461432E-2,5.844378E-3,-4.621664E-3,2.463458E-4,-4.392969E-3,1.0151704E-3,-4.2355265E-3,-1.8751562E-3,1.1206715E-3,-1.2351528E-3,5.720704E-3,-8.3796406E-4,1.3089433E-3,8.009036E-3,1.9730698E-2,9.650854E-3,-3.4034643E-3,5.6843525E-3,-1.2124842E-3,1.9193531E-3,7.664136E-4,4.719805E-3,1.41145345E-2,6.6477833E-3,7.1202605E-3,1.8486503E-3,-1.4288082E-2,-5.406169E-3,-5.3621194E-4,-8.072956E-3,2.3775904E-3,1.2167002E-2,-6.818518E-5,