{"learner":{"attributes":{"best_iteration":"678","best_score":"0.6118979448346206"},"feature_names":["log_return_1m","log_return_3m","log_return_5m","candle_body_pct","upper_wick_pct","lower_wick_pct","range_pct","return_15m","return_30m","price_momentum_3","price_momentum_5","price_momentum_10","EMA_slope_9","EMA_slope_21","EMA_9_vs_21_distance","EMA_21_vs_50_distance","price_vs_EMA9","price_vs_EMA21","price_vs_EMA50","higher_high","lower_low","dist_from_swing_high","dist_from_swing_low","trend_strength_score","price_position_in_range","RSI_14","RSI_slope","Stoch_K","MACD_hist","momentum_consistency","ATR_14","ATR_5m","ATR_ratio","Bollinger_width","BB_position","volatility_percentile","true_range_expansion","volatility_regime","volume_zscore","volume_ratio_1m_vs_20m","VWAP_distance","VWAP_slope","OBV_delta","volume_spike_flag","vol_price_corr","minute_of_day_sin","minute_of_day_cos","day_of_week_sin","day_of_week_cos","is_open_range","is_lunch_time","is_close_window","minutes_since_open","minutes_to_close","symbol_id","trend_15m","price_above_15m_ema","dist_prev_day_high","dist_prev_day_low","gap_up_flag","gap_down_flag","inside_day","outside_day"],"feature_types":["float","float","float","float","float","float","float","float","float","float","float","float","float","float","float","float","float","float","float","float","float","float","float","float","float","float","float","float","float","float","float","float","float","float","float","float","float","float","float","float","float","float","float","float","float","float","float","float","float","float","float","float","float","float","float","float","float","float","float","float","float","float","float"],"gradient_booster":{"model":{"cats":{"enc":[],"feature_segments":[],"sorted_idx":[]},"gbtree_model_param":{"num_parallel_tree":"1","num_trees":"779"},"iteration_indptr":[0,1,2,3,4,5,6,7,8,9,10,11,12,13,14,15,16,17,18,19,20,21,22,23,24,25,26,27,28,29,30,31,32,33,34,35,36,37,38,39,40,41,42,43,44,45,46,47,48,49,50,51,52,53,54,55,56,57,58,59,60,61,62,63,64,65,66,67,68,69,70,71,72,73,74,75,76,77,78,79,80,81,82,83,84,85,86,87,88,89,90,91,92,93,94,95,96,97,98,99,100,101,102,103,104,105,106,107,108,109,110,111,112,113,114,115,116,117,118,119,120,121,122,123,124,125,126,127,128,129,130,131,132,133,134,135,136,137,138,139,140,141,142,143,144,145,146,147,148,149,150,151,152,153,154,155,156,157,158,159,160,161,162,163,164,165,166,167,168,169,170,171,172,173,174,175,176,177,178,179,180,181,182,183,184,185,186,187,188,189,190,191,192,193,194,195,196,197,198,199,200,201,202,203,204,205,206,207,208,209,210,211,212,213,214,215,216,217,218,219,220,221,222,223,224,225,226,227,228,229,230,231,232,233,234,235,236,237,238,239,240,241,242,243,244,245,246,247,248,249,250,251,252,253,254,255,256,257,258,259,260,261,262,263,264,265,266,267,268,269,270,271,272,273,274,275,276,277,278,279,280,281,282,283,284,285,286,287,288,289,290,291,292,293,294,295,296,297,298,299,300,301,302,303,304,305,306,307,308,309,310,311,312,313,314,315,316,317,318,319,320,321,322,323,324,325,326,327,328,329,330,331,332,333,334,335,336,337,338,339,340,341,342,343,344,345,346,347,348,349,350,351,352,353,354,355,356,357,358,359,360,361,362,363,364,365,366,367,368,369,370,371,372,373,374,375,376,377,378,379,380,381,382,383,384,385,386,387,388,389,390,391,392,393,394,395,396,397,398,399,400,401,402,403,404,405,406,407,408,409,410,411,412,413,414,415,416,417,418,419,420,421,422,423,424,425,426,427,428,429,430,431,432,433,434,435,436,437,438,439,440,441,442,443,444,445,446,447,448,449,450,451,452,453,454,455,456,457,458,459,460,461,462,463,464,465,466,467,468,469,470,471,472,473,474,475,476,477,478,479,480,481,482,483,484,485,486,487,488,489,490,491,492,493,494,495,496,497,498,499,500,501,502,503,504,505,506,507,508,509,510,511,512,513,514,515,516,517,518,519,520,521,522,523,524,525,526,527,528,529,530,531,532,533,534,535,536,537,538,539,540,541,542,543,544,545,546,547,548,549,550,551,552,553,554,555,556,557,558,559,560,561,562,563,564,565,566,567,568,569,570,571,572,573,574,575,576,577,578,579,580,581,582,583,584,585,586,587,588,589,590,591,592,593,594,595,596,597,598,599,600,601,602,603,604,605,606,607,608,609,610,611,612,613,614,615,616,617,618,619,620,621,622,623,624,625,626,627,628,629,630,631,632,633,634,635,636,637,638,639,640,641,642,643,644,645,646,647,648,649,650,651,652,653,654,655,656,657,658,659,660,661,662,663,664,665,666,667,668,669,670,671,672,673,674,675,676,677,678,679,680,681,682,683,684,685,686,687,688,689,690,691,692,693,694,695,696,697,698,699,700,701,702,703,704,705,706,707,708,709,710,711,712,713,714,715,716,717,718,719,720,721,722,723,724,725,726,727,728,729,730,731,732,733,734,735,736,737,738,739,740,741,742,743,744,745,746,747,748,749,750,751,752,753,754,755,756,757,758,759,760,761,762,763,764,765,766,767,768,769,770,771,772,773,774,775,776,777,778,779],"tree_info":[0,0,0,0,0,0,0,0,0,0,0,0,0,0,0,0,0,0,0,0,0,0,0,0,0,0,0,0,0,0,0,0,0,0,0,0,0,0,0,0,0,0,0,0,0,0,0,0,0,0,0,0,0,0,0,0,0,0,0,0,0,0,0,0,0,0,0,0,0,0,0,0,0,0,0,0,0,0,0,0,0,0,0,0,0,0,0,0,0,0,0,0,0,0,0,0,0,0,0,0,0,0,0,0,0,0,0,0,0,0,0,0,0,0,0,0,0,0,0,0,0,0,0,0,0,0,0,0,0,0,0,0,0,0,0,0,0,0,0,0,0,0,0,0,0,0,0,0,0,0,0,0,0,0,0,0,0,0,0,0,0,0,0,0,0,0,0,0,0,0,0,0,0,0,0,0,0,0,0,0,0,0,0,0,0,0,0,0,0,0,0,0,0,0,0,0,0,0,0,0,0,0,0,0,0,0,0,0,0,0,0,0,0,0,0,0,0,0,0,0,0,0,0,0,0,0,0,0,0,0,0,0,0,0,0,0,0,0,0,0,0,0,0,0,0,0,0,0,0,0,0,0,0,0,0,0,0,0,0,0,0,0,0,0,0,0,0,0,0,0,0,0,0,0,0,0,0,0,0,0,0,0,0,0,0,0,0,0,0,0,0,0,0,0,0,0,0,0,0,0,0,0,0,0,0,0,0,0,0,0,0,0,0,0,0,0,0,0,0,0,0,0,0,0,0,0,0,0,0,0,0,0,0,0,0,0,0,0,0,0,0,0,0,0,0,0,0,0,0,0,0,0,0,0,0,0,0,0,0,0,0,0,0,0,0,0,0,0,0,0,0,0,0,0,0,0,0,0,0,0,0,0,0,0,0,0,0,0,0,0,0,0,0,0,0,0,0,0,0,0,0,0,0,0,0,0,0,0,0,0,0,0,0,0,0,0,0,0,0,0,0,0,0,0,0,0,0,0,0,0,0,0,0,0,0,0,0,0,0,0,0,0,0,0,0,0,0,0,0,0,0,0,0,0,0,0,0,0,0,0,0,0,0,0,0,0,0,0,0,0,0,0,0,0,0,0,0,0,0,0,0,0,0,0,0,0,0,0,0,0,0,0,0,0,0,0,0,0,0,0,0,0,0,0,0,0,0,0,0,0,0,0,0,0,0,0,0,0,0,0,0,0,0,0,0,0,0,0,0,0,0,0,0,0,0,0,0,0,0,0,0,0,0,0,0,0,0,0,0,0,0,0,0,0,0,0,0,0,0,0,0,0,0,0,0,0,0,0,0,0,0,0,0,0,0,0,0,0,0,0,0,0,0,0,0,0,0,0,0,0,0,0,0,0,0,0,0,0,0,0,0,0,0,0,0,0,0,0,0,0,0,0,0,0,0,0,0,0,0,0,0,0,0,0,0,0,0,0,0,0,0,0,0,0,0,0,0,0,0,0,0,0,0,0,0,0,0,0,0,0,0,0,0,0,0,0,0,0,0,0,0,0,0,0,0,0,0,0,0,0,0,0,0,0,0,0,0,0,0,0,0,0,0,0,0,0,0,0,0,0,0,0,0,0,0,0,0,0,0,0,0,0,0,0,0,0,0,0,0,0,0,0,0,0,0,0,0,0,0,0,0,0,0,0,0,0,0,0,0,0,0,0,0,0,0,0,0,0,0,0,0,0,0,0,0,0,0,0,0,0,0,0,0,0,0,0,0,0,0,0,0,0,0,0,0,0,0,0,0,0,0,0,0,0,0,0,0,0,0],"trees":[{"base_weights":[-5.505988E-3,4.2267984E-1,-6.8109214E-2,2.0654598E-1,5.7623404E-1,-1.4133824E-1,1.9129945E-1,-7.590237E-3,2.3500422E-1,6.905467E-1,3.7292254E-1,2.2734666E-1,-1.9697759E-1,-1.2430229E-2,2.047102E-1,3.8593173E-1,8.686703E-2,1.7842226E-1,7.275377E-1,5.664153E-1,2.1990605E-1,4.208899E-2,3.503818E-1,-3.9166617E-1,-1.0008879E-1,5.608378E-1,1.6780989E-1,-1.4520265E-3,4.739245E-3,-8.9913805E-4,3.5360476E-3,5.100387E-3,-1.4073565E-3,1.142438E-2,7.0151784E-3,2.4205437E-3,7.4808607E-3,1.1227278E-3,5.901055E-3,8.903592E-3,6.930401E-5,3.0175904E-3,6.79678E-3,-1.5770566E-2,-3.8576662E-3,-1.768111E-3,7.7836734E-4,8.617642E-3,4.5431033E-3,8.278254E-4,2.8571961E-3],"categories":[],"categories_nodes":[],"categories_segments":[],"categories_sizes":[],"default_left":[0,0,0,0,0,0,0,0,0,0,0,0,0,0,0,0,0,0,0,0,0,0,0,0,0,0,0,0,0,0,0,0,0,0,0,0,0,0,0,0,0,0,0,0,0,0,0,0,0,0,0],"id":0,"left_children":[1,3,5,7,9,11,13,-1,15,17,19,21,23,-1,25,27,29,31,33,35,37,39,41,43,45,47,49,-1,-1,-1,-1,-1,-1,-1,-1,-1,-1,-1,-1,-1,-1,-1,-1,-1,-1,-1,-1,-1,-1,-1,-1],"loss_changes":[6.148553E2,9.709796E1,3.801458E2,3.2451202E1,3.9744507E1,3.20136E2,8.209126E1,0E0,2.6371582E1,2.0736145E1,1.8224571E1,4.66426E1,2.5577887E2,0E0,5.733696E1,2.1765976E1,2.6234024E1,7.261106E0,1.9584595E1,1.3993416E1,1.3396244E1,2.3599026E1,2.2303955E1,1.0098401E2,1.1148773E2,1.3574341E1,3.7434875E1,0E0,0E0,0E0,0E0,0E0,0E0,0E0,0E0,0E0,0E0,0E0,0E0,0E0,0E0,0E0,0E0,0E0,0E0,0E0,0E0,0E0,0E0,0E0,0E0],"parents":[2147483647,0,0,1,1,2,2,3,3,4,4,5,5,6,6,8,8,9,9,10,10,11,11,12,12,14,14,15,15,16,16,17,17,18,18,19,19,20,20,21,21,22,22,23,23,24,24,25,25,26,26],"right_children":[2,4,6,8,10,12,14,-1,16,18,20,22,24,-1,26,28,30,32,34,36,38,40,42,44,46,48,50,-1,-1,-1,-1,-1,-1,-1,-1,-1,-1,-1,-1,-1,-1,-1,-1,-1,-1,-1,-1,-1,-1,-1,-1],"split_conditions":[2.6336455E-4,5.289122E-4,4.2783472E-1,-7.0710677E-1,4.5105E-2,-4.6299683E-4,1.0200612E-3,-7.590237E-3,5.4011107E-3,-7.040147E-1,6.231467E-3,6.1539906E-1,5.0782915E-3,-1.2430229E-2,2.5102713E-3,-7.180215E-4,9.797548E-3,1.008348E0,1.9155621E-3,-5.87013E-2,-3.225924E-2,1.543586E-3,1.8065837E-1,6.5455417E-4,1E0,1.4625031E-3,5.7890004E-1,-1.4520265E-3,4.739245E-3,-8.9913805E-4,3.5360476E-3,5.100387E-3,-1.4073565E-3,1.142438E-2,7.0151784E-3,2.4205437E-3,7.4808607E-3,1.1227278E-3,5.901055E-3,8.903592E-3,6.930401E-5,3.0175904E-3,6.79678E-3,-1.5770566E-2,-3.8576662E-3,-1.768111E-3,7.7836734E-4,8.617642E-3,4.5431033E-3,8.278254E-4,2.8571961E-3],"split_indices":[22,6,4,45,44,0,57,0,58,45,58,3,57,0,58,15,58,32,58,41,12,58,4,57,60,58,4,0,0,0,0,0,0,0,0,0,0,0,0,0,0,0,0,0,0,0,0,0,0,0,0],"split_type":[0,0,0,0,0,0,0,0,0,0,0,0,0,0,0,0,0,0,0,0,0,0,0,0,0,0,0,0,0,0,0,0,0,0,0,0,0,0,0,0,0,0,0,0,0,0,0,0,0,0,0],"sum_hessian":[2.2937307E4,2.9257698E3,2.0011537E4,1.2152892E3,1.7104807E3,1.560608E4,4.405457E3,3.5754593E1,1.1795345E3,1.0948223E3,6.1565845E2,2.0463252E3,1.3559755E4,4.2086452E1,4.3633706E3,5.8423456E2,5.953E2,7.376731E1,1.021055E3,2.7182608E2,3.4383234E2,8.1667865E2,1.2296465E3,4.505758E3,9.053997E3,4.0961438E2,3.9537563E3,6.934703E1,5.148875E2,3.536554E2,2.416446E2,3.692668E1,3.684063E1,1.2345892E2,8.9759607E2,8.618745E1,1.8563864E2,2.6047565E2,8.335669E1,3.392732E1,7.8275134E2,1.0286715E3,2.00975E2,7.791952E1,4.4278384E3,6.4598364E3,2.594161E3,1.282065E2,2.814079E2,2.1744019E3,1.7793544E3],"tree_param":{"num_deleted":"0","num_feature":"63","num_nodes":"51","size_leaf_vector":"1"}},{"base_weights":[-5.28048E-3,1.6525564E-1,-2.0198119E-1,3.3346483E-1,-6.4424954E-2,-4.119255E-1,-9.990684E-2,4.722133E-1,2.0973226E-1,-2.9301065E-1,2.5307655E-2,-1.0138546E0,-3.66532E-1,4.311044E-1,-1.3101885E-1,5.9667736E-1,3.529744E-1,-5.7615023E-2,2.836601E-1,-1.4998327E-2,-2.5735545E-1,-6.210285E-2,2.1604905E-1,-1.1413403E0,-3.7251064E-3,-2.3636246E-1,-5.425792E-1,6.660046E-1,1.9104134E-1,1.0651567E-1,-1.7799915E-1,9.847143E-3,5.6829117E-3,3.0459424E-3,6.2012207E-3,-9.157281E-3,-2.1546538E-4,4.6789604E-3,1.7830816E-3,-4.465203E-3,-1.4706386E-3,2.470845E-3,-1.574927E-3,1.2733447E-3,5.0367005E-3,-1.3957513E-2,-7.968438E-3,-3.1120246E-3,6.2484934E-4,-6.322411E-3,-8.0513675E-4,8.458942E-3,3.6852509E-3,3.306809E-3,-2.917569E-3,-1.4833173E-3,1.720497E-3,-2.5691243E-3,-1.00704456E-4],"categories":[],"categories_nodes":[],"categories_segments":[],"categories_sizes":[],"default_left":[0,0,0,0,0,0,0,0,0,0,0,0,0,0,0,0,0,0,0,0,0,0,0,0,0,0,0,0,0,0,0,0,0,0,0,0,0,0,0,0,0,0,0,0,0,0,0,0,0,0,0,0,0,0,0,0,0,0,0],"id":1,"left_children":[1,3,5,7,9,11,13,15,17,19,21,23,25,27,29,31,33,35,37,-1,39,41,43,45,-1,47,49,51,53,55,57,-1,-1,-1,-1,-1,-1,-1,-1,-1,-1,-1,-1,-1,-1,-1,-1,-1,-1,-1,-1,-1,-1,-1,-1,-1,-1,-1,-1],"loss_changes":[7.727356E2,4.7669775E2,2.2924326E2,1.22272644E2,1.0699375E2,9.560669E1,1.18917244E2,4.982007E1,7.4414215E1,6.041092E1,6.245418E1,2.0469666E1,7.4568634E1,2.2460907E1,7.587977E1,2.832306E1,2.492186E1,2.4792969E1,5.5165955E1,0E0,2.8526749E1,6.917119E1,2.9591782E1,1.5593506E1,0E0,3.5276146E1,4.2944458E1,9.330223E0,1.1885221E1,1.661261E1,6.650343E1,0E0,0E0,0E0,0E0,0E0,0E0,0E0,0E0,0E0,0E0,0E0,0E0,0E0,0E0,0E0,0E0,0E0,0E0,0E0,0E0,0E0,0E0,0E0,0E0,0E0,0E0,0E0,0E0],"parents":[2147483647,0,0,1,1,2,2,3,3,4,4,5,5,6,6,7,7,8,8,9,9,10,10,11,11,12,12,13,13,14,14,15,15,16,16,17,17,18,18,20,20,21,21,22,22,23,23,25,25,26,26,27,27,28,28,29,29,30,30],"right_children":[2,4,6,8,10,12,14,16,18,20,22,24,26,28,30,32,34,36,38,-1,40,42,44,46,-1,48,50,52,54,56,58,-1,-1,-1,-1,-1,-1,-1,-1,-1,-1,-1,-1,-1,-1,-1,-1,-1,-1,-1,-1,-1,-1,-1,-1,-1,-1,-1,-1],"split_conditions":[2.9130125E-1,1.02157144E-4,5.0782915E-3,4.6068814E-4,4.7492804E-3,1.3986393E-3,1.6313158E-3,5.849636E-3,4.1265474E-3,6.5455417E-4,1E0,9.55417E-1,5.3859156E-1,-1.3793802E-3,2.000122E1,1.3723548E-3,1E0,1.0200612E-3,8.784229E-2,-1.4998327E-2,4.370187E-2,3.2561505E-3,6.4679016E1,5.6335274E-3,-3.7251064E-3,1.4097015E0,1.5449991E0,1.2676086E-3,2E0,-5.1654982E-3,1E0,9.847143E-3,5.6829117E-3,3.0459424E-3,6.2012207E-3,-9.157281E-3,-2.1546538E-4,4.6789604E-3,1.7830816E-3,-4.465203E-3,-1.4706386E-3,2.470845E-3,-1.574927E-3,1.2733447E-3,5.0367005E-3,-1.3957513E-2,-7.968438E-3,-3.1120246E-3,6.2484934E-4,-6.322411E-3,-8.0513675E-4,8.458942E-3,3.6852509E-3,3.306809E-3,-2.917569E-3,-1.4833173E-3,1.720497E-3,-2.5691243E-3,-1.00704456E-4],"split_indices":[5,0,57,22,57,57,58,58,57,57,60,24,5,18,27,58,36,57,5,0,41,58,25,40,0,39,39,58,37,40,60,0,0,0,0,0,0,0,0,0,0,0,0,0,0,0,0,0,0,0,0,0,0,0,0,0,0,0,0],"split_type":[0,0,0,0,0,0,0,0,0,0,0,0,0,0,0,0,0,0,0,0,0,0,0,0,0,0,0,0,0,0,0,0,0,0,0,0,0,0,0,0,0,0,0,0,0,0,0,0,0,0,0,0,0,0,0,0,0,0,0],"sum_hessian":[2.3036008E4,1.2338633E4,1.0697376E4,7.1224263E3,5.2162065E3,3.4995215E3,7.1978545E3,3.3574343E3,3.7649917E3,1.470403E3,3.7458037E3,2.4534721E2,3.2541743E3,3.9835495E2,6.7994995E3,1.6426503E3,1.7147842E3,8.1558344E2,2.9494082E3,4.407973E1,1.4263232E3,2.5686853E3,1.1771185E3,2.053422E2,4.0005016E1,1.8709095E3,1.3832648E3,2.013086E2,1.9704636E2,1.1227545E3,5.6767446E3,2.0031725E2,1.442333E3,1.3798516E3,3.3493262E2,3.4835285E1,7.8074817E2,1.1814883E3,1.7679199E3,5.713351E2,8.549882E2,5.908079E2,1.9778773E3,8.7428564E2,3.0283282E2,1.3275273E2,7.258947E1,1.5406733E3,3.3023615E2,1.2095659E3,1.736989E2,1.3595868E2,6.534991E1,1.5512222E2,4.192412E1,2.1562529E2,9.071293E2,4.015719E3,1.6610258E3],"tree_param":{"num_deleted":"0","num_feature":"63","num_nodes":"59","size_leaf_vector":"1"}},{"base_weights":[-2.3848908E-3,1.6704513E-1,-2.0743972E-1,3.217168E-1,-6.635594E-2,-4.3080983E-1,-1.3233426E-1,6.562501E-1,2.6977745E-1,-2.7765203E-1,3.4103066E-2,-1.7193932E-2,-4.1283846E-1,1.6318052E-1,-1.7406824E-1,1.3306671E0,6.081535E-1,3.95343E-1,1.5395233E-1,-1.6031832E-2,-2.4547069E-1,-6.8043366E-2,2.0546357E-1,-2.732637E-1,-5.6274974E-1,9.045081E-3,1.1452832E-1,-2.4263328E-1,-2.6193634E-3,1.5811352E-2,1.1996802E-2,4.684177E-3,8.112371E-3,3.5966418E-3,7.6528895E-3,-6.0940823E-3,1.7560589E-3,-3.441207E-3,5.956681E-4,-1.2520191E-3,3.4281998E-3,6.3573094E-3,1.5731188E-3,-3.5783576E-3,4.766449E-4,-8.555759E-3,-5.076076E-3,6.2664393E-3,8.0045575E-4,2.5497086E-3,-2.73035E-3,7.7748805E-4,-1.4371698E-3],"categories":[],"categories_nodes":[],"categories_segments":[],"categories_sizes":[],"default_left":[0,0,0,0,0,0,0,0,0,0,0,0,0,0,0,0,0,0,0,0,0,0,0,0,0,0,0,0,0,0,0,0,0,0,0,0,0,0,0,0,0,0,0,0,0,0,0,0,0,0,0,0,0],"id":2,"left_children":[1,3,5,7,9,11,13,15,17,19,21,-1,23,25,27,29,31,33,35,-1,37,39,41,43,45,-1,47,49,51,-1,-1,-1,-1,-1,-1,-1,-1,-1,-1,-1,-1,-1,-1,-1,-1,-1,-1,-1,-1,-1,-1,-1,-1],"loss_changes":[8.0201544E2,4.56323E2,1.752143E2,1.3208759E2,1.0693998E2,5.7893738E1,9.639877E1,3.310977E1,9.570523E1,6.620431E1,5.976932E1,0E0,5.419046E1,3.334153E1,8.051285E1,2.2243881E0,2.5947052E1,5.2619263E1,3.881608E1,0E0,4.133252E1,4.4861057E1,2.7962204E1,3.0664604E1,2.4026215E1,0E0,1.655843E1,4.9020233E1,2.0620935E1,0E0,0E0,0E0,0E0,0E0,0E0,0E0,0E0,0E0,0E0,0E0,0E0,0E0,0E0,0E0,0E0,0E0,0E0,0E0,0E0,0E0,0E0,0E0,0E0],"parents":[2147483647,0,0,1,1,2,2,3,3,4,4,5,5,6,6,7,7,8,8,9,9,10,10,12,12,13,13,14,14,15,15,16,16,17,17,18,18,20,20,21,21,22,22,23,23,24,24,26,26,27,27,28,28],"right_children":[2,4,6,8,10,12,14,16,18,20,22,-1,24,26,28,30,32,34,36,-1,38,40,42,44,46,-1,48,50,52,-1,-1,-1,-1,-1,-1,-1,-1,-1,-1,-1,-1,-1,-1,-1,-1,-1,-1,-1,-1,-1,-1,-1,-1],"split_conditions":[3.0004883E-1,1.4256414E-4,4.3200436E-3,2.7179488E-3,5.2391984E-3,6.5455417E-4,1.6666101E1,6.813707E-4,1.11080974E-1,6.5455417E-4,3.0432013E-1,-1.7193932E-2,5.0061053E-1,1.1564946E-3,2.859634E-1,1.0201794E-1,6.038082E-4,1E0,1.4990382E-3,-1.6031832E-2,1.6581522E0,1.2485275E-1,2.4509805E-3,1.3843327E0,1.4258431E-3,9.045081E-3,-1.2928168E1,1.6313158E-3,1E0,1.5811352E-2,1.1996802E-2,4.684177E-3,8.112371E-3,3.5966418E-3,7.6528895E-3,-6.0940823E-3,1.7560589E-3,-3.441207E-3,5.956681E-4,-1.2520191E-3,3.4281998E-3,6.3573094E-3,1.5731188E-3,-3.5783576E-3,4.766449E-4,-8.555759E-3,-5.076076E-3,6.2664393E-3,8.0045575E-4,2.5497086E-3,-2.73035E-3,7.7748805E-4,-1.4371698E-3],"split_indices":[5,0,57,58,57,57,27,58,5,57,4,0,5,58,4,5,6,36,57,0,39,41,58,39,33,0,26,58,59,0,0,0,0,0,0,0,0,0,0,0,0,0,0,0,0,0,0,0,0,0,0,0,0],"split_type":[0,0,0,0,0,0,0,0,0,0,0,0,0,0,0,0,0,0,0,0,0,0,0,0,0,0,0,0,0,0,0,0,0,0,0,0,0,0,0,0,0,0,0,0,0,0,0,0,0,0,0,0,0],"sum_hessian":[2.3084523E4,1.2640282E4,1.0444241E4,7.602318E3,5.0379644E3,2.6280408E3,7.8162E3,1.0216414E3,6.580677E3,1.6233967E3,3.4145676E3,3.7906986E1,2.5901338E3,9.672281E2,6.8489717E3,6.794188E1,9.536996E2,3.1575247E3,3.4231519E3,4.0153408E1,1.5832433E3,2.139346E3,1.2752218E3,1.3413645E3,1.2487693E3,6.210367E1,9.0512445E2,4.892407E3,1.9565648E3,3.209594E1,3.5845943E1,5.014735E2,4.5222604E2,2.7642341E3,3.9329062E2,6.9172676E1,3.3539792E3,1.2325093E3,3.5073407E2,1.8897808E3,2.4956525E2,1.4887762E2,1.1263441E3,1.0955648E3,2.4579973E2,2.7368112E2,9.7508813E2,6.418519E1,8.409393E2,1.9721568E2,4.6951914E3,1.2456844E3,7.1088043E2],"tree_param":{"num_deleted":"0","num_feature":"63","num_nodes":"53","size_leaf_vector":"1"}},{"base_weights":[1.2626759E-3,1.4803225E-1,-2.1974382E-1,2.9373938E-1,-8.0663785E-2,-1.0863588E-1,-3.3759233E-1,6.5586543E-1,2.4689516E-1,-1.725771E-1,1.2943587E-1,4.8961005E-1,-1.3255079E-1,1.0734863E-2,-3.9835355E-1,1.3350655E0,5.9681094E-1,3.7755048E-1,1.4660786E-1,-2.5300524E-1,8.266856E-2,2.9012293E-1,-2.9682291E-3,-1.4990891E-4,6.0012203E-1,-1.9363007E-1,-5.9280787E-3,-1.6675131E-1,2.0019326E-1,-4.283069E-1,-2.6417576E-2,1.6459286E-2,1.1287162E-2,6.5803295E-3,-3.75009E-3,3.3383986E-3,7.968233E-3,3.101383E-3,5.2962184E-4,-4.0143885E-4,-3.0405053E-3,-3.2914137E-5,3.9293775E-3,2.6743498E-3,8.121993E-3,8.458952E-4,-2.448692E-3,4.9352166E-3,9.708766E-3,6.486576E-4,-2.5003464E-3,4.6721506E-3,-4.2060504E-4,-2.7352848E-4,-5.557491E-3,5.9957756E-3,7.073767E-4,-5.8743586E-3,-3.519065E-3,5.8435166E-4,-5.48328E-3],"categories":[],"categories_nodes":[],"categories_segments":[],"categories_sizes":[],"default_left":[0,0,0,0,0,0,0,0,0,0,0,0,0,0,0,0,0,0,0,0,0,0,0,0,0,0,0,0,0,0,0,0,0,0,0,0,0,0,0,0,0,0,0,0,0,0,0,0,0,0,0,0,0,0,0,0,0,0,0,0,0],"id":3,"left_children":[1,3,5,7,9,11,13,15,17,19,21,23,25,27,29,31,33,35,37,39,41,43,45,-1,47,49,51,53,55,57,59,-1,-1,-1,-1,-1,-1,-1,-1,-1,-1,-1,-1,-1,-1,-1,-1,-1,-1,-1,-1,-1,-1,-1,-1,-1,-1,-1,-1,-1,-1],"loss_changes":[7.483547E2,4.6198547E2,1.2055435E2,1.4364966E2,1.04193085E2,6.780466E1,9.456366E1,3.8875458E1,9.825229E1,7.705559E1,3.4935978E1,1.0148098E1,3.52436E1,2.231752E1,4.2382812E1,4.752533E0,3.1988342E1,7.092795E1,6.174436E1,2.4488892E1,2.2855167E1,1.1822979E1,1.7727777E1,0E0,6.2245407E0,3.7285683E1,2.3415236E1,1.7745192E1,1.6004295E1,4.326007E1,1.1780754E1,0E0,0E0,0E0,0E0,0E0,0E0,0E0,0E0,0E0,0E0,0E0,0E0,0E0,0E0,0E0,0E0,0E0,0E0,0E0,0E0,0E0,0E0,0E0,0E0,0E0,0E0,0E0,0E0,0E0,0E0],"parents":[2147483647,0,0,1,1,2,2,3,3,4,4,5,5,6,6,7,7,8,8,9,9,10,10,11,11,12,12,13,13,14,14,15,15,16,16,17,17,18,18,19,19,20,20,21,21,22,22,24,24,25,25,26,26,27,27,28,28,29,29,30,30],"right_children":[2,4,6,8,10,12,14,16,18,20,22,24,26,28,30,32,34,36,38,40,42,44,46,-1,48,50,52,54,56,58,60,-1,-1,-1,-1,-1,-1,-1,-1,-1,-1,-1,-1,-1,-1,-1,-1,-1,-1,-1,-1,-1,-1,-1,-1,-1,-1,-1,-1,-1,-1],"split_conditions":[3.3360454E-1,1.4256414E-4,5.2634287E-1,2.4509805E-3,3.3342376E-1,1.6313158E-3,-7.712238E-4,6.813707E-4,1.1109604E-1,1.6168104E-3,6.735563E-3,2.2243321E-2,1E0,-3.9220628E-5,1.8627441E0,-1.2370078E-3,-6.7880076E-1,1E0,4.524358E-4,3.2561505E-3,7.345342E1,6.05204E-1,1E0,-1.4990891E-4,-3.2790764E-3,1.7998047E1,-1.01088E5,2.9410498E1,-5.9987535E-4,1.9950834E-3,2.292004E-1,1.6459286E-2,1.1287162E-2,6.5803295E-3,-3.75009E-3,3.3383986E-3,7.968233E-3,3.101383E-3,5.2962184E-4,-4.0143885E-4,-3.0405053E-3,-3.2914137E-5,3.9293775E-3,2.6743498E-3,8.121993E-3,8.458952E-4,-2.448692E-3,4.9352166E-3,9.708766E-3,6.486576E-4,-2.5003464E-3,4.6721506E-3,-4.2060504E-4,-2.7352848E-4,-5.557491E-3,5.9957756E-3,7.073767E-4,-5.8743586E-3,-3.519065E-3,5.8435166E-4,-5.48328E-3],"split_indices":[5,0,5,58,4,58,2,58,5,18,58,4,60,0,39,17,46,36,22,58,25,3,59,0,40,27,42,27,14,33,45,0,0,0,0,0,0,0,0,0,0,0,0,0,0,0,0,0,0,0,0,0,0,0,0,0,0,0,0,0,0],"split_type":[0,0,0,0,0,0,0,0,0,0,0,0,0,0,0,0,0,0,0,0,0,0,0,0,0,0,0,0,0,0,0,0,0,0,0,0,0,0,0,0,0,0,0,0,0,0,0,0,0,0,0,0,0,0,0,0,0,0,0,0,0],"sum_hessian":[2.3070926E4,1.3863944E4,9.20698E3,8.468482E3,5.395462E3,4.7390557E3,4.4679243E3,9.699394E2,7.4985435E3,3.7534353E3,1.6420266E3,1.8213374E2,4.556922E3,6.636181E2,3.8043062E3,7.7522026E1,8.9241736E2,3.256212E3,4.2423315E3,2.8541045E3,8.993308E2,7.417661E2,9.0026056E2,3.2757195E1,1.4937654E2,3.0740605E3,1.4828615E3,3.4263724E2,3.2098083E2,3.5207607E3,2.8354553E2,3.8344826E1,3.9177204E1,8.589115E2,3.3505875E1,2.8490896E3,4.0712238E2,1.6355911E3,2.6067405E3,4.4925876E2,2.4048457E3,6.9720496E2,2.021258E2,6.9608606E2,4.568004E1,6.6071844E2,2.3954211E2,1.0902989E2,4.0346653E1,4.7960464E2,2.594456E3,1.0452653E2,1.3783348E3,2.482116E2,9.4425644E1,8.310538E1,2.3787547E2,1.3825159E3,2.1382449E3,2.4345816E2,4.008737E1],"tree_param":{"num_deleted":"0","num_feature":"63","num_nodes":"61","size_leaf_vector":"1"}},{"base_weights":[5.7158624E-3,1.5320975E-1,-2.1679038E-1,2.874838E-1,-5.576909E-2,-4.785808E-1,-1.2724914E-1,6.040618E-1,2.3921718E-1,-1.4397006E-1,1.5041366E-1,-3.8127634E-1,-6.706549E-1,8.752972E-1,-1.3863565E-1,1.1955463E0,5.2273935E-1,3.7488705E-1,1.406643E-1,-1.6176004E-2,-1.309738E-1,1.0350928E-2,1.2997864E-1,-1.2503479E-2,-3.5466096E-1,3.3379352E-4,-7.0889276E-1,1.2023521E-2,6.9112973E-3,-4.0072016E-2,-2.4707566E-1,9.090617E-3,1.39846355E-2,6.9927205E-3,3.3465398E-3,1.593585E-3,4.6310676E-3,3.4903737E-3,6.790693E-4,-2.2944668E-3,4.0867736E-4,3.8716037E-4,3.0503199E-3,-4.328394E-3,-1.5765339E-3,-5.6483936E-3,-8.882264E-3,-1.154779E-3,1.4185449E-3,-3.797304E-3,-1.4408465E-3],"categories":[],"categories_nodes":[],"categories_segments":[],"categories_sizes":[],"default_left":[0,0,0,0,0,0,0,0,0,0,0,0,0,0,0,0,0,0,0,0,0,0,0,0,0,0,0,0,0,0,0,0,0,0,0,0,0,0,0,0,0,0,0,0,0,0,0,0,0,0,0],"id":4,"left_children":[1,3,5,7,9,11,13,15,17,19,21,23,25,27,29,31,33,35,37,-1,39,-1,41,-1,43,-1,45,-1,-1,47,49,-1,-1,-1,-1,-1,-1,-1,-1,-1,-1,-1,-1,-1,-1,-1,-1,-1,-1,-1,-1],"loss_changes":[7.572859E2,3.8938483E2,2.1561948E2,1.2908673E2,9.871739E1,4.3805054E1,7.824846E1,5.373587E1,9.8015015E1,6.991169E1,2.8152275E1,3.4102997E1,2.1184418E1,4.5363503E0,7.24364E1,6.524399E0,2.973877E1,4.8769623E1,6.25148E1,0E0,5.7869614E1,0E0,2.413578E1,0E0,1.909871E1,0E0,1.8081451E1,0E0,0E0,4.470568E1,4.1517456E1,0E0,0E0,0E0,0E0,0E0,0E0,0E0,0E0,0E0,0E0,0E0,0E0,0E0,0E0,0E0,0E0,0E0,0E0,0E0,0E0],"parents":[2147483647,0,0,1,1,2,2,3,3,4,4,5,5,6,6,7,7,8,8,9,9,10,10,11,11,12,12,13,13,14,14,15,15,16,16,17,17,18,18,20,20,22,22,24,24,26,26,29,29,30,30],"right_children":[2,4,6,8,10,12,14,16,18,20,22,24,26,28,30,32,34,36,38,-1,40,-1,42,-1,44,-1,46,-1,-1,48,50,-1,-1,-1,-1,-1,-1,-1,-1,-1,-1,-1,-1,-1,-1,-1,-1,-1,-1,-1,-1],"split_conditions":[3.3360454E-1,1.4256414E-4,4.3200436E-3,2.7179488E-3,3.4014285E-1,6.194773E-1,8.711298E-4,8.711298E-4,4.524358E-4,6.5455417E-4,1.3723548E-3,8.4515504E-4,-6.877424E-4,1.227995E-1,5.2634287E-1,2.4733333E-1,1.6217999E-1,4.335486E-4,5.1330205E-2,-1.6176004E-2,1E0,1.0350928E-2,5.217068E-1,-1.2503479E-2,3.6351532E-1,3.3379352E-4,5.0036196E-4,1.2023521E-2,6.9112973E-3,1E0,-2.0791169E-1,9.090617E-3,1.39846355E-2,6.9927205E-3,3.3465398E-3,1.593585E-3,4.6310676E-3,3.4903737E-3,6.790693E-4,-2.2944668E-3,4.0867736E-4,3.8716037E-4,3.0503199E-3,-4.328394E-3,-1.5765339E-3,-5.6483936E-3,-8.882264E-3,-1.154779E-3,1.4185449E-3,-3.797304E-3,-1.4408465E-3],"split_indices":[5,0,57,58,4,5,58,58,22,57,58,57,17,24,5,35,5,6,5,0,60,0,4,0,4,0,6,0,0,60,45,0,0,0,0,0,0,0,0,0,0,0,0,0,0,0,0,0,0,0,0],"split_type":[0,0,0,0,0,0,0,0,0,0,0,0,0,0,0,0,0,0,0,0,0,0,0,0,0,0,0,0,0,0,0,0,0,0,0,0,0,0,0,0,0,0,0,0,0,0,0,0,0,0,0],"sum_hessian":[2.3075027E4,1.387659E4,9.198437E3,8.448321E3,5.4282686E3,2.344294E3,6.854143E3,1.1176016E3,7.3307197E3,3.801901E3,1.6263679E3,1.5560927E3,7.882014E2,7.694003E1,6.777203E3,1.3502226E2,9.8257935E2,3.0844707E3,4.246249E3,3.4558926E1,3.7673418E3,3.8262554E1,1.5881053E3,4.8648632E1,1.507444E3,4.0670414E1,7.47531E2,3.2593914E1,4.434612E1,3.5503027E3,3.2269001E3,4.367368E1,9.134859E1,5.597291E2,4.228502E2,7.528501E2,2.3316206E3,1.1787267E3,3.0675225E3,2.4635078E3,1.3038341E3,1.0147942E3,5.7331116E2,1.1521499E3,3.5529407E2,3.5306165E2,3.9446936E2,2.5307415E3,1.0195613E3,1.5374166E3,1.6894835E3],"tree_param":{"num_deleted":"0","num_feature":"63","num_nodes":"51","size_leaf_vector":"1"}},{"base_weights":[6.4187837E-3,1.7633507E-1,-1.8897015E-1,3.1628275E-1,-5.715243E-2,-4.0302405E-1,-1.1697488E-1,4.674229E-1,1.9245236E-1,-2.3920718E-1,4.651066E-2,-6.4024276E-1,-3.123408E-1,6.787919E-2,-1.8239258E-1,4.1083086E-1,7.0746106E-1,-8.506149E-2,2.7040845E-1,-1.4346322E-2,-2.1162274E-1,2.6612788E-1,-3.0551398E-2,-1.5439306E-2,-5.910473E-1,-1.5750077E-1,-4.8540306E-1,5.487126E-1,3.460775E-2,-2.3996773E-1,3.5412617E-2,-5.578233E-4,4.5074467E-3,8.058451E-3,2.4848466E-3,5.8472943E-3,-1.3580507E-3,4.1850386E-3,1.6272808E-3,-2.8087976E-3,1.1721867E-3,5.234333E-3,1.8777061E-3,-6.693673E-4,6.947563E-3,-6.7856843E-3,-3.3808078E-4,5.47614E-4,-2.540426E-3,-5.7151085E-3,1.6758596E-3,9.276122E-3,2.1113616E-3,-1.9171736E-3,9.0407504E-4,4.2295302E-4,-2.8231319E-3,6.6609504E-3,1.0016785E-4],"categories":[],"categories_nodes":[],"categories_segments":[],"categories_sizes":[],"default_left":[0,0,0,0,0,0,0,0,0,0,0,0,0,0,0,0,0,0,0,0,0,0,0,0,0,0,0,0,0,0,0,0,0,0,0,0,0,0,0,0,0,0,0,0,0,0,0,0,0,0,0,0,0,0,0,0,0,0,0],"id":5,"left_children":[1,3,5,7,9,11,13,15,17,19,21,23,25,27,29,31,33,35,37,-1,39,41,43,-1,45,47,49,51,53,55,57,-1,-1,-1,-1,-1,-1,-1,-1,-1,-1,-1,-1,-1,-1,-1,-1,-1,-1,-1,-1,-1,-1,-1,-1,-1,-1,-1,-1],"loss_changes":[7.639425E2,4.0216092E2,1.6494046E2,1.4401758E2,8.7046555E1,5.7940857E1,9.68538E1,4.706421E1,9.150769E1,5.2773064E1,4.9739605E1,3.1036469E1,5.2221405E1,3.3491627E1,7.418451E1,3.0739471E1,2.1403076E1,2.7575657E1,4.985579E1,0E0,3.1341522E1,1.5491291E1,5.1733505E1,0E0,2.475418E1,1.8893166E1,3.894702E1,1.614413E1,2.2564287E1,4.219452E1,1.932475E1,0E0,0E0,0E0,0E0,0E0,0E0,0E0,0E0,0E0,0E0,0E0,0E0,0E0,0E0,0E0,0E0,0E0,0E0,0E0,0E0,0E0,0E0,0E0,0E0,0E0,0E0,0E0,0E0],"parents":[2147483647,0,0,1,1,2,2,3,3,4,4,5,5,6,6,7,7,8,8,9,9,10,10,11,11,12,12,13,13,14,14,15,15,16,16,17,17,18,18,20,20,21,21,22,22,24,24,25,25,26,26,27,27,28,28,29,29,30,30],"right_children":[2,4,6,8,10,12,14,16,18,20,22,24,26,28,30,32,34,36,38,-1,40,42,44,-1,46,48,50,52,54,56,58,-1,-1,-1,-1,-1,-1,-1,-1,-1,-1,-1,-1,-1,-1,-1,-1,-1,-1,-1,-1,-1,-1,-1,-1,-1,-1,-1,-1],"split_conditions":[2.9130125E-1,1.8261197E-4,4.3200436E-3,4.524358E-4,5.6566326E-3,2.3408795E-3,-3.2570405E-4,1E0,4.1265474E-3,6.5455417E-4,5.001526E-1,6.5455417E-4,5.0061053E-1,1.3723548E-3,3.5286513E-1,-7.040147E-1,2.3072588E-1,5.299177E-2,1.1109604E-1,-1.4346322E-2,1.9953012E0,3.8718532E-3,7.345342E1,-1.5439306E-2,6.903581E1,4.5999812E-4,2.1480623E-1,-9.0069824E-1,-5.1654982E-3,2.5102713E-3,1.6313158E-3,-5.578233E-4,4.5074467E-3,8.058451E-3,2.4848466E-3,5.8472943E-3,-1.3580507E-3,4.1850386E-3,1.6272808E-3,-2.8087976E-3,1.1721867E-3,5.234333E-3,1.8777061E-3,-6.693673E-4,6.947563E-3,-6.7856843E-3,-3.3808078E-4,5.47614E-4,-2.540426E-3,-5.7151085E-3,1.6758596E-3,9.276122E-3,2.1113616E-3,-1.9171736E-3,9.0407504E-4,4.2295302E-4,-2.8231319E-3,6.6609504E-3,1.0016785E-4],"split_indices":[5,0,57,22,57,57,16,36,57,57,3,57,5,58,4,45,5,3,5,0,39,58,25,0,25,6,41,46,40,58,58,0,0,0,0,0,0,0,0,0,0,0,0,0,0,0,0,0,0,0,0,0,0,0,0,0,0,0,0],"split_type":[0,0,0,0,0,0,0,0,0,0,0,0,0,0,0,0,0,0,0,0,0,0,0,0,0,0,0,0,0,0,0,0,0,0,0,0,0,0,0,0,0,0,0,0,0,0,0,0,0,0,0,0,0,0,0,0,0,0,0],"sum_hessian":[2.3010406E4,1.230746E4,1.0702946E4,7.695137E3,4.612323E3,2.693764E3,8.009182E3,3.4653855E3,4.229752E3,1.6734082E3,2.938915E3,7.4491315E2,1.9488507E3,2.093493E3,5.9156895E3,2.804331E3,6.610543E2,9.276021E2,3.3021497E3,3.937344E1,1.6340347E3,7.633552E2,2.1755598E3,4.0794655E1,7.0411847E2,1.0286145E3,9.2023627E2,1.3544713E2,1.9580458E3,4.678864E3,1.2368257E3,1.3552266E2,2.6688083E3,5.7586896E2,8.51854E1,6.1183956E1,8.6641815E2,1.5213033E3,1.7808463E3,1.382402E3,2.5163275E2,2.0088707E2,5.6246814E2,2.0749465E3,1.00613205E2,6.3278406E2,7.133443E1,3.018713E2,7.2674316E2,8.357361E2,8.450016E1,6.768471E1,6.776243E1,3.782276E2,1.5798181E3,4.804118E2,4.1984517E3,5.0346992E1,1.1864788E3],"tree_param":{"num_deleted":"0","num_feature":"63","num_nodes":"59","size_leaf_vector":"1"}},{"base_weights":[3.3966452E-3,1.706313E-1,-1.9828604E-1,3.2747316E-1,-6.5593116E-2,-4.5653352E-1,-1.2872423E-1,6.33763E-1,2.7906534E-1,-3.4116504E-1,1.7481709E-2,-8.9348567E-1,-4.0447843E-1,-3.7353233E-2,-2.556707E-1,1.4059746E-2,5.9386504E-1,-1.0578693E-1,3.089804E-1,-1.6106343E-2,-2.972594E-1,-9.177485E-2,1.999913E-1,-6.472615E-1,-1.361186E0,-3.0479085E-1,-6.269773E-1,1.9432622E-1,-9.035702E-2,-3.2207918E-1,-7.475912E-2,6.481993E-3,-1.9133962E-3,-7.8070806E-3,-3.188629E-4,4.2612613E-3,2.201491E-3,-3.8268543E-3,4.6217046E-4,-1.5322777E-3,3.396255E-3,6.617948E-3,1.5820626E-3,-9.071196E-3,-3.8262724E-3,-1.6432308E-2,-1.1296034E-2,-3.7433193E-3,4.1545823E-5,-7.268648E-3,-8.3012035E-4,6.7862826E-3,1.5143293E-3,-1.8399921E-3,2.9284685E-4,-1.198814E-3,-4.135672E-3,2.4721615E-3,-1.3728203E-3],"categories":[],"categories_nodes":[],"categories_segments":[],"categories_sizes":[],"default_left":[0,0,0,0,0,0,0,0,0,0,0,0,0,0,0,0,0,0,0,0,0,0,0,0,0,0,0,0,0,0,0,0,0,0,0,0,0,0,0,0,0,0,0,0,0,0,0,0,0,0,0,0,0,0,0,0,0,0,0],"id":6,"left_children":[1,3,5,7,9,11,13,15,17,19,21,23,25,27,29,-1,31,33,35,-1,37,39,41,43,45,47,49,51,53,55,57,-1,-1,-1,-1,-1,-1,-1,-1,-1,-1,-1,-1,-1,-1,-1,-1,-1,-1,-1,-1,-1,-1,-1,-1,-1,-1,-1,-1],"loss_changes":[7.7718567E2,4.6672052E2,1.8764151E2,1.1224078E2,1.1507303E2,5.040262E1,9.544913E1,2.9702759E1,7.526593E1,6.189662E1,7.7015396E1,2.7134995E1,4.3924286E1,5.8759785E1,4.137558E1,0E0,2.3522217E1,2.2885136E1,5.9724243E1,0E0,2.7487549E1,5.6608025E1,3.0084126E1,9.763306E0,4.8667145E0,2.3648735E1,2.4656525E1,1.9810257E1,4.016479E1,3.980945E1,1.6661726E1,0E0,0E0,0E0,0E0,0E0,0E0,0E0,0E0,0E0,0E0,0E0,0E0,0E0,0E0,0E0,0E0,0E0,0E0,0E0,0E0,0E0,0E0,0E0,0E0,0E0,0E0,0E0,0E0],"parents":[2147483647,0,0,1,1,2,2,3,3,4,4,5,5,6,6,7,7,8,8,9,9,10,10,11,11,12,12,13,13,14,14,16,16,17,17,18,18,20,20,21,21,22,22,23,23,24,24,25,25,26,26,27,27,28,28,29,29,30,30],"right_children":[2,4,6,8,10,12,14,16,18,20,22,24,26,28,30,-1,32,34,36,-1,38,40,42,44,46,48,50,52,54,56,58,-1,-1,-1,-1,-1,-1,-1,-1,-1,-1,-1,-1,-1,-1,-1,-1,-1,-1,-1,-1,-1,-1,-1,-1,-1,-1,-1,-1],"split_conditions":[3.0004883E-1,1.4077626E-4,3.924494E-3,2.7179488E-3,4.2434544E-3,1.3986393E-3,5.2634287E-1,-1.4916368E-1,2.521466E-3,6.5455417E-4,3.0432013E-1,4.8616666E-1,6.153268E-1,1.869951E1,1E0,1.4059746E-2,-6.755902E-1,1.0200612E-3,1.1109604E-1,-1.6106343E-2,1.5520992E0,1.732635E-3,2.4043138E-3,-3.0921993E-3,8.541746E-1,1.4652882E0,9.6012733E-4,-1.2241035E1,2.75804E-1,2.9410498E1,3.647372E-4,6.481993E-3,-1.9133962E-3,-7.8070806E-3,-3.188629E-4,4.2612613E-3,2.201491E-3,-3.8268543E-3,4.6217046E-4,-1.5322777E-3,3.396255E-3,6.617948E-3,1.5820626E-3,-9.071196E-3,-3.8262724E-3,-1.6432308E-2,-1.1296034E-2,-3.7433193E-3,4.1545823E-5,-7.268648E-3,-8.3012035E-4,6.7862826E-3,1.5143293E-3,-1.8399921E-3,2.9284685E-4,-1.198814E-3,-4.135672E-3,2.4721615E-3,-1.3728203E-3],"split_indices":[5,0,57,58,57,57,5,34,57,57,4,35,5,27,60,0,46,57,5,0,38,17,58,38,24,39,2,26,4,27,6,0,0,0,0,0,0,0,0,0,0,0,0,0,0,0,0,0,0,0,0,0,0,0,0,0,0,0,0],"split_type":[0,0,0,0,0,0,0,0,0,0,0,0,0,0,0,0,0,0,0,0,0,0,0,0,0,0,0,0,0,0,0,0,0,0,0,0,0,0,0,0,0,0,0,0,0,0,0,0,0,0,0,0,0,0,0,0,0,0,0],"sum_hessian":[2.3042438E4,1.2597028E4,1.044541E4,7.570535E3,5.0264927E3,2.2164932E3,8.228917E3,1.0331359E3,6.5373994E3,1.16428E3,3.8622126E3,2.3588194E2,1.9806111E3,4.7849497E3,3.4439675E3,5.4086056E1,9.790498E2,4.7150214E2,6.0658975E3,4.0684597E1,1.1235955E3,2.4159563E3,1.4462562E3,1.5458812E2,8.129382E1,1.3678531E3,6.12758E2,8.908678E2,3.894082E3,2.519198E3,9.2476953E2,9.4171277E2,3.7337036E1,4.8999187E1,4.2250293E2,2.957826E3,3.1080713E3,9.290593E2,1.9453609E2,2.131639E3,2.8431738E2,1.4153497E2,1.3047213E3,8.512065E1,6.9467476E1,4.464734E1,3.664648E1,1.1579095E3,2.0994351E2,5.401031E2,7.265493E1,8.477417E1,8.060936E2,2.246356E3,1.6477261E3,6.810014E2,1.8381967E3,1.4360225E2,7.811673E2],"tree_param":{"num_deleted":"0","num_feature":"63","num_nodes":"59","size_leaf_vector":"1"}},{"base_weights":[-4.927816E-4,1.6049948E-1,-2.0377871E-1,3.1046838E-1,-6.7200944E-2,-4.221653E-1,-1.2401721E-1,6.1963165E-1,2.613828E-1,-2.70389E-1,2.2536466E-2,-1.6566575E-2,-4.0375018E-1,-1.9095808E-1,5.2531634E-2,1.1368951E0,5.564479E-1,3.599828E-1,1.2373696E-1,-1.4942754E-2,-2.3736514E-1,-6.33307E-2,2.0302302E-1,-3.035645E-1,-5.867066E-1,4.8404865E-2,-2.4215414E-1,-3.4539137E-2,2.6090923E-1,9.486123E-3,1.4162923E-2,-3.1938183E-3,6.1112056E-3,1.9755336E-3,4.7565894E-3,2.461246E-3,4.3056352E-5,-3.452598E-3,8.428151E-5,-1.7085039E-3,8.2253286E-4,4.551918E-4,3.907813E-3,-5.286991E-3,-2.290271E-3,-7.634904E-4,-6.574136E-3,3.7151452E-3,-6.152734E-4,-1.6672895E-3,-3.930944E-3,5.453652E-3,-8.0814015E-4,1.915529E-3,5.9638154E-3],"categories":[],"categories_nodes":[],"categories_segments":[],"categories_sizes":[],"default_left":[0,0,0,0,0,0,0,0,0,0,0,0,0,0,0,0,0,0,0,0,0,0,0,0,0,0,0,0,0,0,0,0,0,0,0,0,0,0,0,0,0,0,0,0,0,0,0,0,0,0,0,0,0,0,0],"id":7,"left_children":[1,3,5,7,9,11,13,15,17,19,21,-1,23,25,27,29,31,33,35,-1,37,39,41,43,45,47,49,51,53,-1,-1,-1,-1,-1,-1,-1,-1,-1,-1,-1,-1,-1,-1,-1,-1,-1,-1,-1,-1,-1,-1,-1,-1,-1,-1],"loss_changes":[7.540868E2,4.3908533E2,1.7737613E2,1.17640015E2,9.309965E1,5.8896454E1,8.815278E1,3.469055E1,9.07977E1,6.041311E1,5.4890404E1,0E0,4.9157013E1,6.627643E1,3.7206795E1,5.8227997E0,2.6632355E1,6.5076965E1,3.7892357E1,0E0,3.5625656E1,3.4682224E1,3.1547615E1,2.956845E1,2.2837921E1,3.1783718E1,4.96149E1,3.5121956E1,1.4468044E1,0E0,0E0,0E0,0E0,0E0,0E0,0E0,0E0,0E0,0E0,0E0,0E0,0E0,0E0,0E0,0E0,0E0,0E0,0E0,0E0,0E0,0E0,0E0,0E0,0E0,0E0],"parents":[2147483647,0,0,1,1,2,2,3,3,4,4,5,5,6,6,7,7,8,8,9,9,10,10,12,12,13,13,14,14,15,15,16,16,17,17,18,18,20,20,21,21,22,22,23,23,24,24,25,25,26,26,27,27,28,28],"right_children":[2,4,6,8,10,12,14,16,18,20,22,-1,24,26,28,30,32,34,36,-1,38,40,42,44,46,48,50,52,54,-1,-1,-1,-1,-1,-1,-1,-1,-1,-1,-1,-1,-1,-1,-1,-1,-1,-1,-1,-1,-1,-1,-1,-1,-1,-1],"split_conditions":[3.0921218E-1,1.4256414E-4,4.4363784E-3,2.7179488E-3,5.0782915E-3,6.5455417E-4,2.9935464E-1,8.711298E-4,1.5618207E-1,6.5455417E-4,1E0,-1.6566575E-2,5.9452325E-1,2.1151228E1,1E0,7.341443E-4,-7.343225E-1,5.1441276E-4,6.894174E-4,-1.4942754E-2,1.6894933E-3,2.7780792E-1,9.088117E-4,2.460312E-3,-1.4500732E0,-3.042973E-1,1E0,1.6313158E-3,1.2823648E0,9.486123E-3,1.4162923E-2,-3.1938183E-3,6.1112056E-3,1.9755336E-3,4.7565894E-3,2.461246E-3,4.3056352E-5,-3.452598E-3,8.428151E-5,-1.7085039E-3,8.2253286E-4,4.551918E-4,3.907813E-3,-5.286991E-3,-2.290271E-3,-7.634904E-4,-6.574136E-3,3.7151452E-3,-6.152734E-4,-1.6672895E-3,-3.930944E-3,5.453652E-3,-8.0814015E-4,1.915529E-3,5.9638154E-3],"split_indices":[5,0,57,58,57,57,4,58,5,57,60,0,5,27,60,6,45,6,22,0,18,4,7,57,11,28,59,58,39,0,0,0,0,0,0,0,0,0,0,0,0,0,0,0,0,0,0,0,0,0,0,0,0,0,0],"split_type":[0,0,0,0,0,0,0,0,0,0,0,0,0,0,0,0,0,0,0,0,0,0,0,0,0,0,0,0,0,0,0,0,0,0,0,0,0,0,0,0,0,0,0,0,0,0,0,0,0,0,0,0,0,0,0],"sum_hessian":[2.3041332E4,1.285825E4,1.0183081E4,7.7523535E3,5.105897E3,2.7241663E3,7.458915E3,1.0621311E3,6.690222E3,1.564163E3,3.5417341E3,4.2002914E1,2.6821633E3,5.408287E3,2.050628E3,1.15546745E2,9.4658435E2,3.8979426E3,2.7922795E3,4.2900997E1,1.521262E3,2.3999658E3,1.1417683E3,1.7331842E3,9.489792E2,9.5293225E2,4.455355E3,1.4463153E3,6.043126E2,5.8571953E1,5.6974796E1,3.4338917E1,9.122454E2,1.4318035E3,2.4661392E3,1.432732E3,1.3595475E3,1.0955388E3,4.2572324E2,1.4030062E3,9.969596E2,5.9570996E2,5.4605835E2,4.9700034E2,1.236184E3,7.948576E1,8.694934E2,2.4589098E2,7.0704126E2,2.791816E3,1.6635388E3,1.0385582E2,1.3424595E3,4.8619592E2,1.1811668E2],"tree_param":{"num_deleted":"0","num_feature":"63","num_nodes":"55","size_leaf_vector":"1"}},{"base_weights":[1.8584321E-3,1.6078225E-1,-1.8984036E-1,3.0212966E-1,-7.4322164E-2,-4.5005685E-1,-1.2453673E-1,6.7001253E-1,2.619366E-1,-1.5842937E-2,-6.1620474E-2,-1.6762195E-2,-4.268232E-1,3.3386323E-1,-1.4800622E-1,1.2465768E0,6.117127E-1,3.956173E-1,1.6869532E-1,-1.1411712E-1,2.0394294E-1,-2.9337165E-1,-5.8677834E-1,7.3820233E-1,2.203382E-1,-5.4722495E-2,-2.617022E-1,1.5992243E-2,9.293007E-3,-2.3861048E-3,6.822898E-3,6.8633226E-3,3.7320387E-3,-7.817667E-4,2.5399763E-3,-3.1026863E-3,-3.9372573E-4,1.6402556E-3,5.7441667E-3,1.0332509E-3,-3.733666E-3,-4.5554477E-4,-6.463869E-3,1.078183E-2,4.7713616E-3,1.2856236E-3,7.3634437E-3,-1.2655616E-3,1.0134891E-3,-3.8043612E-3,-1.218897E-3],"categories":[],"categories_nodes":[],"categories_segments":[],"categories_sizes":[],"default_left":[0,0,0,0,0,0,0,0,0,0,0,0,0,0,0,0,0,0,0,0,0,0,0,0,0,0,0,0,0,0,0,0,0,0,0,0,0,0,0,0,0,0,0,0,0,0,0,0,0,0,0],"id":8,"left_children":[1,3,5,7,9,11,13,15,17,-1,19,-1,21,23,25,27,29,31,33,35,37,39,41,43,45,47,49,-1,-1,-1,-1,-1,-1,-1,-1,-1,-1,-1,-1,-1,-1,-1,-1,-1,-1,-1,-1,-1,-1,-1,-1],"loss_changes":[7.046662E2,4.2024646E2,1.7815225E2,1.1677295E2,8.7604675E1,5.69245E1,9.016565E1,2.6117859E1,8.874487E1,0E0,6.56242E1,0E0,4.4012543E1,1.8731182E1,8.455682E1,7.3322983E0,2.7283539E1,2.7934784E1,7.790389E1,5.5357746E1,1.2454872E1,2.9369827E1,1.843216E1,7.476181E0,1.5038637E1,4.4886524E1,5.4390854E1,0E0,0E0,0E0,0E0,0E0,0E0,0E0,0E0,0E0,0E0,0E0,0E0,0E0,0E0,0E0,0E0,0E0,0E0,0E0,0E0,0E0,0E0,0E0,0E0],"parents":[2147483647,0,0,1,1,2,2,3,3,4,4,5,5,6,6,7,7,8,8,10,10,12,12,13,13,14,14,15,15,16,16,17,17,18,18,19,19,20,20,21,21,22,22,23,23,24,24,25,25,26,26],"right_children":[2,4,6,8,10,12,14,16,18,-1,20,-1,22,24,26,28,30,32,34,36,38,40,42,44,46,48,50,-1,-1,-1,-1,-1,-1,-1,-1,-1,-1,-1,-1,-1,-1,-1,-1,-1,-1,-1,-1,-1,-1,-1,-1],"split_conditions":[3.0004883E-1,1.7152747E-4,3.8006033E-3,2.2912596E-3,6.5455417E-4,6.5455417E-4,1.7074111E-3,6.813707E-4,4.2489576E-4,-1.5842937E-2,1.8344706E0,-1.6762195E-2,5.2634287E-1,8.711298E-4,5.0061053E-1,-8.444178E-4,-7.2837096E-1,-8.279024E-2,4.162186E-3,5.034551E-3,7.573807E1,6.352403E-1,2.0555514E-4,4.7998047E-1,1.2604798E-2,1E0,2.8106717E-3,1.5992243E-2,9.293007E-3,-2.3861048E-3,6.822898E-3,6.8633226E-3,3.7320387E-3,-7.817667E-4,2.5399763E-3,-3.1026863E-3,-3.9372573E-4,1.6402556E-3,5.7441667E-3,1.0332509E-3,-3.733666E-3,-4.5554477E-4,-6.463869E-3,1.078183E-2,4.7713616E-3,1.2856236E-3,7.3634437E-3,-1.2655616E-3,1.0134891E-3,-3.8043612E-3,-1.218897E-3],"split_indices":[5,0,57,58,57,57,58,58,22,0,39,0,5,58,5,2,45,34,57,57,25,31,6,5,12,60,33,0,0,0,0,0,0,0,0,0,0,0,0,0,0,0,0,0,0,0,0,0,0,0,0],"split_type":[0,0,0,0,0,0,0,0,0,0,0,0,0,0,0,0,0,0,0,0,0,0,0,0,0,0,0,0,0,0,0,0,0,0,0,0,0,0,0,0,0,0,0,0,0,0,0,0,0,0,0],"sum_hessian":[2.3129895E4,1.2646002E4,1.0483894E4,7.8977656E3,4.748236E3,2.1031628E3,8.38073E3,7.778245E2,7.1199414E3,4.111996E1,4.7071157E3,4.1056526E1,2.0621062E3,4.0815985E2,7.972571E3,7.135713E1,7.064674E2,2.9255037E3,4.1944375E3,3.9302122E3,7.769038E2,1.1242472E3,9.3785895E2,8.943026E1,3.1872958E2,4.379442E3,3.5931287E3,3.8713547E1,3.264359E1,3.6504707E1,6.699627E2,3.4819162E2,2.577312E3,9.971015E2,3.197336E3,1.146578E3,2.783634E3,6.868805E2,9.002329E1,1.626657E2,9.6158154E2,5.8639145E1,8.792198E2,4.292116E1,4.6509098E1,2.6629947E2,5.24301E1,3.0385928E3,1.3408494E3,2.0796409E3,1.5134879E3],"tree_param":{"num_deleted":"0","num_feature":"63","num_nodes":"51","size_leaf_vector":"1"}},{"base_weights":[-1.1991044E-3,1.5742198E-1,-1.9133364E-1,3.0889708E-1,-5.0308675E-2,-4.475132E-1,-1.2331542E-1,4.4129324E-1,1.9299333E-1,-8.1581485E-1,-2.2916216E-2,-1.5719948E-2,-4.273966E-1,9.4041646E-2,-1.7737652E-1,5.670603E-1,3.1951115E-1,-3.951087E-2,2.8420752E-1,-1.6551511E-2,-5.9374285E-1,-8.104644E-2,2.282226E-1,-5.206424E-1,-2.031371E-1,4.608296E-1,5.9573114E-2,-1.0026294E-1,-3.1460455E-1,9.5201675E-3,5.345614E-3,2.6094457E-3,6.205218E-3,-6.846187E-3,8.804079E-5,7.731063E-3,2.7281444E-3,-1.1987495E-2,-2.8901228E-3,-1.819737E-3,1.0438708E-3,4.893955E-3,1.6483387E-3,-5.6327707E-3,2.497315E-3,-1.0144376E-3,-5.028409E-3,1.0141175E-2,3.1172186E-3,1.693455E-3,-7.860287E-4,-2.0881214E-3,4.5709388E-4,3.4131117E-3,-3.550707E-3],"categories":[],"categories_nodes":[],"categories_segments":[],"categories_sizes":[],"default_left":[0,0,0,0,0,0,0,0,0,0,0,0,0,0,0,0,0,0,0,0,0,0,0,0,0,0,0,0,0,0,0,0,0,0,0,0,0,0,0,0,0,0,0,0,0,0,0,0,0,0,0,0,0,0,0],"id":9,"left_children":[1,3,5,7,9,11,13,15,17,19,21,-1,23,25,27,29,31,33,35,-1,37,39,41,43,45,47,49,51,53,-1,-1,-1,-1,-1,-1,-1,-1,-1,-1,-1,-1,-1,-1,-1,-1,-1,-1,-1,-1,-1,-1,-1,-1,-1,-1],"loss_changes":[6.947571E2,3.9517865E2,1.8256415E2,1.1144702E2,1.1105252E2,4.718289E1,9.728579E1,5.191803E1,8.213162E1,3.1632034E1,7.464586E1,0E0,4.5113586E1,2.084763E1,7.0160034E1,3.0292786E1,3.2626755E1,3.2489788E1,2.7262863E1,0E0,2.5203804E1,7.115437E1,1.6225033E1,2.5806335E1,1.8794073E1,1.1725477E1,2.1143574E1,6.186667E1,4.2386658E1,0E0,0E0,0E0,0E0,0E0,0E0,0E0,0E0,0E0,0E0,0E0,0E0,0E0,0E0,0E0,0E0,0E0,0E0,0E0,0E0,0E0,0E0,0E0,0E0,0E0,0E0],"parents":[2147483647,0,0,1,1,2,2,3,3,4,4,5,5,6,6,7,7,8,8,9,9,10,10,12,12,13,13,14,14,15,15,16,16,17,17,18,18,20,20,21,21,22,22,23,23,24,24,25,25,26,26,27,27,28,28],"right_children":[2,4,6,8,10,12,14,16,18,20,22,-1,24,26,28,30,32,34,36,-1,38,40,42,44,46,48,50,52,54,-1,-1,-1,-1,-1,-1,-1,-1,-1,-1,-1,-1,-1,-1,-1,-1,-1,-1,-1,-1,-1,-1,-1,-1,-1,-1],"split_conditions":[3.0004883E-1,1.15983916E-4,3.924494E-3,4.6068814E-4,1.4990382E-3,6.5455417E-4,2.222172E1,5.9301574E-3,4.829752E-3,6.5455417E-4,4.6429506E-1,-1.5719948E-2,1.0892563E0,-1.1908613E1,1E0,-8.279024E-2,1E0,1.2963442E-3,1.6313158E-3,-1.6551511E-2,2.4662E4,1E0,3.918785E-3,2.6486935E-2,6.194773E-1,3.4523741E-3,1E0,8.506617E-3,1.6313158E-3,9.5201675E-3,5.345614E-3,2.6094457E-3,6.205218E-3,-6.846187E-3,8.804079E-5,7.731063E-3,2.7281444E-3,-1.1987495E-2,-2.8901228E-3,-1.819737E-3,1.0438708E-3,4.893955E-3,1.6483387E-3,-5.6327707E-3,2.497315E-3,-1.0144376E-3,-5.028409E-3,1.0141175E-2,3.1172186E-3,1.693455E-3,-7.860287E-4,-2.0881214E-3,4.5709388E-4,3.4131117E-3,-3.550707E-3],"split_indices":[5,0,57,22,57,57,27,58,57,57,4,0,39,26,59,34,36,57,58,0,42,60,58,58,5,58,59,57,58,0,0,0,0,0,0,0,0,0,0,0,0,0,0,0,0,0,0,0,0,0,0,0,0,0,0],"split_type":[0,0,0,0,0,0,0,0,0,0,0,0,0,0,0,0,0,0,0,0,0,0,0,0,0,0,0,0,0,0,0,0,0,0,0,0,0,0,0,0,0,0,0,0,0,0,0,0,0,0,0,0,0,0,0],"sum_hessian":[2.3036137E4,1.2558841E4,1.0477296E4,7.2628354E3,5.2960054E3,2.1981418E3,8.279153E3,3.390165E3,3.8726704E3,1.8292473E2,5.1130806E3,4.0602627E1,2.157539E3,1.6490374E3,6.630116E3,1.6677274E3,1.7224375E3,1.0912094E3,2.7814612E3,4.0510715E1,1.4241402E2,4.1520464E3,9.61034E2,1.5238722E3,6.33667E2,1.416146E2,1.5074229E3,4.244844E3,2.3852722E3,2.1486186E2,1.4528655E3,1.3844501E3,3.3798752E2,7.8332466E1,1.01287683E3,1.2264942E2,2.6588118E3,5.1159534E1,9.125448E1,2.7328162E3,1.4192301E3,2.1303545E2,7.479986E2,1.4806333E3,4.3238846E1,4.6111752E2,1.7254948E2,3.350758E1,1.0810701E2,8.536551E2,6.537677E2,2.497303E3,1.7475414E3,9.810395E1,2.2871682E3],"tree_param":{"num_deleted":"0","num_feature":"63","num_nodes":"55","size_leaf_vector":"1"}},{"base_weights":[-3.3248155E-4,1.6679706E-1,-1.9403608E-1,3.1902987E-1,-3.6193427E-2,-5.6676734E-5,-2.7018532E-1,6.043096E-1,2.736107E-1,-6.088395E-1,-2.1778517E-3,5.416904E-1,-2.923908E-2,-3.4874886E-1,-6.930567E-2,1.3591921E0,5.4391956E-1,3.825811E-1,1.6537394E-1,-1.4296432E-2,-4.8652464E-1,-9.9239655E-2,1.5182467E-1,3.4343532E-1,9.140762E-3,2.4261956E-1,-8.364339E-2,-6.709201E-1,-2.9760045E-1,-1.9188668E-1,5.1366497E-2,1.5914513E-2,1.238692E-2,5.983993E-3,-2.9651534E-3,3.4405366E-3,7.518815E-3,1.3310461E-3,5.8944738E-3,-8.774606E-3,-1.9105043E-3,-1.8872889E-3,1.6275076E-3,5.8307783E-3,1.1328958E-3,6.629895E-3,6.121907E-4,9.077681E-5,3.924427E-3,1.2414698E-3,-1.298155E-3,-9.945583E-3,-5.748965E-3,-1.4275627E-3,-3.688472E-3,-9.009167E-3,-1.7211454E-3,-2.9980292E-4,3.3330913E-3],"categories":[],"categories_nodes":[],"categories_segments":[],"categories_sizes":[],"default_left":[0,0,0,0,0,0,0,0,0,0,0,0,0,0,0,0,0,0,0,0,0,0,0,0,0,0,0,0,0,0,0,0,0,0,0,0,0,0,0,0,0,0,0,0,0,0,0,0,0,0,0,0,0,0,0,0,0,0,0],"id":10,"left_children":[1,3,5,7,9,11,13,15,17,19,21,23,25,27,29,31,33,35,37,-1,39,41,43,45,-1,47,49,51,53,55,57,-1,-1,-1,-1,-1,-1,-1,-1,-1,-1,-1,-1,-1,-1,-1,-1,-1,-1,-1,-1,-1,-1,-1,-1,-1,-1,-1,-1],"loss_changes":[7.4722925E2,3.8289413E2,1.5791776E2,9.1737976E1,1.0343504E2,4.7646744E1,1.2115698E2,4.4302917E1,7.204117E1,2.7981308E1,7.4924934E1,1.035062E1,4.2297432E1,9.0932495E1,3.1927668E1,2.0099792E0,2.45206E1,5.3076508E1,4.5770775E1,0E0,2.7899906E1,6.508436E1,3.3884834E1,8.177448E0,0E0,1.5124376E1,2.0090912E1,2.5389069E1,4.411615E1,1.8828365E1,2.3560316E1,0E0,0E0,0E0,0E0,0E0,0E0,0E0,0E0,0E0,0E0,0E0,0E0,0E0,0E0,0E0,0E0,0E0,0E0,0E0,0E0,0E0,0E0,0E0,0E0,0E0,0E0,0E0,0E0],"parents":[2147483647,0,0,1,1,2,2,3,3,4,4,5,5,6,6,7,7,8,8,9,9,10,10,11,11,12,12,13,13,14,14,15,15,16,16,17,17,18,18,20,20,21,21,22,22,23,23,25,25,26,26,27,27,28,28,29,29,30,30],"right_children":[2,4,6,8,10,12,14,16,18,20,22,24,26,28,30,32,34,36,38,-1,40,42,44,46,-1,48,50,52,54,56,58,-1,-1,-1,-1,-1,-1,-1,-1,-1,-1,-1,-1,-1,-1,-1,-1,-1,-1,-1,-1,-1,-1,-1,-1,-1,-1,-1,-1],"split_conditions":[2.9130125E-1,1.02157144E-4,3.0883568E1,2.7179488E-3,1.9450187E-3,1.2676086E-3,2.859634E-1,6.813707E-4,1.1109604E-1,6.5455417E-4,3.0432013E-1,1.4839406E-2,-1.4700928E0,2.8262811E-3,6.7605833E-3,-1.0499268E0,9.3013444E-4,1E0,1.9586991E0,-1.4296432E-2,1.4116724E-1,6.1612833E-2,2.5102713E-3,1.0207553E-2,9.140762E-3,-3.2207964E-3,2.5224645E-4,1.4990234E-1,1.4E2,1.1573741E-3,1.6999512E0,1.5914513E-2,1.238692E-2,5.983993E-3,-2.9651534E-3,3.4405366E-3,7.518815E-3,1.3310461E-3,5.8944738E-3,-8.774606E-3,-1.9105043E-3,-1.8872889E-3,1.6275076E-3,5.8307783E-3,1.1328958E-3,6.629895E-3,6.121907E-4,9.077681E-5,3.924427E-3,1.2414698E-3,-1.298155E-3,-9.945583E-3,-5.748965E-3,-1.4275627E-3,-3.688472E-3,-9.009167E-3,-1.7211454E-3,-2.9980292E-4,3.3330913E-3],"split_indices":[5,0,27,58,57,58,4,58,5,57,4,57,9,57,57,9,8,36,39,0,38,41,58,57,0,40,22,11,52,57,11,0,0,0,0,0,0,0,0,0,0,0,0,0,0,0,0,0,0,0,0,0,0,0,0,0,0,0,0],"split_type":[0,0,0,0,0,0,0,0,0,0,0,0,0,0,0,0,0,0,0,0,0,0,0,0,0,0,0,0,0,0,0,0,0,0,0,0,0,0,0,0,0,0,0,0,0,0,0,0,0,0,0,0,0,0,0,0,0,0,0],"sum_hessian":[2.3081367E4,1.2390616E4,1.0690751E4,7.0805405E3,5.310076E3,3.0137324E3,7.677019E3,9.723982E2,6.108142E3,2.977006E2,5.0123755E3,1.540095E2,2.859723E3,5.5186577E3,2.1583613E3,7.196866E1,9.004295E2,3.0437078E3,3.0644346E3,4.0798378E1,2.5690222E2,3.0745925E3,1.9377827E3,9.7256165E1,5.6753338E1,4.7683664E2,2.3828862E3,7.5604675E2,4.762611E3,1.0707012E3,1.0876603E3,3.4849762E1,3.71189E1,8.661861E2,3.4243446E1,2.6489607E3,3.9474707E2,2.806063E3,2.5837152E2,1.17396996E2,1.3950523E2,2.3244023E3,7.501903E2,1.8243419E2,1.7553485E3,4.7673054E1,4.958311E1,1.7503001E2,3.0180664E2,4.0372754E2,1.9791587E3,2.1832457E2,5.3772217E2,1.2653241E3,3.4972869E3,3.959355E1,1.0311075E3,8.3836255E2,2.492977E2],"tree_param":{"num_deleted":"0","num_feature":"63","num_nodes":"59","size_leaf_vector":"1"}},{"base_weights":[3.7678166E-3,1.5888879E-1,-1.8408203E-1,2.942065E-1,-6.86134E-2,-4.39137E-1,-1.1212188E-1,6.221122E-1,2.4159738E-1,-5.4652965E-1,-3.6510594E-2,-1.6707562E-2,-4.1863722E-1,3.7196332E-1,-1.35593E-1,8.478284E-1,5.1767904E-1,4.8614734E-1,1.9862534E-1,-1.4307948E-2,-4.2036337E-1,-1.272058E-1,1.4041795E-1,-5.241632E-1,-2.3166013E-1,-7.5741386E-4,4.528625E-1,-2.0279658E-1,2.7257584E-2,2.8453753E-3,9.40944E-3,4.357279E-3,8.844249E-3,1.9798933E-3,5.825035E-3,3.1768256E-3,1.0672536E-3,-9.351615E-3,-1.8791388E-3,2.1980745E-3,-2.041592E-3,2.2577844E-4,3.4193567E-3,1.8450222E-4,-5.7834443E-3,-1.8377441E-3,-6.507627E-3,3.8507977E-3,1.0259175E-2,4.826377E-4,-2.5781598E-3,4.511681E-3,4.646456E-5],"categories":[],"categories_nodes":[],"categories_segments":[],"categories_sizes":[],"default_left":[0,0,0,0,0,0,0,0,0,0,0,0,0,0,0,0,0,0,0,0,0,0,0,0,0,0,0,0,0,0,0,0,0,0,0,0,0,0,0,0,0,0,0,0,0,0,0,0,0,0,0,0,0],"id":11,"left_children":[1,3,5,7,9,11,13,15,17,19,21,-1,23,25,27,29,31,33,35,-1,37,39,41,43,45,-1,47,49,51,-1,-1,-1,-1,-1,-1,-1,-1,-1,-1,-1,-1,-1,-1,-1,-1,-1,-1,-1,-1,-1,-1,-1,-1],"loss_changes":[6.696859E2,3.8751147E2,1.9077652E2,1.3615387E2,7.202779E1,5.4887695E1,9.2116264E1,2.5706238E1,7.147452E1,3.1014206E1,7.059365E1,0E0,4.4350708E1,1.3497101E1,8.462402E1,1.1678986E1,2.4394455E1,2.2591019E1,5.9585922E1,0E0,2.952731E1,6.8596115E1,3.3458893E1,2.5886078E1,1.7493004E1,0E0,1.38806305E1,6.2342194E1,2.097135E1,0E0,0E0,0E0,0E0,0E0,0E0,0E0,0E0,0E0,0E0,0E0,0E0,0E0,0E0,0E0,0E0,0E0,0E0,0E0,0E0,0E0,0E0,0E0,0E0],"parents":[2147483647,0,0,1,1,2,2,3,3,4,4,5,5,6,6,7,7,8,8,9,9,10,10,12,12,13,13,14,14,15,15,16,16,17,17,18,18,20,20,21,21,22,22,23,23,24,24,26,26,27,27,28,28],"right_children":[2,4,6,8,10,12,14,16,18,20,22,-1,24,26,28,30,32,34,36,-1,38,40,42,44,46,-1,48,50,52,-1,-1,-1,-1,-1,-1,-1,-1,-1,-1,-1,-1,-1,-1,-1,-1,-1,-1,-1,-1,-1,-1,-1,-1],"split_conditions":[3.0004883E-1,1.8261197E-4,4.00551E-3,2.7179488E-3,2.0165667E-3,6.5455417E-4,1.6313158E-3,1.4625031E-3,5.5334937E-2,6.5455417E-4,1E0,-1.6707562E-2,2.2727777E-1,6.4915025E-1,1E0,-7.193398E-1,-1.5817399E-3,-4.5237546E-3,1.1109604E-1,-1.4307948E-2,1.9577E4,4.353009E-1,1.5438678E-3,-6.9779044E-1,6.153268E-1,-7.5741386E-4,4.4830778E-1,1.7646214E-1,-1.18908E5,2.8453753E-3,9.40944E-3,4.357279E-3,8.844249E-3,1.9798933E-3,5.825035E-3,3.1768256E-3,1.0672536E-3,-9.351615E-3,-1.8791388E-3,2.1980745E-3,-2.041592E-3,2.2577844E-4,3.4193567E-3,1.8450222E-4,-5.7834443E-3,-1.8377441E-3,-6.507627E-3,3.8507977E-3,1.0259175E-2,4.826377E-4,-2.5781598E-3,4.511681E-3,4.646456E-5],"split_indices":[5,0,57,58,57,57,58,58,34,57,60,0,4,31,60,45,40,40,5,0,42,3,18,45,5,0,4,24,42,0,0,0,0,0,0,0,0,0,0,0,0,0,0,0,0,0,0,0,0,0,0,0,0],"split_type":[0,0,0,0,0,0,0,0,0,0,0,0,0,0,0,0,0,0,0,0,0,0,0,0,0,0,0,0,0,0,0,0,0,0,0,0,0,0,0,0,0,0,0,0,0,0,0,0,0,0,0,0,0],"sum_hessian":[2.2982031E4,1.2587578E4,1.0394452E4,7.8928945E3,4.6946836E3,2.2872717E3,8.1071807E3,1.0911968E3,6.8016978E3,2.954655E2,4.3992183E3,3.92981E1,2.2479736E3,3.7487732E2,7.732303E3,3.4508337E2,7.461134E2,1.0164999E3,5.7851978E3,3.883737E1,2.5662814E2,2.9083708E3,1.4908473E3,1.4369314E3,8.1104236E2,5.767218E1,3.1720514E2,5.473531E3,2.2587725E3,3.2226746E1,3.1285663E2,5.775665E2,1.6854692E2,2.0646982E2,8.100301E2,2.724829E3,3.0603684E3,8.5219444E1,1.714087E2,4.9509552E2,2.4132754E3,9.1613684E2,5.7471045E2,8.3040565E1,1.3538907E3,7.128092E2,9.823314E1,2.7528757E2,4.191757E1,8.47646E2,4.625885E3,1.1952465E2,2.1392478E3],"tree_param":{"num_deleted":"0","num_feature":"63","num_nodes":"53","size_leaf_vector":"1"}},{"base_weights":[-4.119724E-3,1.3563116E-1,-2.1298501E-1,2.7964455E-1,-7.119057E-2,-5.836141E-1,-1.6938056E-1,6.0613984E-1,2.366942E-1,-4.2353246E-1,-1.838863E-2,-1.6162686E-2,-5.478992E-1,4.5204514E-1,-1.8948627E-1,1.2280059E0,5.549295E-1,3.7067714E-1,1.4918701E-1,-1.3285593E-2,-3.685246E-1,-1.0897634E-1,1.7900206E-1,-6.0682863E-1,-7.953223E-2,3.2013214E-1,1.0277576E-2,-2.6380947E-1,-1.6360067E-2,1.0667772E-2,1.5076037E-2,-2.6409435E-3,6.0887877E-3,3.3431435E-3,7.4134567E-3,2.7681605E-3,7.3931477E-4,-4.255526E-3,3.0251483E-3,-1.8118169E-3,2.613959E-3,8.892502E-3,1.5966807E-3,-9.782877E-3,-5.3802463E-3,-3.773978E-3,5.606031E-3,7.966698E-3,1.8218962E-3,-6.313352E-4,-3.5856192E-3,-1.4071037E-3,7.837664E-4],"categories":[],"categories_nodes":[],"categories_segments":[],"categories_sizes":[],"default_left":[0,0,0,0,0,0,0,0,0,0,0,0,0,0,0,0,0,0,0,0,0,0,0,0,0,0,0,0,0,0,0,0,0,0,0,0,0,0,0,0,0,0,0,0,0,0,0,0,0,0,0,0,0],"id":12,"left_children":[1,3,5,7,9,11,13,15,17,19,21,-1,23,25,27,29,31,33,35,-1,37,39,41,43,45,47,-1,49,51,-1,-1,-1,-1,-1,-1,-1,-1,-1,-1,-1,-1,-1,-1,-1,-1,-1,-1,-1,-1,-1,-1,-1,-1],"loss_changes":[6.715779E2,4.1057654E2,1.4905338E2,1.13949036E2,1.0527113E2,3.37453E1,1.0311026E2,3.0059021E1,8.419769E1,3.4743835E1,8.799429E1,0E0,2.5848663E1,1.8360645E1,1.02858185E2,3.1742935E0,2.2546722E1,4.7273407E1,3.9816116E1,0E0,1.9043343E1,7.991531E1,2.6356556E1,2.4662018E1,1.8453758E1,1.344186E1,0E0,9.28172E1,2.631425E1,0E0,0E0,0E0,0E0,0E0,0E0,0E0,0E0,0E0,0E0,0E0,0E0,0E0,0E0,0E0,0E0,0E0,0E0,0E0,0E0,0E0,0E0,0E0,0E0],"parents":[2147483647,0,0,1,1,2,2,3,3,4,4,5,5,6,6,7,7,8,8,9,9,10,10,12,12,13,13,14,14,15,15,16,16,17,17,18,18,20,20,21,21,22,22,23,23,24,24,25,25,27,27,28,28],"right_children":[2,4,6,8,10,12,14,16,18,20,22,-1,24,26,28,30,32,34,36,-1,38,40,42,44,46,48,-1,50,52,-1,-1,-1,-1,-1,-1,-1,-1,-1,-1,-1,-1,-1,-1,-1,-1,-1,-1,-1,-1,-1,-1,-1,-1],"split_conditions":[3.3340114E-1,1.2146688E-4,2.7766635E-3,2.5102713E-3,3.0165284E-3,6.5455417E-4,1.4625031E-3,6.813707E-4,9.4426535E-2,6.5455417E-4,3.499756E-1,-1.6162686E-2,6.737907E1,1.2146283E0,1E0,-4.964438E-3,-7.343225E-1,1E0,4.524358E-4,-1.3285593E-2,2.53002E5,6.610074E1,1.543586E-3,1.4990382E-3,9.6000165E-1,4.000651E-1,1.0277576E-2,2.976225E1,6.426708E-3,1.0667772E-2,1.5076037E-2,-2.6409435E-3,6.0887877E-3,3.3431435E-3,7.4134567E-3,2.7681605E-3,7.3931477E-4,-4.255526E-3,3.0251483E-3,-1.8118169E-3,2.613959E-3,8.892502E-3,1.5966807E-3,-9.782877E-3,-5.3802463E-3,-3.773978E-3,5.606031E-3,7.966698E-3,1.8218962E-3,-6.313352E-4,-3.5856192E-3,-1.4071037E-3,7.837664E-4],"split_indices":[5,0,57,58,57,57,58,58,5,57,4,0,25,31,60,40,45,36,22,0,42,25,58,57,24,5,0,27,57,0,0,0,0,0,0,0,0,0,0,0,0,0,0,0,0,0,0,0,0,0,0,0,0],"split_type":[0,0,0,0,0,0,0,0,0,0,0,0,0,0,0,0,0,0,0,0,0,0,0,0,0,0,0,0,0,0,0,0,0,0,0,0,0,0,0,0,0,0,0,0,0,0,0,0,0,0,0,0,0],"sum_hessian":[2.3007748E4,1.3784565E4,9.223182E3,8.126168E3,5.6583975E3,9.708323E2,8.25235E3,9.4465967E2,7.1815083E3,7.37418E2,4.9209795E3,3.427819E1,9.365541E2,2.586046E2,7.9937446E3,7.180735E1,8.728523E2,2.8372498E3,4.3442583E3,4.4430485E1,6.9298755E2,3.373027E3,1.5479526E3,8.31877E2,1.0467709E2,2.0776888E2,5.0835747E1,5.5927524E3,2.4009924E3,3.8140747E1,3.36666E1,3.308604E1,8.397663E2,2.4867693E3,3.5048044E2,1.7313855E3,2.612873E3,6.518991E2,4.1088425E1,2.8539465E3,5.190804E2,5.524474E1,1.4927079E3,1.7300667E2,6.5887036E2,7.178067E1,3.289642E1,5.0668198E1,1.5710068E2,1.6061456E3,3.986607E3,1.0449553E3,1.3560371E3],"tree_param":{"num_deleted":"0","num_feature":"63","num_nodes":"53","size_leaf_vector":"1"}},{"base_weights":[1.2627562E-3,1.5209739E-1,-1.7936027E-1,2.8582692E-1,-7.593258E-2,-4.1628313E-1,-1.1602074E-1,4.272468E-1,1.9222865E-1,-2.4545006E-1,2.0712094E-2,-1.6073361E-2,-3.9508742E-1,-3.1800885E-2,-2.5376505E-1,1.567598E-1,5.086196E-1,-3.0311285E-2,2.6180077E-1,-1.3055337E-2,-2.2188029E-1,-5.8706548E-2,1.8599601E-1,-3.123537E-1,-5.903335E-1,3.8505754E-1,-5.4684136E-2,-3.421926E-1,-1.03372864E-1,2.6640587E-3,-3.2255508E-3,6.581831E-3,4.2969175E-3,-9.429947E-3,4.4634267E-5,6.5691974E-3,2.3921956E-3,-2.960245E-3,1.13602E-3,7.2320877E-3,-9.201588E-4,1.3872168E-3,7.53601E-3,6.068092E-4,-3.6577021E-3,1.4087342E-3,-6.5247705E-3,7.914613E-3,2.7061766E-3,2.590576E-4,-2.0184494E-3,2.2943167E-4,-4.041414E-3,7.2469553E-3,-1.3223323E-3],"categories":[],"categories_nodes":[],"categories_segments":[],"categories_sizes":[],"default_left":[0,0,0,0,0,0,0,0,0,0,0,0,0,0,0,0,0,0,0,0,0,0,0,0,0,0,0,0,0,0,0,0,0,0,0,0,0,0,0,0,0,0,0,0,0,0,0,0,0,0,0,0,0,0,0],"id":13,"left_children":[1,3,5,7,9,11,13,15,17,19,21,-1,23,25,27,29,31,33,35,-1,37,39,41,43,45,47,49,51,53,-1,-1,-1,-1,-1,-1,-1,-1,-1,-1,-1,-1,-1,-1,-1,-1,-1,-1,-1,-1,-1,-1,-1,-1,-1,-1],"loss_changes":[6.244379E2,3.808732E2,1.5651828E2,1.04207214E2,7.5642166E1,5.2806793E1,9.547367E1,6.90083E1,7.3348785E1,4.0010323E1,3.8601257E1,0E0,3.4881622E1,4.8719723E1,4.152664E1,3.391419E1,2.8624023E1,3.431227E1,4.186667E1,0E0,3.4436028E1,4.500135E1,2.6965069E1,2.2601364E1,1.79803E1,1.2465607E1,5.393264E1,3.389592E1,2.2321796E1,0E0,0E0,0E0,0E0,0E0,0E0,0E0,0E0,0E0,0E0,0E0,0E0,0E0,0E0,0E0,0E0,0E0,0E0,0E0,0E0,0E0,0E0,0E0,0E0,0E0,0E0],"parents":[2147483647,0,0,1,1,2,2,3,3,4,4,5,5,6,6,7,7,8,8,9,9,10,10,12,12,13,13,14,14,15,15,16,16,17,17,18,18,20,20,21,21,22,22,23,23,24,24,25,25,26,26,27,27,28,28],"right_children":[2,4,6,8,10,12,14,16,18,20,22,-1,24,26,28,30,32,34,36,-1,38,40,42,44,46,48,50,52,54,-1,-1,-1,-1,-1,-1,-1,-1,-1,-1,-1,-1,-1,-1,-1,-1,-1,-1,-1,-1,-1,-1,-1,-1,-1,-1],"split_conditions":[3.0004883E-1,1.9012073E-4,3.924494E-3,3.8316843E-4,5.6566326E-3,6.5455417E-4,5.484328E-1,4.2575618E-4,4.358787E-3,6.5455417E-4,1E0,-1.6073361E-2,6.2496185E-1,1.7074111E-3,2.984235E-3,8.8468474E-1,5.5244807E-3,1.0200612E-3,2.1083916E-3,-1.3055337E-2,1.9953012E0,1.4625031E-3,7.345342E1,-6.691306E-1,-5.248573E-1,8.711298E-4,1E0,2.4330914E-4,1.3723548E-3,2.6640587E-3,-3.2255508E-3,6.581831E-3,4.2969175E-3,-9.429947E-3,4.4634267E-5,6.5691974E-3,2.3921956E-3,-2.960245E-3,1.13602E-3,7.2320877E-3,-9.201588E-4,1.3872168E-3,7.53601E-3,6.068092E-4,-3.6577021E-3,1.4087342E-3,-6.5247705E-3,7.914613E-3,2.7061766E-3,2.590576E-4,-2.0184494E-3,2.2943167E-4,-4.041414E-3,7.2469553E-3,-1.3223323E-3],"split_indices":[5,0,57,22,57,57,5,6,57,57,60,0,5,58,33,30,58,57,58,0,39,58,25,45,44,58,59,6,58,0,0,0,0,0,0,0,0,0,0,0,0,0,0,0,0,0,0,0,0,0,0,0,0,0,0],"split_type":[0,0,0,0,0,0,0,0,0,0,0,0,0,0,0,0,0,0,0,0,0,0,0,0,0,0,0,0,0,0,0,0,0,0,0,0,0,0,0,0,0,0,0,0,0,0,0,0,0,0,0,0,0,0,0],"sum_hessian":[2.2919951E4,1.2489897E4,1.0430054E4,7.872823E3,4.6170737E3,2.2001472E3,8.229906E3,3.1353752E3,4.7374478E3,1.6764591E3,2.940615E3,4.0358685E1,2.1597883E3,5.107262E3,3.1226443E3,7.251277E2,2.4102476E3,1.1283196E3,3.6091282E3,3.8081635E1,1.6383774E3,1.9862496E3,9.5436523E2,1.5170505E3,6.4273785E2,2.6574026E2,4.841522E3,1.9663953E3,1.1562489E3,5.973968E2,1.2773088E2,1.0340498E3,1.3761978E3,4.273286E1,1.0855867E3,2.80042E2,3.3290862E3,1.3751698E3,2.6320764E2,7.575041E1,1.9104993E3,8.7018695E2,8.417828E1,1.4827518E2,1.3687754E3,3.2372894E1,6.10365E2,6.57214E1,2.0001886E2,3.0846887E3,1.7568334E3,2.260361E2,1.7403593E3,3.366997E1,1.122579E3],"tree_param":{"num_deleted":"0","num_feature":"63","num_nodes":"55","size_leaf_vector":"1"}},{"base_weights":[-5.6502772E-3,1.1104345E-1,-2.6394516E-1,2.2867605E-1,-7.936952E-2,-4.5874834E-1,-1.766789E-1,3.4096876E-1,3.4799464E-2,-1.5536368E-2,-6.8356484E-2,-5.046645E-1,5.5880938E-2,6.0361665E-2,-2.2793286E-1,2.9261214E-1,6.4959425E-1,-3.9371625E-1,7.2819E-2,-1.1774375E-1,1.465689E-1,-2.1925208E-1,-5.6474054E-1,-1.1593259E-1,6.870169E-3,1.7641157E-2,7.0158644E-3,-7.467357E-2,-2.962954E-1,4.3738894E-3,1.9046884E-3,8.9939395E-3,5.445724E-3,-1.015366E-2,-3.006628E-3,4.06839E-3,2.9754156E-4,-1.9221929E-3,1.0977411E-3,7.5696004E-3,1.0062449E-3,-4.1865776E-3,5.1686313E-4,-6.1307577E-3,1.765786E-3,3.649737E-3,-3.113859E-3,6.5033427E-3,-3.1171925E-4,-1.424829E-3,2.6806088E-3,-4.2420407E-3,-1.7777786E-3],"categories":[],"categories_nodes":[],"categories_segments":[],"categories_sizes":[],"default_left":[0,0,0,0,0,0,0,0,0,0,0,0,0,0,0,0,0,0,0,0,0,0,0,0,0,0,0,0,0,0,0,0,0,0,0,0,0,0,0,0,0,0,0,0,0,0,0,0,0,0,0,0,0],"id":14,"left_children":[1,3,5,7,9,11,13,15,17,-1,19,21,23,25,27,29,31,33,35,37,39,41,43,45,-1,47,-1,49,51,-1,-1,-1,-1,-1,-1,-1,-1,-1,-1,-1,-1,-1,-1,-1,-1,-1,-1,-1,-1,-1,-1,-1,-1],"loss_changes":[6.926693E2,3.5455643E2,1.2156909E2,2.1301901E2,9.439389E1,5.228131E1,6.0005493E1,9.246124E1,5.84681E1,0E0,6.366858E1,3.4823975E1,1.8884117E1,2.3100704E1,4.2546204E1,7.530972E1,2.2725006E1,1.7768875E1,4.6457672E1,7.361354E1,3.2397926E1,1.7513935E1,3.223517E1,1.2172808E1,0E0,2.385308E1,0E0,2.6138012E1,3.949118E1,0E0,0E0,0E0,0E0,0E0,0E0,0E0,0E0,0E0,0E0,0E0,0E0,0E0,0E0,0E0,0E0,0E0,0E0,0E0,0E0,0E0,0E0,0E0,0E0],"parents":[2147483647,0,0,1,1,2,2,3,3,4,4,5,5,6,6,7,7,8,8,10,10,11,11,12,12,13,13,14,14,15,15,16,16,17,17,18,18,19,19,20,20,21,21,22,22,23,23,25,25,27,27,28,28],"right_children":[2,4,6,8,10,12,14,16,18,-1,20,22,24,26,28,30,32,34,36,38,40,42,44,46,-1,48,-1,50,52,-1,-1,-1,-1,-1,-1,-1,-1,-1,-1,-1,-1,-1,-1,-1,-1,-1,-1,-1,-1,-1,-1,-1,-1],"split_conditions":[4.1179004E-1,1.4256414E-4,4.789272E-3,2.380814E-1,6.5455417E-4,1.8344706E0,-7.986038E-4,1E0,2.6834058E-3,-1.5536368E-2,4.2859635E-1,2.9410498E1,1.3224015E-3,8.560256E-3,4.2351363E-3,6.231467E-3,1.6141366E-4,1.1573741E-3,-2.4500732E0,6.319602E1,2.4043138E-3,-4.1043815E-5,2.6486935E-2,-9.8162717E-1,6.870169E-3,1.4625031E-3,7.0158644E-3,1.5386831E-2,2.719476E-3,4.3738894E-3,1.9046884E-3,8.9939395E-3,5.445724E-3,-1.015366E-2,-3.006628E-3,4.06839E-3,2.9754156E-4,-1.9221929E-3,1.0977411E-3,7.5696004E-3,1.0062449E-3,-4.1865776E-3,5.1686313E-4,-6.1307577E-3,1.765786E-3,3.649737E-3,-3.113859E-3,6.5033427E-3,-3.1171925E-4,-1.424829E-3,2.6806088E-3,-4.2420407E-3,-1.7777786E-3],"split_indices":[5,0,57,5,57,39,2,36,57,0,4,27,21,33,58,58,22,57,11,25,58,8,58,46,0,58,0,57,33,0,0,0,0,0,0,0,0,0,0,0,0,0,0,0,0,0,0,0,0,0,0,0,0],"split_type":[0,0,0,0,0,0,0,0,0,0,0,0,0,0,0,0,0,0,0,0,0,0,0,0,0,0,0,0,0,0,0,0,0,0,0,0,0,0,0,0,0,0,0,0,0,0,0,0,0,0,0,0,0],"sum_hessian":[2.2980588E4,1.5829212E4,7.151377E3,9.784545E3,6.0446665E3,2.2124338E3,4.9389434E3,6.1958813E3,3.5886636E3,4.6544994E1,5.9981216E3,2.0312065E3,1.812272E2,8.7806036E2,4.0608828E3,5.3566543E3,8.392272E2,2.9242352E2,3.29624E3,4.877376E3,1.1207454E3,3.5323157E2,1.677975E3,1.4123257E2,3.9994625E1,8.2113574E2,5.6924644E1,1.2526641E3,2.8082188E3,2.454324E3,2.90233E3,3.060399E2,5.331873E2,4.4077293E1,2.4834622E2,4.0032443E2,2.8959155E3,3.7460002E3,1.1313757E3,8.7816E1,1.0329293E3,2.0965161E2,1.4357996E2,1.6203578E3,5.761715E1,3.9893944E1,1.0133863E2,5.9579304E1,7.6155646E2,1.0543411E3,1.9832307E2,1.4774099E3,1.3308087E3],"tree_param":{"num_deleted":"0","num_feature":"63","num_nodes":"53","size_leaf_vector":"1"}},{"base_weights":[-6.665295E-3,1.4370641E-1,-1.873543E-1,2.8691196E-1,-5.345158E-2,-3.5934436E-1,-1.03478044E-1,5.807263E-1,2.4130747E-1,-3.027177E-1,2.09178E-2,-2.3623234E-1,-5.061987E-1,1.0688266E-1,-1.5356682E-1,1.0204104E0,4.949351E-1,-6.6625065E-1,2.5329807E-1,-1.1311103E-2,-2.603243E-1,-7.440152E-2,1.8960533E-1,-5.499683E-1,-1.6963968E-1,-9.294362E-2,-5.726368E-1,1.0446392E-2,8.125582E-2,3.008826E-1,-1.7438833E-1,6.364761E-3,1.2780452E-2,6.3104737E-3,1.9303837E-3,-1.0193476E-2,-2.9035294E-3,3.703931E-3,1.6041555E-3,-2.9994473E-3,3.6065849E-3,-1.7853023E-3,1.2880989E-3,3.0508651E-3,8.6041306E-5,-6.618993E-3,1.7435631E-3,-2.1887028E-3,2.0762158E-3,-4.112421E-3,1.2563594E-3,-6.4805965E-3,-2.8405595E-3,2.316473E-3,-1.15238945E-4,2.164396E-3,7.7299243E-3,-2.9309948E-3,-7.873974E-4],"categories":[],"categories_nodes":[],"categories_segments":[],"categories_sizes":[],"default_left":[0,0,0,0,0,0,0,0,0,0,0,0,0,0,0,0,0,0,0,0,0,0,0,0,0,0,0,0,0,0,0,0,0,0,0,0,0,0,0,0,0,0,0,0,0,0,0,0,0,0,0,0,0,0,0,0,0,0,0],"id":15,"left_children":[1,3,5,7,9,11,13,15,17,19,21,23,25,27,29,31,33,35,37,-1,39,41,43,45,47,49,51,-1,53,55,57,-1,-1,-1,-1,-1,-1,-1,-1,-1,-1,-1,-1,-1,-1,-1,-1,-1,-1,-1,-1,-1,-1,-1,-1,-1,-1,-1,-1],"loss_changes":[6.2696936E2,3.5558835E2,1.5119775E2,9.774652E1,9.823143E1,6.2113556E1,7.423509E1,3.6954163E1,6.872925E1,4.0637733E1,6.562515E1,3.9045937E1,4.301581E1,3.1245358E1,5.3846375E1,1.3733643E1,2.8691376E1,1.0051975E1,6.377643E1,0E0,2.0206413E1,5.0568672E1,2.7902382E1,2.0672394E1,2.3549526E1,1.4096597E1,2.0953186E1,0E0,1.7279896E1,1.0211672E1,5.7934357E1,0E0,0E0,0E0,0E0,0E0,0E0,0E0,0E0,0E0,0E0,0E0,0E0,0E0,0E0,0E0,0E0,0E0,0E0,0E0,0E0,0E0,0E0,0E0,0E0,0E0,0E0,0E0,0E0],"parents":[2147483647,0,0,1,1,2,2,3,3,4,4,5,5,6,6,7,7,8,8,9,9,10,10,11,11,12,12,13,13,14,14,15,15,16,16,17,17,18,18,20,20,21,21,22,22,23,23,24,24,25,25,26,26,28,28,29,29,30,30],"right_children":[2,4,6,8,10,12,14,16,18,20,22,24,26,28,30,32,34,36,38,-1,40,42,44,46,48,50,52,-1,54,56,58,-1,-1,-1,-1,-1,-1,-1,-1,-1,-1,-1,-1,-1,-1,-1,-1,-1,-1,-1,-1,-1,-1,-1,-1,-1,-1,-1,-1],"split_conditions":[3.0004883E-1,1.15983916E-4,5.0782915E-3,2.7179488E-3,4.20296E-3,5.217622E-1,2.1151228E1,1.0290896E-3,1.2963442E-3,8.4515504E-4,3.2829294E-1,2.1503605E-3,-2.8712273E-4,6.813707E-4,1.7074111E-3,5.6221324E-4,1.9640326E-1,9.568308E-1,1.1109604E-1,-1.1311103E-2,2.53002E5,1E0,1E0,1E0,5.0010175E-1,1.5154833E-3,1.0074603E-3,1.0446392E-2,-2.3232645E-1,1.2093611E0,-1.1701672E-3,6.364761E-3,1.2780452E-2,6.3104737E-3,1.9303837E-3,-1.0193476E-2,-2.9035294E-3,3.703931E-3,1.6041555E-3,-2.9994473E-3,3.6065849E-3,-1.7853023E-3,1.2880989E-3,3.0508651E-3,8.6041306E-5,-6.618993E-3,1.7435631E-3,-2.1887028E-3,2.0762158E-3,-4.112421E-3,1.2563594E-3,-6.4805965E-3,-2.8405595E-3,2.316473E-3,-1.15238945E-4,2.164396E-3,7.7299243E-3,-2.9309948E-3,-7.873974E-4],"split_indices":[5,0,57,58,57,5,27,58,57,57,4,57,16,58,58,6,5,39,5,0,42,60,59,36,4,21,17,0,28,31,40,0,0,0,0,0,0,0,0,0,0,0,0,0,0,0,0,0,0,0,0,0,0,0,0,0,0,0,0],"split_type":[0,0,0,0,0,0,0,0,0,0,0,0,0,0,0,0,0,0,0,0,0,0,0,0,0,0,0,0,0,0,0,0,0,0,0,0,0,0,0,0,0,0,0,0,0,0,0,0,0,0,0,0,0,0,0,0,0,0,0],"sum_hessian":[2.3075285E4,1.2594221E4,1.0481064E4,7.2952812E3,5.2989395E3,3.4357861E3,7.045278E3,9.801382E2,6.315143E3,1.2176359E3,4.0813035E3,1.8690276E3,1.5667585E3,1.3549163E3,5.690362E3,1.5995407E2,8.201841E2,8.2320366E1,6.2328228E3,6.215749E1,1.1554784E3,2.6077678E3,1.4735356E3,3.2720456E2,1.5418231E3,2.1701053E2,1.349748E3,3.7474815E1,1.3174414E3,2.4927115E2,5.4410903E3,5.4725185E1,1.0522888E2,6.0010223E2,2.200819E2,4.524203E1,3.707833E1,3.0394868E3,3.1933362E3,1.1033032E3,5.2175083E1,1.7479612E3,8.5980664E2,9.3497614E2,5.385595E2,2.9149728E2,3.5707264E1,1.3869032E3,1.5491989E2,8.974979E1,1.2726075E2,1.1498153E3,1.9993272E2,5.191756E2,7.982658E2,2.0643356E2,4.2837578E1,2.5941165E3,2.846974E3],"tree_param":{"num_deleted":"0","num_feature":"63","num_nodes":"59","size_leaf_vector":"1"}},{"base_weights":[1.3951631E-3,1.5101504E-1,-1.7848656E-1,2.7896816E-1,-6.729883E-2,-5.4284203E-1,-1.3380127E-1,4.337108E-1,1.784314E-1,-4.620557E-1,-2.7702762E-2,-9.515246E-1,-4.5546296E-1,-4.6210434E-2,-2.522389E-1,1.5179281E-1,5.0345296E-1,5.4482013E-1,1.4524479E-1,-9.0690565E-1,-2.336214E-1,-1.2006726E-1,1.5406707E-1,-1.0738434E0,-3.3956645E-3,-4.997258E-1,3.2284945E-2,1.1097636E-1,-1.01237886E-1,-4.2022917E-1,-1.6145638E-1,-1.769128E-4,4.395891E-3,1.2887526E-2,4.9879565E-3,8.928017E-3,4.261753E-3,-6.1729937E-3,1.6564447E-3,-7.271597E-3,-1.2042736E-2,-1.0486757E-2,-7.8322995E-4,-2.4614977E-3,7.4869243E-4,1.1656223E-3,6.647433E-3,-9.912794E-3,-1.5982855E-2,-4.2099897E-3,-7.331287E-3,4.6052095E-3,-3.7584081E-3,7.695305E-3,9.2100457E-4,-1.7015953E-3,3.6426575E-4,-7.469715E-5,-5.022525E-3,6.5694293E-3,-1.9385008E-3],"categories":[],"categories_nodes":[],"categories_segments":[],"categories_sizes":[],"default_left":[0,0,0,0,0,0,0,0,0,0,0,0,0,0,0,0,0,0,0,0,0,0,0,0,0,0,0,0,0,0,0,0,0,0,0,0,0,0,0,0,0,0,0,0,0,0,0,0,0,0,0,0,0,0,0,0,0,0,0,0,0],"id":16,"left_children":[1,3,5,7,9,11,13,15,17,19,21,23,25,27,29,31,33,35,37,39,41,43,45,47,-1,49,51,53,55,57,59,-1,-1,-1,-1,-1,-1,-1,-1,-1,-1,-1,-1,-1,-1,-1,-1,-1,-1,-1,-1,-1,-1,-1,-1,-1,-1,-1,-1,-1,-1],"loss_changes":[6.209058E2,3.5181305E2,1.7055481E2,1.2353046E2,7.274454E1,4.085013E1,9.680296E1,6.1482666E1,5.852382E1,4.3104485E1,7.101395E1,1.5376251E1,2.0356628E1,4.6398922E1,6.0497955E1,2.8472729E1,4.2046326E1,1.6905128E1,4.7053505E1,7.495949E0,3.4449223E1,6.3169083E1,2.8933285E1,9.257477E0,0E0,1.6792587E1,1.2749127E1,1.9482464E1,3.4000107E1,3.6694504E1,5.193239E1,0E0,0E0,0E0,0E0,0E0,0E0,0E0,0E0,0E0,0E0,0E0,0E0,0E0,0E0,0E0,0E0,0E0,0E0,0E0,0E0,0E0,0E0,0E0,0E0,0E0,0E0,0E0,0E0,0E0,0E0],"parents":[2147483647,0,0,1,1,2,2,3,3,4,4,5,5,6,6,7,7,8,8,9,9,10,10,11,11,12,12,13,13,14,14,15,15,16,16,17,17,18,18,19,19,20,20,21,21,22,22,23,23,25,25,26,26,27,27,28,28,29,29,30,30],"right_children":[2,4,6,8,10,12,14,16,18,20,22,24,26,28,30,32,34,36,38,40,42,44,46,48,-1,50,52,54,56,58,60,-1,-1,-1,-1,-1,-1,-1,-1,-1,-1,-1,-1,-1,-1,-1,-1,-1,-1,-1,-1,-1,-1,-1,-1,-1,-1,-1,-1,-1,-1],"split_conditions":[3.0004883E-1,1.9012073E-4,2.8262811E-3,3.7221346E-4,2.521466E-3,1.2963442E-3,5.2634287E-1,3.9550138E-4,2.4509805E-3,1.9038E4,1E0,9.6000165E-1,1.8051488E0,2.5E1,1.9950834E-3,-4.671673E-2,8.711298E-4,4.3519795E-2,1.2963442E-3,1.2440126E-2,8.4515504E-4,2.7780792E-1,7.345342E1,9.000244E-1,-3.3956645E-3,6.153268E-1,7.681728E-1,8.711298E-4,1E0,2.4330914E-4,1.4625031E-3,-1.769128E-4,4.395891E-3,1.2887526E-2,4.9879565E-3,8.928017E-3,4.261753E-3,-6.1729937E-3,1.6564447E-3,-7.271597E-3,-1.2042736E-2,-1.0486757E-2,-7.8322995E-4,-2.4614977E-3,7.4869243E-4,1.1656223E-3,6.647433E-3,-9.912794E-3,-1.5982855E-2,-4.2099897E-3,-7.331287E-3,4.6052095E-3,-3.7584081E-3,7.695305E-3,9.2100457E-4,-1.7015953E-3,3.6426575E-4,-7.469715E-5,-5.022525E-3,6.5694293E-3,-1.9385008E-3],"split_indices":[5,0,57,22,57,57,5,6,58,42,60,24,39,27,33,28,58,5,57,58,57,4,25,9,0,5,34,58,60,6,58,0,0,0,0,0,0,0,0,0,0,0,0,0,0,0,0,0,0,0,0,0,0,0,0,0,0,0,0,0,0],"split_type":[0,0,0,0,0,0,0,0,0,0,0,0,0,0,0,0,0,0,0,0,0,0,0,0,0,0,0,0,0,0,0,0,0,0,0,0,0,0,0,0,0,0,0,0,0,0,0,0,0,0,0,0,0,0,0,0,0,0,0,0,0],"sum_hessian":[2.3070021E4,1.2594403E4,1.0475617E4,7.940493E3,4.6539097E3,1.1443531E3,9.331265E3,3.1271567E3,4.8133364E3,4.2421848E2,4.2296914E3,2.0150687E2,9.4284625E2,5.3642056E3,3.9670588E3,6.202095E2,2.5069473E3,3.9972192E2,4.4136147E3,1.4389224E2,2.8032623E2,2.8045835E3,1.4251079E3,1.684691E2,3.3037766E1,8.644014E2,7.8444855E1,1.390936E3,3.9732695E3,1.3916731E3,2.5753857E3,3.826253E2,2.375842E2,7.474572E1,2.4322014E3,1.1910655E2,2.8061536E2,8.420683E1,4.3294077E3,7.948556E1,6.440669E1,4.7365467E1,2.3296077E2,1.7424673E3,1.0621162E3,1.3126014E3,1.1250638E2,1.3444899E2,3.4020107E1,5.9446124E2,2.699402E2,3.8390778E1,4.0054073E1,4.727612E1,1.3436599E3,2.7208474E3,1.2524221E3,1.8630547E2,1.2053677E3,7.966731E1,2.4957183E3],"tree_param":{"num_deleted":"0","num_feature":"63","num_nodes":"61","size_leaf_vector":"1"}},{"base_weights":[6.9930544E-4,1.289792E-1,-1.9365777E-1,2.7853566E-1,-7.4955896E-2,-5.492831E-1,-1.4955218E-1,4.6976134E-1,1.9400162E-1,-4.8496556E-1,-3.1663325E-2,-1.5507078E-2,-5.126911E-1,1.360886E-2,-2.1339908E-1,4.0225503E-1,7.5977105E-1,3.5219276E-1,9.446941E-2,-1.3939697E-2,-4.1077462E-1,-1.2167664E-1,1.4883971E-1,-6.6540325E-1,-3.3474478E-1,7.534075E-1,-8.676462E-3,-2.6641764E-2,-2.6930797E-1,5.396363E-3,2.7833465E-3,9.373458E-3,6.409977E-3,-4.3455925E-4,4.0432457E-3,-9.224837E-3,1.124879E-3,-7.037457E-3,-2.277195E-3,3.4733552E-3,-1.8480805E-3,1.214533E-3,5.6815585E-3,8.891882E-4,-7.5220363E-3,-5.9916545E-3,-1.8338299E-3,1.1552204E-2,4.076078E-3,2.6918405E-3,-6.595672E-4,-1.9741275E-3,9.556157E-4,-2.11953E-3,-4.761989E-3],"categories":[],"categories_nodes":[],"categories_segments":[],"categories_sizes":[],"default_left":[0,0,0,0,0,0,0,0,0,0,0,0,0,0,0,0,0,0,0,0,0,0,0,0,0,0,0,0,0,0,0,0,0,0,0,0,0,0,0,0,0,0,0,0,0,0,0,0,0,0,0,0,0,0,0],"id":17,"left_children":[1,3,5,7,9,11,13,15,17,19,21,-1,23,25,27,29,31,33,35,-1,37,39,41,43,45,47,49,51,53,-1,-1,-1,-1,-1,-1,-1,-1,-1,-1,-1,-1,-1,-1,-1,-1,-1,-1,-1,-1,-1,-1,-1,-1,-1,-1],"loss_changes":[5.7253143E2,4.219146E2,1.432062E2,1.2900488E2,1.038867E2,3.481668E1,8.461931E1,4.7883728E1,8.713643E1,3.558194E1,8.601204E1,0E0,2.634874E1,3.7666332E1,6.095993E1,3.133255E1,9.398621E0,3.1578156E1,4.6596718E1,0E0,2.6324326E1,9.099805E1,2.2322315E1,2.3352646E1,1.717844E1,8.654976E0,3.2641647E1,2.6135836E1,5.5410004E1,0E0,0E0,0E0,0E0,0E0,0E0,0E0,0E0,0E0,0E0,0E0,0E0,0E0,0E0,0E0,0E0,0E0,0E0,0E0,0E0,0E0,0E0,0E0,0E0,0E0,0E0],"parents":[2147483647,0,0,1,1,2,2,3,3,4,4,5,5,6,6,7,7,8,8,9,9,10,10,12,12,13,13,14,14,15,15,16,16,17,17,18,18,20,20,21,21,22,22,23,23,24,24,25,25,26,26,27,27,28,28],"right_children":[2,4,6,8,10,12,14,16,18,20,22,-1,24,26,28,30,32,34,36,-1,38,40,42,44,46,48,50,52,54,-1,-1,-1,-1,-1,-1,-1,-1,-1,-1,-1,-1,-1,-1,-1,-1,-1,-1,-1,-1,-1,-1,-1,-1,-1,-1],"split_conditions":[3.3360454E-1,9.536289E-5,2.8262811E-3,2.6336455E-4,2.5802248E-3,6.5455417E-4,2.976225E1,1E0,1.1109604E-1,6.5455417E-4,1E0,-1.5507078E-2,-1.9563478E-1,8.711298E-4,4.093998E-4,6.2732054E-3,4.918853E0,2.732427E-3,1.2963442E-3,-1.3939697E-2,2.4091E4,2.4509805E-3,7.345342E1,2.0555514E-4,-9.496991E-1,1.3031738E-1,-1.4700928E0,8.1297505E-4,6.4713484E-1,5.396363E-3,2.7833465E-3,9.373458E-3,6.409977E-3,-4.3455925E-4,4.0432457E-3,-9.224837E-3,1.124879E-3,-7.037457E-3,-2.277195E-3,3.4733552E-3,-1.8480805E-3,1.214533E-3,5.6815585E-3,8.891882E-4,-7.5220363E-3,-5.9916545E-3,-1.8338299E-3,1.1552204E-2,4.076078E-3,2.6918405E-3,-6.595672E-4,-1.9741275E-3,9.556157E-4,-2.11953E-3,-4.761989E-3],"split_indices":[5,0,57,22,57,57,27,36,5,57,60,0,38,58,6,58,27,57,57,0,42,58,25,6,46,24,9,22,5,0,0,0,0,0,0,0,0,0,0,0,0,0,0,0,0,0,0,0,0,0,0,0,0,0,0],"split_type":[0,0,0,0,0,0,0,0,0,0,0,0,0,0,0,0,0,0,0,0,0,0,0,0,0,0,0,0,0,0,0,0,0,0,0,0,0,0,0,0,0,0,0,0,0,0,0,0,0,0,0,0,0,0,0],"sum_hessian":[2.2963545E4,1.3833288E4,9.130258E3,7.9806436E3,5.8526445E3,1.0073686E3,8.1228887E3,2.4464104E3,5.534233E3,5.589192E2,5.293725E3,3.748625E1,9.698824E2,2.2846038E3,5.838285E3,1.9845514E3,4.6185892E2,2.137272E3,3.3969612E3,4.440637E1,5.145128E2,3.5322659E3,1.7614592E3,5.218936E2,4.4798874E2,6.677148E1,2.2178323E3,1.34512E3,4.493165E3,1.0558799E3,9.286716E2,2.294942E2,2.3236472E2,1.856705E2,1.9516014E3,4.7457535E1,3.3495037E3,2.1449542E2,3.0001736E2,3.8868967E2,3.1435762E3,1.6314629E3,1.2999634E2,3.834478E1,4.8354883E2,1.7659709E2,2.7139166E2,3.3372902E1,3.339858E1,3.768775E2,1.8409547E3,5.6565265E2,7.794673E2,3.345934E3,1.1472312E3],"tree_param":{"num_deleted":"0","num_feature":"63","num_nodes":"55","size_leaf_vector":"1"}},{"base_weights":[2.8829097E-3,1.3545208E-1,-1.943589E-1,2.773012E-1,-6.145791E-2,-3.8551974E-1,-9.967316E-2,3.9923E-1,1.7585693E-1,-1.1906909E-1,2.4039638E-1,-1.5869632E-2,-3.7112534E-1,3.6106598E-1,-1.310526E-1,1.7229983E-1,4.705425E-1,2.9391902E-3,2.5232774E-1,-1.347299E-2,-1.0965819E-1,3.0209073E-1,-1.08032525E-1,1.2902847E-1,-4.0452224E-1,7.536521E-1,2.59414E-1,-1.9709766E-1,2.973533E-2,2.8794424E-3,-2.6636939E-3,7.6837544E-3,4.381453E-3,-7.46719E-3,3.8285265E-4,3.7532763E-3,1.523688E-3,-1.8333202E-3,7.938887E-4,-2.203011E-3,3.5430505E-3,1.1431924E-3,-5.472753E-3,3.7590247E-3,-2.9924551E-3,-1.6620988E-3,-4.7961436E-3,1.0583932E-2,4.2032828E-3,1.553471E-3,7.958997E-3,-9.193004E-4,-3.1380046E-3,4.981207E-3,1.6670418E-5],"categories":[],"categories_nodes":[],"categories_segments":[],"categories_sizes":[],"default_left":[0,0,0,0,0,0,0,0,0,0,0,0,0,0,0,0,0,0,0,0,0,0,0,0,0,0,0,0,0,0,0,0,0,0,0,0,0,0,0,0,0,0,0,0,0,0,0,0,0,0,0,0,0,0,0],"id":18,"left_children":[1,3,5,7,9,11,13,15,17,19,21,-1,23,25,27,29,31,33,35,-1,37,39,41,43,45,47,49,51,53,-1,-1,-1,-1,-1,-1,-1,-1,-1,-1,-1,-1,-1,-1,-1,-1,-1,-1,-1,-1,-1,-1,-1,-1,-1,-1],"loss_changes":[6.012503E2,3.8409863E2,1.672904E2,9.886597E1,1.0013696E2,5.039279E1,8.936544E1,5.8742615E1,5.7695526E1,5.36653E1,1.9839375E1,0E0,5.0506165E1,1.5721493E1,6.145307E1,3.91873E1,3.598175E1,3.2834225E1,3.491034E1,0E0,5.98693E1,1.5887901E1,1.2710697E1,1.843508E1,3.9972595E1,7.5099487E0,1.7432953E1,4.688092E1,2.13446E1,0E0,0E0,0E0,0E0,0E0,0E0,0E0,0E0,0E0,0E0,0E0,0E0,0E0,0E0,0E0,0E0,0E0,0E0,0E0,0E0,0E0,0E0,0E0,0E0,0E0,0E0],"parents":[2147483647,0,0,1,1,2,2,3,3,4,4,5,5,6,6,7,7,8,8,9,9,10,10,12,12,13,13,14,14,15,15,16,16,17,17,18,18,20,20,21,21,22,22,23,23,24,24,25,25,26,26,27,27,28,28],"right_children":[2,4,6,8,10,12,14,16,18,20,22,-1,24,26,28,30,32,34,36,-1,38,40,42,44,46,48,50,52,54,-1,-1,-1,-1,-1,-1,-1,-1,-1,-1,-1,-1,-1,-1,-1,-1,-1,-1,-1,-1,-1,-1,-1,-1,-1,-1],"split_conditions":[3.3340114E-1,1.02157144E-4,5.0782915E-3,4.524358E-4,4.9989828E-1,6.5455417E-4,1.7802746E-3,4.335486E-4,5.116596E-3,6.5455417E-4,1.8046239E-1,-1.5869632E-2,-6.946584E-1,8.711298E-4,1E0,8.7706155E-1,-8.279024E-2,1.1573741E-3,1.5085214E-1,-1.347299E-2,1.3602986E0,3.4884532E-4,3.332655E-1,-6.7880076E-1,2.976225E1,-3.0716646E-1,7.220548E-3,5.0061053E-1,-1.0904E5,2.8794424E-3,-2.6636939E-3,7.6837544E-3,4.381453E-3,-7.46719E-3,3.8285265E-4,3.7532763E-3,1.523688E-3,-1.8333202E-3,7.938887E-4,-2.203011E-3,3.5430505E-3,1.1431924E-3,-5.472753E-3,3.7590247E-3,-2.9924551E-3,-1.6620988E-3,-4.7961436E-3,1.0583932E-2,4.2032828E-3,1.553471E-3,7.958997E-3,-9.193004E-4,-3.1380046E-3,4.981207E-3,1.6670418E-5],"split_indices":[5,0,57,22,4,57,58,6,57,57,12,0,45,58,60,30,34,57,5,0,39,21,3,46,27,44,12,5,42,0,0,0,0,0,0,0,0,0,0,0,0,0,0,0,0,0,0,0,0,0,0,0,0,0,0],"split_type":[0,0,0,0,0,0,0,0,0,0,0,0,0,0,0,0,0,0,0,0,0,0,0,0,0,0,0,0,0,0,0,0,0,0,0,0,0,0,0,0,0,0,0,0,0,0,0,0,0,0,0,0,0,0,0],"sum_hessian":[2.2993887E4,1.3751386E4,9.2425E3,7.993238E3,5.758148E3,3.061509E3,6.180991E3,3.6300564E3,4.3631816E3,4.8353145E3,9.228335E2,3.7994007E1,3.023515E3,3.9409912E2,5.786892E3,8.6800964E2,2.7620469E3,1.3379083E3,3.0252732E3,3.8235E1,4.7970796E3,7.8401697E2,1.388165E2,1.8924622E2,2.8342688E3,8.100609E1,3.1309305E2,4.1019653E3,1.6849271E3,6.970674E2,1.7094226E2,4.187487E2,2.343298E3,6.0018982E1,1.2778894E3,1.484904E3,1.5403691E3,3.5270789E3,1.2700006E3,5.574584E1,7.282712E2,9.132914E1,4.7487366E1,1.21408615E2,6.78376E1,5.416801E2,2.2925886E3,4.5870823E1,3.513527E1,2.575031E2,5.5589924E1,2.0207455E3,2.0812195E3,9.9017494E1,1.5859095E3],"tree_param":{"num_deleted":"0","num_feature":"63","num_nodes":"55","size_leaf_vector":"1"}},{"base_weights":[1.02100335E-2,1.7707463E-1,-1.4003016E-1,3.3441192E-1,-3.3051357E-2,1.3575548E-1,-1.8720916E-1,6.55884E-1,2.823478E-1,-9.391219E-2,2.628775E-1,7.5689906E-1,1.04456455E-1,-2.5024828E-1,-2.0090112E-2,5.0322115E-1,8.1654054E-1,2.4230018E-1,5.373998E-1,-1.4803435E-1,1.4011136E-1,2.9389656E-1,-3.9151846E-3,1.0707466E-2,3.1693731E-3,4.9874273E-1,7.0310876E-2,1.6243578E-1,-2.7337778E-1,7.7408585E-3,-3.5724107E-2,-1.4100862E-3,6.1960015E-3,2.9133812E-3,8.9984145E-3,3.988498E-3,1.8625914E-3,6.022457E-3,-6.939691E-4,7.175715E-3,-1.7321362E-3,9.0765866E-4,5.6774216E-3,2.0481867E-3,5.1037134E-3,7.7303443E-3,1.3223425E-3,-3.5103094E-5,2.608167E-3,4.0167277E-3,-2.3783878E-3,-3.44164E-3,-1.388547E-3,3.1160476E-4,-1.79568E-3],"categories":[],"categories_nodes":[],"categories_segments":[],"categories_sizes":[],"default_left":[0,0,0,0,0,0,0,0,0,0,0,0,0,0,0,0,0,0,0,0,0,0,0,0,0,0,0,0,0,0,0,0,0,0,0,0,0,0,0,0,0,0,0,0,0,0,0,0,0,0,0,0,0,0,0],"id":19,"left_children":[1,3,5,7,9,11,13,15,17,19,21,23,25,27,29,31,33,35,37,39,41,43,-1,-1,-1,45,47,49,51,-1,53,-1,-1,-1,-1,-1,-1,-1,-1,-1,-1,-1,-1,-1,-1,-1,-1,-1,-1,-1,-1,-1,-1,-1,-1],"loss_changes":[5.7639435E2,3.6013443E2,1.5741782E2,1.0424878E2,8.4004715E1,3.4356987E1,1.08838745E2,2.127768E1,5.4752136E1,4.8999687E1,1.5804359E1,1.0515903E1,2.2652271E1,7.1604614E1,3.3894806E1,2.6737411E1,1.1483459E1,4.133795E1,1.8921661E1,4.988308E1,1.5566774E1,1.4494843E1,0E0,0E0,0E0,1.2259785E1,2.0663004E1,3.504136E1,5.781427E1,0E0,2.5044617E1,0E0,0E0,0E0,0E0,0E0,0E0,0E0,0E0,0E0,0E0,0E0,0E0,0E0,0E0,0E0,0E0,0E0,0E0,0E0,0E0,0E0,0E0,0E0,0E0],"parents":[2147483647,0,0,1,1,2,2,3,3,4,4,5,5,6,6,7,7,8,8,9,9,10,10,11,11,12,12,13,13,14,14,15,15,16,16,17,17,18,18,19,19,20,20,21,21,25,25,26,26,27,27,28,28,30,30],"right_children":[2,4,6,8,10,12,14,16,18,20,22,24,26,28,30,32,34,36,38,40,42,44,-1,-1,-1,46,48,50,52,-1,54,-1,-1,-1,-1,-1,-1,-1,-1,-1,-1,-1,-1,-1,-1,-1,-1,-1,-1,-1,-1,-1,-1,-1,-1],"split_conditions":[2.4996185E-1,1.02157144E-4,1.869951E1,2.7179488E-3,4.993895E-1,1.0290896E-3,3.076634E-1,6.038082E-4,1E0,1.6581522E0,1.4836219E-3,1.1111111E-1,-8.279024E-2,-6.9779044E-1,1.3723548E-3,-8.927492E-4,-7.193398E-1,1.9617628E-3,6.6911657E-3,1.543586E-3,1.8019168E0,1E0,-3.9151846E-3,1.0707466E-2,3.1693731E-3,-1.6900139E-3,3.3342376E-1,-6.7880076E-1,1.0926733E-3,7.7408585E-3,4.5455554E-1,-1.4100862E-3,6.1960015E-3,2.9133812E-3,8.9984145E-3,3.988498E-3,1.8625914E-3,6.022457E-3,-6.939691E-4,7.175715E-3,-1.7321362E-3,9.0765866E-4,5.6774216E-3,2.0481867E-3,5.1037134E-3,7.7303443E-3,1.3223425E-3,-3.5103094E-5,2.608167E-3,4.0167277E-3,-2.3783878E-3,-3.44164E-3,-1.388547E-3,3.1160476E-4,-1.79568E-3],"split_indices":[5,0,27,58,4,58,4,6,36,39,15,24,34,45,58,15,45,33,33,58,31,60,0,0,0,8,4,46,21,0,5,0,0,0,0,0,0,0,0,0,0,0,0,0,0,0,0,0,0,0,0,0,0,0,0],"split_type":[0,0,0,0,0,0,0,0,0,0,0,0,0,0,0,0,0,0,0,0,0,0,0,0,0,0,0,0,0,0,0,0,0,0,0,0,0,0,0,0,0,0,0,0,0,0,0,0,0,0,0,0,0,0,0],"sum_hessian":[2.2991535E4,1.0893092E4,1.2098443E4,6.228968E3,4.6641235E3,1.7673427E3,1.0331101E4,8.681429E2,5.360825E3,3.8685435E3,7.955802E2,8.4741035E1,1.6826017E3,7.5014517E3,2.8296484E3,4.452259E2,4.22917E2,4.6333774E3,7.274474E2,3.1419297E3,7.266138E2,7.5883466E2,3.674558E1,5.2625736E1,3.2115295E1,1.340606E2,1.548541E3,3.981046E2,7.103347E3,5.6551773E1,2.7730967E3,5.705414E1,3.8817175E2,3.6595413E1,3.8632156E2,1.4197489E3,3.2136287E3,6.7908264E2,4.8364746E1,6.9164635E1,3.0727651E3,6.434638E2,8.315001E1,5.1024033E2,2.4859431E2,8.057374E1,5.348685E1,1.1006158E3,4.4792523E2,2.5297565E2,1.4512897E2,5.00958E3,2.0937673E3,1.875282E3,8.978147E2],"tree_param":{"num_deleted":"0","num_feature":"63","num_nodes":"55","size_leaf_vector":"1"}},{"base_weights":[-1.013247E-2,1.16247654E-1,-1.9676913E-1,2.4284275E-1,-9.368436E-2,-3.6068118E-1,-1.1997091E-1,5.1461077E-1,1.9513388E-1,-2.9474762E-1,-1.9254966E-2,-7.012994E-1,-3.1750247E-1,7.353485E-2,-1.6693793E-1,1.1244566E0,4.766147E-1,-1.0661852E-2,2.051579E-1,-1.4203156E-2,-2.648496E-1,-1.0943128E-1,1.7334096E-1,-1.4404988E-2,-6.1137426E-1,-3.53365E-1,8.592177E-2,2.589806E-1,-3.134159E-2,-2.1194983E-1,5.246355E-2,7.9697715E-3,1.4871921E-2,5.808905E-3,2.2356051E-3,3.1629677E-3,9.509395E-4,-3.8758605E-3,-1.4316489E-3,3.4279271E-3,-1.578428E-3,5.2648893E-4,3.7850912E-3,-8.867623E-3,-2.0540343E-3,-2.5090093E-3,-4.7452557E-3,4.183477E-3,-1.4904974E-3,5.123463E-3,4.8149767E-4,2.7909118E-3,-8.907396E-4,-6.7638364E-5,-2.7914662E-3,-1.0422375E-3,1.5248369E-3],"categories":[],"categories_nodes":[],"categories_segments":[],"categories_sizes":[],"default_left":[0,0,0,0,0,0,0,0,0,0,0,0,0,0,0,0,0,0,0,0,0,0,0,0,0,0,0,0,0,0,0,0,0,0,0,0,0,0,0,0,0,0,0,0,0,0,0,0,0,0,0,0,0,0,0,0,0],"id":20,"left_children":[1,3,5,7,9,11,13,15,17,19,21,23,25,27,29,31,33,-1,35,-1,37,39,41,-1,43,45,47,49,51,53,55,-1,-1,-1,-1,-1,-1,-1,-1,-1,-1,-1,-1,-1,-1,-1,-1,-1,-1,-1,-1,-1,-1,-1,-1,-1,-1],"loss_changes":[5.411006E2,3.635199E2,1.1659213E2,1.106301E2,7.700284E1,4.3453064E1,5.7322365E1,2.9505463E1,8.8973114E1,4.46307E1,6.522325E1,2.0505875E1,3.7945587E1,2.3959091E1,5.0122528E1,8.180939E0,2.607193E1,0E0,8.1463165E1,0E0,1.8651054E1,4.8033535E1,2.8111053E1,0E0,2.9564087E1,2.7932098E1,1.5599974E1,2.2212072E1,1.2882547E1,4.93898E1,1.2485699E1,0E0,0E0,0E0,0E0,0E0,0E0,0E0,0E0,0E0,0E0,0E0,0E0,0E0,0E0,0E0,0E0,0E0,0E0,0E0,0E0,0E0,0E0,0E0,0E0,0E0,0E0],"parents":[2147483647,0,0,1,1,2,2,3,3,4,4,5,5,6,6,7,7,8,8,9,9,10,10,11,11,12,12,13,13,14,14,15,15,16,16,18,18,20,20,21,21,22,22,24,24,25,25,26,26,27,27,28,28,29,29,30,30],"right_children":[2,4,6,8,10,12,14,16,18,20,22,24,26,28,30,32,34,-1,36,-1,38,40,42,-1,44,46,48,50,52,54,56,-1,-1,-1,-1,-1,-1,-1,-1,-1,-1,-1,-1,-1,-1,-1,-1,-1,-1,-1,-1,-1,-1,-1,-1,-1,-1],"split_conditions":[3.3340114E-1,1.6246905E-4,4.9515953E-3,2.8758773E-3,4.672897E-3,1.6951107E-3,-7.591148E-4,6.813707E-4,1.0200612E-3,6.5455417E-4,1E0,6.5455417E-4,1.8344706E0,3.4390705E1,3.719408E-1,7.414838E-4,2.4003907E-1,-1.0661852E-2,1.5618207E-1,-1.4203156E-2,8.0731905E-1,2.1083916E-3,4.3232E4,-1.4404988E-2,6.2088913E1,5.217622E-1,-1.3988296E0,2.6317143E-1,3.2348733E-4,3.868201E-4,-1.9848543E-5,7.9697715E-3,1.4871921E-2,5.808905E-3,2.2356051E-3,3.1629677E-3,9.509395E-4,-3.8758605E-3,-1.4316489E-3,3.4279271E-3,-1.578428E-3,5.2648893E-4,3.7850912E-3,-8.867623E-3,-2.0540343E-3,-2.5090093E-3,-4.7452557E-3,4.183477E-3,-1.4904974E-3,5.123463E-3,4.8149767E-4,2.7909118E-3,-8.907396E-4,-6.7638364E-5,-2.7914662E-3,-1.0422375E-3,1.5248369E-3],"split_indices":[5,0,57,58,57,57,2,58,57,57,60,57,39,25,4,6,5,0,5,0,34,58,42,0,25,5,26,3,22,6,0,0,0,0,0,0,0,0,0,0,0,0,0,0,0,0,0,0,0,0,0,0,0,0,0,0,0],"split_type":[0,0,0,0,0,0,0,0,0,0,0,0,0,0,0,0,0,0,0,0,0,0,0,0,0,0,0,0,0,0,0,0,0,0,0,0,0,0,0,0,0,0,0,0,0,0,0,0,0,0,0,0,0,0,0,0,0],"sum_hessian":[2.2940393E4,1.3678247E4,9.2621455E3,8.532747E3,5.1454995E3,2.9550276E3,6.3071177E3,1.2741768E3,7.2585703E3,1.390121E3,3.7553787E3,3.3238785E2,2.62264E3,1.2318466E3,5.075271E3,7.4667244E1,1.1995094E3,5.8991955E1,7.1995786E3,3.7599445E1,1.3525215E3,2.5577961E3,1.1975824E3,3.840703E1,2.9398083E2,2.4085369E3,2.1410307E2,4.4497403E2,7.8687244E2,4.2112935E3,8.6397784E2,3.4731728E1,3.9935516E1,9.0954584E2,2.8996365E2,3.83313E3,3.3664485E3,7.283724E2,6.241491E2,2.2631152E2,2.3314846E3,7.301171E2,4.6746527E2,1.8504616E2,1.0893466E2,1.1620267E3,1.24651E3,8.987078E1,1.2423229E2,2.1140349E2,2.3357056E2,1.20850815E2,6.6602167E2,9.158201E2,3.2954731E3,3.299944E2,5.339835E2],"tree_param":{"num_deleted":"0","num_feature":"63","num_nodes":"57","size_leaf_vector":"1"}},{"base_weights":[-2.7645663E-3,1.195269E-1,-1.9182289E-1,2.4696E-1,-6.2316634E-2,-3.7503812E-1,-1.11078896E-1,3.759249E-1,1.3746253E-1,-4.395101E-1,-2.2068933E-2,-1.2564252E-1,-4.31118E-1,4.435509E-1,-1.3046512E-1,5.442906E-1,2.630761E-1,-4.466812E-1,1.5349673E-1,-1.4222744E-2,-3.619314E-1,-7.585665E-2,1.958424E-1,-2.5295004E-1,9.845439E-2,-1.3979548E-1,-4.765754E-1,2.1300091E-1,7.25905E-1,-3.572361E-2,-2.3383577E-1,4.1768327E-3,7.2062295E-3,8.4026E-3,2.3748793E-3,-6.998989E-3,3.113916E-4,7.1660924E-4,2.7424397E-3,-6.7654266E-3,-1.8970255E-3,-1.294378E-3,2.1655809E-3,2.9458955E-3,2.6644435E-4,-5.048773E-4,-6.0675046E-3,5.0899973E-3,-3.5881717E-4,-2.2407556E-3,4.7170874E-3,-6.124E-3,-3.3986412E-3,5.9689484E-3,1.668578E-4,9.758529E-3,3.3430718E-3,5.9035197E-3,-5.330983E-4,-3.1464293E-3,-5.2649976E-4],"categories":[],"categories_nodes":[],"categories_segments":[],"categories_sizes":[],"default_left":[0,0,0,0,0,0,0,0,0,0,0,0,0,0,0,0,0,0,0,0,0,0,0,0,0,0,0,0,0,0,0,0,0,0,0,0,0,0,0,0,0,0,0,0,0,0,0,0,0,0,0,0,0,0,0,0,0,0,0,0,0],"id":21,"left_children":[1,3,5,7,9,11,13,15,17,19,21,23,25,27,29,31,33,35,37,-1,39,41,43,45,47,49,51,53,55,57,59,-1,-1,-1,-1,-1,-1,-1,-1,-1,-1,-1,-1,-1,-1,-1,-1,-1,-1,-1,-1,-1,-1,-1,-1,-1,-1,-1,-1,-1,-1],"loss_changes":[5.3188403E2,3.2370782E2,1.3367166E2,1.1598227E2,8.738021E1,3.8655914E1,6.743906E1,7.165106E1,4.160782E1,4.007431E1,6.0960545E1,1.447899E1,2.9881012E1,1.3783611E1,5.9349564E1,3.221521E1,4.220128E1,1.2892706E1,4.0450363E1,0E0,2.6615364E1,5.8041138E1,1.5431797E1,2.1938444E1,9.592798E0,1.37963505E1,3.305121E1,8.322624E0,8.236797E0,2.9936981E1,3.6831665E1,0E0,0E0,0E0,0E0,0E0,0E0,0E0,0E0,0E0,0E0,0E0,0E0,0E0,0E0,0E0,0E0,0E0,0E0,0E0,0E0,0E0,0E0,0E0,0E0,0E0,0E0,0E0,0E0,0E0,0E0],"parents":[2147483647,0,0,1,1,2,2,3,3,4,4,5,5,6,6,7,7,8,8,9,9,10,10,11,11,12,12,13,13,14,14,15,15,16,16,17,17,18,18,20,20,21,21,22,22,23,23,24,24,25,25,26,26,27,27,28,28,29,29,30,30],"right_children":[2,4,6,8,10,12,14,16,18,20,22,24,26,28,30,32,34,36,38,-1,40,42,44,46,48,50,52,54,56,58,60,-1,-1,-1,-1,-1,-1,-1,-1,-1,-1,-1,-1,-1,-1,-1,-1,-1,-1,-1,-1,-1,-1,-1,-1,-1,-1,-1,-1,-1,-1],"split_conditions":[3.397052E-1,1.189638E-4,4.829752E-3,6.2732054E-3,2.5802248E-3,2.9410498E1,1.3723548E-3,9.098979E-2,1.3986393E-3,6.5455417E-4,4.4830778E-1,3.289134E-5,3.1819276E-4,4.28E-1,5.2634287E-1,5.7604763E-4,1.1564946E-3,2.2106415E-1,1E0,-1.4222744E-2,1.9577E4,6.610074E1,6.27E-1,-5.528202E-4,1.00097656E-1,1.7735887E-2,-1.4160709E-1,8.711298E-4,1.3232145E-5,2.66206E1,1E0,4.1768327E-3,7.2062295E-3,8.4026E-3,2.3748793E-3,-6.998989E-3,3.113916E-4,7.1660924E-4,2.7424397E-3,-6.7654266E-3,-1.8970255E-3,-1.294378E-3,2.1655809E-3,2.9458955E-3,2.6644435E-4,-5.048773E-4,-6.0675046E-3,5.0899973E-3,-3.5881717E-4,-2.2407556E-3,4.7170874E-3,-6.124E-3,-3.3986412E-3,5.9689484E-3,1.668578E-4,9.758529E-3,3.3430718E-3,5.9035197E-3,-5.330983E-4,-3.1464293E-3,-5.2649976E-4],"split_indices":[5,0,57,58,57,27,58,5,57,57,4,8,6,35,5,6,58,38,60,0,42,25,35,18,3,58,38,58,0,25,60,0,0,0,0,0,0,0,0,0,0,0,0,0,0,0,0,0,0,0,0,0,0,0,0,0,0,0,0,0,0],"split_type":[0,0,0,0,0,0,0,0,0,0,0,0,0,0,0,0,0,0,0,0,0,0,0,0,0,0,0,0,0,0,0,0,0,0,0,0,0,0,0,0,0,0,0,0,0,0,0,0,0,0,0,0,0,0,0,0,0,0,0,0,0],"sum_hessian":[2.3005072E4,1.3969186E4,9.035887E3,8.21337E3,5.755815E3,2.7639966E3,6.2718906E3,3.7713845E3,4.441986E3,5.5491223E2,5.200903E3,5.0744348E2,2.2565532E3,2.1179236E2,6.060098E3,1.513364E3,2.2580205E3,1.1864381E2,4.3233423E3,4.2623516E1,5.1228876E2,4.1713105E3,1.0295925E3,3.2360272E2,1.8384076E2,3.0460257E2,1.9519506E3,1.16628395E2,9.516397E1,3.1620552E3,2.898043E3,7.7880194E2,7.34562E2,1.328294E2,2.1251912E3,8.026082E1,3.8382984E1,2.453841E3,1.869501E3,1.955022E2,3.1678653E2,3.559715E3,6.1159515E2,6.7840753E2,3.5118494E2,2.0031978E2,1.2328295E2,4.6546703E1,1.3729407E2,2.700268E2,3.4575764E1,1.1073252E3,8.4462537E2,4.1044476E1,7.558392E1,6.210042E1,3.306355E1,7.9767006E1,3.082288E3,2.1013516E3,7.966913E2],"tree_param":{"num_deleted":"0","num_feature":"63","num_nodes":"61","size_leaf_vector":"1"}},{"base_weights":[-1.7201169E-4,1.2681107E-1,-1.6536817E-1,2.639871E-1,-5.8810193E-2,-5.070151E-1,-1.2570848E-1,3.9357817E-1,1.4687622E-1,-1.2197669E-1,1.722577E-1,-1.5163863E-2,-4.702832E-1,4.4689443E-2,-1.9377032E-1,7.40367E-1,3.5050425E-1,-6.074274E-1,1.7207836E-1,-4.8481598E-1,-8.327939E-2,6.4276874E-1,1.24821216E-1,-5.391851E-1,3.1030418E-2,5.5655503E-1,1.4996332E-2,-2.647879E-1,-3.6273573E-2,9.917461E-3,5.9839054E-3,3.156859E-3,6.1647804E-3,-2.6539357E-3,-9.641742E-3,1.3530214E-3,4.4234754E-3,-6.9171186E-3,-8.82624E-4,-1.4701867E-3,2.277561E-3,8.447921E-3,2.491545E-3,-1.2337108E-3,1.9614159E-3,-8.446959E-3,-4.667334E-3,-6.1431476E-3,3.0159515E-3,9.294783E-3,3.4887232E-3,4.072069E-3,-1.9592389E-4,2.645947E-3,-2.993537E-3,-1.1561596E-3,1.6806191E-3],"categories":[],"categories_nodes":[],"categories_segments":[],"categories_sizes":[],"default_left":[0,0,0,0,0,0,0,0,0,0,0,0,0,0,0,0,0,0,0,0,0,0,0,0,0,0,0,0,0,0,0,0,0,0,0,0,0,0,0,0,0,0,0,0,0,0,0,0,0,0,0,0,0,0,0,0,0],"id":22,"left_children":[1,3,5,7,9,11,13,15,17,19,21,-1,23,25,27,29,31,33,35,37,39,41,43,45,47,49,51,53,55,-1,-1,-1,-1,-1,-1,-1,-1,-1,-1,-1,-1,-1,-1,-1,-1,-1,-1,-1,-1,-1,-1,-1,-1,-1,-1,-1,-1],"loss_changes":[4.8256488E2,3.3118237E2,1.3546451E2,1.1350702E2,8.067555E1,3.6430847E1,1.0389183E2,5.3024902E1,7.469208E1,6.0945786E1,2.6481525E1,0E0,3.458989E1,3.8860996E1,7.15974E1,1.3809372E1,3.5582245E1,1.4367401E1,4.0282867E1,3.040718E1,6.937947E1,7.4934425E0,1.687304E1,2.1612854E1,1.9588556E1,1.0467106E1,3.090574E1,5.441385E1,2.9642212E1,0E0,0E0,0E0,0E0,0E0,0E0,0E0,0E0,0E0,0E0,0E0,0E0,0E0,0E0,0E0,0E0,0E0,0E0,0E0,0E0,0E0,0E0,0E0,0E0,0E0,0E0,0E0,0E0],"parents":[2147483647,0,0,1,1,2,2,3,3,4,4,5,5,6,6,7,7,8,8,9,9,10,10,12,12,13,13,14,14,15,15,16,16,17,17,18,18,19,19,20,20,21,21,22,22,23,23,24,24,25,25,26,26,27,27,28,28],"right_children":[2,4,6,8,10,12,14,16,18,20,22,-1,24,26,28,30,32,34,36,38,40,42,44,46,48,50,52,54,56,-1,-1,-1,-1,-1,-1,-1,-1,-1,-1,-1,-1,-1,-1,-1,-1,-1,-1,-1,-1,-1,-1,-1,-1,-1,-1,-1,-1],"split_conditions":[3.157286E-1,1.02157144E-4,2.7766635E-3,6.462585E-3,4.4438416E-1,6.5455417E-4,2.976225E1,1.6313158E-3,1.4990382E-3,2.521466E-3,2.4509805E-3,-1.5163863E-2,6.702855E1,1.2676086E-3,1E0,9.098979E-2,1E0,1.2293019E-3,1E0,9.926579E-1,4.000357E-3,1.098265E0,4.20296E-3,1.6029956E-3,1.6668928E-1,-6.22185E-4,-1.1908613E1,1.7802746E-3,1.1760505E-2,9.917461E-3,5.9839054E-3,3.156859E-3,6.1647804E-3,-2.6539357E-3,-9.641742E-3,1.3530214E-3,4.4234754E-3,-6.9171186E-3,-8.82624E-4,-1.4701867E-3,2.277561E-3,8.447921E-3,2.491545E-3,-1.2337108E-3,1.9614159E-3,-8.446959E-3,-4.667334E-3,-6.1431476E-3,3.0159515E-3,9.294783E-3,3.4887232E-3,4.072069E-3,-1.9592389E-4,2.645947E-3,-2.993537E-3,-1.1561596E-3,1.6806191E-3],"split_indices":[5,0,57,58,4,57,27,58,57,57,58,0,25,58,60,5,60,18,36,34,40,31,57,57,3,16,26,58,57,0,0,0,0,0,0,0,0,0,0,0,0,0,0,0,0,0,0,0,0,0,0,0,0,0,0,0,0],"split_type":[0,0,0,0,0,0,0,0,0,0,0,0,0,0,0,0,0,0,0,0,0,0,0,0,0,0,0,0,0,0,0,0,0,0,0,0,0,0,0,0,0,0,0,0,0,0,0,0,0,0,0,0,0,0,0,0,0],"sum_hessian":[2.300427E4,1.3006463E4,9.997807E3,7.479224E3,5.5272393E3,1.0398253E3,8.957981E3,3.550389E3,3.928835E3,4.3406606E3,1.1865785E3,3.8479675E1,1.0013457E3,2.5568157E3,6.401166E3,3.9219666E2,3.1581924E3,1.2699459E2,3.8018406E3,4.1828058E2,3.9223801E3,1.0862993E2,1.0779485E3,8.803457E2,1.20999985E2,1.4015079E2,2.416665E3,4.4117964E3,1.9893696E3,1.6921262E2,2.2298402E2,2.6544229E3,5.037695E2,6.0719257E1,6.627534E1,3.2664766E3,5.35364E2,2.8747882E2,1.3080176E2,3.2880498E3,6.343303E2,7.6162766E1,3.246716E1,2.247876E2,8.5316095E2,2.1586118E2,6.644845E2,3.5575787E1,8.54242E1,5.5133606E1,8.501717E1,1.9900887E2,2.217656E3,1.9256958E2,4.2192266E3,1.4425282E3,5.4684143E2],"tree_param":{"num_deleted":"0","num_feature":"63","num_nodes":"57","size_leaf_vector":"1"}},{"base_weights":[-2.6018552E-3,1.3212192E-1,-1.6415665E-1,2.5599402E-1,-7.792251E-2,3.41857E-2,-2.2355492E-1,5.979565E-1,2.096134E-1,-2.9473522E-1,3.1409333E-3,2.8760263E-1,-1.6983798E-2,-5.353882E-1,-1.9219352E-1,1.1432577E0,5.4966354E-1,4.6663868E-1,1.6643307E-1,-1.3443587E-2,-2.6117423E-1,-8.5602574E-2,1.938505E-1,-1.627785E-2,4.4209224E-1,8.9399874E-2,-2.0366652E-1,-1.6063243E-2,-4.7644475E-1,-2.7239624E-1,-5.06226E-2,1.491372E-2,9.550904E-3,4.1919653E-3,7.5442777E-3,2.7811679E-3,6.1692437E-3,-5.9866905E-3,1.8599755E-3,-4.4112857E-3,-1.8390556E-3,1.7764438E-3,-1.6396118E-3,1.5270392E-3,7.145428E-3,6.873613E-3,-2.69683E-3,3.028719E-3,8.037951E-3,-4.4172755E-4,2.1308253E-3,7.895846E-3,-2.7435445E-3,-5.749136E-3,-8.01667E-5,-3.5565102E-3,-1.5235497E-3,1.345395E-4,-2.3717876E-3],"categories":[],"categories_nodes":[],"categories_segments":[],"categories_sizes":[],"default_left":[0,0,0,0,0,0,0,0,0,0,0,0,0,0,0,0,0,0,0,0,0,0,0,0,0,0,0,0,0,0,0,0,0,0,0,0,0,0,0,0,0,0,0,0,0,0,0,0,0,0,0,0,0,0,0,0,0,0,0],"id":23,"left_children":[1,3,5,7,9,11,13,15,17,19,21,23,25,27,29,31,33,35,37,-1,39,41,43,45,47,49,51,-1,53,55,57,-1,-1,-1,-1,-1,-1,-1,-1,-1,-1,-1,-1,-1,-1,-1,-1,-1,-1,-1,-1,-1,-1,-1,-1,-1,-1,-1,-1],"loss_changes":[5.0226797E2,3.273985E2,1.2362485E2,1.2553467E2,8.204257E1,3.1358953E1,7.89668E1,2.48703E1,7.7352875E1,4.2661217E1,5.750385E1,1.9073193E1,3.9960564E1,4.4021255E1,8.330945E1,4.986168E0,2.2434235E1,2.5467102E1,5.692099E1,0E0,1.6913742E1,4.312706E1,2.4916557E1,2.2656736E1,1.3445599E1,1.9616413E1,4.2813942E1,0E0,2.5381424E1,4.1385742E1,3.0029537E1,0E0,0E0,0E0,0E0,0E0,0E0,0E0,0E0,0E0,0E0,0E0,0E0,0E0,0E0,0E0,0E0,0E0,0E0,0E0,0E0,0E0,0E0,0E0,0E0,0E0,0E0,0E0,0E0],"parents":[2147483647,0,0,1,1,2,2,3,3,4,4,5,5,6,6,7,7,8,8,9,9,10,10,11,11,12,12,13,13,14,14,15,15,16,16,17,17,18,18,20,20,21,21,22,22,23,23,24,24,25,25,26,26,28,28,29,29,30,30],"right_children":[2,4,6,8,10,12,14,16,18,20,22,24,26,28,30,32,34,36,38,-1,40,42,44,46,48,50,52,-1,54,56,58,-1,-1,-1,-1,-1,-1,-1,-1,-1,-1,-1,-1,-1,-1,-1,-1,-1,-1,-1,-1,-1,-1,-1,-1,-1,-1,-1,-1],"split_conditions":[3.0004883E-1,1.8261197E-4,4.2351363E-3,2.5102713E-3,4.672897E-3,-1.9327593E-1,2.3408795E-3,6.813707E-4,4.927883E-2,6.5455417E-4,1E0,9.098979E-2,1E0,6.5455417E-4,1E0,-8.846048E-4,-2.419219E-1,-4.2432126E-2,1.2963442E-3,-1.3443587E-2,1.8926059E-3,3.2561505E-3,7.345342E1,-4.179755E-4,-2.9992676E-1,1.4280732E-1,9.9975586E-2,-1.6063243E-2,6.702855E1,3.0517392E-3,6.194773E-1,1.491372E-2,9.550904E-3,4.1919653E-3,7.5442777E-3,2.7811679E-3,6.1692437E-3,-5.9866905E-3,1.8599755E-3,-4.4112857E-3,-1.8390556E-3,1.7764438E-3,-1.6396118E-3,1.5270392E-3,7.145428E-3,6.873613E-3,-2.69683E-3,3.028719E-3,8.037951E-3,-4.4172755E-4,2.1308253E-3,7.895846E-3,-2.7435445E-3,-5.749136E-3,-8.01667E-5,-3.5565102E-3,-1.5235497E-3,1.345395E-4,-2.3717876E-3],"split_indices":[5,0,58,58,57,41,57,58,34,57,60,4,59,57,60,16,45,41,57,0,40,58,25,0,11,4,24,0,25,33,5,0,0,0,0,0,0,0,0,0,0,0,0,0,0,0,0,0,0,0,0,0,0,0,0,0,0,0,0],"split_type":[0,0,0,0,0,0,0,0,0,0,0,0,0,0,0,0,0,0,0,0,0,0,0,0,0,0,0,0,0,0,0,0,0,0,0,0,0,0,0,0,0,0,0,0,0,0,0,0,0,0,0,0,0,0,0,0,0,0,0],"sum_hessian":[2.30765E4,1.2583159E4,1.0493342E4,7.915214E3,4.667946E3,2.4182737E3,8.075068E3,9.452769E2,6.969937E3,1.2702986E3,3.397647E3,4.0623248E2,2.0120411E3,7.3785065E2,7.3372173E3,7.6834915E1,8.6844196E2,1.0024735E3,5.9674634E3,4.11643E1,1.2291344E3,2.3186997E3,1.0789473E3,1.369285E2,2.69304E2,1.2816788E3,7.303623E2,4.0528557E1,6.973221E2,4.683747E3,2.65347E3,3.302436E1,4.3810555E1,4.7702792E2,3.9141406E2,3.928425E2,6.09631E2,1.0120786E2,5.8662554E3,4.1606238E2,8.1307196E2,5.1002997E2,1.8086698E3,9.859887E2,9.2958534E1,3.61511E1,1.007774E2,1.8557648E2,8.372751E1,5.994804E2,6.821984E2,4.3246624E1,6.8711566E2,5.9821094E2,9.911117E1,3.0013738E3,1.6823733E3,1.9549764E3,6.984936E2],"tree_param":{"num_deleted":"0","num_feature":"63","num_nodes":"59","size_leaf_vector":"1"}},{"base_weights":[3.408131E-3,1.061695E-1,-2.0496115E-1,2.1852718E-1,-6.151712E-2,-4.1794378E-1,-1.3116448E-1,3.1013408E-1,3.9512604E-2,-2.682104E-1,2.0318057E-2,4.4142134E-2,-4.619243E-1,7.1262285E-2,-1.912146E-1,1.5670829E-1,3.889523E-1,2.181418E-1,-4.2858515E-2,-1.3547709E-2,-2.3748173E-1,-2.8832804E-2,2.9417852E-1,2.4384181E-1,-2.7535543E-1,-1.7660089E-1,-5.187154E-1,9.066851E-3,3.514819E-2,2.1276342E-2,-2.531092E-1,2.6381803E-3,-7.3895254E-4,7.313535E-3,3.6069585E-3,5.593358E-3,1.6207083E-3,-1.5761759E-3,1.3410562E-3,-2.9574619E-3,1.6230505E-3,5.1795067E-3,-5.457319E-4,8.7974285E-4,4.5898515E-3,5.600911E-4,6.9486033E-3,-6.850571E-3,1.0010797E-3,-3.599654E-3,6.63144E-4,-6.1131716E-3,-2.6703272E-3,4.797358E-3,4.6458594E-5,-5.064829E-4,4.4096312E-3,-3.500516E-3,-6.416315E-4],"categories":[],"categories_nodes":[],"categories_segments":[],"categories_sizes":[],"default_left":[0,0,0,0,0,0,0,0,0,0,0,0,0,0,0,0,0,0,0,0,0,0,0,0,0,0,0,0,0,0,0,0,0,0,0,0,0,0,0,0,0,0,0,0,0,0,0,0,0,0,0,0,0,0,0,0,0,0,0],"id":24,"left_children":[1,3,5,7,9,11,13,15,17,19,21,23,25,27,29,31,33,35,37,-1,39,41,43,45,47,49,51,-1,53,55,57,-1,-1,-1,-1,-1,-1,-1,-1,-1,-1,-1,-1,-1,-1,-1,-1,-1,-1,-1,-1,-1,-1,-1,-1,-1,-1,-1,-1],"loss_changes":[4.9336853E2,2.9073724E2,1.1961026E2,1.5152563E2,1.04723495E2,3.979895E1,6.870379E1,7.391083E1,4.6022858E1,5.597213E1,5.9700886E1,1.0863448E1,2.8970856E1,3.7478832E1,5.7328156E1,4.6126896E1,5.2695923E1,1.9620113E1,4.0179382E1,0E0,3.1951126E1,4.7187355E1,2.0939663E1,8.469728E0,9.375482E0,1.2163286E1,2.7458282E1,0E0,1.6214151E1,2.782485E1,5.4406494E1,0E0,0E0,0E0,0E0,0E0,0E0,0E0,0E0,0E0,0E0,0E0,0E0,0E0,0E0,0E0,0E0,0E0,0E0,0E0,0E0,0E0,0E0,0E0,0E0,0E0,0E0,0E0,0E0],"parents":[2147483647,0,0,1,1,2,2,3,3,4,4,5,5,6,6,7,7,8,8,9,9,10,10,11,11,12,12,13,13,14,14,15,15,16,16,17,17,18,18,20,20,21,21,22,22,23,23,24,24,25,25,26,26,28,28,29,29,30,30],"right_children":[2,4,6,8,10,12,14,16,18,20,22,24,26,28,30,32,34,36,38,-1,40,42,44,46,48,50,52,-1,54,56,58,-1,-1,-1,-1,-1,-1,-1,-1,-1,-1,-1,-1,-1,-1,-1,-1,-1,-1,-1,-1,-1,-1,-1,-1,-1,-1,-1,-1],"split_conditions":[3.9994365E-1,1.2146688E-4,4.3200436E-3,2.4003907E-1,4.7492804E-3,-6.691306E-1,-3.5225705E-4,5.0036196E-4,4.894609E-3,6.5455417E-4,3.3320803E-3,5.7478943E1,2.9410498E1,1.0290896E-3,3.868201E-4,8.9255863E-1,-5.547459E-2,1.7074111E-3,1E0,-1.3547709E-2,1.0840174E0,1.6313158E-3,9.352018E-2,1.3700378E-4,1.0499268E0,-4.1043815E-5,4.2034456E-4,9.066851E-3,2.3601732E-4,6.0252964E1,1E0,2.6381803E-3,-7.3895254E-4,7.313535E-3,3.6069585E-3,5.593358E-3,1.6207083E-3,-1.5761759E-3,1.3410562E-3,-2.9574619E-3,1.6230505E-3,5.1795067E-3,-5.457319E-4,8.7974285E-4,4.5898515E-3,5.600911E-4,6.9486033E-3,-6.850571E-3,1.0010797E-3,-3.599654E-3,6.63144E-4,-6.1131716E-3,-2.6703272E-3,4.797358E-3,4.6458594E-5,-5.064829E-4,4.4096312E-3,-3.500516E-3,-6.416315E-4],"split_indices":[5,0,57,5,57,45,16,6,58,57,40,25,27,58,6,30,34,58,60,0,34,58,12,14,10,8,16,0,22,25,60,0,0,0,0,0,0,0,0,0,0,0,0,0,0,0,0,0,0,0,0,0,0,0,0,0,0,0,0],"split_type":[0,0,0,0,0,0,0,0,0,0,0,0,0,0,0,0,0,0,0,0,0,0,0,0,0,0,0,0,0,0,0,0,0,0,0,0,0,0,0,0,0,0,0,0,0,0,0,0,0,0,0,0,0,0,0,0,0,0,0],"sum_hessian":[2.3041271E4,1.5431129E4,7.610143E3,9.2399375E3,6.191191E3,1.9582662E3,5.6518765E3,6.112148E3,3.12779E3,1.7559799E3,4.4352114E3,1.7018636E2,1.78808E3,1.2930492E3,4.3588276E3,2.0743591E3,4.0377886E3,9.871039E2,2.140686E3,5.0467148E1,1.7055127E3,3.7603582E3,6.748531E2,1.0473281E2,6.545354E1,2.9684726E2,1.4912327E3,5.5639996E1,1.2374092E3,9.832492E2,3.3755784E3,1.4526119E3,6.2174725E2,4.6693048E2,3.5708582E3,1.596391E2,8.274648E2,1.310394E3,8.3029193E2,1.5218004E3,1.8371228E2,1.6191643E2,3.5984417E3,2.7969736E2,3.9515573E2,7.246727E1,3.226554E1,3.2147648E1,3.3305893E1,1.7376875E2,1.23078514E2,1.1745107E3,3.16722E2,8.2849434E1,1.1545598E3,8.378257E2,1.4542352E2,2.3432065E3,1.0323717E3],"tree_param":{"num_deleted":"0","num_feature":"63","num_nodes":"59","size_leaf_vector":"1"}},{"base_weights":[-9.9426485E-5,1.2175841E-1,-1.8213953E-1,2.4533789E-1,-5.235229E-2,-3.5843068E-1,-9.772866E-2,3.713531E-1,1.4857228E-1,-1.4543732E-1,1.0673254E-1,-2.4014024E-1,-4.8475918E-1,3.0621335E-1,-1.2046788E-1,7.3474276E-1,3.299525E-1,3.278531E-1,9.1948435E-2,-1.9807014E-1,1.291933E-1,-3.9257392E-1,